nep4_zbl 1 C 
zbl 1.25 2.5
cutoff 10 8 86 18
n_max 4 4
basis_size 12 12
l_max 4 2 0
ANN 150 0
 -3.2204930e-02
  1.4359404e-02
  1.3616148e-03
  7.0340805e-02
  1.1509608e-01
 -1.4557627e-01
  6.0748281e-03
  8.4737428e-02
 -1.7647073e-01
  2.6614311e-01
  5.3571664e-02
 -1.0632509e-01
 -1.3639269e-02
  3.2221865e-02
  3.8609285e-02
  5.3555425e-02
 -2.7596636e-02
 -5.4411318e-02
 -3.9567221e-02
 -7.5941929e-03
 -5.7583679e-02
 -7.8241609e-02
  6.3734911e-02
 -6.7152314e-02
  4.2822074e-02
  1.6807830e-02
 -4.4847265e-02
 -4.3434858e-02
  2.8769812e-03
  5.7990212e-02
 -8.4746309e-02
 -5.3013273e-02
  5.3648744e-02
  2.1173543e-01
 -6.8914592e-02
  1.2922508e-01
 -2.5904345e-04
 -3.1765535e-02
  9.1803953e-02
 -1.5568814e-01
 -1.0508863e-01
  1.1727607e-01
 -2.9289275e-02
  2.3529204e-03
 -1.2952708e-01
 -8.2184680e-02
 -3.4288242e-02
 -3.4801334e-02
 -9.3181320e-02
  2.6326483e-01
  3.7856214e-02
  8.1437603e-03
 -2.4082357e-02
 -3.3038426e-02
 -5.5932254e-02
 -1.0531505e-02
 -2.4908617e-02
 -1.2842351e-01
  5.6212265e-02
  5.1318337e-03
  1.5702417e-02
 -6.7402534e-02
 -1.2055230e-01
  3.2837618e-02
 -1.4463256e-02
 -9.1367610e-02
  7.4550472e-03
  9.3745850e-03
 -1.2733601e-02
  1.9480027e-02
 -3.4694400e-02
  1.0120753e-03
 -9.6611939e-03
 -9.9499729e-03
 -3.1606036e-03
 -6.0210519e-02
 -1.4417305e-02
 -2.6702393e-02
  5.1773690e-02
  1.1866256e-02
  8.6555853e-02
  5.8857324e-03
  6.3967213e-02
 -1.5910204e-03
  2.1465263e-01
 -3.4539294e-03
  4.2527486e-02
  1.8241751e-03
  5.4748967e-02
 -5.2118623e-03
 -1.8347766e-02
 -3.2075606e-02
  2.2672009e-02
  7.3406078e-02
  1.0444496e-01
 -3.6778080e-03
  1.8591341e-02
 -1.9125031e-02
  4.3792058e-02
  5.0016601e-02
  1.6370956e-02
  2.5748340e-02
 -2.1363111e-02
 -2.1266600e-02
  9.8289646e-02
 -1.7727349e-02
 -1.9458340e-03
 -1.9729879e-02
  1.7747440e-03
  5.2234434e-02
  4.8797436e-02
  3.5443343e-02
 -1.5721783e-02
 -8.8820226e-02
  4.5050405e-02
 -1.1466999e-01
 -2.6237268e-02
  9.0892678e-03
  9.7985417e-03
 -2.2882463e-02
 -5.6515940e-02
  1.9610589e-02
  5.6965102e-02
 -1.0073267e-01
 -1.3384280e-01
  4.9352147e-02
  2.2083405e-02
 -4.8278615e-02
  1.7497155e-01
 -7.6203062e-03
 -3.6066566e-02
  2.2872226e-02
 -8.2489677e-02
 -8.9120604e-02
  2.5245480e-02
  2.0046688e-04
  1.2989788e-03
  1.0809296e-01
  1.1686362e-01
  1.0683670e-02
 -9.0612322e-02
 -8.7028228e-02
 -1.8608357e-01
 -1.6910600e-02
  2.2747176e-02
 -3.9415229e-03
 -4.4572949e-02
 -2.3885928e-02
 -2.9077018e-02
  1.0989147e-02
 -2.6967925e-01
 -4.7414324e-01
 -6.8129964e-02
  5.5711693e-01
  1.3942508e-01
  1.5315756e-01
  8.8994688e-01
 -1.7423548e-01
  6.5564781e-01
  3.3788520e-01
  8.1695981e-02
  5.4540092e-01
  3.0479440e-01
  1.1344578e-01
 -1.2141134e-01
 -7.5087607e-01
 -9.3736464e-01
  4.8096109e-02
  1.9907559e-01
  5.6722227e-02
  6.0151887e-01
  6.8195659e-01
  7.6599395e-01
  3.0870822e-01
  7.5262345e-02
  3.2911677e-02
 -9.7639011e-03
  2.6818180e-01
 -4.1649526e-01
  1.2999826e-02
 -1.1847284e-01
 -1.4577870e-01
  5.7448917e-03
  7.6431464e-03
 -7.0564516e-02
 -1.1807756e-02
  3.1489596e-02
  7.1899280e-02
  1.3807535e-01
  1.2921633e-02
 -3.0489892e-02
  7.9740010e-02
  5.5115148e-02
  4.6847850e-02
  2.2169808e-02
 -6.6569746e-02
 -2.0467213e-01
 -6.4915761e-02
  1.0362497e-01
 -2.2601096e-02
  9.3565330e-02
 -4.9501244e-02
  2.3744713e-01
 -1.0699370e-01
 -2.0668045e-02
 -1.9095671e-01
  4.0873639e-02
  1.6059197e-02
  5.3137750e-03
 -1.7176247e-01
  4.6417948e-02
  4.6235938e-02
 -6.2738039e-02
  5.1662605e-02
  6.0905956e-02
  8.5201249e-02
  4.1858185e-02
 -7.9400681e-02
  5.1455878e-02
  5.5821896e-02
 -5.4225340e-03
 -1.4908342e-01
  4.9703207e-02
 -2.8313030e-02
  5.2622955e-02
  5.7896070e-02
 -2.6413010e-02
 -6.6734999e-02
  1.6607134e-02
 -1.1049755e-01
 -2.7139722e-05
 -5.4478001e-02
  1.0469143e-01
  1.2854289e-01
 -2.1415880e-02
  3.3335131e-02
 -9.7089797e-02
  9.1242813e-02
  8.3772168e-02
 -1.8209483e-01
 -1.8580973e-01
 -2.2297934e-01
 -1.2894521e+00
  1.2596095e-01
 -6.8409048e-02
  1.5372508e-02
  7.7928498e-02
  1.5042113e-01
  1.9562484e-01
  4.2442429e-01
 -2.4394868e-02
 -1.2570417e-03
 -8.2340777e-02
 -6.4379819e-02
 -5.4563456e-03
 -1.6078348e-01
 -2.1738546e-01
  3.3932477e-03
  2.9038554e-01
  1.2903817e-02
  1.0106376e-01
  8.0750823e-02
  7.7397779e-02
 -1.3038509e-02
 -2.3200294e-02
  2.2006251e-02
  9.2595816e-03
  4.8711974e-02
 -3.6887616e-02
 -1.2887845e-02
  4.0734936e-02
  3.1287123e-02
 -8.8182278e-02
  5.9585467e-02
  5.4788277e-02
  1.4195055e-01
 -2.5042724e-02
 -3.7418213e-02
 -5.4975640e-02
 -7.9078242e-02
  3.5317760e-02
 -1.3022511e-01
 -1.3527435e-01
 -9.2580438e-02
  1.9652141e-02
  4.3734539e-02
 -1.5435930e-03
  7.9985581e-02
  4.1248780e-02
 -4.2835124e-02
  7.3141180e-02
  4.6824440e-02
 -4.6839077e-02
  3.2499276e-02
  5.1235780e-02
 -3.9455414e-02
  3.3071790e-02
  1.1864068e-02
  3.6798166e-03
  8.3731644e-02
 -2.5019061e-02
 -5.4496229e-02
 -2.2772551e-02
  7.6036705e-03
  4.0308379e-02
 -1.2215618e-01
  1.0719653e-02
 -1.7284859e-02
 -1.5967974e-01
  1.0927032e-01
 -4.9328744e-02
 -5.1895525e-02
 -1.0602455e-02
 -1.0655156e-02
 -9.9264175e-02
 -7.1162112e-02
 -3.6714610e-02
 -6.0437176e-02
 -1.1965002e-02
  3.3401363e-02
 -4.3658833e-03
 -1.1951988e-01
  8.5289374e-02
  1.8728510e-02
  1.8792927e-03
 -3.3567429e-02
 -3.0409746e-02
 -2.6192930e-02
 -8.9578696e-02
 -6.7859612e-02
 -5.1497847e-02
  4.2030126e-02
  7.2348081e-02
  5.8514331e-02
  5.7717837e-02
 -8.9184570e-05
  3.3256818e-02
 -2.0369617e-02
  9.3646705e-02
  2.5989808e-02
 -6.5158986e-02
 -6.3701734e-02
  1.4179765e-01
 -9.6692882e-02
  4.3981057e-02
 -2.3380660e-02
  2.4569314e-02
 -8.4503792e-02
  1.8433362e-02
 -1.0398155e-02
 -1.2125256e-02
 -8.3522005e-03
  6.9834329e-02
 -1.2654008e-02
 -3.1538315e-02
 -4.9268283e-02
  1.8611881e-01
  2.2483977e-02
 -6.9081150e-02
 -7.1887583e-02
 -2.6691088e-02
  5.0699480e-02
 -2.4772922e-02
  9.5080256e-02
 -9.4501637e-02
 -6.4394683e-02
 -1.0939883e-01
  1.3301185e-02
  1.4830169e-01
 -1.6281523e-01
 -4.1490991e-02
 -1.3341807e-01
 -9.9606244e-03
 -5.8286369e-02
  3.6545116e-02
  1.0417186e-02
  3.6267971e-04
 -1.7001167e-01
 -2.8594065e-04
 -8.6548500e-02
 -1.5164109e-02
  2.2656913e-03
  5.5295054e-02
 -2.5161742e-03
 -8.4643386e-02
 -2.1265276e-02
  3.5869330e-02
 -8.8634379e-02
  1.0689630e-01
  2.9160826e-02
  9.1863923e-02
  3.4629801e-01
 -1.2434361e-02
 -7.9416305e-02
 -5.0874978e-02
  1.4876664e-02
 -6.5319757e-03
  2.8798595e-02
 -4.0193546e-01
 -3.5496816e-02
 -4.8996922e-02
 -3.2600251e-01
 -8.1363246e-03
 -2.8100027e-02
 -3.2554515e-02
  5.6231397e-01
  1.0727806e-01
 -3.5080478e-02
 -5.0879723e-01
 -6.3750856e-02
 -5.4737628e-01
 -1.7891896e-01
 -2.8352135e-01
  4.9815025e-02
  5.7282560e-03
  8.9170285e-02
 -6.2989019e-02
 -1.0539403e-01
  1.9226225e-02
  1.2374126e-02
  5.6164172e-02
  6.3345060e-02
  7.8540973e-02
  7.2771064e-03
  7.1380153e-02
  1.5342088e-03
 -3.1717699e-02
  2.0340353e-01
 -6.5864017e-03
  2.9296684e-03
  4.4694740e-02
 -2.3537941e-02
 -3.9675445e-03
  1.6994454e-02
  2.4875103e-02
 -7.4463949e-02
 -1.9804468e-02
 -4.1875374e-02
 -6.2997169e-03
 -4.5020647e-02
 -1.5300103e-01
  1.7552927e-01
  2.1706985e-02
  1.4156468e-02
  6.2284414e-02
  4.4804551e-02
  3.2254707e-02
 -1.1891851e-01
  9.3009118e-03
 -8.3252959e-02
 -3.7634309e-02
  1.5859653e-01
  1.0930116e-01
 -4.9230028e-02
 -2.5216615e-02
 -3.5405185e-02
  5.7743970e-02
  3.1687878e-02
 -4.8010293e-02
  1.9011945e-02
  6.8139201e-03
 -2.2781532e-02
  2.6441196e-02
 -5.2871868e-02
  1.0032231e-01
  6.3292459e-03
  2.3039147e-02
  1.0694258e-01
  3.8909957e-02
  8.4070422e-02
  7.5225323e-02
 -1.2364917e-03
 -7.2294079e-02
 -2.2696517e-02
  4.7282446e-02
 -7.8330725e-02
 -1.6422752e-01
  1.0768174e-01
  4.0530330e-03
 -7.9582416e-02
  8.0701165e-02
  7.0222065e-02
  1.0489823e-01
  1.1392661e-02
 -6.6699520e-02
  2.4730422e-02
 -4.7234561e-02
 -4.8187532e-02
 -3.1475347e-02
 -6.9904178e-02
 -1.8791485e-01
 -9.7901940e-02
 -3.0323669e-02
 -2.0350179e-02
  1.3014641e-01
  3.4713782e-02
  2.8664714e-02
 -8.6604608e-03
  1.6546365e-02
  5.5726968e-02
 -1.6854160e-02
  2.4677219e-02
 -1.4716772e-02
  4.5555044e-02
  1.3743419e-02
  8.9348592e-02
 -8.2135446e-02
 -5.9981463e-03
  3.5840377e-02
 -7.5455889e-02
  5.2937258e-02
 -2.4420146e-02
  1.4278390e-02
 -1.1091496e-02
 -4.7815897e-02
  4.6550021e-02
 -3.3868801e-02
  2.4752732e-02
  1.4785590e-02
  6.2827975e-03
  1.3508299e-01
 -1.5690769e-01
  2.3440218e-02
 -9.3777530e-02
 -9.8451495e-02
  3.2368377e-02
  1.2115338e-02
 -6.0220025e-03
  3.3302456e-02
 -1.3355319e-01
 -1.8763575e-01
  1.8099470e-01
  2.4793131e-02
  6.0803015e-02
  7.5111501e-02
  7.0962064e-02
 -9.0740509e-02
  1.1792807e-02
 -1.4012890e-01
 -7.3012516e-02
  7.6576926e-02
  7.1515576e-03
  4.3094683e-02
  6.5165311e-02
  9.2986017e-02
 -5.5726930e-02
  1.9412104e-02
  6.4482152e-02
  2.3803473e-02
  8.0629643e-03
 -2.9059771e-02
 -1.2170043e-01
 -5.2165277e-02
 -9.5658451e-03
  4.2077880e-03
 -8.4956095e-02
 -5.6051888e-02
  5.9297141e-02
  1.0756510e-02
 -5.8268275e-02
 -9.0935566e-02
  1.2600467e-01
  2.2265086e-02
 -1.1231991e-01
  4.1648820e-02
  8.7971784e-02
 -2.1933580e-02
  1.8468926e-03
  4.2968173e-02
  1.7002445e-02
 -1.6792716e-02
  6.1836932e-02
 -1.5797122e-01
  3.2643460e-02
  1.9446358e-02
 -7.2462142e-02
 -2.0503860e-02
  9.6710615e-02
  3.3313315e-02
  6.4773552e-02
 -5.3647958e-02
 -7.6254107e-02
  4.8108615e-02
 -9.8661929e-03
 -1.7249992e-02
  9.5092744e-02
 -1.5708040e-02
 -4.9457114e-02
 -6.1858512e-02
 -7.7279396e-02
  3.8396548e-02
  7.0182897e-02
  1.5620844e-02
 -3.0533826e-02
 -1.1472572e-01
  3.3413738e-02
 -1.2437493e-02
 -1.9997704e-01
 -5.2200290e-03
 -1.1087621e-01
  2.1461999e-01
 -1.9575799e-02
 -1.4341760e-02
 -1.3379265e-01
  3.1874548e-03
 -1.2393209e-01
  8.6087845e-03
 -5.0485589e-02
  2.0744253e-02
 -4.1859124e-02
 -8.0678292e-02
  8.9534782e-02
 -8.3923794e-02
 -1.5182772e-01
  1.0245432e-02
  2.6402919e-02
  6.1726026e-02
 -1.6272301e-02
 -4.0406533e-02
 -1.3255583e-01
  2.7083682e-02
 -4.2626716e-02
 -7.9346318e-03
 -5.0079275e-02
  2.9873975e-02
 -1.0895914e-01
  7.5138207e-03
  6.7087285e-02
  2.7023584e-02
 -5.9114370e-02
  2.2650380e-02
  1.3555026e-01
  7.5869046e-02
  5.0448056e-02
  3.0094177e-02
  3.2585140e-02
 -4.7810517e-02
  7.6062337e-02
 -8.3013900e-02
 -5.6297794e-02
 -1.3751968e-02
  1.3419856e-01
  6.3276693e-02
  3.7777692e-02
 -1.1856151e-01
  2.6555859e-02
  2.9465921e-02
  1.4765306e-01
  2.4025270e-03
 -2.4791230e-03
  8.2633749e-02
  6.1022624e-02
 -2.9654583e-01
 -1.0075074e-02
 -1.1962305e-01
  2.3900690e-03
  3.8117636e-02
  8.9593351e-02
  1.5169915e-02
  1.3680658e-01
 -9.2930289e-04
  8.5510634e-02
  2.7978127e-03
  5.6463212e-02
 -4.3573804e-02
  1.1044417e-01
 -2.0409707e-02
  8.5818864e-02
  9.2762135e-02
 -3.6611143e-02
 -1.2216481e-02
  3.3125356e-02
 -4.4685289e-02
  1.3429787e-02
  1.6820918e-01
  7.0674993e-02
 -7.2102956e-02
  9.4031906e-03
 -1.4728343e-02
  2.8807463e-02
 -1.4005484e-02
  2.4803208e-02
  1.3862331e-02
 -7.0585750e-02
 -3.4981929e-02
 -3.1941980e-01
 -6.2062979e-02
 -3.8709413e-02
 -3.0416625e-02
  1.3807739e-02
 -2.8390948e-02
  5.8102205e-02
 -1.7281129e-03
  1.2572578e-01
  2.0036316e-02
  1.1203653e-01
  1.8452908e-01
 -2.5371471e-02
  8.9588284e-02
  2.7502848e-02
 -4.9585398e-02
  5.0500710e-02
  8.0727927e-02
  1.4789199e-02
 -3.0555887e-02
 -7.7688850e-02
 -1.3737783e-01
 -3.1792659e-02
  2.1753150e-01
  7.2705135e-02
  4.2819630e-02
  1.0078758e-01
  7.2558401e-03
 -1.4464009e-02
  1.9514810e-02
  4.3386952e-03
 -1.7361116e-01
 -7.3841512e-02
 -4.0867276e-02
 -5.5845615e-02
 -5.3514928e-02
 -8.4669724e-02
  1.6955126e-02
  1.2769546e-02
  2.2330072e-02
  1.5622802e-02
  2.2342652e-01
 -4.7798105e-02
 -6.8275665e-04
  2.5314569e-02
 -4.4539716e-02
  6.0635522e-02
 -6.5503322e-02
  8.8355042e-02
  4.6041477e-02
  5.1172264e-03
  9.2346154e-02
  1.0978500e-01
  1.4775206e-01
  2.1113878e-02
  2.5351301e-02
  8.5327744e-02
 -2.7867544e-02
  1.3379559e-02
 -3.4235395e-02
 -2.8195679e-02
 -3.0925319e-02
  3.8483129e-03
  1.0816794e-01
 -2.1474560e-04
  7.3924445e-02
  5.0318900e-02
  1.0366081e-01
 -5.5061234e-03
  6.4649411e-02
  8.4897503e-02
 -4.7139946e-02
 -1.6536111e-02
 -6.1722435e-02
 -5.7425514e-02
  2.6241777e-02
 -1.4230812e-01
 -4.1328173e-02
  3.8639445e-02
 -5.9708685e-02
 -4.8129042e-03
 -1.4050942e-03
  6.3893624e-02
  2.0007838e-01
  3.4722209e-04
 -6.5316617e-02
  2.7290950e-02
 -6.0129616e-02
 -5.1982649e-02
 -1.0756345e-02
 -7.5912856e-02
 -2.9310191e-02
  8.1950601e-04
  1.6115443e-01
  1.0782676e-01
  5.3060357e-02
  2.0065135e-01
 -1.9476676e-02
  1.7445523e-02
 -4.5098506e-02
 -2.6922034e-02
 -7.2450317e-03
 -7.2385147e-02
  1.0513435e-01
  1.2479131e-01
  3.0100460e-03
 -4.7723219e-02
 -6.3701674e-02
  2.5501150e-01
  4.0065814e-02
  6.6755004e-02
  1.5779128e-02
 -1.3231900e-01
 -1.8829698e-02
  2.3957411e-02
 -9.6858695e-02
 -1.5053090e-02
 -1.0689325e-02
 -4.6082698e-02
  8.2720198e-02
  7.0966631e-02
  4.6620857e-02
 -7.9039764e-03
 -5.6157395e-02
  2.1371983e-01
  2.0464968e-02
 -8.8002190e-02
 -1.5129451e-01
  1.6520774e-02
  1.3657393e-01
  5.8027793e-02
  2.1306586e-01
  7.4172966e-02
  5.8081105e-02
  5.7006326e-02
  8.7423161e-02
 -3.4861904e-02
  1.9869371e-03
  1.1045586e-01
 -2.1028848e-02
 -3.5311735e-01
 -3.2183942e-01
  5.3158581e-02
  2.8940272e-01
  1.0008115e-01
  2.4931395e-02
  1.7242640e-01
  2.0175438e-01
  5.7201553e-02
  1.0297168e-01
  7.5635104e-03
 -2.4341408e-02
  8.9565806e-02
 -2.8149934e-02
 -5.9349153e-02
  1.4922656e-01
  1.7567910e-01
 -1.6043706e-02
  1.0760444e-01
  9.0697687e-03
 -8.9373149e-02
 -6.8082444e-02
 -4.4942861e-03
  4.9903736e-02
  1.4943844e-02
 -8.7178312e-03
  6.5590903e-02
  1.6118841e-02
 -1.9349495e-02
  5.9112430e-02
  3.5821948e-02
 -5.8987018e-02
  1.5823808e-01
  8.9607738e-02
 -1.8089427e-02
  7.5861759e-02
 -9.8875590e-02
  5.3323627e-02
  1.9595359e-02
 -9.3204090e-03
  3.3615038e-02
  1.3383298e-01
  7.7609807e-02
 -2.2408893e-02
 -3.0201206e-02
 -3.4604054e-02
 -3.9223876e-02
  2.5764462e-03
  1.3438016e-01
  5.9374729e-03
 -1.1164554e-02
  6.4237356e-01
 -1.0069199e-01
  7.6036721e-02
 -4.6924490e-02
 -7.9536857e-03
  4.1550241e-02
  3.7804004e-02
  1.0075811e-01
 -5.1523909e-02
 -1.9725112e-02
  3.4330271e-02
 -1.7098671e-02
  5.3296324e-02
  1.5794301e-02
  4.8267329e-03
  1.6410756e-01
  6.8002231e-02
  3.5529241e-02
  1.3213362e-02
 -4.9989473e-02
 -7.8831956e-02
 -3.2693170e-02
 -1.0249616e-01
 -3.6033198e-02
 -2.2375133e-02
  1.3778111e-02
  1.3213120e-01
  5.2270681e-02
 -1.4855577e-01
  1.0079996e-01
 -5.9804041e-02
 -8.5988373e-02
 -7.0296987e-03
 -3.5504818e-02
 -3.1515114e-02
 -1.5193720e-02
 -4.4701360e-02
  9.9110588e-02
 -3.3154469e-02
  9.4093658e-02
 -3.6031112e-02
 -1.2243175e-02
 -5.7626907e-02
 -3.0895529e-02
  8.4266812e-03
 -3.4279376e-02
 -3.6107011e-02
 -1.7099730e-03
  1.2504287e-02
 -1.7956281e-02
 -4.2594645e-02
  5.7544231e-02
  1.0928731e-01
 -9.7941406e-02
  8.3056139e-03
 -4.1941181e-02
 -1.8753776e-02
  5.5504810e-02
 -1.3365333e-01
  1.1304327e-01
 -5.9723232e-02
 -9.4111159e-02
 -8.6105093e-03
  1.2284175e-01
 -1.2932899e-02
 -1.2165346e-01
  1.2649004e-01
 -4.7232576e-02
  8.8968374e-02
 -4.9250346e-02
  1.1072583e-01
  1.9574713e-02
 -1.2123117e-01
  1.3464373e-01
  4.6084300e-02
  1.3667148e-01
  6.1721426e-02
 -2.7682208e-02
 -5.0682366e-02
 -1.2932369e-03
 -3.9878176e-03
  5.3115074e-02
  5.3799279e-02
 -1.0386658e-03
  5.0543845e-02
  6.6038832e-02
 -8.2899205e-02
 -8.0486592e-03
  1.1165353e-03
 -1.1367084e-02
 -3.3529893e-02
  8.1567969e-03
 -2.9041333e-02
 -6.2534139e-02
 -8.9958727e-02
 -1.4951625e-01
  3.6393926e-02
 -1.9576844e-02
  1.8410137e-02
  7.9430573e-02
  9.1736488e-02
 -1.3011052e-01
 -1.2296881e-01
  9.5201232e-02
  5.3730417e-02
 -1.6240495e-01
 -3.2214981e-02
 -1.3507740e-02
 -8.4861226e-02
 -4.7291912e-02
 -8.7267933e-03
 -2.6166080e-02
 -9.2185680e-03
 -8.4497286e-03
  1.0168325e-01
 -3.4897365e-02
  1.1855346e-01
  5.4079060e-02
 -3.1386405e-02
 -6.6452408e-03
 -4.5101899e-03
  1.1786783e-02
  3.2327060e-02
  3.6477711e-02
 -5.1652875e-02
 -4.7664911e-02
  1.1918492e-01
  3.4259155e-02
  5.1106948e-02
 -1.0978789e-01
  7.7302210e-02
  3.4707546e-02
 -1.0108031e-01
  1.3273521e-01
 -3.6298744e-02
 -4.2353898e-02
  2.7634643e-03
  1.9715393e-02
  2.3226717e-02
  1.6410008e-02
  8.6657442e-03
 -1.4643975e-02
  1.7890681e-02
  1.5073418e-02
  9.0889305e-02
  1.5005483e-01
 -8.8372938e-02
 -7.6130427e-02
 -3.5064511e-02
  7.6077625e-02
 -2.6175916e-02
  2.2082297e-02
  1.0304364e-01
  3.4427039e-02
  7.6388687e-02
 -2.7384977e-03
  1.9670852e-02
 -4.8258848e-02
 -3.8673468e-02
 -9.5154062e-02
  3.7054956e-02
  5.1889237e-02
 -1.1101956e-01
  2.8361579e-02
 -6.7636818e-02
 -5.0773185e-02
  4.7446076e-02
 -8.7204874e-03
  6.4782009e-02
  5.5310011e-02
 -6.4964555e-03
 -2.3936464e-02
  1.2905158e-02
 -1.5442391e-01
  1.5910356e-01
  2.8459066e-01
 -9.1283247e-02
 -5.8621378e-03
 -1.0139075e-01
 -1.0955729e-02
  5.5748388e-02
  4.7320697e-02
 -7.8791678e-02
 -2.3121245e-02
 -1.3135666e-02
  1.0274661e-01
  1.3517857e-01
  3.6821362e-02
  1.4364854e-02
  4.9445856e-02
  1.8470702e-01
 -1.1022793e-01
 -3.0245709e-03
  3.9774358e-02
 -4.5517802e-02
  5.3130869e-02
  1.2609234e-01
  4.6768896e-02
  6.2781693e-03
 -2.2657758e-02
 -2.0688895e-02
 -6.4202972e-02
 -4.1901502e-03
  2.0906564e-03
 -8.3386814e-03
 -9.8523378e-02
 -1.0385633e-02
  1.4519894e-01
  1.6262966e-01
  2.4299476e-02
 -5.7623964e-02
  3.9923079e-03
 -5.0364457e-02
  1.6752660e-02
  9.0575442e-03
 -3.0225314e-02
  1.0037138e-02
 -6.0817283e-02
  4.9650516e-02
  1.0005742e-02
  1.1536144e-02
 -2.6100196e-02
 -3.6851317e-02
  1.2058296e-02
  8.3139740e-02
  2.1888712e-02
 -1.3765223e-01
  5.7198573e-02
  4.2297538e-02
 -4.1980657e-01
 -1.3495329e-01
  1.4197662e-02
 -1.5032523e-02
 -5.9352607e-02
  2.8686490e-02
  1.8893144e-01
  1.3217185e-02
  4.3069091e-02
  1.2933993e-02
  1.5075996e-02
 -4.4271179e-02
  1.3063167e-02
 -1.3636360e-02
 -5.8741923e-02
  8.2428113e-02
  1.0810883e-01
 -1.1299632e-02
 -9.7782508e-02
 -8.0038920e-02
  2.9223815e-01
  1.6770700e-01
  9.8595880e-02
 -1.4673550e-01
  5.5714250e-02
 -9.1712780e-02
  1.2449017e-02
 -4.8794568e-02
  9.0813257e-02
  2.6211012e-02
  3.4156799e-02
 -1.2492476e-01
  4.4417987e-04
  7.6394908e-02
 -1.3940535e-02
  5.4385427e-02
  5.6954302e-02
  6.7432836e-02
 -6.1404856e-04
  5.8991883e-02
  5.4827984e-02
 -2.2570292e-02
  5.0539788e-02
  2.7630536e-02
  4.6917837e-02
 -4.9064334e-02
  1.5047467e-01
 -5.0235331e-02
 -8.3698146e-02
  7.2626404e-02
  4.5856819e-02
  1.8309732e-01
  3.4663584e-02
 -4.9076077e-02
  4.3422993e-02
 -6.1727978e-02
 -4.8667856e-02
 -4.7494542e-02
  1.7356126e-02
  7.6494683e-03
  8.4972017e-02
  6.1150230e-02
  1.0321198e-01
  6.2793136e-02
 -4.2940710e-02
 -3.8600575e-02
 -3.4955908e-02
  8.9878561e-03
  2.0879255e-01
 -4.1927833e-02
 -5.7894220e-03
  1.8586798e-01
  9.1204613e-02
  4.1158944e-02
  6.5599076e-02
 -1.4167146e-01
 -5.6519359e-02
  1.6587831e-01
  1.5336319e-02
 -1.4268183e-02
 -9.1478333e-02
  3.8873609e-02
 -1.1592156e-01
 -4.7937814e-02
  4.1223530e-02
 -3.6172356e-02
  2.4046609e-03
 -8.5502222e-02
 -3.2842562e-02
 -2.0731287e-02
 -2.3528300e-01
 -6.8092151e-03
  1.5544108e-01
 -9.2814416e-02
  1.0702142e-01
 -1.2982202e-02
 -6.7387917e-03
 -1.7586794e-01
  2.6033578e-02
  1.4419600e-01
 -4.4751044e-02
  4.2834595e-02
  4.0623900e-02
 -8.3850190e-02
  6.1733663e-02
  5.4052211e-02
 -1.5383314e-02
 -1.0388981e-01
 -3.6960781e-01
 -4.3260001e-02
 -1.3926208e-01
 -9.8068118e-03
 -1.0915715e-01
  1.8328585e-01
 -1.8349195e-02
  3.2477975e-02
 -7.6121971e-02
  3.5793051e-02
  3.9642807e-02
  1.2040998e-01
 -7.8478195e-03
 -1.9082692e-02
 -2.5897014e-03
  8.3616473e-02
  6.6799834e-02
  1.0086088e-02
 -5.1294893e-02
  5.5869643e-02
  1.0354713e-01
  2.5007321e-02
  3.2080773e-02
  7.5909570e-02
  7.0256442e-02
 -1.2517833e-02
  4.2507611e-02
  4.1085485e-02
 -7.7764891e-02
  1.2210013e-01
  7.6738060e-02
 -9.6636131e-02
 -3.9575286e-02
  9.0477820e-03
 -1.6242735e-02
 -2.6969442e-03
  1.3434333e-01
 -3.6125712e-03
  1.6807561e-01
  3.4116492e-02
 -1.7923359e-02
 -4.6776090e-02
  1.8497514e-02
 -1.5882351e-02
  1.5495804e-01
 -1.4912743e-03
 -3.1439018e-02
 -5.8743930e-03
  5.9591100e-02
 -9.0852782e-02
  7.5072977e-03
  5.7746619e-02
 -3.7332594e-02
 -8.3453856e-02
 -1.0988360e-01
 -2.3503054e-02
  7.0827536e-02
  2.6583368e-02
 -3.9133195e-02
 -9.3406960e-02
  2.5864456e-02
 -1.7664831e-02
 -6.3519189e-03
 -8.7763891e-02
 -1.1534431e-01
  1.0630932e-01
  8.5822016e-02
 -1.7162053e-01
  5.5592388e-02
  1.2034672e-01
  3.2754891e-02
  6.0529134e-04
  2.4982097e-02
 -9.3708776e-02
  1.7490567e-01
  6.6292241e-02
  2.6039122e-02
  1.6685065e-02
 -7.7301413e-03
  5.1905587e-02
  6.3565627e-02
  2.9523348e-02
  1.2773478e-01
 -5.0155081e-02
 -2.4845207e-02
  6.3607790e-02
 -1.5302467e-01
  2.7672082e-02
  9.0706028e-02
  6.8123855e-02
  8.3818197e-02
  4.6336669e-02
  1.0913275e-02
 -2.4364350e-02
 -3.8247410e-02
  2.9636145e-02
  7.3054582e-02
  5.7607484e-03
 -3.4407782e-03
  2.3269253e-02
 -5.3226158e-02
  6.1730938e-03
  5.5530209e-02
 -5.7061564e-02
 -1.2190491e-01
  1.0000939e-01
 -2.3756733e-02
 -1.1610219e-02
 -1.6087029e-02
 -7.6056058e-03
 -2.3754631e-01
  1.9589551e-02
  4.0869813e-02
  2.1159555e-01
  1.2694073e-01
  1.0424989e-01
 -1.0541661e-01
 -1.3419487e-01
 -5.6938324e-02
 -1.0661161e-02
  3.2723511e-03
 -1.0263301e-01
  1.0870437e-01
  1.9725014e-01
 -9.6740015e-04
  3.0604789e-03
  2.4807845e-01
 -6.7918420e-02
 -2.0790532e-02
 -3.8848713e-02
 -2.7645247e-02
  1.6003110e-02
  1.8164987e-02
 -3.6796831e-02
  5.0227277e-02
 -1.3905936e-02
  6.6677421e-02
 -1.3144073e-01
  2.1313552e-02
 -2.6091207e-02
 -2.2747727e-02
  9.5100477e-02
  1.8769609e-02
 -1.0499758e-02
  1.7604250e-01
 -3.9312370e-02
  1.3632230e-01
  7.5548492e-02
  7.5649574e-02
  7.5257502e-02
 -2.0920053e-02
  1.4269768e-01
 -3.4940109e-02
 -4.1848078e-02
  9.3905956e-02
 -2.4122039e-02
 -4.5282561e-03
  3.6648590e-02
 -6.5295938e-03
  3.5379067e-02
 -5.3557985e-02
  4.5457114e-02
  2.2699058e-02
 -1.0397664e-01
 -1.2872647e-01
  4.3679416e-02
  6.1812561e-02
  2.4856633e-02
  3.2537231e-01
 -7.8590162e-02
 -2.6058087e-01
 -2.0171024e-03
  1.9256296e-02
 -3.3031827e-01
 -6.1343580e-02
 -1.0897883e-01
 -3.6684792e-02
 -2.6492673e-01
 -1.4389525e-02
 -1.8364599e-02
 -3.4696288e-02
 -5.0060108e-02
  1.8339489e-01
  2.9957074e-01
 -3.6358189e-02
 -5.6367552e-01
  7.6435641e-03
 -2.1549645e-01
 -5.1074466e-03
 -6.8834819e-02
 -1.6322270e-02
  2.1207443e-02
  5.0878956e-04
  1.7607803e-02
 -1.5586847e-01
  2.2663265e-02
  1.2594714e-02
 -2.7038282e-01
 -3.5091090e-01
 -9.1417558e-02
  3.5582218e-01
  2.0201111e-01
  2.9188395e-01
  6.3437544e-02
 -8.2095730e-01
  1.1663131e-01
  5.0450152e-01
 -2.9827697e-02
  3.0088270e-01
  1.9177184e-02
  5.0887901e-02
  1.4303514e-02
 -5.4745179e-01
 -6.5330434e-01
 -5.1084884e-02
  5.0191474e-01
  1.4198045e-01
  3.6058143e-01
  3.1298941e-01
  4.1303730e-01
  3.8243484e-02
  8.3526954e-02
 -1.2143622e-01
 -5.9671361e-02
  1.8082972e-01
 -2.8711680e-02
  1.4826129e-02
 -8.9763198e-03
 -5.5039465e-02
 -6.3300431e-02
 -1.9467417e-02
 -5.3863779e-02
 -5.8749199e-02
 -5.1730845e-02
 -1.2984951e-01
  7.5047493e-02
 -3.0435529e-02
 -3.3752088e-02
 -3.3035602e-02
 -9.0137817e-02
 -3.6373984e-02
 -1.1871777e-02
  2.3322094e-03
  1.5621414e-04
 -3.9219677e-02
 -1.3733602e-02
  9.0836801e-02
 -1.1723550e-02
  7.1373722e-04
  1.2460306e-03
 -2.6534921e-02
 -1.2990877e-01
 -3.4862082e-03
 -1.2839143e-01
 -1.6051410e-02
  7.9249918e-02
  2.1837052e-02
 -9.1879100e-02
  2.4220247e-02
 -8.6014748e-02
 -1.3007408e-01
 -1.1726904e-02
  3.6032185e-02
 -1.0189755e-02
 -6.7149490e-02
 -6.9749087e-02
 -4.0202554e-02
  5.7925344e-02
  1.8243808e-02
 -1.3133812e-03
  3.2589238e-02
 -2.2748126e-02
 -9.0754740e-03
 -5.4513916e-02
  1.0122367e-01
  3.1616226e-02
 -1.4459102e-02
  8.4148310e-02
  1.5860397e-02
 -1.5747461e-02
  2.6399218e-02
 -1.2697108e-01
  1.8239405e-02
  1.4054613e-01
 -4.6342175e-02
 -6.5435052e-02
  4.8839683e-03
 -5.6385364e-02
  8.2348213e-03
 -6.4659119e-02
  1.5194896e-01
 -2.3757914e-02
 -9.6024767e-02
  3.8040131e-02
 -1.0129587e-01
  2.5917512e-01
 -1.4242147e-02
  6.8193570e-02
 -1.1019443e-02
 -7.3128358e-02
  1.9644024e-02
  5.7019252e-02
 -1.3972685e-01
 -1.4329854e-01
 -6.1425131e-02
  2.8764578e-02
 -8.4787257e-02
 -8.1615254e-02
  1.4571755e-01
  3.0758439e-02
  8.1388421e-02
 -1.7054465e-02
  2.9419996e-02
 -5.4676306e-02
  3.0392868e-02
  4.6602972e-02
 -4.1471820e-02
 -1.4902467e-02
 -6.9214697e-03
 -7.1857059e-03
  3.4851540e-02
  9.4069123e-02
 -3.9540447e-02
  1.6811804e-01
  1.6881768e-02
  2.0515781e-02
  3.6099415e-02
 -1.0354158e-02
 -3.4439716e-02
  3.7541287e-03
 -5.9618756e-02
 -5.7955366e-03
  2.5176242e-02
  5.4307237e-02
  8.7745465e-02
  6.4155966e-02
  1.5075797e-02
 -7.4629776e-02
  1.6689105e-01
  6.8781316e-02
  2.4891193e-03
  6.4605437e-02
  6.7880720e-02
 -7.0158690e-02
  3.1181457e-02
  7.7377275e-02
 -1.6491739e-02
 -2.9490504e-02
  2.5093168e-02
 -1.5533216e-01
  2.1973539e-03
 -3.4916457e-02
 -3.1187862e-02
 -2.1463700e-02
 -7.4126177e-02
  8.7482125e-02
 -1.9992169e-02
 -1.7321314e-01
  2.0343605e-02
  3.5690684e-02
  1.3133341e-01
  1.5238823e-02
  1.4510384e-01
  1.2201276e-02
  9.0697757e-04
 -3.8261870e-03
 -1.7261077e-02
 -8.1694657e-03
 -7.5996384e-02
  5.8839973e-02
 -1.2477566e-01
 -6.3149236e-02
  6.2969014e-02
  1.1647315e-03
  7.3350705e-02
 -3.0786086e-02
  8.5738339e-02
  8.4709503e-02
  1.4251646e-01
 -5.6852810e-02
  2.8890895e-03
 -2.6781162e-02
  5.0481804e-02
 -3.6086015e-02
  5.7056090e-03
  4.9073407e-01
  4.2125992e-02
  8.6618096e-02
 -3.2676637e-02
  4.2619590e-02
  4.0594626e-02
  5.6722544e-02
  1.9808204e-01
 -6.4662918e-02
 -1.0182491e-01
 -1.5347829e-01
 -1.3641993e-02
 -7.9773583e-02
 -3.8338788e-02
  1.5878938e-02
  9.2062473e-02
 -1.1787169e-02
  1.1793082e-01
 -5.9700355e-02
 -1.5049353e-01
  3.3048004e-01
  9.4379976e-02
 -8.5777193e-03
 -1.5394768e-01
  7.2982058e-02
  4.5071732e-02
  5.9334497e-04
 -7.4338943e-02
  5.8976766e-02
  6.2745057e-02
  1.0236674e-03
 -4.6066880e-02
  4.3448567e-02
 -3.6086064e-02
  7.9932483e-03
 -5.1883854e-02
  4.6444800e-02
 -9.9073537e-02
 -4.5660794e-02
 -7.9296201e-02
  6.9464110e-02
 -3.1622957e-02
  2.7150536e-02
 -2.5648855e-02
  2.6191166e-02
  5.8754496e-02
  1.8050814e-02
  3.7723567e-02
  1.3267204e-01
 -7.6895557e-02
 -7.3425667e-03
  5.2195068e-02
 -7.0329867e-02
 -1.2479757e-03
  2.7603032e-02
  1.2920359e-01
  5.6949306e-02
  1.0784075e-01
  1.9276075e-02
  1.3615556e-01
 -4.8310027e-02
  6.8325728e-02
 -1.9048207e-02
  2.1220171e-01
 -5.8455776e-02
 -1.2876543e-02
 -1.7118683e-01
 -8.7770902e-02
 -4.4656739e-02
  2.5696633e-02
  6.7673154e-02
  2.2830111e-03
  9.4871514e-02
  6.5756314e-02
 -3.1050112e-02
  5.5883713e-02
  1.1116262e-01
  1.4864130e-01
 -9.4041474e-02
 -3.9866131e-02
 -2.6860628e-02
  3.2146320e-02
  9.3381749e-03
  2.0145757e-02
 -1.3687147e-01
  3.0180953e-02
  1.6692529e-02
  3.8953044e-02
 -9.7889028e-02
 -3.9964430e-02
 -6.7314744e-02
  4.6709371e-03
  3.8071580e-02
  1.4320056e-01
  3.7863933e-02
 -6.0077406e-02
 -4.3523185e-02
 -7.4668035e-02
 -1.1943971e-01
  1.3607882e-02
  6.5949716e-02
  5.7636242e-02
  3.1866275e-02
 -8.3146632e-02
  1.2865565e-02
 -2.4298668e-02
 -1.8410090e-01
  2.0464811e-01
 -6.1015856e-02
  2.2197800e-02
  4.7329985e-02
  5.6270182e-02
 -5.8578286e-02
  2.0578876e-01
  5.9659984e-02
 -1.4747434e-02
 -2.2675384e-02
 -3.9001595e-02
  7.0600949e-02
  1.0841632e-01
  2.4659986e-02
 -4.2961303e-02
  5.5416461e-02
  5.0933518e-02
  1.9295590e-01
  3.0364677e-02
  4.9051124e-04
 -7.0915684e-02
 -1.0951262e-01
  5.7235703e-02
  1.7665343e-01
 -6.1863619e-03
 -1.5471637e-02
 -1.5249856e-01
 -8.0302125e-03
 -7.1618380e-03
 -4.4289872e-02
 -1.3560347e-01
  1.5525336e-02
 -2.0391364e-02
 -1.9038675e-02
 -7.5709999e-02
  1.2425535e-02
 -6.1305240e-02
 -1.0394181e-01
  3.0498931e-02
  7.0053920e-02
 -3.2513119e-02
 -1.9826885e-01
 -6.2283687e-02
  7.6497711e-02
  7.4044555e-02
  2.8358635e-02
 -1.0941081e-01
  1.4547393e-01
  1.2452167e-01
  3.3610843e-02
 -9.2837945e-02
 -9.3080163e-02
 -1.4512299e-01
 -9.1012694e-02
  7.7702366e-02
 -4.0352918e-02
  5.5180341e-02
 -5.3415481e-02
 -7.7835210e-02
 -2.7506437e-02
  3.5898019e-02
  2.2535685e-02
 -1.2432477e-02
  1.1909650e-01
  2.6390143e-02
 -5.8766376e-02
  2.8348397e-02
  1.1918477e-02
  9.4730265e-02
  8.9452371e-02
 -4.0143758e-02
 -1.1564204e-01
 -1.9816851e-02
 -8.7731034e-02
 -4.9192220e-02
 -1.1402139e-02
  9.9820137e-02
  3.5236820e-04
 -4.1665651e-02
 -1.4946762e-01
  8.7752461e-02
 -6.9242120e-02
  1.8165506e-02
 -2.9829405e-02
 -2.2610195e-01
  1.3915202e-01
  1.0698151e-01
  1.6267208e-02
  6.5784857e-02
  6.6713378e-02
  4.4596985e-02
  6.8153523e-02
 -7.3144518e-02
 -1.3129305e-02
 -9.7933775e-03
 -3.2204129e-02
  2.7564881e-02
  5.2616429e-02
  4.0027965e-02
  6.3577138e-02
  8.8535603e-03
  3.1331450e-02
 -5.8020197e-02
 -5.8261743e-03
  1.2030753e-01
 -8.2052052e-02
 -3.0261910e-02
  1.9952407e-02
  2.2923248e-02
  1.8051473e-03
 -2.9134840e-02
  3.1912986e-02
  2.0013991e-01
 -1.8653149e-02
  4.6989288e-02
 -3.2952301e-02
 -4.7018774e-02
  7.7427807e-03
 -8.7599322e-02
 -3.9856397e-03
 -2.3943515e-02
 -9.7856577e-03
  3.6225565e-02
 -6.2710042e-03
 -2.1792110e-02
 -2.0339760e-01
 -6.9524962e-03
 -4.1444160e-02
 -2.8081127e-03
 -9.2443794e-02
 -6.5143578e-02
  3.7242871e-02
  1.5900016e-02
  5.8704976e-02
 -1.4922607e-01
 -1.9689625e-02
  5.7627548e-02
  3.0610953e-02
  8.7508418e-02
  1.0227902e-02
  1.3486121e-02
  2.3467705e-02
  6.5284498e-02
 -5.5960235e-03
  6.9275826e-02
  7.3181599e-02
 -4.2979989e-02
 -8.6267488e-03
 -4.5600331e-01
  3.7198093e-02
  2.2872053e-02
  4.2777840e-02
 -1.2890324e-01
 -3.6405969e-02
  8.9051865e-02
  3.8134925e-02
  2.1202220e-02
  2.0109098e-02
 -3.4767159e-03
 -3.4185012e-03
 -1.3058828e-01
 -3.6467772e-02
  3.9719891e-02
  1.0919162e-03
  3.1667303e-02
 -1.2859398e-01
  2.7305720e-02
  4.8136912e-02
 -1.6061720e-02
 -6.6227764e-03
 -2.0029051e-02
  1.3878110e-02
  4.2730790e-02
  7.3880017e-02
  5.6461224e-05
  2.1873084e-03
 -1.2745770e-02
 -3.5103720e-02
  3.6321755e-02
 -2.0942287e-01
 -5.5191413e-02
 -4.2222613e-03
  7.6799351e-03
 -6.5683022e-02
  4.7305897e-02
 -9.3009081e-03
  1.1431438e-02
 -1.3778602e-02
  2.8865682e-02
  7.0076741e-02
 -4.8857190e-02
  5.6893257e-03
 -8.5249674e-03
 -7.0525177e-02
 -1.1278294e-01
 -2.2549519e-02
 -8.0722095e-03
  1.9619121e-01
 -1.5650323e-02
 -9.7669140e-02
  3.9568748e-02
  1.1168572e-01
 -4.0848657e-02
 -3.4567472e-02
  7.6639540e-02
 -3.2322332e-02
 -1.0210246e-01
 -2.2196565e-02
 -1.6520087e-02
  1.9442104e-02
  7.4363247e-02
 -1.4637710e-01
 -1.9100720e-02
  6.7578197e-02
  4.2911701e-02
  1.6660090e-01
  4.2319089e-02
  1.2227339e-01
 -3.3778764e-02
 -1.9476263e-02
 -1.0894477e-01
  5.5450082e-02
 -3.3579541e-03
 -4.5591079e-02
 -9.6150525e-03
  9.4591267e-02
  2.5037570e-02
  2.5796235e-02
 -2.3504838e-02
 -1.2513443e-02
  4.0135890e-02
  8.8776276e-02
 -6.4197235e-02
 -4.7213551e-02
  1.6091701e-02
 -9.6308596e-02
 -5.6410022e-02
 -1.0973072e-01
 -5.7829764e-02
 -5.3365850e-03
 -3.7377591e-03
  3.9373945e-02
  1.3104439e-01
 -1.6285209e-01
 -1.1701576e-01
 -1.1918493e-01
 -2.6967626e-02
 -9.4756760e-02
 -5.0634174e-03
 -1.1370655e-01
 -1.1115219e-02
  2.5688589e-04
  1.3622378e-01
  1.2356630e-02
 -5.5265766e-02
  1.6579710e-02
  1.3635814e-01
  1.0196876e-01
 -7.1681328e-03
  3.3221070e-03
  1.4805597e-01
  1.4292142e-01
  1.6194150e-02
  2.5841340e-01
  4.9122758e-02
 -1.3307970e-03
  1.6962511e-02
  1.5451218e-02
  2.0193510e-02
 -7.5678170e-02
 -4.2028040e-02
 -3.2482989e-02
  2.2184055e-02
 -9.4195455e-02
  1.6196670e-01
  2.9860456e-02
  3.0620491e-02
 -9.2990562e-02
 -1.2232342e-02
 -1.8406045e-01
  1.1169529e-01
  9.6002743e-03
 -5.5146426e-02
 -1.5201320e-02
  1.6947082e-01
 -8.6794242e-02
  1.6891843e-01
  1.1052452e-02
 -2.6769252e-02
 -4.3026701e-02
 -1.7026636e-01
 -1.5459770e-01
  4.1287553e-02
  2.2519802e-01
  1.5563937e-02
  4.9918208e-02
  1.5228556e-02
  8.2341790e-02
 -9.6972331e-02
 -3.2533646e-02
  1.6706740e-02
 -3.0333133e-02
  8.5411400e-02
 -6.0863264e-02
  2.1189103e-02
  4.1768201e-02
  1.2280072e-01
 -1.0455605e-02
 -5.1409643e-02
  5.2744705e-02
 -5.8293715e-02
 -1.7410031e-02
  1.0774027e-02
 -8.1076153e-02
  4.0768210e-02
 -1.3575473e-01
  3.3488177e-02
 -5.4013498e-02
  6.8913631e-02
  8.9767046e-02
  7.8659303e-02
  5.1636048e-02
 -3.2264936e-01
  6.2532979e-03
 -6.6339806e-02
  5.8281701e-02
 -1.8175009e-01
 -1.0816375e-01
  6.9092475e-02
 -7.9550721e-02
  5.0340682e-02
  6.4445496e-02
  1.7521549e-02
 -1.5572782e-01
  1.7747642e-01
  2.9650835e-02
  7.7718928e-02
 -1.2123308e-02
 -2.9728364e-02
 -6.3018292e-02
  7.0042084e-03
  3.4728397e-02
 -3.6108777e-02
 -1.4384087e-02
  3.9990336e-02
 -2.4615217e-03
  7.6293103e-02
  7.7896781e-02
 -6.4345352e-02
 -7.1331859e-03
 -2.3571903e-02
 -5.9523501e-02
  5.7398368e-02
 -4.4079214e-02
 -2.4357174e-02
 -1.0672362e-02
  2.9811010e-02
 -1.5109379e-02
 -3.8666442e-02
 -3.4201268e-02
  1.4497279e-01
 -1.1206008e-02
  3.8686853e-03
 -4.1878875e-03
 -9.0363480e-02
  9.6319348e-02
  2.2787939e-01
  1.4164992e-02
 -9.4716989e-02
 -4.0240940e-02
 -4.9595057e-04
 -1.9360203e-01
  1.9623080e-01
 -4.0117903e-03
 -1.3136737e-01
 -3.1030700e-02
 -1.2813826e-01
 -9.9428855e-03
 -1.2635423e-01
  4.9518313e-02
  9.3680583e-02
  4.6579158e-01
  6.1191857e-02
 -4.2054042e-02
  5.0001191e-03
 -1.4634128e-01
 -5.8735024e-02
 -1.2234904e-01
  5.0193639e-03
  5.0959237e-02
 -1.6814870e-01
 -4.6646646e-03
  2.0501111e-03
  6.9887772e-02
  4.9839627e-02
  4.9080797e-02
  4.4914395e-02
 -1.8942513e-01
 -6.5243423e-02
  3.6672343e-02
 -2.8324850e-02
 -2.0047402e-02
  5.9951518e-02
 -3.9431783e-05
 -6.4762115e-02
 -1.0504328e-01
  1.2183230e-02
  3.6121529e-02
  3.1858939e-03
  1.0944606e-01
 -6.4095728e-02
 -7.3749773e-02
  5.8037066e-03
 -2.9617522e-03
 -2.0286700e-02
 -9.6694171e-02
  8.0754146e-02
 -5.0147954e-02
 -1.4168950e-02
 -2.4288082e-02
 -1.5368334e-02
  9.7515240e-02
  1.3400297e-01
 -4.9275775e-02
  3.1205093e-02
 -8.3047554e-02
  2.4712203e-02
  1.5055505e-02
 -5.9081815e-02
 -2.8947138e-03
 -3.3926822e-02
  2.6144211e-03
  2.0864660e-04
  5.5666439e-02
 -6.0874339e-02
  3.2405399e-03
  1.5658008e-01
  1.4780078e-03
 -4.5258451e-02
  9.9530183e-02
 -1.1876412e-02
  1.2321554e-01
  2.4708023e-04
  2.0146927e-02
 -1.3744175e-02
  3.3113718e-02
  1.1316722e-01
 -1.2478128e-02
 -2.0292437e-02
 -1.6240453e-02
 -1.7237131e-01
  7.5726792e-02
  2.4397664e-02
 -4.3700263e-04
 -1.0989894e-02
  2.3115454e-02
  6.6658698e-02
 -1.3509716e-02
  4.6087027e-02
 -1.4021656e-02
 -4.4656680e-03
  1.7241873e-02
 -2.6323935e-02
  2.1232389e-02
  1.6456461e-02
  4.0307019e-02
 -2.7664268e-02
 -3.8578551e-02
  6.3242516e-03
 -4.1820694e-02
  4.8493925e-02
  7.1602285e-02
  2.6423058e-03
  2.7161301e-03
 -2.3979798e-02
 -7.5622931e-02
  6.7922533e-02
  1.1025171e-02
  8.6217383e-03
 -1.4239742e-01
  6.4870571e-03
 -2.1961281e-02
 -6.1872870e-02
  2.7498771e-03
 -9.0818694e-03
 -4.5749996e-02
 -4.7366731e-02
 -5.1119542e-03
  3.0601624e-01
 -3.6480714e-02
  4.7172975e-02
  1.4256587e-02
 -1.3081238e-01
 -4.8063301e-02
 -8.4124971e-03
 -5.9355952e-02
 -1.4104404e-02
 -4.3996233e-02
 -1.6846092e-02
  1.8894743e-02
 -2.7097443e-01
  5.8899540e-03
 -4.5526151e-02
  1.9882853e-01
  1.6893486e-02
  2.4719190e-02
  7.5873271e-02
 -4.1046146e-02
  3.8013477e-02
 -8.1818931e-02
  3.0001737e-02
 -3.1557582e-02
 -4.1838530e-02
 -1.4342655e-01
  1.6386276e-02
 -1.9188038e-01
  7.6948725e-02
  5.8563769e-02
  2.7766341e-02
 -5.9602777e-03
  1.9996820e-02
 -1.4285856e-01
  5.5301186e-02
  2.2147905e-02
 -7.1117759e-02
  5.9654314e-02
 -3.7556481e-02
 -5.7775071e-03
 -2.6673483e-02
  1.1392100e-01
 -2.5857102e-02
 -1.2960990e-01
  5.2167010e-03
 -1.5011450e-02
 -1.1138745e-02
 -1.1458384e-01
  4.8633669e-02
  4.3982096e-02
  3.0934690e-02
 -8.9858212e-02
  1.2319867e-02
  1.8537229e-02
 -5.3488750e-02
  1.9023654e-01
 -8.4501348e-02
 -4.0926676e-02
  2.3534564e-02
  1.2133645e-01
 -4.4079334e-02
 -5.6552548e-02
 -5.6490205e-02
  6.9567315e-02
 -2.6567414e-02
 -6.9542252e-02
 -1.7777119e-02
 -6.3260435e-03
 -1.8889177e-01
 -3.1240605e-02
  4.6074200e-02
  8.0739193e-02
  6.8828061e-02
  7.7061743e-02
  1.4481614e-02
 -1.7236385e-02
  1.9069314e-03
 -3.0648384e-02
  4.0918987e-02
  4.4027194e-03
 -6.7427412e-02
 -1.0257679e-02
 -4.9655318e-02
 -1.2830648e-02
 -6.7416854e-02
 -6.6178091e-02
 -2.1924442e-03
 -1.2951731e-02
  4.7134146e-02
  1.9311348e-02
 -8.2614847e-02
 -8.5523956e-02
 -6.6898227e-02
  1.2056018e-01
  4.2831115e-02
 -1.2371907e-01
 -7.8908153e-02
 -4.4366833e-02
  5.1799636e-02
 -6.4643867e-02
  6.1070409e-02
  1.1284245e-01
 -4.8423853e-02
  1.8157948e-02
 -6.7594941e-03
  2.2465734e-02
 -1.9329322e-03
 -3.9812811e-02
  5.9269243e-03
 -2.1455064e-02
 -4.5082364e-02
  6.8580434e-02
  1.9066498e-02
 -5.1681291e-02
  1.2819165e-01
  3.2207165e-02
 -2.1994526e-02
  1.2971200e-01
 -1.1469382e-01
 -4.3966617e-02
  2.6138544e-02
  4.9380127e-02
 -2.9137805e-02
 -5.9462853e-02
 -5.2271098e-02
  6.8024613e-02
 -2.2627978e-02
 -5.5503834e-02
  3.8419567e-02
  1.0988501e-01
  1.4667355e-02
  1.9088969e-01
 -1.0082895e-01
 -8.6291194e-02
 -6.1647430e-02
  2.0342900e-01
  9.8814160e-02
  7.8625508e-02
  7.8391306e-02
  2.3751710e-01
 -2.5329373e-03
 -4.0128242e-02
 -5.9250696e-04
 -1.3488117e-02
 -2.4213063e-02
 -1.5238680e-02
 -8.1031218e-02
 -1.0945959e-01
 -7.4614361e-02
  7.0136972e-02
  2.4129834e-02
  1.7197916e-02
 -2.9145833e-04
 -2.7863121e-02
 -7.5345434e-02
  3.3590436e-01
  1.7345940e-01
 -8.6047230e-03
  1.9251668e-01
 -8.7034188e-02
 -5.9411414e-03
 -1.4876495e-01
 -3.5187149e-01
 -3.9947607e-02
 -8.3470486e-02
  1.5923622e-01
  3.2060008e-02
  1.6548191e-01
  3.7005328e-02
  7.0520401e-02
 -9.2007041e-02
  4.1660819e-02
 -1.2383445e-01
  4.0425930e-02
 -3.2032199e-02
  2.2312384e-03
  1.7757525e-01
  2.5232136e-01
 -7.9866856e-02
  4.8530594e-02
  6.0420553e-03
  1.0747959e-01
  2.4427906e-02
  9.1743078e-03
 -1.2949622e-01
  3.5817340e-02
 -8.5645067e-03
 -6.7863837e-02
  3.2987367e-02
  1.0824404e-01
 -1.0790358e-01
 -4.7099195e-02
  6.2455848e-02
 -9.2158116e-02
  8.5252784e-03
 -3.5650108e-02
  2.2344408e-03
  2.9258539e-03
 -3.6995336e-02
 -4.9405728e-02
  1.6374311e-01
  1.2356676e-02
  5.7467423e-02
  4.1685257e-02
  1.3732053e-01
 -4.4593140e-02
  5.2778438e-02
 -4.4951392e-03
  1.0201060e-01
  1.2495236e-02
 -3.0387163e-02
  3.8877767e-02
  2.9727537e-02
  1.4883424e-01
 -7.0330665e-02
  2.0988444e-03
 -1.6058709e-03
  2.3005307e-02
 -2.0646246e-02
  1.9425137e-02
 -9.9629937e-03
 -1.7990153e-01
 -3.3684544e-02
 -3.0325281e-03
 -3.2590616e-02
 -5.4792976e-03
 -6.9766231e-02
  7.2385244e-02
 -3.3827018e-02
 -2.8261127e-02
  7.7212290e-03
  2.0057088e-02
  3.3495594e-02
  8.3051339e-02
  2.9136559e-02
  3.2949198e-02
  1.0746566e-02
  4.0677961e-02
  2.9816896e-01
  1.1060771e-01
 -2.1431886e-01
 -3.5220213e-02
 -4.3807182e-02
  4.7972547e-03
 -1.1425898e-01
 -6.6341467e-02
 -2.7125135e-01
 -1.5418094e-02
 -9.2948169e-02
 -6.0667362e-02
  1.4259705e-02
  8.5265197e-02
  2.8654847e-01
  2.4329033e-01
  4.5204241e-02
 -2.2994919e-01
  2.0237422e-02
 -1.3042608e-01
 -3.7810385e-02
 -1.1399064e-01
 -6.6057965e-02
 -2.6798642e-03
  1.3282319e-02
 -4.9019477e-04
 -7.4195586e-02
  1.6579153e-01
  5.1243164e-02
 -1.5726879e-02
 -9.8343790e-02
 -1.2434345e-01
  1.3889335e-01
 -9.8220063e-03
 -1.4962789e-01
 -3.9051410e-02
  1.1796514e-02
 -6.6000164e-02
  2.6598465e-02
 -8.5265703e-02
  9.3088411e-02
  2.8934544e-02
  1.0199840e-01
  1.9117691e-01
  1.4469630e-01
  6.3249849e-02
  2.0744886e-02
 -4.2246468e-02
  1.2141637e-02
 -1.5320051e-01
 -9.9404464e-03
  2.4490077e-02
  4.2065512e-02
  5.5513471e-02
 -9.1692105e-02
  9.3770766e-04
  1.0388541e-01
  4.0444739e-02
 -1.5001567e-01
 -8.7336123e-02
  1.0464200e-01
  3.5009701e-02
 -2.5291104e-02
 -6.8373449e-02
  1.8857542e-02
 -9.1818990e-03
  5.5397101e-02
  7.1178526e-02
 -8.0068864e-02
  7.0975929e-02
 -6.2202748e-02
  7.9367220e-02
  1.4188630e-02
 -4.4973437e-02
  6.1087340e-02
  2.7942103e-01
 -3.5136998e-02
 -3.0797748e-02
 -1.4597960e-01
  1.0895972e-01
 -6.7612849e-02
 -3.2518283e-02
 -1.3525962e-02
  3.8080961e-02
  1.0452017e-01
 -1.1004198e-02
  5.3346800e-03
  3.5676058e-02
  7.6735780e-02
  3.9939586e-02
  1.2126138e-01
  4.2826634e-02
 -1.1050441e-01
 -2.1780431e-02
 -1.7504060e-01
 -1.2342986e-01
  6.8998494e-04
 -5.5776138e-02
  4.4355679e-02
 -1.0202928e-02
  4.7463622e-02
  6.1704259e-02
  7.5991275e-03
 -1.1791859e-02
  8.7829772e-03
 -9.4100349e-03
  5.0954511e-03
 -1.1367178e-01
  1.4286699e-02
  8.9814775e-02
 -1.8847516e-02
 -2.0978554e-01
 -4.5760844e-02
 -1.3154244e-02
 -5.5046074e-02
 -1.8470580e-02
  2.1377113e-02
  3.7045334e-02
 -2.9978948e-03
 -4.1348170e-02
  1.4701931e-02
 -8.2209781e-02
  1.5258726e-03
 -5.8399815e-02
 -5.5788603e-02
  3.3949297e-02
  4.3030664e-02
  8.2327714e-03
  3.9838508e-02
 -8.2236692e-02
 -2.4378756e-02
  1.7169058e-02
  3.8923394e-02
  2.9676460e-02
 -8.6342253e-02
  4.9230490e-02
  6.2113190e-01
 -8.4828615e-02
 -1.1020609e-02
  5.4698982e-03
  1.0647091e-01
 -8.1670679e-02
  2.4654772e-02
  7.9174772e-02
  3.7929691e-02
 -6.4239413e-02
  8.1519589e-02
 -6.3918643e-02
  6.0484607e-02
 -1.9509830e-02
  1.4188278e-01
  2.3058208e-02
 -3.3871852e-02
 -5.0917745e-02
  3.6498915e-02
  2.0499732e-02
 -6.2115468e-02
  1.0219879e-01
 -7.6239981e-02
  1.7885186e-02
  8.4748082e-03
  5.7744957e-03
  4.6335828e-02
 -5.0926013e-03
 -2.8959384e-02
  4.9960785e-02
 -3.9134074e-02
  1.0206214e-01
  1.7427923e-02
 -6.2777847e-02
  4.0173095e-02
  3.4210302e-02
  2.7995966e-02
  7.9637945e-02
 -9.6002474e-02
 -3.6252268e-02
 -1.5556500e-02
  8.0394395e-02
 -6.1151389e-02
  2.2481011e-02
  2.0624564e-03
 -4.2411726e-02
  1.8200707e-01
 -2.6985989e-03
 -7.4370049e-02
  1.6663818e-01
  3.4644518e-02
 -7.1443878e-02
  1.9035663e-02
 -1.6555136e-01
 -3.3095707e-03
 -1.5154828e-01
  1.7157992e-02
 -1.8335865e-01
 -5.3934611e-02
  3.2216124e-02
  3.3045687e-02
 -3.3203565e-02
 -3.7292089e-02
  1.7967777e-01
  5.3794950e-02
 -3.4865648e-02
 -6.2924825e-02
 -9.3452193e-02
 -5.2245855e-02
  4.8766151e-02
 -2.7106667e-02
  1.1109391e-02
  3.1822566e-02
  2.8945643e-02
  3.8681213e-02
  8.1706144e-02
  7.8656532e-02
  5.5115845e-02
 -5.1783569e-02
 -6.5912455e-02
 -9.5465586e-02
  6.3802354e-02
  7.8300595e-02
 -8.1492051e-02
 -1.2559295e-02
 -2.1496557e-02
 -1.0267197e-02
 -5.5164002e-02
  6.2532641e-02
  1.6002279e-02
 -7.3805097e-03
 -1.3360854e-02
  8.4445752e-02
  1.2611289e-01
 -1.7777525e-02
  4.9218107e-03
  5.3684611e-02
 -7.7226929e-02
 -4.1606735e-02
 -8.1384875e-02
  8.1588805e-02
  6.7732856e-02
 -1.9248812e-02
 -7.6313026e-02
  1.4916314e-01
  1.1515293e-02
  3.0036645e-02
  5.3040888e-02
 -8.4175557e-02
  6.0840948e-03
  1.3081344e-02
 -1.3576729e-02
  1.1520919e-01
  1.5998675e-01
  5.6571886e-02
  5.3609531e-02
  1.9473417e-02
  9.2437148e-02
 -8.7564372e-02
  8.3901703e-02
 -3.6881912e-02
 -5.3850584e-02
 -8.2408756e-02
 -4.9833577e-02
  2.3351198e-02
 -5.7146918e-02
 -4.8104282e-02
  8.6958461e-02
 -1.1970726e-01
  8.2043167e-03
  4.0381558e-02
  3.8514325e-05
 -8.3277207e-03
  7.0870981e-02
 -7.6692887e-02
 -2.8597291e-03
 -1.3373836e-02
 -6.9048502e-02
 -1.2345863e-02
 -8.1945729e-04
  2.2236225e-03
  1.8992050e-01
 -7.1036592e-02
  4.3701936e-02
 -1.8128911e-02
  1.4729560e-02
  3.4133636e-03
  7.6773739e-03
 -3.2959752e-02
  1.1897467e-01
  9.5809877e-02
 -6.7120217e-02
  5.1306054e-02
 -4.8215449e-02
  9.0963900e-02
 -9.4049543e-02
 -4.1261423e-02
  4.6727154e-02
 -4.7294907e-02
 -8.7772328e-03
 -5.8857139e-02
  3.6958051e-03
  8.6910569e-04
  5.7856113e-02
  6.2034771e-02
 -3.1601049e-02
 -1.1742791e-01
 -3.4096971e-02
  4.8960943e-02
 -8.4311821e-02
 -9.7040892e-02
  1.0926861e-02
 -1.0847146e-02
 -9.2235826e-02
  1.5223740e-03
 -3.2349672e-02
 -1.2607536e-01
  1.0146172e-01
  7.1735591e-02
 -1.1056314e-01
 -1.0346298e-01
  2.1773791e-02
 -1.3659438e-02
 -1.2366248e-01
 -4.2632572e-02
 -1.2905115e-01
  2.6647855e-02
 -3.7003633e-02
 -6.3944295e-02
 -3.7266687e-02
  6.7889616e-02
 -5.1935636e-02
 -9.0396546e-02
  2.0192245e-02
 -1.9012714e-02
 -3.6809780e-02
 -7.2507644e-01
 -1.1955258e-01
 -5.2127630e-02
  7.8782476e-03
 -1.2323264e-02
 -7.9309873e-02
  2.9147115e-02
 -2.7805684e-02
 -6.3432427e-03
  1.5985614e-02
  2.9802714e-02
  4.6897836e-02
 -2.1658628e-04
 -6.8303101e-02
  2.9118922e-02
 -5.1340070e-02
  2.0693070e-03
 -5.0391961e-02
 -7.6598488e-02
 -2.6376700e-02
  7.4420637e-03
  4.5959242e-02
  1.1351779e-03
  1.6299905e-02
 -2.0486747e-01
  3.8554519e-02
  1.0625174e-01
  6.9237515e-02
 -3.0227127e-02
 -7.9337448e-02
  2.9160211e-02
 -5.4834846e-02
 -3.4426828e-03
  1.4227273e-02
  2.9146533e-02
 -7.7411474e-04
 -5.1707369e-03
 -1.8393403e-01
 -6.4276151e-02
  4.3876801e-02
 -2.6025159e-02
  1.6851489e-02
 -7.6619372e-02
 -6.7614377e-02
  8.2099468e-02
 -7.3184669e-02
  9.0666367e-03
 -3.1560045e-02
  1.1534861e-01
  1.3553082e-02
  9.2110625e-03
 -3.9076086e-02
  9.2332155e-02
  3.7401430e-02
 -3.3608008e-02
 -3.0515328e-02
 -3.5213571e-02
 -6.2194150e-02
 -3.4302898e-02
 -7.2109550e-02
  1.6437789e-02
 -9.6637294e-02
 -1.1359305e-01
 -5.5394065e-02
  3.3218261e-02
 -3.5963077e-02
  5.8437027e-02
  3.6292609e-02
 -4.5444332e-02
  1.1213367e-01
  5.8708709e-02
 -2.6846148e-02
 -3.1658497e-02
  2.4456451e-02
  9.3330830e-02
  7.5668313e-02
 -9.2760481e-02
 -4.3636695e-02
 -1.8074976e-02
 -2.6564412e-02
  6.2910721e-02
 -1.2290076e-01
  5.9062812e-02
  4.4297405e-02
  2.9881212e-01
  7.3016047e-02
 -4.5712482e-02
  2.1817446e-02
  1.5663493e-02
  9.0914600e-02
 -6.7244969e-02
  7.5843066e-02
 -3.9543379e-03
 -2.8440446e-02
  5.0708674e-02
  1.3844064e-02
  5.2732266e-03
  6.5066911e-02
  7.6807305e-02
 -4.7788739e-02
  1.5168443e-01
  4.8250042e-02
  4.5790032e-02
 -4.0795062e-02
  4.1550566e-02
  1.7456707e-02
 -1.1936618e-02
 -1.1152320e-03
  6.7830198e-03
  5.2721361e-03
 -2.5301175e-02
 -4.8919087e-03
 -1.9580858e-02
  1.3173567e-01
  5.6701832e-02
 -1.0226198e-02
 -1.2834268e-04
 -9.2911616e-02
 -7.6899402e-02
  1.0780047e-01
  1.0816672e-01
 -4.1233957e-02
 -5.0818454e-02
 -1.4351006e-01
  1.1909046e-02
 -3.3796314e-02
  4.1612204e-02
 -9.1509692e-02
  6.8755180e-02
 -7.4964665e-02
  5.7927435e-03
  5.4006297e-02
 -3.1928811e-03
 -7.6172940e-02
 -2.5597913e-02
  3.1019434e-02
 -7.7191950e-03
 -1.0997695e-01
 -1.0461365e-01
  1.7954715e-02
 -4.3881498e-02
  8.4204189e-02
 -1.3691569e-02
 -7.4308634e-02
 -4.7130127e-02
  1.3556816e-02
  3.2945015e-02
  1.3816693e-02
  1.1745765e-01
  1.4220588e-01
 -2.7941126e-01
  3.9944816e-02
 -9.2958733e-03
 -4.4867553e-02
 -2.3166746e-02
 -6.7133658e-02
  2.5722105e-02
 -1.0286334e-02
  5.8962900e-02
  6.0066160e-02
 -1.3172255e-02
 -7.0661217e-02
  3.2326933e-02
  2.5784932e-02
 -7.6870508e-02
 -2.5710124e-01
  1.8736478e-02
 -6.0823178e-03
  3.1625426e-03
  1.6771020e-02
  8.7071946e-03
 -5.1492643e-02
  4.7501750e-02
  6.8183620e-03
 -1.3349007e-01
 -1.3835888e-02
  4.0613666e-02
 -1.8196939e-02
  2.0018527e-02
 -1.6510516e-02
 -6.2283095e-02
  7.3166855e-04
  2.6695861e-02
 -1.2842359e-01
  1.1703088e-04
  2.6389094e-02
  1.8663457e-01
 -1.7699669e-01
 -1.2965281e-01
 -3.5235196e-02
 -3.0426031e-02
 -4.1461647e-02
 -2.4166450e-02
  1.1003818e-01
  8.2423039e-02
 -6.9685943e-02
 -1.2514471e-03
  9.9716619e-02
 -1.2162611e-01
  6.3083827e-02
  4.2377602e-02
  3.5440721e-02
  5.1998809e-02
 -7.1803868e-02
  4.5187715e-03
 -6.0322955e-02
 -2.2157375e-02
  2.6058165e-02
 -1.2883812e-01
 -8.2103401e-02
 -9.5503770e-02
  2.3644228e-02
 -7.9792216e-02
  2.6682764e-02
  2.5850663e-01
  1.9492038e-02
 -1.0389014e-01
 -9.2607187e-03
 -3.8422540e-02
  2.4401527e-02
  3.1211516e-02
  2.5711859e-02
 -1.1054508e-02
  1.3598265e-02
  8.6952135e-02
  4.1557796e-02
  1.7220179e-02
 -4.7717795e-02
 -3.4593814e-03
  3.6784295e-02
 -1.3084269e-01
 -3.7507892e-02
 -1.8195426e-01
  1.7798083e-02
 -8.8805780e-02
 -9.3377173e-02
  3.4413815e-02
  7.8693025e-02
  2.0298325e-02
  1.1441248e-02
 -3.1411365e-02
 -8.7479308e-02
 -1.8783219e-01
 -5.5316584e-03
  6.6588171e-02
 -2.0582465e-02
  3.1510379e-02
 -1.1650479e-02
  3.2529671e-02
 -1.4334057e-01
 -1.3557884e-01
 -1.0771980e-01
 -2.3125850e-02
 -1.0400424e-01
 -3.5378456e-03
 -3.2092415e-02
 -4.4263992e-03
 -7.8870215e-02
 -8.4953234e-02
  2.7167505e-02
 -5.2444249e-02
  5.9225538e-04
 -5.3135723e-02
 -3.5153650e-02
  3.9389469e-02
 -4.3028578e-02
 -2.8836194e-02
 -9.6210256e-02
  1.2265125e-01
  2.0282075e-02
 -4.9199458e-02
 -1.1869562e-01
  2.2246256e-02
  2.2493216e-01
 -7.6449089e-02
 -1.2253082e-02
 -6.6862084e-02
  1.0679832e-01
 -4.2048514e-02
  8.3250396e-02
  2.4007943e-02
 -8.2497507e-02
  1.0269991e-02
 -1.0894646e-01
 -9.6844070e-02
 -6.3721269e-02
  2.5521550e-02
 -7.0833303e-02
  3.8653992e-02
 -8.5852332e-03
 -4.8968200e-02
 -1.3030343e-01
  1.7499395e-02
 -9.2196036e-03
  2.3469927e-02
  1.1471097e-01
  8.8495106e-02
 -2.2369196e-01
 -2.9014656e-03
 -8.9312181e-02
  3.5405192e-01
  2.9774565e-01
  1.5436643e-01
  5.5890001e-02
 -3.6583729e-02
  3.7306273e-01
  1.0677239e-01
  7.9430640e-02
  1.9116554e-01
 -6.6126883e-02
  1.8899444e-02
  6.3799523e-02
 -4.6082979e-01
 -5.2848756e-01
  1.1101869e-01
  2.2880249e-01
  1.0397760e-02
  5.6694841e-01
  4.1697559e-01
  3.2405913e-01
 -1.0306285e-01
 -1.2868796e-02
  4.0529065e-02
  1.4807693e-02
  1.7870745e-01
 -1.2081119e-01
  6.3109323e-03
 -3.1474587e-02
  6.6021025e-02
 -5.6340769e-02
 -1.0249870e-01
  1.1526187e-01
  7.9185672e-02
  3.0364450e-02
 -1.1215995e-01
 -1.0779504e-02
 -4.2820442e-02
  8.7283224e-02
 -7.7345617e-02
 -5.9149843e-03
  1.5419846e-02
  3.2344013e-02
 -5.3995095e-02
  1.2389500e-01
  1.2007432e-01
  6.4819255e-03
 -3.6044717e-02
 -4.9529612e-02
 -3.1049510e-02
 -2.2857927e-01
 -1.0819856e-02
  1.4964229e-02
 -6.5954852e-01
  1.5752564e-01
  2.5782432e-02
 -1.6806480e-03
  1.2892575e-02
  2.7019957e-02
  3.0596144e-03
 -6.2654145e-02
  1.2860748e-02
 -7.4307345e-02
 -2.0716657e-01
 -2.4363885e-02
 -6.7718280e-03
 -8.4092095e-02
  8.0111533e-02
  2.3293873e-02
 -2.1814613e-02
  4.4982947e-02
 -4.1759286e-02
  6.7569174e-02
  2.5965197e-02
 -1.9209905e-01
 -1.2671978e-02
 -2.7156843e-02
 -2.0102088e-04
 -2.0657729e-02
  9.1068424e-02
  3.8910467e-02
 -3.1426918e-02
 -1.7399065e-02
  4.0958978e-02
 -6.8427689e-02
 -1.2744194e-01
 -2.0940453e-03
 -7.5245444e-03
  3.3162117e-02
  1.1450359e-01
  7.0424445e-02
 -1.4498250e-01
  5.0566602e-02
 -2.5325630e-02
 -7.1168793e-03
  2.3428598e-02
 -5.1635951e-03
 -3.3552453e-02
 -3.4187615e-02
  1.6470117e-02
 -1.0148906e-01
 -9.6158497e-03
  4.6425223e-02
  2.2695247e-02
  1.4452845e-01
 -6.0236711e-02
 -4.8143558e-02
  2.2789326e-02
 -1.2743738e-02
 -1.2698290e-01
  6.6758923e-02
  5.3842928e-02
  1.3265835e-01
  2.2483546e-02
  1.8964514e-02
  3.4210648e-02
  4.5633920e-02
 -3.4209851e-02
  6.1136115e-02
  2.8214118e-02
 -4.4682480e-02
 -4.2413015e-02
 -1.9407978e-03
 -1.1822528e-01
 -3.4300640e-02
  1.7245356e-02
  2.5926830e-02
  6.9730249e-03
  1.7559735e-02
 -8.2203634e-02
  1.8893017e-02
  2.3124252e-02
  4.8324384e-02
  2.2014751e-01
 -7.9418041e-02
 -3.0579928e-02
  3.6495831e-02
 -9.4271041e-02
  2.4819889e-03
 -2.9311865e-03
  1.4467056e-01
  4.8183132e-02
 -6.4468272e-02
 -4.3194229e-03
 -1.3422991e+00
  7.5111897e-03
 -1.3057653e-02
  2.9700795e-02
  1.1210705e-02
 -6.2681958e-02
  1.0781567e-01
  2.4366396e-02
 -1.6738363e-02
  6.3155659e-02
  2.3454674e-02
  1.6190127e-02
  3.4016690e-03
  2.9334761e-02
  2.5189390e-02
  9.6972600e-02
 -6.8147592e-03
 -1.9536313e-02
 -8.4649727e-02
  1.5365712e-02
  4.2425644e-02
 -1.3959278e-02
 -6.7887507e-02
 -4.3102752e-02
  6.6574611e-02
  4.0652987e-02
 -6.2519014e-02
 -2.6360184e-02
 -1.7822981e-02
  3.4003370e-02
  1.7649945e-02
 -4.0248089e-02
 -5.8994196e-02
 -8.4374756e-02
 -7.3238686e-02
  4.1968629e-02
  1.3479295e-03
 -7.1784039e-03
 -1.3546772e-01
 -7.6397389e-02
  1.2119401e-01
 -3.6334872e-02
 -1.0298926e-01
 -1.8863426e-01
 -4.6868811e-04
 -2.0932032e-01
  8.2881249e-02
  1.3340385e-01
 -1.3140848e-01
  3.9661378e-02
 -6.7273185e-02
  4.3875552e-03
 -1.2500538e-02
 -2.1802275e-01
  7.7659540e-02
  8.5200340e-02
  5.6012902e-02
  2.7926953e-03
  7.0217345e-03
  6.0510198e-03
 -1.8805295e-02
 -2.7522421e-03
 -9.4570905e-02
 -6.7388602e-02
  5.7552252e-02
 -4.0390916e-02
 -3.2164384e-02
  1.7898576e-01
 -6.7799442e-02
 -1.2796771e-02
 -3.9664526e-02
 -1.3755971e-02
  3.4471974e-03
  4.7070202e-03
  8.1681304e-02
  1.1706511e-01
  6.1393403e-03
  2.4125755e-02
 -5.1368393e-02
  5.2371338e-02
  4.9326193e-02
  1.0463677e-01
  2.7220407e-01
 -6.8105888e-03
  3.1320308e-03
  3.1899773e-02
  4.4650375e-03
  7.3562689e-02
  9.1245279e-02
  2.9980031e-01
 -5.4680068e-02
  1.6956592e-02
 -3.5892483e-02
  5.5221811e-02
  7.7298940e-03
 -6.9307402e-02
  7.5081497e-02
  2.8848745e-02
  2.0124765e-02
  8.1630364e-02
  3.1141495e-02
  1.7896190e-01
 -4.1708943e-02
  1.2589501e-02
  5.0016683e-02
 -5.2497506e-02
 -9.6951246e-02
 -6.9932021e-02
  1.3064951e-02
  2.1116216e-02
  4.9322695e-02
 -2.7049342e-02
  6.0999274e-02
 -1.8708119e-01
  7.0101067e-02
 -1.8768247e-02
  4.2296842e-02
 -1.0915973e-01
 -6.1561931e-02
 -1.5690079e-02
  1.6384879e-02
  1.3547410e-01
 -3.3347320e-02
 -8.8978209e-02
  1.6681603e-01
 -7.0431061e-02
  1.2773202e-01
  5.4979092e-03
 -1.8203171e-02
  4.9990505e-02
 -4.5212198e-02
  4.7889758e-02
 -8.9213669e-02
  1.3619997e-01
  5.4432675e-02
 -8.6814217e-02
  1.0368457e-02
  3.2219835e-02
 -9.6198432e-03
  6.5247819e-02
 -1.6961597e-02
 -1.1894120e-01
 -4.2749068e-01
  3.5713511e-04
 -4.2528518e-02
 -1.9181846e-02
 -4.0346985e-03
  9.0597287e-02
 -8.7286815e-02
  1.6201897e-02
  1.1184631e-01
 -8.2836412e-03
 -2.2609547e-02
  1.1636502e-03
  1.1284636e-01
  1.4127974e-01
  4.0749550e-02
  3.8873136e-02
 -7.7826738e-02
 -8.7660633e-02
 -8.9100385e-03
  4.1587604e-03
 -1.3733984e-02
  7.0521861e-02
 -2.3381064e-02
 -8.1694469e-02
  1.5744138e-01
 -3.0673223e-02
  1.0291097e-01
  5.3559087e-02
  6.0386680e-02
 -7.7981099e-02
 -8.2992474e-03
  1.4567310e-01
 -1.3254537e-01
 -3.6198091e-02
 -4.7556572e-02
 -7.2618850e-02
  3.8665313e-02
 -6.9642100e-03
 -1.0647651e-02
 -6.1414331e-02
  7.7266566e-02
 -2.6796648e-02
  1.0854060e-02
 -5.9126634e-03
 -2.6932586e-02
  2.2019997e-01
  8.7306820e-02
  7.0124641e-02
 -3.2890588e-02
  6.5745555e-02
  2.9068926e-02
  2.0650446e-03
  1.3154503e-02
  3.4966879e-02
 -2.1952316e-02
  1.5420307e-01
 -1.1624260e-01
  2.3086892e-02
 -2.3856845e-01
 -4.2311341e-02
 -4.7287627e-04
  1.1650716e-01
  1.4615983e-01
 -6.7485116e-02
 -1.8064309e-02
  3.3509318e-02
 -4.8110254e-02
  1.9200329e-02
 -3.6688525e-02
  3.1201012e-02
  1.4681937e-03
 -3.3943065e-02
 -1.6235754e-02
 -1.4147302e-02
  6.5320887e-02
  2.0993086e-02
 -6.7043859e-03
  4.3166466e-02
  2.3556085e-01
 -4.0568397e-03
  6.8393782e-02
  7.2909914e-02
  1.6058236e-01
 -5.9309166e-02
  1.2864958e-02
  4.0257992e-03
 -6.2680967e-02
 -1.1217957e-02
 -1.8139148e-02
  7.8080051e-02
  3.2308246e-03
 -2.6524942e-02
  5.2876707e-02
 -5.8280502e-02
 -5.8547210e-02
  1.2001698e-01
 -5.9056394e-03
  1.1762580e-01
 -2.8617552e-04
 -1.5771525e-02
  4.5059044e-02
 -1.4265163e-03
 -1.8374528e-01
  6.2996256e-03
  6.6525951e-02
  6.0873270e-02
  3.9834291e-02
 -1.2038847e-02
 -3.8416207e-02
 -4.6134561e-02
 -2.1306392e-02
 -7.9799943e-02
  7.2743609e-03
 -1.5461095e-01
 -2.7699772e-01
  4.2908143e-02
 -1.1764776e-02
 -5.0890759e-02
 -9.7211614e-02
  1.0446787e-01
 -5.7735458e-02
 -9.2674501e-04
  1.3218515e-02
 -9.8139398e-02
 -8.1807263e-03
  1.5218438e-01
 -1.8626703e-01
  1.0690832e-02
  1.8061100e-02
  4.3447997e-02
  1.7057155e-01
  1.6127903e-02
 -5.5700252e-03
  3.4455699e-03
  2.6591199e-02
 -4.6812747e-02
 -1.1105444e-01
 -3.4217302e-02
 -3.4048941e-02
  3.4335848e-02
 -4.4887881e-03
 -8.5787497e-02
 -2.7560659e-02
  3.1698175e-02
  1.6593026e-01
 -2.7568506e-02
  6.1671246e-02
 -7.0174471e-02
 -2.0137611e-03
  5.9537210e-02
  2.1413042e-01
 -8.9611195e-02
  4.1955993e-02
  1.3172718e+00
 -2.3672488e-02
  7.6309107e-03
  2.6531634e-01
  1.7362945e-01
 -3.4396313e-02
  2.7914902e-02
  4.2960957e-02
 -3.7401833e-02
 -8.8589668e-02
 -1.8431146e-02
  1.2228313e-03
 -8.2042404e-02
 -1.7435557e-03
  5.7822440e-02
 -1.2274759e-01
  1.1263829e-01
 -5.8753542e-03
  1.1368405e-01
  2.1107888e-02
 -1.1373978e-02
 -4.2910530e-04
 -4.6157971e-02
 -1.4618658e-02
  1.1968955e-01
 -1.4187660e-02
  1.1697473e-01
 -1.6733006e-01
  1.6393454e-01
 -8.2564749e-02
 -1.1779241e-01
  5.2835122e-02
 -1.4880707e-02
  2.3535650e-02
 -5.5807170e-02
  3.0571405e-02
 -4.3599058e-02
 -1.0751815e-01
  4.2161070e-02
  1.1118139e-01
 -3.5026262e-03
  5.1662676e-02
  1.3644420e-01
  2.7107758e-02
  9.4879448e-02
 -1.7172284e-02
 -6.5824725e-02
 -3.0688336e-02
 -1.8098509e-02
 -3.9820440e-02
 -7.2288163e-02
 -6.7721322e-02
 -9.9873580e-02
  4.5365427e-02
  1.9352356e-02
  8.6979613e-02
 -1.6589893e-02
 -1.9117951e-02
 -5.3560100e-03
 -6.1735768e-02
 -9.6901387e-02
 -1.9124712e-01
  1.7583129e-03
 -4.7351304e-02
  4.5594063e-02
 -5.3232439e-02
 -1.9257201e-03
 -4.2329855e-02
  2.3580644e-02
 -4.8566109e-04
  6.7603134e-02
 -1.3198695e-02
 -3.0229706e-02
 -1.7810985e-01
  3.3934295e-02
 -9.8036744e-02
  3.3662904e-02
  2.5300460e-02
  1.9209467e-01
 -7.6314695e-02
  6.9704046e-03
  4.6317067e-02
 -7.3944069e-02
 -4.9111303e-02
  2.1854915e-02
  3.3276241e-02
 -5.9911445e-02
 -1.1401737e-01
 -2.2049649e-03
 -8.9225508e-02
  1.1627594e-01
 -2.9133851e-02
  6.2548434e-03
  1.0931904e-01
  9.4209902e-02
 -4.4721451e-02
 -2.3414283e-01
  2.2187386e-02
  1.8101711e-02
 -4.3419678e-02
  1.4775820e-01
 -7.6290868e-02
 -2.0158914e-01
 -1.6996999e-01
 -4.9176127e-02
  5.9310671e-02
  3.8712159e-02
  4.6254799e-02
 -2.8128190e-02
  2.6354503e-02
 -1.3331649e-02
  1.5086687e-02
  2.9905109e-02
  8.1469072e-03
  5.7185467e-02
  1.0990085e-01
 -3.7095986e-02
  4.8068143e-02
  2.3442272e-02
 -2.3825867e-02
 -1.3575885e-02
 -2.5475261e-01
 -9.3196705e-02
  4.2297576e-02
 -9.7251480e-04
  5.7829712e-02
  7.7996202e-02
 -4.3386672e-02
 -5.6153800e-02
  2.6463780e-03
  3.3291423e-01
  1.1571475e-02
  3.7648261e-02
  8.3007269e-02
  9.3109399e-02
 -3.0108595e-02
  1.4565686e-02
  1.2626553e-01
  7.6872975e-02
 -3.7268557e-02
 -6.4157493e-02
 -2.7161213e-03
  6.6390261e-03
  7.0094988e-02
  6.4457759e-02
  1.3110226e-01
  2.4823740e-02
  3.5850655e-02
  3.5758492e-02
  1.1147083e-02
 -6.9701739e-02
 -1.5544225e-02
  3.2894362e-02
 -3.6453016e-02
  1.7693017e-02
 -4.5443431e-02
 -2.3478998e-03
  4.4693585e-02
  3.7341811e-02
  9.8101189e-03
  2.9529275e-02
 -8.5825741e-02
 -2.0252183e-02
  1.8590977e-02
 -1.4167818e-01
  3.6964040e-02
 -6.4795040e-02
 -7.7820398e-02
 -1.4756867e-01
  2.3899212e-01
  1.3119997e-03
 -4.0149554e-03
 -9.2564471e-02
  4.9602930e-02
 -1.2179469e-01
 -1.1364692e-02
 -2.5726217e-04
  5.1051375e-02
 -2.1190539e-01
  2.2769487e-01
 -7.9591319e-02
 -9.9475840e-03
 -1.8884785e-02
 -2.8658587e-02
 -4.5321662e-02
 -2.6969532e-02
 -7.2243258e-02
  1.4914791e-02
  1.9726630e-02
 -5.6303978e-02
 -2.1213675e-02
  1.9663829e-02
  5.3761486e-02
 -1.5643328e-01
 -2.5958134e-02
  3.6458764e-02
 -4.1446861e-02
  5.5949759e-02
  4.9314864e-02
  6.7838140e-02
  1.1237453e-02
  1.0046517e-02
  5.6050852e-02
 -3.9845970e-02
  6.0438853e-02
  8.4411809e-03
 -1.4561817e-01
  5.6850288e-02
  1.0613858e-03
 -1.4378557e-01
 -1.2502915e-01
  4.4434987e-02
 -1.4565636e-02
  3.7013050e-02
  1.5524022e-01
 -6.6703349e-02
  5.0185245e-02
 -2.8558960e-02
  1.2783485e-02
  1.4067530e-02
 -4.0799726e-02
  1.0590515e-01
 -3.9614602e-03
 -1.1527097e-02
  2.2190863e-03
  2.4833267e-03
 -2.4653628e-02
  1.7454843e-01
 -3.5352170e-02
 -6.6855855e-02
  1.1025938e-01
  5.0589297e-02
 -2.5332641e-02
  1.4806034e-03
  7.1659416e-02
  2.8032390e-02
 -1.2677562e-01
  5.2530352e-02
 -4.6590760e-02
  4.6893280e-02
  9.5998071e-02
 -2.0738955e-01
 -1.4427096e-01
 -7.9079129e-02
 -1.8821498e-02
 -8.6440668e-02
  9.6751332e-02
  4.9500242e-03
  1.0278056e-01
  1.7343052e-01
  5.0071543e-03
 -1.4027417e-01
 -8.3509132e-02
  6.3060321e-02
 -6.3510448e-02
  1.6014872e-02
  3.5604984e-02
 -6.2329534e-02
  6.2705129e-03
  6.3629091e-02
 -8.0989227e-02
 -8.8279687e-02
  7.6020800e-02
  6.2109351e-02
 -2.8121967e-03
  1.0910629e-01
  6.6616207e-02
 -4.4490397e-02
 -1.8553860e-02
 -5.1868282e-02
  7.1757749e-02
  9.3315458e-03
 -8.3581939e-02
  3.3024135e-03
 -4.1068528e-02
  1.0868421e-02
  2.6199264e-02
  2.8681340e-02
 -1.6269384e-02
  5.7373013e-02
  5.1210359e-02
 -2.9130104e-01
 -2.7600568e-02
  8.4401011e-02
  5.2383080e-02
  5.1276949e-03
  1.1764931e-03
  9.2207044e-02
  2.0920872e-03
  7.7358931e-02
 -5.3578701e-02
  9.6069328e-02
  1.2993346e-01
  1.1221991e-01
  4.2563744e-02
 -2.9091248e-02
  1.7191319e-02
 -1.3284971e-02
 -8.3031259e-02
  2.2936039e-02
  1.1536259e-02
 -1.7982796e-01
 -2.1512300e-02
 -1.4920814e-01
  1.5081560e-02
 -3.4007493e-02
 -8.6698502e-02
 -1.9381819e-02
  8.1470929e-02
  7.8124844e-02
  1.6818153e-02
 -1.5217311e-02
 -3.1263540e-03
 -1.7820796e-02
 -8.5676335e-02
  2.6683593e-02
 -2.0717479e-02
 -3.1539074e-03
 -8.3008856e-03
  4.6155639e-03
 -1.7597671e-01
  7.5023375e-02
 -1.0305139e-01
 -2.8811628e-02
  3.4399964e-02
 -1.1876838e-01
  2.3795798e-01
  9.4251931e-02
  8.7377540e-04
  1.6060026e-02
 -2.4481177e-02
  1.4103478e-02
 -2.1364773e-02
 -3.1921223e-02
  7.4611239e-02
  4.4504753e-03
  1.1831978e-01
  4.1411940e-02
 -1.7048559e-01
  4.4269636e-02
  2.0063375e-01
  3.4569930e-02
 -1.8620032e-01
  1.3187029e-02
  2.2397470e-02
 -2.5337381e-02
 -3.2194354e-02
 -4.4187543e-04
  5.7906830e-03
 -1.5465687e-04
  7.3630542e-02
 -8.8622671e-04
  6.1559860e-02
  3.9150860e-02
 -1.4406086e-02
  1.0015863e-02
 -3.4586519e-02
 -1.6747665e-02
 -1.8498220e-03
  1.1955331e-01
 -4.5662880e-02
 -8.2451608e-03
 -7.3453039e-02
 -1.2815857e-01
 -6.0967570e-03
  2.5010899e-02
 -8.5718788e-02
 -2.9830139e-02
  5.3579304e-02
  3.3432420e-02
  3.0440284e-02
 -7.8783579e-02
 -4.6463042e-02
 -1.1201682e-02
  7.1804687e-02
 -5.6823590e-03
  6.2007119e-04
 -2.8834982e-02
 -2.5527980e-02
 -4.9477175e-02
 -7.9148643e-02
 -4.7937226e-03
 -4.1616578e-02
  2.1086715e-02
 -1.2964940e-01
  4.1129369e-02
 -2.3204524e-02
  7.4633420e-02
  4.3970697e-02
 -8.0495123e-03
 -8.1050865e-02
 -2.3356488e-03
  1.5313748e-01
 -5.2015424e-02
 -8.3623379e-03
 -1.5657806e-01
  6.0997546e-02
 -1.6587668e-05
  1.8094330e-01
 -1.1565382e-01
  8.1652135e-02
  8.0213182e-02
 -2.2946021e-02
 -3.5365608e-02
  1.8382993e-01
 -3.0380705e-01
  2.3070410e-02
  3.0411365e-02
 -3.3609554e-01
  1.5079563e-02
 -6.8231754e-02
 -6.6386540e-03
  5.5089749e-02
 -3.6840398e-02
  1.1398701e-01
 -6.4178437e-02
 -4.6723790e-02
 -2.3907797e-02
 -9.4165847e-02
 -7.0151247e-02
  1.4516678e-02
  8.2178332e-02
  1.1519127e-01
  7.3696533e-03
 -5.7078447e-02
 -1.0407300e-01
 -1.1524044e-01
  2.7516400e-02
  1.3004857e-01
  1.3580319e-01
 -3.4009196e-02
 -4.4764658e-03
  7.4884556e-02
 -3.7128031e-02
  1.6004166e-02
  1.3592282e-01
 -1.5553667e-01
  1.0825972e-01
 -3.9526492e-02
  4.1411344e-02
  1.2764641e-02
  6.8472534e-02
 -8.4530279e-02
  1.3579876e-02
 -2.9977739e-02
 -5.5443857e-02
 -1.5320338e-01
  7.5105794e-02
  4.3405970e-03
  3.5243109e-05
 -9.5904619e-02
 -1.2165746e-02
  5.2632183e-02
  1.8130813e-02
 -1.0344451e-02
 -2.2677215e-02
  1.3712531e-01
 -1.0163246e-01
  5.2833568e-02
 -2.2015405e-01
 -9.2970751e-02
 -4.8515419e-04
 -2.1728325e-01
  2.2400701e-01
  5.6723196e-02
 -5.1310498e-02
  5.0709516e-02
  1.9282090e-02
 -1.5391319e-01
  5.9450682e-02
 -2.8279848e-02
  2.2484435e-01
 -4.2097304e-02
 -5.2182995e-02
 -2.6575789e-01
  8.8400692e-02
  6.9062859e-02
 -5.7471339e-03
 -7.7734731e-02
  1.7083198e-02
 -7.2211877e-02
  3.8355307e-04
  8.5994586e-02
  9.4438069e-02
  3.8959853e-02
  4.7174416e-02
  5.6191761e-02
 -9.1650514e-03
 -6.9736861e-02
 -2.1287076e-02
 -1.1245307e-01
  4.0316649e-02
  1.7371541e-02
 -6.4263508e-02
 -1.8622172e-01
 -3.6602051e-03
  1.3130930e-02
 -9.0802833e-03
  1.6869327e-01
 -4.1707952e-02
  1.6854592e-02
 -1.1054105e-02
 -1.0542115e-01
 -6.2277254e-02
 -5.1158059e-02
 -9.1823995e-02
 -6.9699667e-02
  9.3775075e-03
  6.7828327e-02
  8.5650764e-02
 -5.3227063e-02
 -1.5202664e-01
 -3.7154548e-03
  1.0914742e-02
  2.8110841e-02
 -2.3539278e-03
  2.8767166e-04
 -7.5391181e-02
  1.2935591e-02
 -6.6596657e-02
  3.2628104e-02
 -8.6392853e-03
 -7.3183969e-02
 -9.9856526e-02
  5.8775377e-02
 -8.4702112e-02
 -7.6782733e-02
 -7.2604567e-02
  8.7635098e-03
 -1.6395110e-04
  2.7118361e-02
  4.8169311e-02
  2.2811506e-02
  2.8205613e-02
  1.6788095e-02
  2.1381067e-02
  7.1100309e-02
 -2.4239389e-02
  2.6022097e-02
  1.4620911e-02
 -5.8862284e-02
  2.5299488e-02
  8.4221251e-02
 -1.9491313e-02
  2.2881115e-02
 -2.2837713e-01
 -4.0314857e-02
  8.7032974e-02
  1.2888020e-01
  1.2359414e-01
  8.7414086e-03
 -1.9111484e-01
 -2.5436547e-02
  9.1858562e-03
 -2.0856200e-01
 -1.5973996e-02
  3.0771328e-02
  6.9459319e-02
 -8.8639647e-02
  6.6521518e-02
  2.3476345e-02
  1.0605915e-02
  6.3476965e-02
  1.5652902e-02
  6.6464365e-02
  1.7212057e-02
  5.9343647e-02
  1.3569408e-02
 -9.9908106e-02
 -4.0905111e-02
 -5.4608457e-02
  2.3521272e-02
 -6.5781087e-02
 -3.7743577e-03
 -1.0717318e-01
 -5.9948745e-03
 -8.7951586e-02
 -4.6672009e-02
 -1.4516456e-01
 -3.1368483e-02
  3.2491446e-02
  5.5353552e-02
  1.9739282e-01
 -1.7558168e-01
  4.5178417e-02
 -4.0039502e-02
  1.5125997e-02
  5.1306274e-02
  1.0279551e-02
 -3.7700268e-03
 -6.2375576e-03
 -1.5069531e-01
 -2.1208705e-02
  2.6205640e-02
  4.7245156e-02
 -1.0278866e-02
  8.2694516e-03
 -6.5814336e-03
 -1.2420666e-02
 -2.0151803e-02
  8.2140103e-02
 -1.3497153e-02
  3.9962668e-02
 -6.4515762e-02
  2.9622456e-02
  1.0403357e-01
 -8.9134552e-02
 -7.3109469e-03
 -4.9084108e-02
 -8.6706407e-02
 -2.6264982e-02
 -2.4018807e-02
 -4.3859262e-02
 -6.5866336e-02
 -7.5443789e-02
 -3.6649934e-03
  8.7754577e-03
 -1.9048008e-01
  5.0645407e-02
 -1.9666513e-02
 -2.0356441e-02
 -6.1825991e-02
  3.2082923e-02
 -3.4109481e-02
 -4.6859011e-02
 -1.3337415e-01
  6.7499848e-03
  2.1737499e-02
  8.2314275e-02
  5.3988177e-02
 -6.3645050e-02
  1.4634335e-02
 -2.6656368e-01
  8.3861172e-02
 -5.3762175e-02
 -6.1101314e-02
 -1.9447230e-01
  1.8757652e-01
  7.2682141e-03
 -1.1663979e-01
  6.3563190e-02
  1.6609713e-01
  7.8021772e-02
 -1.8544607e-02
 -1.0446902e-02
 -2.3759525e-02
 -1.7720704e-01
 -1.4711669e-01
  3.9830849e-02
 -1.0444606e-01
 -2.9316802e-02
  2.0675519e-02
  8.1247993e-02
 -7.4378692e-02
  3.9244443e-02
  9.0769837e-03
 -4.0655863e-02
  2.5176717e-02
 -1.7161993e-02
 -5.0920569e-03
  6.4992444e-03
 -1.0228325e-02
 -9.8178051e-02
  4.6065589e-03
  9.3558140e-02
 -6.9427170e-02
 -1.6215879e-01
  7.5854532e-02
 -9.7329140e-02
 -5.7008550e-02
 -4.5373514e-02
 -1.6182296e-02
 -4.2992730e-02
  9.7051293e-02
 -1.3565318e-02
 -3.5424307e-02
 -1.9052930e-02
  2.2292873e-03
 -8.9676246e-02
  1.3462417e-02
 -6.1007835e-02
 -1.8100205e-01
  1.5026547e-03
  3.0021187e-02
 -2.1203574e-02
 -1.4246757e-01
 -1.6241973e-02
  1.0206193e-01
  1.9165807e-03
  1.5838927e-01
 -2.2213129e-02
 -6.3499063e-03
  8.3657652e-02
  2.5732467e-02
 -5.1798306e-02
  1.0260069e-01
 -9.1547230e-03
  8.9061938e-02
  4.5776188e-02
 -3.5103977e-02
  1.1206257e-02
  6.7909807e-02
  1.7296195e-02
 -4.9754310e-02
  7.5823544e-03
 -2.7814550e-02
  9.4685992e-03
  3.6349345e-02
  7.8469710e-03
  1.1208334e-01
 -6.6430867e-02
  2.9548556e-02
 -3.4549080e-02
 -7.6862611e-02
 -3.6380891e-02
 -3.0745957e-02
 -6.1354160e-02
  1.2728393e-02
  2.9133806e-02
 -9.5951296e-02
 -1.4177421e-01
 -7.6931387e-02
  8.5348226e-03
  3.4005120e-02
 -8.4247245e-03
  1.1153715e-02
 -8.5563570e-02
 -2.1483717e-02
  2.5286730e-03
 -4.7931668e-01
 -4.9189258e-01
 -1.2948431e-01
  3.3132568e-01
  1.1359325e-01
  1.8781695e-01
  2.7604789e-01
 -3.7644759e-02
 -2.8151810e-01
  7.5346535e-01
 -3.2164149e-03
  6.3556242e-01
  2.1393235e-01
  2.0054581e-02
  5.3088482e-02
 -6.6672575e-01
 -7.4131453e-01
 -2.8609911e-02
  2.9052889e-01
 -1.2065045e-01
  6.0658765e-01
  3.3618316e-01
  4.1148734e-01
 -3.2077920e-02
  1.2527832e-01
  1.7002668e-02
 -1.2089931e-01
  1.9017245e-01
  3.7991546e-02
 -3.4519706e-02
 -5.0698042e-02
 -1.1242297e-01
 -1.3907367e-01
  5.1201815e-03
 -7.9595135e-04
  4.9063161e-02
 -6.7050192e-03
  1.7546926e-01
 -7.7379145e-02
  1.2438454e-01
 -1.3581483e-01
 -6.0691696e-04
  6.1223559e-02
  1.9540831e-03
 -8.3865933e-02
 -7.0671082e-02
 -5.8116647e-03
  1.9925533e-01
  1.3675879e-01
  3.2198757e-03
  1.0006764e-01
 -6.5229074e-03
 -5.9756964e-02
 -1.9163944e-02
  1.7143661e-04
  8.2645528e-03
 -1.8980749e-02
 -1.1366085e-01
 -3.0982751e-02
 -4.8484534e-02
  1.0439547e-01
  5.8474012e-02
  7.6165772e-03
 -2.2891188e-02
 -2.1996330e-01
 -1.0475145e-01
 -8.8511844e-04
  4.4075727e-02
 -9.2603847e-02
  4.7508001e-02
  2.8525960e-02
  4.0691558e-02
 -3.0878469e-02
  7.7211759e-03
  1.0683673e-02
  9.8127117e-03
 -4.7891028e-02
  2.3915019e-02
 -8.7968327e-02
 -3.5663415e-02
  4.9878944e-02
  1.2195826e-01
 -1.2527996e-01
 -1.8940726e-02
 -7.5602606e-02
  1.2974700e-02
  1.0588753e-01
  1.2330148e-01
 -1.8401751e-01
  1.0844059e-01
  1.3429385e-01
 -1.0069467e-02
  4.1589506e-02
 -4.0507391e-02
  7.5689971e-02
  5.5815469e-02
 -3.9472871e-02
  4.1638003e-03
 -7.2128810e-02
 -1.7041637e-01
 -1.0100441e-02
 -1.7244427e-03
  4.7670029e-02
  1.3996907e-01
  5.9373170e-02
 -2.1464057e-02
 -2.1590468e-02
 -6.5910118e-03
 -6.6001005e-02
  5.2214210e-04
  3.9055978e-03
 -1.3716429e-01
 -8.9363620e-02
  4.4745587e-02
 -5.1897254e-02
  3.3980273e-02
  5.2799463e-02
  8.4136743e-03
  6.7660324e-03
 -5.3679715e-03
 -2.1747798e-01
 -3.7454739e-01
 -1.2491860e-01
  3.0135419e-02
  4.3198727e-02
  1.6730849e-01
  2.3415780e-01
 -1.1408910e-01
 -1.0806971e-01
  3.3540675e-01
  2.1349569e-01
  2.7790457e-01
  1.7886314e-01
  1.7738035e-02
 -3.1573366e-02
 -3.2713819e-01
 -2.8384990e-01
  5.4580256e-02
  2.0684715e-01
  1.7216718e-02
  1.5264909e-01
  1.2996280e-01
  3.7953204e-01
 -1.8781368e-01
  4.9799490e-03
  3.9026331e-02
  7.2940618e-02
  7.7407159e-02
 -1.4920560e-01
 -2.1451397e-01
  1.1551465e-01
 -4.8962831e-02
 -8.9642987e-02
 -6.8974540e-02
 -1.3361548e-01
  4.0873084e-02
  3.6122072e-02
  3.0437015e-02
 -1.1713124e-01
  5.0118051e-02
 -3.1977680e-02
 -5.3227888e-03
  3.3737835e-02
  2.2880504e-02
 -6.8374172e-02
  2.8859787e-02
 -2.4490288e-02
 -1.2978688e-01
 -8.1351504e-02
 -2.7029814e-02
  4.0097747e-02
  2.5218466e-02
 -8.1599578e-03
 -1.0309304e-01
 -6.6110477e-02
 -9.9343389e-02
 -1.1604888e-02
  9.4364911e-02
 -5.3310823e-02
 -1.7143494e-01
 -2.1592352e-01
 -4.5690730e-02
  4.1667733e-01
  7.9867601e-02
  8.1197374e-02
  1.2966843e-01
  1.7258519e-02
 -5.2967347e-02
 -1.6575938e-01
  4.6121012e-02
 -1.3859757e-02
 -2.7371312e-02
  5.6688301e-02
  1.4033122e-02
 -3.5245004e-03
 -8.5901909e-02
 -3.6038849e-01
 -6.9522910e-02
  6.6503912e-02
  7.4614817e-01
 -3.7032332e-02
  5.1251048e-04
  1.6263381e-01
  1.4274573e-02
  2.1200216e-01
 -1.1248382e-01
 -9.1722853e-02
  3.8996484e-02
  8.9853652e-02
  1.3409451e-01
  4.2278726e-02
  4.3997084e-04
 -2.4525859e-04
 -5.0969869e-02
 -8.2615048e-02
  1.1959064e-02
  3.8295578e-02
  3.5492897e-02
  1.3391457e-02
 -2.0196296e-02
  5.2232422e-02
  2.6696550e-02
  5.5653104e-03
  7.9644043e-03
 -2.3621149e-02
  4.0066252e-03
  2.1724408e-03
 -1.0831214e-03
  4.4271877e-01
 -2.1728151e-02
 -1.8766556e-02
  2.3113186e-02
 -2.3177804e-03
 -1.7490549e-01
 -6.1086807e-02
  2.5088495e-02
 -3.0780602e-02
  1.1031415e-01
 -2.8075155e-02
 -1.9502083e-02
  7.2503565e-03
 -2.0534357e-03
  1.4051127e-01
 -1.6078560e-02
  6.9169931e-02
  1.2092914e-01
  2.0301159e-01
  5.0248642e-02
  1.2744876e-02
  2.6456168e-02
 -2.9601907e-02
  9.6824519e-02
  2.0763338e-02
 -7.8696221e-02
  1.2623782e-01
  4.6529453e-02
  7.9130847e-03
  1.4333780e-01
 -9.2589960e-02
 -7.1932226e-02
 -3.0656276e-02
  2.6189338e-02
 -1.8627140e-01
 -7.8916550e-03
  1.2712298e-03
 -1.9976035e-02
  7.8706846e-02
  7.1065702e-02
  8.1384860e-02
 -4.9439773e-02
  6.2060364e-02
 -2.2269601e-02
  2.2840599e-02
 -1.2148012e-01
 -4.4415926e-04
 -1.8760002e-01
 -1.0866724e-01
 -3.1755980e-02
 -9.6745275e-02
  1.1162814e-01
  2.2690850e-03
  2.7669016e-02
  3.0083865e-02
 -5.2836230e-03
 -3.6928924e-03
 -2.4378600e-02
 -8.0257513e-02
  5.8465474e-03
 -1.0576806e-01
 -5.5262011e-02
  5.2727707e-02
  1.0425248e-01
 -9.0687452e-03
  2.6505634e-02
 -4.9488809e-02
 -1.6607985e-01
 -8.0194725e-03
 -1.2233400e-01
  8.1433048e-03
  4.1744043e-03
 -2.9353786e-02
  1.3321823e-01
 -3.1831242e-02
 -5.6979675e-02
  4.0480535e-02
 -9.7186767e-02
  3.5775948e-02
 -9.0939529e-02
 -4.0464513e-02
  2.3066694e-02
  2.9295253e-02
  6.4880058e-02
 -1.6194075e-02
 -5.7609409e-02
 -5.6387659e-02
  3.4131728e-02
 -3.7700462e-01
 -3.4395412e-01
  3.1508710e-02
  6.8501577e-02
  7.4121985e-03
 -1.2190633e-02
  7.6960409e-03
  4.5871980e-02
  6.1135050e-02
 -3.8608301e-01
  1.7978048e-01
  1.0853820e-01
  5.6461350e-04
 -2.2825966e-02
 -8.3684430e-02
  3.0065386e-02
 -3.0102711e-02
  3.4090437e-02
  3.4395892e-02
 -3.4085352e-02
 -3.0016307e-02
 -1.0623781e-01
  7.4444279e-02
  1.4088099e-01
 -4.7582284e-02
  3.9917514e-02
 -5.8035650e-03
 -7.0736170e-02
  6.6970199e-02
 -8.5968189e-02
  4.4951562e-02
  1.3373406e-01
 -1.5284652e-01
 -2.2122073e-03
 -2.2745769e-02
  8.4455669e-02
  5.2266877e-02
 -3.1165928e-02
  3.6085416e-02
  7.7916062e-03
  3.3561878e-02
 -6.3377447e-02
 -3.7270170e-02
  1.1567442e-01
  4.5002643e-02
 -1.5604297e-04
 -8.5500851e-02
 -7.6095127e-02
  2.0851512e-02
 -3.1546691e-01
 -1.2413026e-01
  5.1459912e-02
  2.4645573e-02
 -4.0541802e-02
  1.6081112e-02
 -6.3488185e-02
 -2.4550866e-01
  2.2723960e-02
  1.2751486e-02
 -6.9469415e-02
  8.7388866e-02
  2.2504212e-02
 -6.6124693e-02
  2.2855574e-02
  6.5058284e-02
 -2.0663407e-02
  2.2427518e-02
 -1.1627495e-01
  1.3572630e-01
 -4.0339354e-02
 -3.9266456e-02
  7.6234698e-02
 -1.0766507e-01
  1.0038409e-02
  9.3988612e-02
 -2.3906434e-02
 -1.0727956e-01
  9.7856611e-02
 -5.6488041e-02
 -3.1188510e-02
 -1.2856889e-01
 -2.1620290e-02
  1.1039830e-01
  8.2153954e-02
 -2.4963627e-02
 -2.8054592e-01
  4.0042508e-02
  1.5888332e-01
 -5.2685156e-02
 -6.3793764e-02
  1.3671863e-02
  5.1553220e-02
  6.4619031e-04
 -6.0595624e-02
 -1.1223787e-02
 -4.0764213e-01
 -2.3595683e-02
 -1.3036851e-02
 -1.0186832e-01
 -7.6107532e-02
 -1.5990594e-02
  1.6935544e-01
 -7.4084863e-02
  1.2421995e-01
  3.9260648e-02
  9.0219483e-02
  1.1002505e-02
 -2.6827848e-02
 -3.2018036e-01
  1.9926306e+00
  3.3017477e-01
 -1.8013169e-01
  9.1830468e-01
 -3.8516011e-02
 -1.4028908e-02
  1.6738978e-01
 -1.5922108e-01
 -1.0700302e+00
 -5.2561476e-03
 -2.6711848e-02
 -1.2338392e-01
 -1.6521077e-01
  1.0362694e-03
 -2.8058810e-02
  5.2664742e-02
 -3.9530665e-02
 -1.2649900e-01
  2.0183384e-02
  1.0875537e-01
  3.5457656e-02
 -1.3788728e-01
  7.4637038e-01
 -3.2811217e-02
  8.2933187e-02
  4.0975362e-02
 -7.6082773e-03
 -1.7796504e-01
  5.9109140e-02
 -2.9906777e-01
 -4.1941989e-02
  2.2960171e-01
 -5.7591200e-01
 -1.6769335e-02
  4.1443776e-02
  1.9911145e-01
  1.2425786e-01
 -1.7662877e-03
 -7.1958199e-02
 -2.0501752e-01
 -3.0566525e-02
 -9.7533268e-01
  1.3204422e+00
 -1.0586827e-02
 -1.4754836e-01
  8.2027666e-02
  1.7664336e-02
 -7.5243168e-02
 -3.8753945e-01
  3.7094366e-02
  1.8709724e-01
 -3.2510564e-02
 -3.3641379e-02
  1.6509050e-01
 -8.8989716e-03
  2.6542686e-02
 -5.4821681e-02
  8.1197983e-03
 -5.6993671e-02
 -2.5157139e-01
  1.3490979e-01
  4.8634961e-01
 -1.5401818e-01
  6.4597420e-02
 -6.8657571e-01
 -1.1421536e-02
  7.1685672e-02
 -6.6060238e-02
  3.2418728e-01
  1.2591122e-01
 -6.4018448e-03
  3.5324182e-02
  1.9901207e-01
  6.4095539e-01
  1.9341682e-01
 -4.3169845e-02
 -9.5063227e-01
  9.7464129e-02
  4.6227039e-03
 -1.2128121e-01
  1.6542424e-02
 -5.4244981e-03
  3.3481840e-02
 -3.9308887e-02
  3.5753321e-02
  1.1008114e-02
  4.3710801e-03
 -2.1202967e-01
 -4.4213403e-02
 -1.2500938e-02
 -2.3601882e-02
  1.1164200e-01
 -1.1644666e-01
 -1.6918136e-02
 -8.3273999e-02
  7.0068091e-02
 -9.8026246e-02
  1.2854686e+00
 -1.8851644e-01
  2.2362856e-02
  7.5582325e-02
 -1.3898313e-01
  3.2797780e-02
 -6.2529691e-02
  8.1970105e-03
 -4.9957912e-02
  5.2160088e-02
 -2.9661313e-01
  4.0660372e-01
 -3.5426676e-02
  3.9415527e-02
  5.8754891e-02
 -2.0044242e-01
 -2.3651816e-02
 -2.9252525e-03
 -9.9951781e-02
 -1.7916311e-01
  1.4246254e-02
 -1.5410576e-02
 -9.7065262e-02
 -1.2567097e-01
 -1.4142804e-01
  1.3497384e-01
 -4.2123642e-02
 -3.0234214e-03
 -1.3523202e-01
  4.3330818e-02
 -6.5739512e-02
  3.6433615e-02
 -1.4559820e-01
 -6.6367157e-02
 -7.4362673e-02
 -6.6158205e-02
  4.1754358e-02
  1.5356372e-01
 -2.9597230e-02
  1.7333431e+00
  1.8503247e-01
 -1.5798071e-02
 -3.0176146e-02
  1.1137029e+00
  1.0919441e-01
  5.1230001e-01
 -1.5347362e-02
  4.7032259e-02
  3.5591965e+01
  5.6563444e-02
 -9.5782503e-02
 -2.1966623e-01
  2.9486984e-01
 -4.1042817e-01
 -1.3276403e-01
  4.0365225e-01
  7.9065457e-02
 -2.4953589e-02
 -2.1684919e-01
 -8.5882828e-02
  2.4061263e-01
  7.9347879e-02
 -6.5963650e-01
 -1.1326412e-01
 -2.3536167e-01
  1.2097929e+00
 -3.6607480e-01
 -3.6648276e-01
  5.2421969e-01
 -5.4184365e-01
 -6.9807567e-02
 -2.1461986e-01
  6.9936258e-01
  9.2003711e-02
 -4.8385028e-02
  2.7091404e-02
 -3.6056824e-02
 -9.0567827e-02
  2.1552016e-01
 -1.9844680e-01
 -1.7549704e-01
  1.1347409e-01
 -8.0946997e-02
 -1.3451673e-01
 -1.8819483e-01
  5.7370476e-02
  2.9795684e-02
  9.1423437e-02
  4.0620473e-01
 -5.3943256e-03
  6.2229510e-02
 -2.5184873e-01
  3.8651514e-01
  2.3373191e-01
 -3.8189656e-01
  1.6152191e-01
  3.4248361e-01
  9.2010625e-02
 -1.3397813e-01
 -4.1205961e-01
 -3.4931472e-01
 -2.5565542e-02
 -5.6398958e-02
  1.0264259e-01
 -8.9313835e-02
  2.7209615e-02
  1.2848219e-01
 -3.1816962e-01
  1.2823500e-02
  2.6259792e-01
  1.5820378e-02
 -1.1177846e-03
 -3.1801814e-01
 -1.8943553e-01
  1.0290614e+00
  5.6061381e-01
 -4.5737821e-01
  4.6575472e-01
  1.3006191e+00
 -2.4025598e+00
  7.8398013e-01
  1.9983740e-01
  7.6437011e-02
  4.4485400e-03
  1.6904466e-01
  4.6672389e-01
  4.7431685e-02
  1.7316283e-01
 -9.8040259e-01
  7.4537349e-01
  7.2777653e-01
 -2.5810254e+00
  1.4854070e+00
  3.9031988e-01
 -3.6615074e-01
 -3.3966339e-01
  4.7366104e-01
 -6.6236895e-01
  4.0713605e-01
  7.2233427e-01
  1.2694342e-01
  5.1122528e-01
 -4.6033645e-01
 -1.2211928e+00
 -6.1417323e-01
  2.8690925e-01
 -2.0242672e+00
  1.9859912e-01
 -9.0927981e-02
 -6.1694372e-01
 -4.0744689e-01
 -5.1960029e-02
  1.4271557e-01
 -9.1145527e-01
 -2.8289002e-01
 -1.1363439e-02
 -4.5073164e-01
 -7.2321594e-01
  4.5437720e-01
 -8.1362665e-02
 -9.6492255e-01
  3.5521838e-01
 -3.0971408e-01
 -7.1971768e-01
  5.4832631e-01
 -2.7748996e-01
 -6.5675741e-01
 -2.2019635e-01
 -1.3042681e-02
  3.9358872e-01
 -1.0883546e+00
  7.0967054e-01
  1.7062990e-01
 -7.1806192e-02
  4.4634664e-01
 -2.6672986e-01
 -6.9532669e-01
  5.2244836e-03
  4.7850043e-01
  1.2100756e-02
  1.2100756e-02
  1.2100756e-02
  1.2100756e-02
  1.2100756e-02
  5.5730838e-01
  5.5730838e-01
  5.5730838e-01
  5.5730838e-01
  5.5730838e-01
  5.7683285e-02
  5.7683285e-02
  5.7683285e-02
  5.7683285e-02
  5.7683285e-02
  2.7215755e-02
  2.7215755e-02
  2.7215755e-02
  2.7215755e-02
  2.7215755e-02
  1.6467012e-02
  1.6467012e-02
  1.6467012e-02
  1.6467012e-02
  1.6467012e-02
  1.6061407e-02
  1.6061407e-02
  1.6061407e-02
  1.6061407e-02
  1.6061407e-02
