nep4_zbl 1 C 
zbl 1.25 2.5
cutoff 10 8 80 18
n_max 4 4
basis_size 12 12
l_max 4 2 0
ANN 150 0
 -3.3346810e-03
 -1.1734069e-02
 -4.7812100e-02
  7.8613516e-03
  4.8057355e-02
  2.7200751e-02
  1.0643805e-03
  1.1577985e-03
  8.9471671e-04
 -1.2486222e-02
  2.0683087e-02
 -2.0319618e-02
 -2.7941428e-02
 -3.3116823e-03
 -8.0835016e-04
 -3.1414233e-02
 -4.9778945e-03
  1.2477618e-02
  2.3087137e-03
  7.5923599e-02
 -3.3876833e-02
  1.5960481e-02
  5.0545842e-03
  2.0248646e-02
  2.2138385e-02
  3.3272102e-02
  1.7814694e-03
  2.6290974e-02
 -1.6243152e-02
  2.0055689e-02
  3.3707224e-02
 -1.5724020e-02
  5.8408581e-02
  5.7702991e-03
  6.8139988e-03
  3.1364411e-03
 -2.3834204e-02
  3.1906974e-02
 -2.3197341e-03
  3.0111508e-02
  1.4286819e-03
 -9.2382003e-03
 -1.6233344e-02
  2.0355876e-03
 -9.0678902e-03
 -1.9433051e-02
 -8.4792720e-03
  1.3631357e-02
 -5.6910720e-02
  1.6944451e-02
  2.3858892e-02
 -2.1991480e-02
 -1.0792999e-02
 -7.4905448e-02
  6.5413043e-02
  1.9794502e-03
  1.2701978e-02
  1.4346167e-03
  8.8090347e-03
  4.7800737e-03
  4.0149670e-02
 -2.9382078e-02
  3.8896867e-03
 -9.7029479e-03
  2.1459768e-03
 -4.7696149e-03
  2.2336906e-02
  4.2628455e-03
 -6.3386853e-03
 -1.9123672e-02
 -3.9355148e-02
 -1.0594075e-02
  1.2992623e-02
  4.7335438e-02
 -1.3708450e-02
 -7.7864002e-03
  4.2644395e-03
 -2.9910583e-04
 -9.6956510e-03
  2.7163005e-03
 -1.4868312e-02
  1.8602908e-02
  3.7226643e-02
  6.8184738e-03
 -1.9405020e-02
 -3.4935169e-02
 -2.8138073e-02
  1.0208877e-02
  3.5501588e-02
 -8.0824513e-03
  2.7771616e-02
  6.9415849e-04
 -4.6464261e-02
 -3.3487631e-03
 -2.6221417e-03
  3.4156296e-02
 -1.9948991e-02
  1.2072576e-02
  4.2069599e-02
  6.6506243e-03
  7.9910439e-03
 -5.1627061e-03
  9.4356365e-04
  1.9815957e-02
  1.9131945e-02
 -1.2334430e-02
  3.7728974e-03
  4.0390294e-02
  3.1848084e-02
  6.1251046e-03
  4.2279512e-02
  1.2699292e-02
 -3.5980772e-02
  8.9578312e-03
  8.4992619e-03
 -2.0870690e-03
  3.6129612e-02
 -1.6607106e-02
  1.0002046e-02
 -7.7823293e-03
  1.1393073e-02
  1.5732655e-02
 -8.7341955e-03
 -2.4623072e-02
 -3.1584539e-02
 -1.7964581e-02
 -9.0505676e-03
  6.7992555e-04
 -6.8506435e-04
 -7.5476426e-03
  7.2128307e-03
 -8.3248643e-03
  3.8955875e-03
 -1.2858693e-02
 -3.7282977e-02
 -2.7304146e-02
  2.8669962e-03
 -2.0009490e-02
 -9.6943537e-03
 -1.1793323e-02
 -8.6475825e-03
 -5.5459039e-03
  1.2011131e-02
 -5.7153348e-02
 -2.6480513e-02
 -1.7809821e-02
 -2.6355868e-02
  6.7469995e-03
 -1.1277695e-02
 -4.6220627e-03
  9.9724636e-04
 -9.8634595e-03
  1.2294299e-02
  5.9860162e-02
  1.0164311e-02
 -2.9288454e-02
  4.6064466e-02
 -1.6943205e-02
 -8.2476875e-03
  2.0198543e-02
  1.8417787e-02
  1.0390130e-02
  3.2268319e-02
 -2.9277654e-02
 -8.8300249e-03
 -9.9996636e-03
  1.6077960e-02
  4.9084872e-03
  6.3329260e-04
  2.6508116e-03
  4.1029140e-02
 -2.9287431e-02
  1.5810871e-02
 -6.1578625e-03
 -6.4717475e-03
  2.3398269e-02
 -1.3907401e-02
  5.9513230e-04
  5.2011155e-02
 -3.0593670e-03
  5.1975437e-03
  8.7332856e-03
  1.6429961e-02
  4.1960273e-03
 -7.2587796e-02
 -2.5222942e-03
  4.6733003e-02
  2.9840326e-02
 -1.9553555e-02
  1.8101254e-02
 -7.5487741e-03
 -6.0627408e-02
  8.1674373e-03
  1.3871476e-02
  2.2326345e-02
  5.2237692e-03
  1.2914420e-02
  2.6417291e-02
  1.1140823e-02
  5.7708789e-03
  1.4587814e-03
 -1.3925943e-02
 -6.7536701e-03
  3.6681022e-02
 -4.3033399e-03
 -1.0091067e-02
 -3.4418334e-03
 -2.4130821e-02
 -3.0399052e-02
 -4.7420394e-03
  5.6168926e-03
  2.4502222e-01
  2.2792134e-03
  1.9333564e-02
  1.7420025e-04
 -2.3295363e-02
 -3.6698401e-02
 -2.3661362e-02
  1.2349361e-03
  1.8502953e-02
 -8.6429290e-02
  2.2689207e-03
 -1.9789860e-02
  8.2690822e-04
 -4.0028561e-03
  5.6442004e-03
 -1.2851319e-02
  2.1484241e-02
 -9.6727656e-03
 -1.3738957e-02
 -7.8764865e-03
  4.8545999e-03
 -2.5368495e-02
 -8.3196247e-03
 -1.5620328e-02
 -8.6897062e-03
  2.1842590e-02
  1.4837909e-03
  1.6824570e-02
  1.1836374e-02
  2.6082592e-02
 -2.2054277e-02
  2.6240195e-03
  1.5988445e-02
  7.1164863e-03
  2.8991403e-02
 -3.6917225e-04
  1.6789466e-02
  1.2007338e-02
 -1.3348019e-02
 -1.0978457e-03
 -2.4926450e-02
 -1.7871728e-02
 -1.4377826e-02
 -3.7718996e-02
  3.0746792e-02
 -6.8231272e-03
 -9.0278881e-03
 -1.6691411e-02
 -2.2188880e-02
 -1.2290867e-02
  5.2341721e-03
 -6.7943465e-03
  4.4330705e-02
  5.5951960e-03
  1.1751417e-02
 -1.5301687e-02
  8.1466818e-03
  5.1483735e-02
 -7.4333474e-03
 -2.1813508e-02
  1.7339977e-02
 -6.3051132e-04
 -2.8343683e-02
 -1.2795732e-02
 -2.8804122e-02
 -2.8057532e-02
  8.6150514e-03
  8.4899794e-03
 -1.1546088e-02
  5.7072586e-01
 -2.7645901e-02
  4.2526838e-03
  2.8734284e-03
  6.1093816e-03
 -6.7551352e-02
 -6.7429431e-03
 -3.4828328e-02
 -4.5473664e-04
 -1.8908506e-02
 -2.4629380e-03
 -5.1037478e-03
 -3.2199040e-02
  2.7116787e-02
  2.3779163e-02
  2.7245078e-03
 -4.1839167e-02
 -2.7752373e-02
  4.2763883e-03
  1.0967804e-02
  5.7122856e-02
 -1.0685349e-02
 -2.4306787e-02
  8.5880712e-02
  9.2216274e-03
 -2.1188073e-01
  1.6060021e-02
  6.3637462e-03
  1.6165863e-01
 -7.4540444e-02
  5.0136533e-02
 -4.9659698e-03
  1.4081669e-01
 -9.4329417e-02
  5.8461741e-02
 -9.9377811e-04
  1.8996270e-01
  2.0324582e-02
 -6.5174443e-01
  1.8086664e-02
  1.3572893e-01
  1.3123636e-01
 -5.2164938e-02
  9.6380100e-02
  1.8898730e-01
 -1.2994008e-03
  1.1078317e-02
  1.0448950e-02
  1.4124180e-03
 -1.4061689e-02
  2.2315389e-02
  1.2853317e-03
  3.1971827e-02
  2.9275304e-02
  3.6359013e-03
 -3.7402802e-03
  3.0176850e-02
  1.5582427e-03
  2.6057158e-03
  1.9480484e-03
  9.8923212e-03
 -4.8398510e-02
  2.2772392e-02
 -4.2208932e-02
 -5.1641697e-03
 -1.9570168e-02
 -6.5614698e-03
  8.8815261e-03
  7.1951053e-03
  1.4671344e-02
  1.9296344e-03
 -4.1709458e-03
  3.4977710e-03
  4.8243497e-02
 -1.9440623e-02
  2.9547396e-03
 -1.7995413e-02
 -1.8468151e-02
 -3.2912314e-02
  6.2017324e-03
 -1.1339888e-02
  1.6085868e-03
 -3.2323082e-03
 -9.4053373e-02
 -2.4073344e-02
  3.9739315e-03
 -2.6321597e-03
 -4.7566486e-03
 -7.0738234e-03
 -6.0912054e-02
 -3.0288579e-02
 -3.3945914e-02
  2.7825663e-02
  2.6570445e-02
  4.2476370e-03
 -6.5977499e-02
 -3.4687351e-03
 -3.9270397e-02
 -1.2871370e-02
 -2.0984098e-02
  2.2146525e-03
  2.0382950e-02
 -2.5086902e-02
  1.6250428e-02
 -1.4968891e-02
  9.0559274e-03
 -3.2564728e-03
  3.9706822e-02
  1.2904808e-02
  3.0205276e-02
 -2.2309091e-02
 -2.7881095e-03
  1.3597026e-02
  2.7027229e-02
  1.1592121e-03
 -4.9548191e-03
  2.0367051e-02
  2.0409873e-02
  9.4097794e-04
 -3.2861505e-03
  3.0418597e-03
  1.5004776e-02
 -6.0904555e-02
  9.1044215e-04
  1.9358560e-02
 -1.9018949e-03
 -1.5953287e-02
  2.8794687e-02
 -4.2110300e-03
  1.7961597e-01
  6.4721154e-03
  1.7615175e-02
  7.4948755e-04
 -2.0123288e-02
  6.7824530e-03
  9.6294680e-05
  6.1140042e-03
  9.0470174e-03
  3.0809458e-02
 -9.9999569e-03
 -2.8336121e-02
  2.2308022e-02
  2.7910750e-03
  2.7391801e-02
  6.1492426e-03
  9.5502296e-03
 -4.3811072e-02
 -1.4747593e-02
 -2.2980349e-02
 -4.5830375e-03
  5.5982242e-03
 -1.2162446e-02
 -4.3906532e-02
  9.9467486e-03
 -1.7710900e-03
 -2.5353115e-03
  3.1376511e-02
  3.7218165e-03
 -3.5252489e-02
 -1.5928497e-03
  7.4285823e-03
  5.9159496e-03
 -1.8694282e-02
  3.6869001e-02
  1.8986482e-02
 -7.3441649e-03
 -3.1376260e-04
 -2.4722642e-04
  1.3247443e-02
  2.2052801e-03
  1.6744850e-02
 -3.9902786e-04
  1.8072025e-03
 -1.2143985e-02
 -3.6708957e-03
 -2.3128701e-02
 -2.4377488e-02
 -1.8315410e-02
 -1.5030703e-02
 -1.4697430e-03
  6.6592367e-03
 -4.2236947e-02
 -1.5425836e-02
 -8.0895044e-02
 -7.4167545e-03
 -2.8394710e-02
 -9.5527889e-03
  1.2075257e-02
  1.0509295e-04
  4.7276475e-02
  6.1005438e-03
  2.1542255e-03
 -4.7315080e-03
  2.9821971e-03
 -1.9574136e-02
  2.3323605e-02
 -5.1844487e-04
  2.9947260e-02
  2.2526585e-02
  4.2985114e-03
 -1.4874728e-02
 -1.2247033e-02
  3.5070699e-02
  1.1990094e-02
 -1.9196283e-02
  6.8082437e-02
  6.0857125e-03
  2.0523278e-02
  1.3784255e-02
  2.2201682e-02
 -3.5813693e-02
  1.2539802e-03
 -1.0880517e-02
 -1.1468001e-02
  3.1849667e-02
 -1.1476113e-02
 -4.1853275e-02
 -2.4715792e-02
  2.2116615e-02
  2.4456182e-02
 -5.7543614e-03
  4.7445655e-02
  1.9078808e-03
  1.6842009e-02
 -4.5715654e-03
  5.6426164e-02
 -1.1182486e-04
  5.5658784e-02
  9.7532367e-04
 -1.6499735e-02
  5.5326908e-03
 -4.5617027e-03
 -2.2065241e-02
 -2.3448423e-02
  7.9358099e-03
 -4.8843459e-03
  1.7948272e-02
  2.6008239e-02
 -1.3843155e-02
  1.6380206e-02
  1.8731913e-03
  3.7198160e-02
  2.1455546e-03
  7.2895037e-04
 -2.8924018e-03
  1.6137209e-02
  7.3847035e-03
  7.8870048e-04
 -9.5548285e-03
 -3.0508698e-03
 -2.4084887e-02
  6.9767544e-03
 -2.2333800e-03
  6.1485212e-02
 -2.2466050e-02
  1.1365284e-02
  4.6000954e-02
  5.4890881e-03
  2.5095595e-02
  2.8099613e-02
  5.2017705e-03
 -1.9201873e-02
  4.5817625e-04
  5.6769284e-03
  6.7513674e-03
  4.4863656e-02
  1.4717069e-03
  1.7789803e-02
 -5.7729981e-03
  1.4537784e-03
 -9.1377022e-03
  1.3913068e-02
 -2.0312523e-02
 -5.0376665e-02
 -2.7708456e-02
 -1.8963594e-02
 -8.4718101e-04
 -1.3386854e-02
 -7.2774902e-02
 -3.2695159e-03
  2.3451155e-02
  1.0050549e-03
 -1.5050337e-02
 -1.9293157e-02
  4.0212232e-03
  1.3999030e-02
  2.5681479e-02
 -1.7106070e-03
 -5.1485626e-03
 -1.5614321e-02
  2.3982422e-02
 -1.8758714e-02
 -7.4290568e-03
  7.9412842e-03
  4.2668530e-03
 -3.2224961e-02
 -1.6382262e-02
  1.4152378e-02
 -8.9952187e-04
 -1.9911606e-02
 -7.8339484e-03
  9.6670780e-03
  1.5502882e-01
 -9.4260834e-03
 -6.5493570e-03
 -1.1765538e-02
  1.8563839e-02
  1.8220918e-02
  2.2550251e-02
 -1.7629804e-02
  3.3155743e-02
  2.8640363e-02
 -8.5373856e-03
  2.4757212e-02
 -1.6799040e-02
 -2.4601707e-02
 -1.0255788e-02
 -5.1039375e-02
  5.3695343e-03
 -1.1799715e-02
 -1.4871304e-02
 -2.6219485e-02
  1.2285514e-02
 -1.3304247e-02
 -2.8745493e-02
 -8.3955061e-03
 -1.5883841e-02
 -3.2865889e-02
 -1.3167564e-02
 -2.2957304e-02
  9.5424745e-03
 -3.1893754e-03
 -2.1115299e-03
 -2.6311258e-02
  7.3999148e-03
  4.0866993e-02
  5.6117615e-03
  8.7849861e-03
 -7.1782325e-03
  2.9907487e-02
 -4.5339230e-02
  1.1396781e-02
 -7.8580892e-03
  1.1042259e-02
 -1.2909718e-02
  2.7167550e-03
  4.6412527e-04
 -2.7822906e-02
 -2.5564618e-02
  1.2680245e-02
 -3.4671386e-03
 -2.3122458e-03
  2.6731414e-03
  2.6114206e-03
 -1.0066880e-02
 -1.0622703e-02
  1.0753918e-02
  9.8807961e-03
 -2.4544992e-03
 -1.5498969e-02
  1.9154038e-02
  1.7603397e-02
  6.5201172e-03
  1.8492375e-02
 -2.1891311e-02
  1.2002171e-02
  2.0765683e-02
  1.5315062e-03
  1.1441724e-02
  2.7767720e-03
 -1.6367445e-02
 -2.6077628e-02
 -4.6535148e-03
 -2.2168880e-02
 -4.8790332e-02
  3.6438938e-02
  2.6447291e-02
 -1.3360261e-02
  5.1101074e-03
 -6.1079944e-03
 -4.5920622e-01
  1.2845704e-01
  5.0026381e-01
 -1.9256327e-02
  4.9358238e-02
  1.2818971e-01
  2.6678070e-01
  6.3407132e-03
 -2.4960706e-01
  5.5833727e-02
  8.8582799e-04
  2.0749550e-03
 -5.5490565e-01
  6.3370995e-02
 -2.8757694e-01
 -2.4648604e-01
 -1.4653832e-01
 -3.1211418e-01
  1.3841043e+00
 -1.4484803e-01
  6.1127350e-02
 -2.8109748e-02
 -1.5600467e-01
 -1.2675744e-02
 -2.9165876e-01
  1.8686067e-02
  1.4098501e-01
  1.4362094e-01
 -1.5690351e-02
 -9.4175367e-03
  1.1918318e-02
 -3.5012041e-03
  2.3160206e-02
  6.9953115e-03
  3.8225193e-02
  1.1927501e-01
 -9.6907830e-03
 -2.3132295e-03
 -3.0204216e-03
  1.0088714e-03
 -2.7585078e-02
 -1.0460658e-02
 -2.1600239e-03
 -9.9449987e-03
  1.2781330e-02
 -7.3850914e-03
 -2.5802009e-02
 -3.5819183e-03
  9.5080864e-03
  2.3228683e-02
  3.1049561e-03
 -1.1458741e-02
  7.0550386e-03
 -8.2748085e-03
 -4.1004475e-03
 -3.9692507e-03
  2.5158165e-02
  2.4244202e-02
  7.7951858e-03
 -1.9204513e-03
  6.7355372e-03
  5.3622350e-03
 -2.7963454e-03
  1.7839871e-02
 -2.8109432e-03
 -5.0183330e-02
  3.4809947e-02
 -5.8530886e-03
  1.7721931e-03
 -3.9563347e-03
  2.9301902e-04
  1.4755575e-02
 -2.2475945e-03
  4.4518476e-04
 -2.0722831e-03
  2.9652201e-02
 -6.0157254e-02
  1.6160475e-02
  1.9320940e-03
 -3.8516410e-02
  3.6254169e-03
  7.2277938e-03
 -2.0325027e-02
  8.6973598e-03
 -4.7011003e-02
 -1.2080518e-02
  2.1770369e-04
 -2.3538526e-02
  1.1558588e-02
 -1.7663796e-02
 -2.8117280e-02
  1.8737726e-03
  1.5445061e-02
  1.9720765e-02
 -1.0958669e-02
 -2.3528540e-03
  1.6503703e-02
  3.3533552e-03
 -1.1088533e-03
  2.0009369e-02
 -1.1302431e-02
  2.8170349e-02
  1.8098116e-02
  1.4360690e-02
 -1.6621610e-02
 -2.6425647e-02
 -1.9302366e-03
  3.1502377e-03
 -1.5052488e-02
  3.0076557e-03
 -6.0180835e-03
 -1.4855275e-02
  2.7958171e-02
  2.5413898e-03
 -1.7587923e-03
 -4.6034856e-03
 -9.5292078e-03
  8.5133442e-04
  2.8679568e-02
  1.9798025e-02
  4.1600849e-02
 -1.2140349e-02
  2.1516727e-02
  2.9422518e-02
 -4.8335236e-03
  2.7851624e-02
  1.1027656e-02
 -1.2277630e-02
 -2.5354370e-02
 -4.0545361e-03
 -6.9605829e-03
 -1.4964755e-03
  9.8621752e-03
  4.6981994e-02
 -2.5846789e-02
  1.4974989e-02
 -6.3528627e-04
 -2.2956310e-02
 -2.4035503e-03
  1.5004652e-02
 -6.2231305e-03
 -9.3780095e-03
  7.7887471e-03
 -2.0812018e-02
 -7.9101920e-03
  2.5411429e-02
  1.1022689e-02
  3.7968624e-03
  3.1903721e-02
 -1.6680199e-03
  3.5408011e-03
 -4.8758511e-02
  1.0163177e-02
  7.1761375e-03
 -2.0534771e-03
  1.6225490e-03
  6.1125499e-03
 -1.5157993e-03
 -5.4904435e-02
 -9.9807773e-03
  2.2133147e-02
 -4.7367889e-02
 -2.7065074e-02
  6.5179035e-02
  9.5291249e-03
  1.3949849e-02
  9.1354158e-03
 -1.5818296e-03
  5.3922649e-02
  3.1504907e-02
 -5.7598152e-03
  2.5651056e-02
  2.7739520e-03
 -2.5642226e-03
 -1.5381002e-02
  3.0568117e-02
 -1.1837195e-02
 -2.6697142e-03
  1.9752842e-03
  1.8231634e-02
  2.2953875e-02
 -3.3303506e-03
  2.2685461e-02
 -1.0531653e-02
 -4.5606919e-04
  2.5164774e-02
  7.4436148e-03
 -2.5276935e-03
 -3.5560589e-02
 -1.0987328e-02
 -1.1025945e-02
 -1.1415092e-02
  1.0866963e-02
  1.6967002e-02
  1.3640678e-02
  1.7360076e-02
 -3.0652960e-03
  1.7320003e-02
  1.2194375e-02
 -8.9211566e-03
 -2.8469379e-03
 -7.2361631e-03
  6.2289851e-05
 -1.1887924e-02
 -2.7637067e-03
 -1.8484589e-02
  1.7113294e-02
  2.7900848e-03
  6.3620211e-04
  5.2025456e-02
  1.5244345e-03
  3.3370403e-03
  8.3984723e-03
 -2.9063583e-03
 -2.0055797e-02
 -5.8276290e-03
 -2.7454147e-02
 -1.6501544e-03
  1.9861234e-02
 -2.9478718e-02
 -1.2665084e-03
 -2.3801027e-02
 -1.0687895e-02
  1.2129041e-02
 -5.4705781e-03
  2.4163134e-03
  3.0445423e-02
  1.2610350e-02
  1.0409836e-02
 -3.5207674e-02
 -1.6358111e-03
  8.9394627e-03
 -1.3343599e-02
 -1.1974175e-02
 -1.1881236e-02
  4.2690415e-02
  5.2360417e-03
 -9.9314135e-03
  6.0032820e-04
  9.0796594e-03
 -1.6919304e-01
 -1.3927544e-02
  8.3822086e-02
 -2.7082497e-01
  1.3440182e-02
  5.2537638e-01
  1.1908519e-02
  1.0006682e-02
 -3.6369467e-01
 -2.7220516e-02
 -1.8260986e-01
  1.2749000e-02
 -2.5037217e-01
  2.2731531e-02
 -8.1405573e-02
  1.1015765e-01
 -3.1164372e-01
  1.2486646e-01
  1.7108244e-01
  9.7447768e-02
 -3.5690501e-01
 -1.8256140e-01
  1.9504432e-01
 -1.5887125e-01
 -3.2339025e-01
  2.4795100e-02
  2.2700094e-02
  1.0515887e-01
  9.4996253e-03
  2.2690343e-02
 -5.7657834e-02
  7.5997845e-03
 -1.2040403e-02
  2.5087634e-02
 -2.8265808e-02
 -1.9050777e-02
  4.3441630e-03
 -1.1958083e-02
  2.1045592e-02
 -1.3320835e-02
 -1.1308388e-01
 -2.3319812e-03
 -1.3140525e-02
 -4.1471836e-03
 -1.3083379e-02
 -3.8701866e-02
 -1.4695255e-02
 -2.1585891e-02
 -1.7566662e-02
 -1.6784247e-02
  4.4205189e-03
  8.8207666e-03
  2.2874039e-02
  2.3760471e-02
  1.9625133e-02
  9.7604971e-03
  2.9343000e-02
 -1.4159381e-02
  4.2940262e-03
 -8.1914933e-03
 -5.4360805e-03
  1.7211515e-02
 -4.9338127e-03
  2.5331382e-02
  2.8722551e-02
  6.1627817e-03
 -1.6474113e-03
 -4.0703453e-03
 -1.9839237e-02
 -7.9978155e-03
 -1.2405992e-03
  1.4474749e-04
 -1.0463287e-02
 -1.0201604e-02
 -8.0609033e-03
 -6.3053658e-03
 -2.2035124e-02
  3.1177341e-03
 -2.7725486e-02
  5.2195452e-02
 -1.8202916e-02
  2.5386161e-03
  1.8106595e-03
 -3.0000892e-02
 -7.5116851e-03
  1.8087201e-02
  1.3597904e-02
  9.4170896e-03
 -6.6612302e-03
  8.5348478e-03
 -3.3117466e-02
 -2.9515887e-02
  9.2022382e-03
 -7.9733618e-02
 -4.1027125e-02
 -2.6730934e-02
 -2.2706699e-02
 -2.2506347e-02
 -5.9672233e-02
 -2.8708823e-02
 -3.3652145e-02
  1.2458933e-05
 -1.1132091e-02
  7.2295158e-03
 -1.1494575e-02
  3.5713213e-03
  2.6171887e-03
 -1.8203527e-02
  1.5786305e-01
  1.9024681e-02
 -3.2037064e-02
  4.6539465e-03
  5.8154907e-02
 -4.7711369e-02
 -4.2740148e-02
  9.2595294e-03
 -6.6814288e-03
  9.5149991e-04
 -1.0943161e-02
  7.8154551e-03
  1.5251682e-02
  4.9159466e-03
 -9.4175888e-03
 -6.9783046e-03
  5.8033480e-03
 -6.4865302e-04
 -1.8689374e-02
  2.5595387e-02
 -3.5517123e-02
  9.8576797e-03
  3.5047330e-02
  3.5676695e-02
 -1.2697226e-02
 -2.0816250e-02
 -1.0271179e-02
 -3.6528558e-03
  9.9251037e-03
  1.6001057e-02
  9.2835072e-03
  6.3599511e-03
 -7.7564982e-03
 -1.4661170e-03
 -2.4950918e-02
  1.8154696e-02
  1.0448329e-02
 -7.9357317e-03
  1.5262576e-02
 -4.0888591e-03
 -5.6657307e-03
 -2.4060784e-03
 -4.3007601e-03
 -3.9695613e-03
 -2.8384926e-02
 -1.2300266e-02
  1.5453088e-02
  1.7295949e-02
  1.3572073e-02
 -3.2404629e-03
  3.9390647e-03
 -3.1510357e-02
  3.5355333e-02
  3.4138378e-02
  1.3072873e-02
  1.7078688e-02
 -2.8385509e-02
  2.7468318e-02
 -1.2717573e-02
 -2.0458247e-04
  2.1067582e-02
  9.5160125e-05
 -3.4594245e-02
  2.8711146e-02
  2.7167028e-02
  2.9600438e-02
 -5.4748617e-02
  1.2670491e-02
  5.6022462e-03
  8.4713418e-03
 -6.6233813e-03
 -2.2752473e-02
  7.9731941e-03
 -2.4794284e-02
  2.3150904e-02
 -4.3200896e-04
  3.0969175e-02
 -2.8879826e-03
  1.2662752e-02
 -7.1232663e-03
 -1.0139475e-03
  1.6223907e-02
 -3.3372682e-02
 -5.1694107e-03
 -7.1638105e-03
 -1.4868508e-02
  2.5873901e-02
 -8.8327685e-03
 -2.2174055e-02
 -9.8543782e-03
  3.6882013e-02
 -2.7624486e-02
 -1.2737825e-02
  9.4918143e-03
 -1.7207975e-02
 -1.3647485e-02
  1.5621362e-02
  3.5258237e-02
 -2.5657874e-02
  5.3084060e-04
  1.0336243e-05
 -1.9715045e-02
 -2.1144178e-02
 -1.5547032e-02
 -5.1345732e-03
  9.4182184e-03
 -2.9570874e-02
  1.8010311e-02
  1.2579365e-02
  7.5159324e-03
  3.8043529e-02
  5.5043260e-03
  5.8133770e-03
  7.7175609e-05
  4.9431720e-03
 -2.5480660e-02
 -2.9358265e-03
 -1.6391678e-02
 -4.5991517e-03
 -8.4569998e-05
 -2.3252970e-02
  2.0402946e-02
  4.8182651e-02
  7.4516591e-03
  4.5991503e-03
  3.0341474e-03
 -3.2319184e-03
  1.7680756e-03
 -1.1684293e-03
  7.4404078e-03
 -2.2781894e-01
 -1.7682493e-02
  2.4076069e-03
 -2.5535692e-03
 -1.0255699e-02
 -1.0469913e-02
 -3.8676705e-02
  2.0275800e-02
 -4.3463886e-02
  1.0767385e-02
  9.7828088e-03
 -2.0100258e-04
 -3.1216410e-03
 -8.4643392e-03
 -1.2053824e-03
 -1.1928767e-02
 -9.7988872e-03
  2.5342524e-03
 -1.2319946e-02
  8.7778056e-03
  3.2797933e-02
 -6.3803134e-05
  1.6934283e-02
 -4.8639182e-02
  6.4641563e-03
  3.2988049e-02
  5.6995754e-03
 -3.6767546e-02
  2.1842662e-02
 -9.5342631e-03
 -2.5296889e-02
 -3.2542450e-03
 -4.8278365e-02
 -1.0732118e-02
  1.2990933e-02
 -1.4141508e-02
 -7.8789080e-03
 -3.8962204e-02
  1.7537206e-02
 -3.3060338e-02
 -5.3816039e-02
 -9.6831480e-03
 -4.9852813e-03
 -2.1573533e-03
 -1.7404426e-02
 -1.1742681e-03
 -1.4087860e-02
  4.9638925e-03
  1.4188353e-02
 -1.1687991e-02
  5.3395621e-02
  2.0902833e-02
 -1.1657653e-02
 -1.2853130e-04
 -9.3698297e-03
  3.7281848e-02
 -1.2562732e-02
 -2.3931961e-03
  8.8849990e-03
 -2.7115340e-03
  2.9416369e-02
  1.9078206e-02
 -9.2433160e-03
  1.5918855e-02
  1.8841620e-03
  3.0130949e-03
  3.1197544e-02
 -1.5224783e-02
 -2.2226512e-02
  2.5055068e-02
 -3.5882462e-03
  1.3345266e-02
  1.7198103e-02
  3.3261625e-03
 -2.4671471e-02
 -1.1015041e-01
  7.6000337e-03
 -4.1277888e-03
  2.0772440e-02
  5.1073581e-02
 -1.7588096e-02
  2.8488891e-02
 -6.2091248e-03
 -1.0926351e-02
  6.5444876e-03
  2.8595829e-03
 -5.9448078e-04
 -2.6675044e-02
  1.5297544e-02
 -2.4175383e-02
  3.5332095e-02
 -1.4922390e-02
 -9.2115358e-02
  3.0007601e-02
 -7.2025144e-03
 -1.6747999e-01
 -1.3932215e-02
  9.5313638e-02
  2.5339756e-02
 -1.5590956e-02
 -4.4971555e-01
  1.3341409e-02
 -1.4439877e-02
 -3.9981797e-02
 -7.9667896e-02
  8.5688531e-03
 -4.2814999e-03
  5.9468206e-03
 -1.8257298e-02
 -4.9612201e-03
  1.1257452e-02
  7.6378673e-02
 -2.0272860e-01
 -6.1698586e-02
  3.8332786e-02
  3.7415221e-03
 -6.3028857e-02
  1.3526925e-03
 -8.6272936e-03
  1.3442041e-02
  4.2070743e-02
  4.1518956e-02
  2.0941185e-02
  3.9881378e-02
  8.2143899e-03
 -8.6250802e-04
 -2.4253239e-03
  1.5677426e-03
  7.9660462e-03
  7.9521500e-03
 -8.8110873e-03
 -9.8174252e-03
  2.2790970e-03
  4.2431187e-03
  1.1482149e-02
  4.3253875e-03
 -1.0729618e-03
 -1.2087235e-02
 -3.3220518e-03
  2.0354837e-02
  3.0167220e-02
  1.1700859e-02
 -1.4936389e-02
 -1.4246130e-02
  5.9145475e-03
  2.7675049e-03
 -2.2179509e-02
  4.4436663e-02
  1.8988291e-03
 -1.2146651e-02
  1.9143868e-02
 -1.5200246e-02
  2.8814036e-02
  3.3643600e-02
 -4.3843114e-03
  2.1215105e-02
  6.4556308e-02
 -2.6018340e-03
  1.4582988e-02
 -2.6236197e-03
 -5.5959234e-03
  1.7909585e-02
 -2.1606483e-02
  6.3782800e-03
  2.6905356e-02
  2.1201691e-03
  1.1464467e-04
  8.7291878e-03
 -1.5933899e-02
 -2.3214479e-03
  5.6494389e-02
  1.3374014e-02
  2.3306923e-03
 -2.7274430e-02
 -6.1045964e-03
 -2.6146793e-03
  3.1551749e-03
  1.0537318e-02
 -1.3957456e-02
  2.3376331e-02
  9.1190645e-03
 -1.4455558e-03
 -5.5646088e-02
  4.1577399e-02
  2.6747792e-03
 -1.3469636e-02
  7.4633501e-02
  8.4099695e-02
 -7.2026514e-03
 -2.5941392e-03
 -1.9909563e-03
  2.5270028e-02
 -5.2348282e-02
 -3.1324044e-02
 -2.3756232e-02
  3.7466048e-03
  1.0268399e-02
 -1.2762197e-02
 -3.2468825e-03
  6.8221730e-03
 -2.0394623e-02
 -1.4831847e-01
 -3.8466125e-04
 -4.2899763e-03
 -1.2999768e-02
  1.9856559e-03
  7.4717663e-03
  3.5510533e-02
  1.8604285e-03
 -4.8724379e-02
  3.1560492e-02
  5.1995162e-03
  1.1327317e-02
  2.2867540e-02
 -1.2038330e-02
 -1.5335097e-03
 -8.7547973e-03
  1.2121112e-02
 -2.3405762e-02
 -4.1578906e-03
  2.1658881e-02
  1.6603522e-02
  3.5298509e-03
 -3.5855416e-02
  2.6597152e-03
 -3.0082012e-02
 -1.7302927e-02
 -7.1284035e-03
 -7.8037707e-03
 -4.0153731e-02
 -1.7258525e-02
  1.7326329e-02
 -2.7240237e-02
 -4.4865645e-03
 -2.3118334e-02
 -4.1887998e-03
 -7.8386515e-03
 -3.2823756e-02
 -6.0415822e-03
 -2.7760094e-02
  1.2890916e-02
 -1.7281866e-02
 -1.2150993e-02
 -4.2385109e-02
 -7.1371406e-02
  1.0526428e-02
  3.1342831e-02
  1.7011663e-02
 -2.1458072e-04
  6.7772781e-03
  6.2335900e-04
  1.1252011e-02
  2.3539376e-02
 -3.9951629e-03
  4.4920024e-02
  6.2818825e-02
  2.4377715e-03
  3.5362307e-03
  5.1869778e-03
  1.8738141e-02
  6.6988831e-03
 -3.0917488e-02
 -1.8344894e-04
 -9.8666670e-03
 -3.5232306e-02
  1.3373649e-02
 -1.1294508e-02
 -2.5156735e-02
 -3.6832459e-02
 -3.0825865e-02
 -1.7473889e-03
  4.8220460e-03
  8.2006473e-03
 -4.5402035e-02
  2.2407312e-02
 -7.4147484e-03
  1.4477801e-03
  2.9357161e-02
 -8.5182523e-04
 -6.2894471e-02
  9.0963300e-03
 -1.5489400e-02
  9.7555323e-03
 -3.0840153e-02
  1.1175339e-02
 -5.3237318e-03
  2.8653465e-02
  1.4224580e-02
  2.9502947e-02
 -1.6174817e-02
 -8.3803339e-03
  1.4070855e-02
 -3.3516355e-02
  1.2067737e-02
  8.4088987e-04
 -1.1586471e-02
 -7.0394450e-03
 -3.0982379e-02
 -2.4935480e-02
  1.5121270e-03
  1.7201269e-02
  1.6897555e-02
 -1.8659906e-03
  8.2967308e-04
 -3.2136913e-03
 -4.7207256e-03
  6.7276298e-03
  2.7195953e-03
  1.3456814e-02
  2.6137356e-03
 -1.5712021e-02
  4.8111729e-02
  5.4416736e-03
  9.5732259e-03
 -5.7823937e-03
  1.2107164e-02
  4.0682298e-03
  2.0009063e-02
 -1.7508440e-02
 -1.6059974e-04
  4.0631611e-03
  1.2960399e-02
 -1.8361121e-04
 -2.5513599e-02
  1.4280571e-02
 -3.9082235e-03
 -8.0209356e-03
 -2.0247691e-03
 -1.8641526e-03
  1.8671900e-02
  1.5035088e-02
  2.6035264e-02
 -4.9051605e-02
  3.1300742e-02
 -2.3187588e-03
 -5.7863432e-04
 -7.2213551e-03
 -2.0760824e-03
 -2.0621339e-02
  2.4693616e-02
 -6.7121163e-03
 -5.2686366e-03
  2.0038085e-02
  5.2834291e-02
 -4.1025222e-04
  1.4258804e-03
  1.9223509e-02
 -1.3663616e-03
  1.7427919e-02
 -3.1979906e-03
  1.0989937e-02
  2.9492914e-03
  1.4525997e-02
  2.6559498e-02
  4.0633094e-02
  6.0919295e-03
 -4.3622078e-03
  4.0500425e-03
  1.3033977e-02
  1.4330954e-02
 -1.4591414e-02
 -2.2864735e-02
  9.8184412e-03
 -1.4049464e-02
 -1.4384733e-02
 -1.2913712e-02
  1.1177478e-02
  2.3121620e-02
 -2.8206043e-02
 -1.4351735e-02
  7.8196656e-03
 -5.2988136e-01
 -5.1288910e-02
 -6.7277990e-02
  3.0693941e-02
  1.2031430e-02
 -7.6366663e-02
  1.1887877e-02
  8.2231499e-03
 -2.1333050e-02
 -6.4552249e-03
 -7.3864581e-03
  8.4288390e-03
 -4.7989530e-03
  5.3025992e-03
  1.0317461e-02
 -2.7182458e-03
 -1.9615985e-02
  3.7223350e-03
  9.4521623e-03
 -4.0530078e-03
  4.0957364e-03
  1.2969882e-02
 -2.0360105e-02
 -1.3864310e-02
  3.5568059e-03
  1.1181255e-03
  2.2552148e-02
 -4.5188368e-04
  2.4834741e-03
  2.0316113e-02
  5.6287469e-03
  2.7429592e-02
 -4.0962953e-02
 -1.4288720e-03
  6.2050903e-03
  1.8016098e-02
 -3.6269326e-02
  6.5335650e-03
 -1.8883158e-02
  2.8057644e-02
  2.1995019e-02
  1.7938543e-04
 -8.7381303e-03
  5.8896989e-03
  6.0082856e-04
 -8.1678471e-03
 -2.2818304e-03
  1.6638588e-02
 -2.6815073e-03
 -1.9221500e-03
  2.8666176e-03
  2.2001301e-03
 -6.5331487e-03
  5.3048469e-03
 -5.3420332e-03
 -1.4270547e-02
  2.2255169e-01
  2.0902233e-02
 -1.0298891e-02
 -3.2281936e-03
  1.3827688e-02
  9.3747023e-03
 -3.8187390e-03
  6.5540825e-03
 -8.6789820e-03
  9.3980320e-03
  5.0113406e-02
 -1.8992571e-02
 -4.8402073e-03
  5.9675942e-03
  1.2032630e-02
 -1.3120233e-02
 -2.5835077e-03
  3.6752671e-03
 -4.0099360e-03
 -1.7622228e-03
  1.0643406e-02
 -6.1969599e-03
 -3.7309704e-03
 -7.4974699e-03
 -1.4161791e-02
 -1.0667110e-02
  3.1144539e-02
  2.6582927e-02
  6.1302758e-03
  2.3906982e-02
  4.4642589e-03
  1.1008754e-03
  2.2191223e-02
 -3.1905718e-02
 -2.6408663e-02
 -1.7845042e-02
  3.0342033e-03
  1.6145460e-02
  1.1242613e-02
  2.1403939e-02
  6.9933040e-03
  1.6387659e-03
  2.2951132e-03
  1.7761050e-02
 -7.7001139e-05
  5.4216376e-03
  1.9759847e-02
  1.4266390e-03
  7.6558627e-03
  2.6186706e-02
  3.1244073e-03
  2.5448177e-02
 -2.4662863e-02
  1.3673840e-02
 -2.4952663e-02
 -9.4436714e-04
 -2.8537777e-03
  3.6775593e-03
  2.0155707e-02
 -1.8841363e-02
  1.1270179e-02
 -5.6048796e-02
  7.9242952e-02
  7.2525606e-02
  1.6437903e-02
  6.3133999e-03
  6.0006988e-04
  3.4133664e-03
 -7.0543207e-02
  5.3548305e-03
 -5.1881326e-03
  2.6147002e-02
  2.8118653e-02
 -2.2131838e-02
  7.4076764e-02
  1.6952852e-02
 -6.6647348e-03
  1.2790885e-02
 -3.4073681e-02
  1.2373921e-02
 -4.8150704e-03
 -2.5880996e-02
 -4.0797092e-02
 -1.3441076e-02
 -2.1306172e-03
 -2.3197757e-02
 -7.2658653e-03
  7.5894602e-02
  4.9249013e-03
  1.1501376e-03
 -9.2237331e-03
  2.3118738e-02
  1.3783523e-01
  8.7627973e-03
 -3.1579942e-02
 -5.4573617e-03
 -1.1763704e-02
 -4.2137906e-02
 -3.4186982e-02
  3.5711456e-02
 -3.4390534e-03
 -4.2030159e-03
  7.9105664e-03
 -3.9825840e-03
 -1.1708941e-02
  2.5223609e-02
 -5.3582076e-02
  5.1835954e-02
  1.8604808e-02
  1.9392261e-02
  9.7794440e-03
 -1.0831169e-03
  2.8317766e-02
  6.3549629e-03
  3.4225419e-02
  1.7834955e-03
 -1.9955146e-03
  1.7227199e-02
  2.2495642e-02
 -2.2308093e-03
  2.2581467e-02
  8.4899887e-03
  4.8671458e-03
 -1.5300442e-02
  1.6149282e-02
  2.0320063e-02
  1.8127541e-03
 -1.2496981e-03
  5.7265226e-02
 -1.0040132e-02
  1.1654085e-02
  1.2912116e-02
 -1.0855954e-01
 -3.9686216e-03
 -1.5290248e-03
  6.4601330e-03
 -3.8951420e-04
 -9.5345788e-03
 -7.1275787e-04
 -4.1859884e-02
 -2.0487880e-02
  1.0251077e-02
  7.9337554e-03
 -1.2146621e-03
  7.9804948e-03
  2.9328582e-03
 -5.2810937e-02
  6.6323869e-04
  1.9994481e-02
 -8.4808993e-04
 -5.5928188e-03
 -1.7651729e-02
  5.9308129e-04
  7.8220582e-03
 -1.6306544e-03
  2.5969427e-03
  2.4958592e-02
  3.2640554e-03
 -1.0417144e-02
  9.1420328e-03
  1.2008769e-02
  1.5296901e-02
 -1.1962322e-03
 -9.0395166e-03
 -4.8721815e-03
  7.4833445e-03
 -2.5627896e-04
  2.0897754e-03
 -1.2110756e-03
  6.9122184e-03
 -1.3420941e-02
 -6.6751963e-03
  9.8393802e-03
 -4.5620855e-03
  1.8158183e-02
  4.8962533e-03
  1.6012371e-02
 -3.0153474e-02
  1.7118791e-02
 -5.4538590e-03
  6.2481958e-02
  7.6787448e-03
  5.1212385e-02
 -3.3647276e-02
  2.2353161e-02
 -3.3464964e-02
  2.7626213e-03
  8.9479294e-03
  1.9163685e-02
 -1.9118484e-02
  1.9116770e-02
  2.6530181e-03
  7.2942995e-03
  1.6000257e-01
 -1.6126212e-02
 -7.1418718e-02
  1.8761731e-03
 -2.3047945e-03
  5.2573951e-03
 -3.5888591e-01
  8.0547165e-03
  2.6505943e-03
 -2.1841750e-02
  9.9777365e-03
 -1.1901205e-02
 -3.0359882e-01
  1.1272042e-02
  1.6595000e-01
 -3.5357299e-01
  3.9227763e-03
  1.9226915e-01
  5.3756978e-02
 -4.5495749e-01
 -4.0468025e-01
  3.5369474e-01
 -2.0690720e-01
  3.5619054e-03
 -2.9359281e-01
  1.0247324e-01
 -6.1940454e-02
  1.3552191e-02
 -5.6251359e-01
 -8.1349602e-03
  1.2249267e-01
  5.7928842e-01
 -2.7552631e-01
 -2.7015176e-01
  7.5712234e-02
 -2.7058056e-01
 -4.3080035e-01
  1.4776073e-03
  7.9181924e-02
  2.0663692e-01
 -8.2670478e-03
  8.8371202e-02
  2.3554908e-02
 -2.4923833e-02
  2.7700339e-02
  8.4359441e-03
 -1.3753927e-02
 -1.0164112e-02
  2.8380305e-02
 -1.3415333e-02
  1.0387563e-02
 -4.7602173e-02
  9.7623067e-03
 -3.7021715e-02
 -4.4500609e-03
 -5.6541753e-03
 -6.7373361e-03
 -1.6967410e-02
 -2.0014141e-02
 -3.2061350e-03
  2.4542965e-02
 -6.2199906e-03
 -1.7615022e-02
 -8.5458010e-03
 -9.2128041e-04
  4.5280349e-03
 -3.9750142e-03
 -1.4056392e-03
 -4.1877977e-03
  3.1574920e-03
  3.3329450e-02
  3.1499371e-02
  7.4801999e-03
 -1.0163245e-02
  9.3339952e-03
 -6.7321351e-03
  1.8920965e-03
  2.3994029e-03
  2.1756668e-02
 -2.3838889e-03
  1.7083166e-02
 -3.5640571e-02
  1.0522812e-02
 -1.1434499e-02
  1.9382102e-02
 -1.5116764e-02
  2.1812677e-02
  3.6710460e-02
 -2.4575636e-02
  1.9705649e-02
 -7.9448530e-03
 -6.3625057e-03
 -2.2743039e-02
 -3.2188899e-03
 -6.6030216e-03
  7.8684669e-03
 -1.6621871e-02
 -5.2659735e-03
 -2.3155665e-02
 -1.7601904e-02
 -1.9889718e-02
 -9.2637399e-04
 -1.1948812e-02
 -1.2735904e-02
  1.0149152e-02
  1.0365605e-02
  8.9994380e-03
  1.2751600e-02
 -1.3635412e-02
  5.4368237e-03
  1.6404349e-02
  8.0286263e-04
 -1.4923736e-03
 -2.0449705e-02
 -5.1693499e-02
  1.9085085e-02
 -2.4786556e-02
 -6.8138000e-03
  1.3789103e-03
 -4.9009169e-03
 -4.9487397e-02
 -7.9173911e-03
 -2.1606468e-02
 -3.9334176e-03
  2.0609194e-02
  1.6396400e-02
 -1.5575537e-02
 -1.5981648e-02
  2.2231080e-03
  1.1320474e-02
 -2.8609907e-02
  5.6460849e-03
 -3.5046961e-02
  5.7099611e-03
 -3.4339147e-04
 -8.6824708e-03
  1.1255736e-02
  3.3635912e-03
 -4.6188114e-03
  4.3927720e-03
 -3.7008338e-02
 -4.7401551e-02
 -6.8966178e-03
  6.6301208e-03
 -2.1942722e-02
  2.7067473e-02
  7.9318797e-03
 -5.1075360e-03
  6.1559036e-02
  1.0087070e-02
 -8.8183349e-04
  7.9411335e-02
  2.6384939e-02
 -1.4039020e-02
 -1.4011865e-02
 -2.2033952e-02
 -1.8095912e-02
 -2.2845237e-02
 -6.2304772e-03
 -5.8969051e-02
  7.9017654e-03
  5.1620468e-02
  2.9525003e-01
 -5.4778918e-03
 -4.5938045e-02
  7.6195037e-01
  1.0463698e-02
 -2.0768908e-01
  7.4881680e-02
  3.6092532e-01
  6.7934585e-01
  2.5184059e-01
  3.1984839e-01
 -7.8185322e-03
  4.2778277e-01
 -2.4547900e-01
  8.7664258e-03
  1.1324957e-02
  7.1965344e-02
  3.2977890e-02
  2.0208307e-01
 -6.4874041e-01
  1.1656572e+00
  3.4509841e-01
 -5.8907405e-02
  4.7889403e-01
  6.8169069e-01
  8.1376155e-04
 -2.7791509e-02
 -3.5878986e-01
 -1.7630605e-02
 -2.3173615e-02
  7.1074497e-03
  5.4962877e-03
 -3.9075427e-03
 -4.3743048e-03
  1.0708605e-03
 -4.7082263e-03
 -4.8521045e-03
 -2.6356969e-03
 -3.4370241e-03
  5.2096206e-03
  7.9146558e-03
  1.1947946e-02
  3.5536248e-02
  2.7070363e-04
 -4.9110153e-03
  6.1152326e-03
  2.6585455e-03
 -1.0890403e-03
 -3.4353381e-03
  1.2986257e-03
 -9.8677576e-03
 -3.7346382e-02
 -3.9102184e-03
  6.5409760e-03
  7.5484961e-02
 -7.7540387e-04
  8.8438429e-02
  1.2461508e-03
  3.1022409e-02
  3.0125976e-02
 -4.0154331e-03
  1.1693590e-02
  1.1247582e-02
 -3.4896895e-02
 -6.0730525e-03
  2.3552785e-02
 -2.5973942e-02
  7.6919552e-03
 -1.6096219e-03
  1.1004495e-02
  1.7975153e-02
 -2.2814356e-02
  1.7832983e-03
 -9.2493165e-03
  6.0568162e-04
  5.0690463e-03
 -1.5613380e-03
  2.8154114e-02
 -6.8756817e-03
 -1.5076605e-02
 -4.9829569e-02
  4.1167226e-04
  7.2807344e-03
  4.2484691e-03
  1.2319352e-02
 -3.6123648e-02
  1.0002716e-02
  1.2865476e-03
 -1.9738775e-02
  2.2144735e-02
  7.3967157e-03
  9.3905665e-03
  1.2228157e-02
 -1.8330050e-03
  2.3585510e-02
  1.5727191e-03
 -5.8947509e-04
  5.3786389e-03
 -2.1215521e-03
 -1.4504823e-02
  2.7706600e-03
  1.0570999e-02
  4.8214637e-02
 -8.9963935e-03
  2.4565535e-02
  7.9550166e-03
  8.8352161e-03
 -1.8819667e-02
 -1.7611615e-03
 -2.8168382e-03
  7.2720405e-03
  2.7014248e-04
 -5.0791945e-02
 -2.6784897e-02
 -1.7820991e-04
 -7.9495357e-03
 -8.9721158e-03
 -4.8125554e-03
  1.0589887e-03
  2.0151377e-02
  4.1300976e-03
 -2.9745717e-03
 -1.1134243e-02
  5.6021404e-02
 -9.5661758e-03
 -2.0695321e-02
  3.1489033e-02
  7.8365048e-03
 -2.3657712e-03
  8.8224169e-03
  4.2011812e-02
 -1.1231869e-02
  2.7815681e-03
  2.7666183e-02
 -2.0905778e-02
  1.4625827e-02
 -1.8898280e-02
 -1.1231139e-01
 -3.0107157e-02
  3.2184306e-03
  1.1331799e-02
 -1.4683761e-02
  3.6934242e-02
 -4.5959568e-03
 -4.0530534e-03
 -1.9784505e-02
  2.5588980e-02
  2.0671485e-03
  1.3430027e-02
 -7.0789936e-03
  1.3524366e-02
 -9.6696252e-03
  1.5029442e-02
  7.8418804e-03
 -1.0436554e-02
  1.0968834e-02
 -3.0316899e-03
  1.5471131e-02
 -3.1924181e-02
 -4.1486830e-02
  1.1646657e-02
  1.8122477e-03
  5.2285295e-02
  7.9200584e-03
 -1.2471672e-03
 -1.5468009e-02
 -3.1411131e-03
 -1.0524944e-03
 -3.2376330e-02
 -2.5821939e-02
  1.7550394e-02
  1.4542277e-02
  5.4305899e-03
  5.1082815e-03
 -2.8739171e-02
 -2.5066584e-02
 -8.3226047e-04
  1.3884130e-02
  1.4511960e-02
  6.6910861e-03
  1.5429182e-03
 -5.8321785e-03
  3.9179940e-03
 -2.4491416e-02
  4.6167560e-03
  2.8629968e-02
  1.5846973e-03
  1.7814474e-02
  2.1143736e-02
 -1.2313496e-02
 -6.7855050e-03
  5.4620355e-03
  4.6020984e-03
  3.4240071e-02
  3.2880176e-03
  3.6745340e-02
  2.7825208e-02
  6.9752634e-03
 -7.1358762e-04
 -1.9960066e-02
 -1.3048335e-02
  1.3442293e-02
 -1.0535901e-02
  2.7220275e-02
 -4.7021061e-03
 -3.9200643e-03
 -3.6733195e-02
  4.7828909e-02
  1.0607728e-02
  1.4932196e-02
 -6.3838720e-02
  4.0365173e-04
  2.0509919e-02
 -2.1732418e-01
  1.0506795e-06
  1.2925218e-01
  2.0971650e-03
  1.4811070e-02
 -3.2385561e-01
 -5.6278887e-03
 -5.8722380e-03
 -2.4924448e-02
 -7.8637905e-02
  8.3574437e-02
 -4.0361296e-02
  2.5043050e-03
 -2.0406117e-01
  6.0352809e-03
  2.1016051e-01
  2.0227869e-01
 -2.0660144e-01
 -1.9937426e-01
  6.4669453e-02
 -2.4234229e-01
 -2.0349503e-01
  3.7337821e-02
 -9.3753487e-03
  7.1830422e-02
  3.4090161e-02
 -1.6237268e-02
 -9.8491507e-04
 -2.1082964e-02
 -2.5701765e-03
 -9.8954309e-03
  1.8706447e-02
 -7.6512893e-04
  5.3025782e-03
  7.7618361e-03
  1.0929779e-02
 -1.4247421e-02
 -4.7642197e-02
 -2.5471612e-03
 -1.4923145e-02
  2.9800797e-03
  8.1551615e-03
 -1.8317960e-02
  1.4080761e-02
  1.3435101e-02
  5.7054926e-03
  1.3807612e-02
  3.1148164e-02
 -6.0296478e-04
 -1.5858667e-02
  7.2816820e-03
  1.7169470e-02
 -4.9241778e-04
  2.9850103e-02
 -2.4440013e-02
 -1.7317707e-03
  7.5293891e-04
  1.2117648e-02
 -3.0718166e-03
  7.1281204e-03
  1.0930353e-03
 -1.0890487e-02
  3.1256392e-03
  3.4795929e-02
  1.3836553e-02
 -4.1904189e-03
  6.8563046e-03
  1.4726925e-02
  1.4847726e-02
 -2.1955341e-02
 -1.6386282e-02
 -5.7008853e-03
  1.4285852e-02
  6.4759301e-03
  7.7568425e-04
  2.4526557e-02
 -1.4344771e-01
  4.5317523e-03
  2.2601793e-02
  3.0701216e-03
  1.6738541e-03
  2.4553077e-02
  1.3963108e-02
 -2.1594897e-02
  1.1581567e-02
 -2.1071520e-02
 -7.9397317e-03
 -9.0403389e-03
 -2.0240137e-02
 -7.2866650e-03
  6.0472661e-03
  7.0228623e-03
  3.2598812e-03
  2.7903374e-03
  1.4187852e-02
 -9.0300562e-03
 -2.2427291e-03
 -1.3340409e-02
 -1.9356823e-02
  6.5618947e-02
 -1.5770724e-02
  4.4084366e-02
  3.1764403e-03
  6.1574765e-03
 -1.4819746e-03
 -6.2374026e-02
  1.2479366e-02
 -8.3306013e-03
 -1.9780179e-03
 -1.8865984e-02
  1.7200602e-02
  3.4359470e-02
 -1.8885553e-02
  1.9281300e-02
  3.4683526e-02
  1.3927816e-02
  2.8485915e-02
  1.1502680e-03
  3.5330381e-02
 -8.5355509e-03
 -1.2403583e-02
 -8.9476649e-03
  2.8915973e-02
 -1.1510781e-02
  1.1421923e-02
 -1.4918299e-03
  4.4693081e-03
 -2.7875612e-02
 -1.1198162e-02
 -1.2547901e-02
  6.5422026e-03
  1.3084943e-02
 -9.2933588e-03
 -1.9204119e-02
  1.4671723e-04
 -1.1558374e-02
  1.9479243e-02
 -2.9846006e-03
 -9.9506071e-03
  5.7363473e-03
 -5.7138465e-03
  1.6697846e-02
  1.1224613e-02
 -1.5235754e-02
 -2.5906467e-03
  1.2777708e-02
 -1.3125050e-02
  3.7375838e-02
 -1.6117665e-04
 -6.6629271e-03
  2.5868353e-02
  8.7196618e-02
 -1.3506564e-02
  4.4918731e-03
  2.0655841e-03
  6.5050707e-03
 -2.9903590e-03
  6.1491318e-03
 -5.8244490e-03
  8.3536195e-04
 -1.1556322e-02
  2.0683302e-02
  1.2261629e-03
  3.8704403e-02
 -1.4024992e-02
  9.5737996e-03
  1.6135855e-02
 -2.6065748e-02
  9.7273411e-03
 -5.8235954e-03
 -1.8748647e-02
  1.1165733e-02
 -6.3931835e-03
  6.7756218e-03
 -3.9178605e-05
 -8.0129365e-03
 -9.6739978e-03
 -7.2740209e-03
  1.3575753e-02
 -1.1381221e-02
  3.3675379e-03
 -9.8334542e-03
 -3.1778451e-02
 -2.8720796e-02
  3.1621207e-02
  3.8528296e-03
 -2.1572415e-02
 -7.2368339e-04
 -7.1042491e-04
 -2.5196078e-03
  1.1832787e-02
 -1.4227816e-02
  3.9488655e-02
 -1.0138759e-02
 -7.7866339e-03
  1.6697492e-02
 -9.9993451e-03
  2.9176747e-02
  1.2120713e-02
  9.0572247e-03
 -4.6228436e-03
  1.0277880e-02
 -1.8354282e-02
 -8.2501443e-03
  2.8375639e-02
 -7.6889366e-02
 -4.3697925e-03
 -3.9930430e-05
  5.6005586e-03
  9.4594816e-03
  1.5496062e-03
 -1.6952530e-02
  1.0052627e-02
  3.9357957e-03
 -5.4789875e-03
 -2.9645983e-02
 -6.8464600e-02
 -4.0792204e-03
  1.7031984e-03
  3.1677026e-03
  2.0431604e-02
 -1.2048934e-02
 -3.9059441e-03
 -6.3852216e-03
  2.4544833e-02
 -2.5292623e-03
 -1.1656105e-02
  4.0072538e-02
 -1.4215998e-02
  8.6889900e-03
  1.3475149e-03
 -8.0389027e-03
  9.7166887e-03
  2.9069789e-02
  1.6962408e-04
 -3.0971766e-02
  6.6537280e-03
  3.4769338e-03
 -7.7047851e-04
  5.6840960e-02
  7.7344864e-03
  8.6502160e-04
  1.5098743e-02
 -9.1297720e-03
  1.1082978e-02
  2.4144629e-02
  5.5614885e-02
  2.2031385e-02
  4.4077165e-02
 -9.9947229e-03
  6.0534040e-03
 -2.4077662e-03
 -9.7315311e-03
 -3.4405716e-02
 -1.6034301e-02
  4.1690236e-03
 -1.1134696e-02
 -2.8873531e-02
 -2.3385391e-03
  1.2625017e-02
 -1.4409588e-02
 -2.6037383e-03
 -3.0798819e-03
 -1.5968548e-02
 -9.8157711e-03
  3.1912950e-04
  1.3004247e-02
 -1.7410177e-03
 -7.7567841e-03
  3.1017702e-02
  3.9468888e-02
 -2.2692362e-02
  1.6213890e-02
  2.3260109e-02
  4.9717516e-02
 -1.1941519e-02
 -2.8456837e-02
 -3.2798160e-02
 -1.4105738e-02
  2.0578822e-02
  3.0133788e-02
 -1.8864434e-02
 -8.3439046e-04
 -3.2895915e-02
  6.2585301e-03
  4.6701580e-03
 -5.4593512e-04
 -9.0039512e-03
  2.1052282e-02
 -1.5314963e-02
  4.8426617e-02
  1.3064793e-02
 -2.0042699e-02
  9.6784364e-03
 -1.0214716e-02
 -1.3333603e-02
  9.7211049e-04
  3.8974436e-03
 -1.0155065e-02
 -8.1910711e-04
 -3.3477508e-02
 -3.1051210e-03
 -8.9635551e-03
 -1.3449818e-02
 -2.2004303e-02
  3.2416962e-02
 -1.7266432e-02
 -4.3082751e-02
 -1.2616907e-02
  4.8963367e-03
  1.3043094e-02
  1.0669773e-02
 -1.1593436e-02
  1.0974810e-02
 -1.5346709e-02
 -1.4959803e-02
 -1.9010479e-02
 -9.6511915e-03
  1.4511338e-02
 -1.0731470e-02
  4.6919938e-03
 -8.2550850e-03
 -2.1919973e-02
  6.2074361e-04
 -1.8463131e-03
 -5.1820613e-03
  9.0142889e-03
  1.4523534e-02
 -4.7388119e-03
  2.4787387e-02
  2.2642834e-03
 -2.2688976e-03
  4.4766662e-04
 -8.7253554e-03
 -1.1967736e-02
  1.2641638e-02
  9.2974193e-03
  6.2200101e-03
 -3.7034892e-03
  6.1273982e-04
  2.6223676e-02
 -9.9152084e-03
  9.2919096e-03
  5.6300843e-03
 -2.7426813e-02
 -4.8508733e-03
  8.2057323e-03
 -2.1887233e-02
 -1.7563289e-02
  2.0868167e-02
 -1.2922185e-03
  1.5872634e-03
 -1.2583046e-03
  6.7269532e-03
  1.5412718e-03
 -1.1791386e-02
 -6.7539806e-03
  3.3088895e-03
  2.6441842e-02
 -7.0154220e-03
  7.1679875e-03
  1.6099410e-02
 -5.6665377e-03
  4.4423463e-03
 -4.1642543e-03
 -1.8994138e-04
  3.8991489e-03
 -3.6299855e-02
 -2.5737163e-02
 -8.5579017e-03
  8.7084351e-03
  5.5446392e-03
  1.4773235e-03
 -1.5053008e-03
  8.4422827e-03
  1.4213569e-02
  3.0266684e-03
  7.0684943e-03
 -3.0523925e-03
  6.0598264e-03
  3.8093388e-02
  1.4606321e-02
 -8.7449970e-03
 -6.8574310e-03
 -7.0710648e-03
 -1.5964566e-02
 -3.6603359e-03
  4.7100894e-02
 -1.0573508e-03
 -5.8407411e-03
  4.0510070e-02
  1.9818728e-01
 -1.3254557e-03
  2.7331507e-03
 -3.2559432e-02
  4.2267784e-02
 -1.6976258e-02
 -6.4332620e-03
 -5.2998222e-02
  8.6117478e-04
 -7.7971100e-04
  7.5507965e-03
 -1.6888352e-02
  1.4411052e-02
 -2.1876594e-02
  1.0733261e-02
  2.8340190e-03
 -5.7852678e-02
  2.3770876e-02
 -1.1287834e-02
 -1.4351185e-02
 -1.1576586e-03
 -4.4201747e-02
  1.2327977e-02
  7.9229167e-03
  1.4514650e-02
  6.7114290e-03
 -1.1535340e-03
 -3.4176130e-03
 -1.2869652e-01
  2.7211881e-03
 -1.7139995e-03
 -3.2140203e-02
 -6.4297102e-02
 -1.2595593e-02
 -2.1534780e-02
 -1.1794249e-02
  2.6980764e-04
  1.1455016e-02
  3.1289954e-02
  1.3112909e-02
 -4.6634902e-03
 -1.0940005e-02
  8.1225988e-03
  4.6968549e-03
 -1.2932406e-02
 -2.9078801e-03
  5.6479942e-02
  1.3503685e-02
  2.1324374e-02
 -3.2044608e-02
 -4.7532942e-02
  5.5683523e-02
 -1.7822854e-02
  9.2527401e-03
 -1.0121139e-03
  3.3292823e-02
 -2.2072555e-01
 -1.4447884e-02
  1.4934343e-01
 -3.4481773e-01
 -5.9440248e-03
  4.6557805e-01
  1.5045982e-02
 -6.3631259e-02
 -4.4193968e-01
  1.3124201e-02
 -2.2997707e-01
  5.5071601e-04
 -1.5690535e-01
  1.8796499e-01
 -8.2845964e-02
  1.0175935e-01
 -4.1790396e-02
 -2.9848631e-02
  2.6451606e-01
  1.3574742e-01
 -2.7352411e-01
 -1.2100586e-01
  1.0456160e-01
 -1.4598520e-01
 -2.5770059e-01
  2.1177700e-02
  4.5240927e-02
  4.8653934e-02
  3.1627636e-02
  6.6574914e-03
  8.3434135e-03
 -3.9370656e-02
 -7.2225761e-03
  1.0927227e-02
  9.6300282e-02
 -2.6642401e-02
  2.4610981e-02
 -2.4063110e-02
  2.7651558e-02
  5.4223267e-03
  2.6503820e-02
 -3.6986861e-05
  5.4863882e-03
 -1.8054979e-03
 -2.3062830e-04
 -2.8348970e-04
 -4.0310785e-02
 -4.5036769e-04
 -3.0456150e-03
 -2.6621271e-02
  3.1126432e-02
 -1.8879566e-03
 -2.1366401e-02
  1.2163501e-02
 -3.5339773e-02
  1.4073466e-02
  2.5343833e-02
 -3.3420492e-02
  9.7643891e-03
  2.7620094e-03
  2.0471066e-02
 -6.3505517e-03
 -4.2245767e-04
  2.6857309e-02
  6.2506329e-03
  2.2129925e-02
 -3.6094025e-02
 -3.2927892e-03
  2.2513133e-02
 -2.0739090e-02
 -1.0070013e-03
 -1.6871855e-02
 -1.4156757e-02
  1.2093498e-03
 -1.2421371e-02
 -3.0748272e-02
  1.7918972e-02
 -9.5656859e-03
  1.7243739e-02
 -3.4518734e-02
 -8.2490258e-03
  2.2340138e-02
 -9.6990541e-03
 -1.0147820e-02
 -2.5967781e-02
 -5.8971536e-03
  2.7544841e-03
  2.9054658e-02
  2.0674735e-02
  5.6101223e-03
  1.1258730e-03
 -1.2425427e-02
  9.5614595e-03
 -8.6254682e-03
 -1.3838679e-02
  2.9506091e-02
 -1.2798719e-02
 -8.6574657e-03
 -9.6276999e-03
  1.4716991e-03
 -9.1884742e-03
  3.5587702e-02
  2.1829218e-02
  1.2935895e-02
  2.7910477e-02
 -1.2383970e-02
  1.1797948e-02
  3.8476847e-03
 -1.8564004e-02
  4.0683881e-03
  1.1603911e-02
 -5.0168545e-03
  2.7563381e-03
 -3.0872831e-02
 -8.9796316e-03
 -2.0166792e-03
  6.5939501e-03
  1.4416241e-02
  5.3618156e-04
  1.5480618e-02
  8.5097365e-03
  2.5154907e-02
 -1.5008710e-02
  1.0070907e-02
 -9.7094178e-03
 -4.8009502e-03
  3.9626461e-02
 -3.8790072e-03
 -5.4725017e-03
 -6.8819267e-05
  1.3670160e-02
 -4.4661812e-03
  2.9185757e-02
 -1.1183537e-02
 -1.8099038e-02
  7.3315664e-03
 -8.0924230e-03
 -9.4652902e-03
 -6.1682737e-03
 -1.9892096e-03
  4.8706424e-05
 -2.3967965e-02
  1.4487860e-02
  7.2869542e-03
  1.6634809e-02
 -1.9331307e-03
  1.1929792e-02
 -2.3871629e-02
 -1.5755881e-04
  5.5374028e-03
  3.5840672e-02
 -8.0315210e-03
  8.0830930e-03
  6.4980509e-03
 -5.0695036e-03
  1.2164192e-02
  1.0025002e-02
  4.8369733e-03
  2.5833875e-03
 -2.1327304e-02
  7.5917635e-03
 -2.0717381e-02
  3.4085512e-02
 -1.0384790e-02
 -8.2333898e-03
 -2.8770864e-03
 -3.1606235e-02
  3.5262272e-02
 -1.3052753e-02
  1.4098476e-02
  1.5670556e-03
  5.5189906e-03
 -1.6712697e-02
  7.8078208e-04
 -1.0323782e-02
  5.9484853e-03
  3.9898660e-02
 -2.0509144e-02
  2.3103138e-03
  1.4796948e-02
  1.2838189e-02
 -7.8663515e-04
 -4.7264812e-03
  2.5071366e-02
  3.1736225e-02
 -1.0842850e-02
  1.7045594e-03
 -4.8663862e-02
 -2.4361515e-02
  8.3307475e-03
 -6.3625048e-03
 -7.4857087e-03
 -1.9523120e-02
 -1.8264176e-02
  4.7866143e-03
  7.1068080e-03
 -3.2044139e-02
  1.7724667e-02
 -1.9695520e-02
 -2.0082390e-02
  2.8865435e-03
 -4.1728741e-03
  7.4478998e-03
  5.7628234e-03
  3.6168057e-02
  1.3205475e-02
 -5.7751769e-03
 -5.8637392e-03
  1.2332474e-02
  1.2218032e-02
  3.6395457e-02
 -5.1484574e-03
  2.8312948e-02
 -4.3343145e-01
 -1.2543658e-02
 -1.7670078e-02
 -7.1009337e-03
  2.5008682e-03
 -8.4327897e-03
 -5.4528844e-04
 -2.8086687e-02
  7.3308512e-03
 -1.8815318e-02
 -2.1555722e-03
 -5.7155364e-03
 -2.9173493e-02
 -2.8923631e-03
  3.0288650e-03
  1.7248105e-02
  1.1477517e-02
 -5.4892055e-03
  6.3163698e-02
  1.7157231e-02
 -3.0314166e-03
  3.2533184e-03
 -2.0371431e-02
 -1.0451926e-02
  5.4137208e-03
 -4.5179441e-03
 -4.8308470e-03
 -4.2269614e-02
 -1.5280439e-02
  5.9960759e-03
  2.8408641e-02
 -3.8566258e-02
  1.7124567e-03
 -1.3105434e-02
  1.9788638e-02
 -3.8043002e-03
 -4.6659014e-03
 -3.7222382e-02
 -1.7917581e-02
 -1.4391015e-02
 -2.1728370e-03
  9.2255548e-03
 -1.6175322e-02
 -2.0473136e-02
  1.4866700e-03
 -9.6573047e-03
 -9.0064844e-03
 -5.1250633e-02
 -1.0218281e-02
  2.3049053e-03
  2.8582877e-03
  1.0531356e-02
 -6.5046335e-03
  5.8033690e-03
 -2.3673071e-02
 -1.7444475e-02
  5.6717511e-02
  6.7088115e-03
 -5.4158736e-03
 -2.6112892e-02
  2.1912711e-04
  4.0880315e-02
  7.7414531e-03
 -9.1223628e-04
 -2.6846258e-02
  3.5439055e-02
 -7.5459378e-03
 -9.0538580e-03
  4.8176546e-02
 -7.4514411e-03
 -5.6124958e-03
 -3.2582048e-02
  1.5336049e-02
 -1.2764814e-03
 -3.3117135e-03
 -1.9914834e-03
  1.2736484e-02
 -3.5802763e-02
  2.7197970e-02
 -1.9900003e-02
 -3.4914366e-03
 -2.8496692e-03
  4.5421775e-03
  2.5886467e-03
  1.3109894e-02
 -1.5187908e-02
  9.7965188e-03
  1.4948328e-03
  3.0754338e-04
 -2.2507647e-02
  2.4005495e-02
  1.7313506e-02
  5.2050848e-02
  1.6241772e-02
 -1.6639832e-02
 -1.4701881e-02
  6.5823854e-03
 -3.2795025e-03
 -1.8339584e-02
  2.2830710e-02
  1.3135605e-02
 -3.0495087e-03
  8.0799973e-03
  3.9274893e-03
  1.4720207e-02
  1.3411889e-02
 -2.3039132e-02
 -2.3813795e-02
 -8.5649062e-03
 -4.0214625e-03
  1.1821301e-02
  6.3306903e-03
 -1.7683320e-03
 -2.8990125e-04
  3.9291214e-02
  5.5731907e-02
 -5.5502378e-03
 -5.0756373e-03
  7.8509776e-03
 -1.0385026e-02
  9.0637365e-03
  1.1844074e-02
  3.9821453e-03
  2.2263110e-02
 -1.0184793e-02
 -1.4343305e-03
 -1.8801513e-03
  1.2305430e-02
 -5.1081862e-02
  2.2152146e-02
 -1.8686219e-03
  1.6876596e-03
 -2.8883766e-02
 -1.0914722e-02
 -7.7443798e-03
  2.9513270e-03
 -1.9219901e-02
 -2.0326767e-02
 -1.2862816e-02
  1.9199131e-02
  9.5488690e-03
  7.1463040e-03
 -1.8415490e-02
  1.1616299e-01
  6.6506560e-03
  1.6549519e-03
  7.8882359e-02
 -1.1809113e-03
  1.8661236e-03
 -3.1121258e-02
  3.5326837e-03
  3.7685793e-03
  1.8868626e-04
 -2.4505174e-02
 -5.1188837e-03
  2.6381874e-02
 -1.4314689e-02
  1.3619494e-02
  1.2832546e-03
  6.9445246e-03
  1.5793879e-03
 -2.2006603e-03
 -1.5924461e-02
  2.6626447e-02
 -7.6676845e-03
  1.2310398e-02
 -2.8530264e-03
 -1.9090535e-02
 -2.2653718e-03
  8.2676075e-03
 -2.0074235e-02
 -3.0790870e-03
  1.5895147e-03
 -4.0272968e-03
 -1.4806862e-02
  4.4233922e-02
 -5.7967524e-03
 -9.8865973e-03
 -3.2494296e-03
 -4.2553909e-02
 -3.0028528e-02
 -2.8350521e-03
 -9.5215347e-03
  4.2222664e-03
 -6.5326849e-03
 -4.9673699e-02
  8.4615722e-03
  2.4794335e-02
  5.4600895e-03
 -1.4061567e-02
  1.5764248e-02
  1.1667683e-02
 -9.2345206e-03
 -1.1124725e-02
  5.4460891e-02
 -1.7174440e-04
 -9.6381325e-03
 -2.5198884e-02
 -5.2457014e-03
  2.7587639e-02
 -2.5159253e-02
 -4.0268235e-02
 -2.3030719e-02
  5.3993408e-03
  2.5826683e-03
 -7.5410925e-02
  6.7603574e-03
  5.0150251e-01
 -6.6444697e-03
 -3.0745772e-01
  6.9449449e-01
 -5.9917014e-02
 -8.3952969e-01
 -5.3392726e-01
  7.4396208e-02
  4.2831445e-01
 -7.9812214e-02
  3.8854021e-01
 -7.8305937e-02
  1.8829742e-01
 -2.8861669e-01
  4.7500050e-03
 -6.2823105e-01
  5.1211518e-01
 -8.2547925e-02
 -2.4202442e-01
  1.1676529e-01
  6.4600569e-01
  3.8553575e-01
 -4.6341118e-01
  6.0766846e-01
  4.7602001e-01
 -1.7018864e-01
 -2.4752074e-01
 -3.0913961e-01
 -1.5828062e-02
 -4.5808945e-02
  3.4857986e-03
 -1.8480891e-02
 -5.6834776e-02
  3.2649403e-03
  1.1742030e-02
 -3.0598373e-03
  7.3156663e-04
  6.2402668e-03
 -5.5622768e-02
 -1.0822050e-02
  6.7965821e-03
 -5.2946070e-05
  9.4627747e-03
  2.5529079e-02
  1.7973987e-02
  5.3952867e-03
  8.9465138e-03
  2.6782680e-02
  1.8374352e-02
 -1.2492608e-02
 -5.1219631e-02
  8.1744362e-03
  3.7574753e-02
 -2.7619535e-03
  7.3896809e-03
 -4.1593155e-03
 -1.4303889e-02
 -3.6219571e-02
 -2.0761125e-02
  2.8713518e-03
 -6.0524708e-03
 -4.4891257e-03
 -6.3264631e-03
  6.7923022e-03
  1.5566634e-03
  1.9918978e-02
  2.6116619e-02
  5.1188939e-03
  4.6095029e-03
 -6.8703895e-03
  1.0482414e-02
  1.0561538e-02
 -4.1374415e-03
  1.9225208e-02
  2.1061320e-03
 -2.9635295e-02
 -3.0142535e-02
  2.2105392e-02
 -5.3104941e-02
  2.1599025e-02
 -2.9911289e-02
 -2.5369080e-03
  2.9924544e-02
  1.5404705e-02
 -3.0039230e-03
 -1.4338132e-03
 -4.7904951e-03
 -4.6279039e-02
  5.1075346e-03
  9.2379737e-04
  5.0248671e-03
  4.9799401e-03
  1.1583844e-02
 -5.7339028e-04
 -1.0171766e-02
 -1.2277151e-02
  8.6267442e-03
 -1.4981640e-02
  6.8919286e-02
 -2.4415681e-02
 -2.6615374e-02
  1.0197935e-02
 -4.5580212e-03
 -1.7959811e-02
 -3.1854838e-02
 -2.6639297e-03
 -3.3498362e-02
 -1.1010449e-02
  1.0377272e-02
  2.0489708e-02
 -2.0471219e-02
  2.3283123e-03
 -5.0049182e-03
  2.0983832e-02
 -6.2340177e-03
 -2.2796772e-02
 -1.5275113e-03
  4.7414717e-03
  2.0406421e-02
  2.6847506e-02
 -1.3372962e-01
 -9.7455112e-03
  1.1419808e-01
 -3.2641861e-01
 -7.8419754e-03
  2.7524391e-01
 -8.6648583e-02
 -1.9804662e-02
 -2.1372397e-01
  2.2726688e-03
 -1.1994448e-01
  4.4762185e-03
 -1.1072654e-01
  5.1841019e-03
  2.1347908e-02
  4.9094442e-02
 -5.9081685e-02
  1.4643562e-03
  2.1227831e-01
  1.1590435e-01
 -2.3739378e-01
 -1.8573345e-01
  4.3211449e-03
 -1.9818291e-01
 -3.0251268e-01
  4.7561105e-02
  6.1763446e-03
  5.5297647e-02
 -1.4112808e-03
  7.8745812e-02
  1.6973581e-02
  3.3495791e-02
  1.5855697e-03
 -3.3120152e-02
 -4.6992857e-02
 -1.6237602e-02
  9.9330861e-03
 -2.9033048e-02
 -2.4983902e-03
 -4.7923145e-03
  2.0116126e-02
 -7.5265807e-03
 -8.8500250e-03
  1.4151090e-02
  1.9417707e-02
 -2.2419731e-03
 -4.4558465e-04
 -1.5148252e-03
  1.9208008e-02
 -5.7938386e-02
 -2.8821314e-02
  3.8513802e-03
  2.1447539e-03
  1.0174473e-02
  7.5773192e-03
  2.9769067e-03
  3.4069349e-03
  2.6997896e-03
 -4.4257030e-02
  3.8577020e-03
  2.8468466e-03
  3.4137961e-02
 -1.4303732e-02
  1.1046410e-02
  7.7197147e-03
 -1.5997030e-03
 -5.0252620e-03
  1.1574269e-02
 -5.1345946e-03
 -1.7611226e-02
 -3.0485377e-02
  3.0517468e-02
 -8.1929006e-03
 -5.2500509e-02
 -1.0134873e-02
 -3.3400793e-02
  1.2077413e-02
  7.9946872e-03
  7.6255947e-03
  1.6130956e-02
 -1.7426205e-03
 -2.8507744e-03
  3.7246041e-02
 -3.2422248e-02
  4.1125622e-03
  1.3903882e-01
  3.5449557e-03
 -9.3421293e-03
  1.0428870e-02
  1.2441179e-02
 -5.5546938e-03
 -1.0523480e-02
 -2.0623909e-02
 -3.3700828e-02
  1.4562918e-02
 -1.4518615e-02
 -1.6167184e-02
 -3.3619236e-03
  1.5306263e-02
 -6.4954576e-03
 -1.9051703e-02
 -4.6589011e-03
  9.4621703e-03
  8.5402709e-03
 -2.9348893e-02
  6.0827568e-02
  2.3695104e-02
  1.8209986e-02
  6.8786773e-03
  2.5940113e-02
 -7.9379585e-03
  3.5383109e-02
 -1.0128584e-02
 -1.4700879e-02
  3.8165096e-03
  1.5698946e-03
 -1.2150055e-02
 -3.5032563e-02
  2.5304306e-02
 -1.0504223e-02
 -3.3440385e-02
  4.4158101e-02
  8.8567073e-03
 -9.4854254e-03
 -1.8573154e-02
  1.2842598e-02
  2.0206235e-02
  2.4975339e-02
  7.9727620e-03
  1.0827615e-02
 -4.0055685e-02
  1.4357455e-02
  2.7086562e-02
  2.5975347e-02
  2.3383666e-02
  1.9723577e-02
  2.7089337e-02
  7.6248840e-04
  3.4497321e-02
  6.5486230e-02
  7.7893776e-03
  9.5791705e-03
  9.7728996e-03
 -4.9267616e-03
  8.1135146e-03
 -3.3141309e-01
 -1.6850699e-02
  8.4507704e-02
  2.5630409e-02
 -8.4898034e-03
 -5.4123443e-01
 -1.2876887e-03
 -2.9031813e-02
  4.9562599e-03
  3.8655237e-03
  3.2303292e-02
  6.0562929e-03
 -2.4323096e-03
 -8.2366625e-03
 -1.8947575e-02
 -1.6877964e-02
 -3.3186059e-02
 -2.1696934e-02
 -9.3791829e-03
  1.0540787e-02
 -1.4065003e-03
  9.2110978e-03
 -9.6655814e-03
  5.7966094e-03
 -1.3641930e-02
 -2.6361672e-02
 -4.0656407e-03
  7.7720261e-03
 -1.7485447e-03
 -8.4066540e-03
  2.9313650e-02
  1.5664941e-03
  1.7388476e-02
  3.6750303e-03
 -2.9313711e-03
 -4.0478259e-03
 -8.3031617e-03
 -2.4315637e-02
 -1.3203066e-02
 -4.0358859e-03
  2.7744573e-02
 -5.4781012e-02
 -2.2883471e-02
 -1.4218514e-02
 -5.5085792e-04
  1.4093047e-03
  3.8717428e-04
 -7.1749004e-04
 -9.8570921e-03
 -4.5303456e-03
  5.0152498e-03
 -5.7265316e-03
 -2.9343611e-03
 -9.9532336e-02
  1.1053926e-02
  2.6421636e-02
  9.4016306e-03
  4.4012661e-03
 -1.9592487e-03
  1.7116077e-02
  1.1940314e-02
 -1.0078669e-02
  2.9713311e-03
 -5.1814571e-02
  2.4206195e-02
  6.4081359e-03
 -7.6614455e-03
  3.3827313e-05
  5.9711402e-03
 -2.0175776e-03
  2.2667714e-03
  1.8367786e-02
 -6.1226934e-03
 -2.1968041e-02
 -4.4882558e-03
  4.5728742e-04
  1.8724034e-03
  2.1954642e-03
  5.4644985e-04
 -1.4622361e-02
  2.9214039e-03
 -9.7378762e-03
 -7.7317365e-02
  9.2194490e-03
 -3.8719864e-03
  9.1711665e-03
 -6.2272854e-02
 -8.5330578e-03
 -8.6999685e-03
 -4.1954368e-03
  1.1552179e-02
 -8.7247724e-03
  4.5864571e-02
 -9.0862829e-03
  1.2657165e-02
  4.9081881e-02
  1.1902453e-03
  1.0098139e-02
  2.4791148e-02
 -8.9893276e-03
 -5.8026807e-03
  2.3922969e-02
  1.7821969e-04
 -1.4234529e-03
  2.9817412e-02
 -3.8812517e-03
 -2.9136436e-02
  1.6002283e-02
 -1.1152334e-02
  1.2415772e-02
 -3.4741224e-03
  5.0619379e-02
  1.6301449e-02
 -3.1944606e-04
  9.1476962e-03
  4.4160727e-03
  1.8855540e-02
  9.4362367e-03
 -4.3142043e-04
  2.1386739e-02
  3.8749784e-02
  5.4491954e-03
  1.5467849e-03
 -2.9971313e-01
  6.9423168e-06
 -1.7970374e-02
 -2.4711704e-02
  1.6334714e-02
 -2.0467272e-02
  2.3274973e-02
  9.7065512e-03
 -8.4783444e-03
  5.0471064e-02
 -1.9641995e-02
 -1.1129061e-02
  9.6726324e-03
 -1.2498344e-02
 -9.1521004e-03
  1.5578751e-03
 -5.8340053e-03
 -2.5315685e-03
 -9.3558282e-02
 -7.5916448e-03
  9.6378103e-02
  8.3337322e-02
  4.7239428e-03
 -5.5686243e-02
  1.6651565e-02
 -6.1185686e-03
 -6.7154816e-03
  1.1490569e-02
  1.9328028e-02
  1.8813526e-02
  1.6358825e-03
  2.1304559e-02
  1.3062868e-02
 -1.7454276e-02
  1.8275967e-02
  3.9065696e-02
 -5.6041712e-03
  2.7541453e-02
  6.8305270e-03
  2.7172016e-03
 -1.6134642e-02
 -4.2240530e-02
  4.7814795e-03
  2.0399592e-03
 -1.3840442e-02
  2.0279882e-02
  1.9194949e-02
  2.6293360e-02
 -8.7144338e-03
  1.3755762e-02
  2.3660962e-03
 -1.0140236e-02
  7.9162521e-03
 -2.7685487e-03
  2.3548775e-03
  2.8394386e-03
 -1.8357325e-02
  1.3807480e-02
 -2.0256633e-02
  5.9137596e-03
  3.2699604e-02
 -1.8569672e-02
 -5.3472858e-02
 -2.6619177e-02
 -9.6923504e-03
  2.6515604e-03
  2.6051529e-02
  3.9178498e-02
 -1.0627956e-02
  1.3630341e-02
 -4.5961659e-02
  8.4816152e-03
  8.7496750e-03
 -1.4827752e-02
 -8.1613809e-03
 -7.4566086e-03
 -8.3981091e-03
  1.3690733e-02
 -2.2119926e-02
 -7.5087119e-03
  5.8542173e-02
  8.7267108e-02
 -1.4197062e-02
 -1.6392507e-01
 -3.2157523e-03
 -1.2938384e-02
 -1.1892353e-02
 -3.9453958e-03
 -6.2629674e-03
  4.2611890e-02
  3.0746970e-03
  3.5736475e-02
 -2.8539604e-02
 -7.2457981e-03
 -3.8968984e-02
  1.2451476e-02
  1.8439423e-02
 -7.6509751e-03
  5.6891426e-02
  4.9808655e-02
  3.2454799e-03
 -4.1127302e-02
  2.1467941e-02
 -5.3184945e-03
  4.4534747e-02
 -9.2147179e-03
 -1.1267556e-02
  5.1579489e-03
 -1.3842976e-02
  2.8978200e-03
 -3.9864788e-03
 -2.3422327e-02
  2.6781019e-03
  1.3133658e-02
 -1.0262676e-02
 -8.3469450e-03
  1.1662331e-02
 -1.4280108e-02
 -5.8119008e-03
  1.5030123e-02
  1.0984254e-02
 -1.4199553e-02
 -5.5233758e-02
 -5.6327358e-03
  1.9677872e-02
 -2.6961907e-03
  2.8939154e-02
  1.1311191e-02
 -7.6444489e-03
 -9.1665899e-03
 -5.4297247e-04
  6.8486319e-03
  2.0076340e-02
 -1.2804826e-03
 -1.6726172e-03
  4.6532903e-02
  1.5884763e-02
  1.5760740e-02
 -1.5822808e-01
 -1.4685865e-02
  6.0123876e-03
 -1.5582005e-02
 -1.6199721e-01
 -7.0112045e-03
  6.8614450e-03
  2.0708218e-02
 -3.1790042e-03
  2.2566330e-03
 -5.8280155e-03
  4.3372354e-03
  4.7545331e-03
  1.8485609e-03
  3.2327060e-02
  4.5633102e-03
 -3.6937317e-03
  5.3988011e-03
  1.6512416e-02
  6.3224412e-03
 -1.3772057e-03
 -1.3275607e-02
 -2.4115220e-02
 -1.1252994e-02
 -2.9791561e-03
 -8.7334275e-02
  7.8461925e-03
 -2.8993401e-03
  2.5790516e-02
  3.8426552e-02
 -2.3617813e-02
  7.5188200e-03
  3.2576155e-02
  3.3380430e-02
 -7.3175755e-04
 -4.4981197e-02
 -5.8712298e-03
 -1.7082915e-02
 -8.0558303e-04
  9.8516792e-03
  6.8779825e-03
 -2.1916572e-03
  4.0694661e-02
 -9.5545147e-03
  1.2183547e-02
 -1.1481620e-02
 -6.0881875e-03
  5.2468344e-03
 -2.4491886e-02
 -3.3179868e-02
  3.2982994e-02
  5.6857582e-02
  6.2355427e-03
  1.4042094e-02
  4.7464792e-02
  2.4359807e-02
 -1.9405223e-02
 -5.3295535e-03
  3.7686867e-03
  7.5752134e-03
 -6.3201771e-03
 -1.0935016e-04
 -6.2422887e-03
 -1.5024102e-02
  1.3915364e-02
 -9.3425028e-03
 -1.0127585e-02
 -1.3141027e-03
 -2.5129169e-03
  2.9680336e-02
 -1.6129918e-02
 -3.0826756e-03
 -9.9600321e-03
 -2.4265414e-02
 -3.9880178e-03
 -1.3243855e-02
 -1.4948123e-03
 -3.1886362e-02
  1.0862806e-02
 -6.1530541e-03
  1.4188064e-02
  1.9916052e-02
 -9.8289540e-03
  5.1258050e-02
 -1.9182678e-02
  4.0833681e-04
  1.4926937e-02
 -1.4983329e-02
  5.6489669e-02
 -3.1136298e-03
  4.0442485e-04
 -1.3049429e-02
 -1.2599332e-02
 -3.7290346e-02
  2.4010220e-03
  6.1170030e-03
 -3.8124770e-02
 -1.9764740e-02
 -5.9318911e-02
  1.0053989e-02
  1.0140176e-02
 -3.5098454e-03
 -7.2673582e-03
 -1.8441681e-03
  5.8945719e-02
 -2.4714300e-02
  2.1777321e-03
 -3.2722740e-04
  5.0404877e-03
 -2.5991531e-02
  1.0432063e-03
 -5.7932120e-03
 -1.0934038e-02
 -5.4044658e-03
  5.2646818e-03
  5.1005962e-03
 -2.4219234e-02
 -1.0822002e-02
  1.5589832e-02
  1.4718330e-03
  4.4344133e-03
 -1.3782353e-02
  3.3585303e-03
 -1.5110747e-02
 -7.6189372e-03
 -1.3140721e-03
 -4.2410262e-02
  3.3045355e-02
 -5.9687975e-03
 -7.6307342e-03
  1.5238374e-02
 -2.3118688e-02
 -1.0535275e-03
 -2.0242317e-02
 -1.5330152e-01
 -3.1443425e-03
  1.0884015e-01
 -4.1803741e-01
 -6.2355679e-04
  4.1036302e-01
  1.1741764e-01
 -1.3546287e-01
 -3.4890038e-01
  4.4430876e-01
 -1.3728109e-01
  3.0953242e-03
 -2.0017567e-01
  6.9056824e-02
 -5.2315101e-02
  5.3623330e-02
 -1.8924798e-01
  9.3904948e-03
  1.8957673e-01
  1.2860051e-01
 -3.0169302e-01
 -1.8866487e-01
  1.0718375e-01
 -1.9931583e-01
 -3.5557860e-01
 -1.6604351e-02
  9.9634593e-03
  9.3934745e-02
  1.1200338e-02
  7.0092017e-03
 -1.0739167e-02
  6.8684821e-03
  1.3351889e-02
  8.5508740e-03
  4.4279046e-02
 -7.8986496e-02
 -8.3919312e-04
 -5.8253119e-03
 -3.2142829e-03
  7.5314723e-02
 -2.0367447e-03
  2.1616278e-02
  5.7441411e-03
 -2.1259859e-02
  2.2104266e-03
 -3.3691965e-02
 -1.0111611e-02
  2.0084795e-02
 -6.5493637e-01
 -1.1756299e-02
  2.4472946e-02
 -1.4552473e-02
 -9.9352868e-03
 -1.3617191e-02
  1.3360696e-02
  3.2481716e-03
 -1.0319836e-02
 -5.5684438e-03
 -9.9997688e-03
  1.7597416e-02
  2.0836918e-02
  2.1919154e-02
  1.0757019e-02
  1.2195626e-02
 -1.3947573e-02
  1.4087353e-02
 -1.7556122e-02
  4.7139939e-02
  4.2605449e-02
 -5.3902960e-04
 -1.9600347e-03
  4.8881113e-03
  2.0982943e-02
 -3.0663270e-03
 -3.7270442e-03
  2.2107454e-02
  6.7045223e-03
  8.2465565e-05
  3.2416895e-02
  2.6179194e-02
  1.7636931e-02
  3.2730591e-02
  1.4692209e-02
  2.1142762e-02
 -2.8474893e-02
 -1.8461868e-03
  9.2414545e-04
  4.2658180e-02
 -3.8445704e-03
  6.5348104e-02
  3.3809610e-02
  5.3486708e-03
 -1.0241985e-02
  1.2593719e-01
  5.3881641e-02
 -1.8544324e-02
 -5.0874084e-02
  8.0654826e-03
  1.0934063e-01
  1.9599169e-02
  7.8342244e-02
 -4.0131494e-02
 -7.9946425e-03
 -4.1068140e-02
  6.6707144e-04
 -2.4101311e-02
  1.9491207e-02
 -2.6441575e-03
 -4.2162772e-02
 -8.2765020e-02
  7.1804002e-02
 -4.8731286e-03
 -6.4574676e-03
 -8.9742066e-03
  1.7208132e-01
 -1.7621759e-02
 -5.5135723e-02
 -3.7483582e-03
 -8.2717258e-03
 -1.1090620e-02
  2.9842425e-04
 -7.7559794e-03
  1.5256791e-02
 -5.4791807e-03
  2.3867188e-03
  2.9937089e-03
 -1.1337158e-02
  1.2562514e-02
  2.8704349e-02
  3.3396527e-02
  1.3716534e-02
 -3.6273837e-02
 -1.4467828e-02
  1.6200917e-02
  6.2735057e-03
  1.1991689e-02
  8.7412903e-03
 -4.5258673e-03
  1.5571040e-02
 -1.7033560e-02
 -3.2173758e-03
 -1.1529725e-02
 -9.1758585e-03
 -4.0059268e-02
 -2.2693078e-03
  1.6372066e-02
  6.4042909e-03
  5.0374012e-02
  3.5304208e-03
 -1.0327705e-02
  3.1608915e-01
 -1.5927792e-03
 -1.9609272e-01
  3.8208076e-01
  1.2932866e-02
 -3.8922146e-01
 -6.7398641e-03
 -1.5209208e-02
  4.7748131e-01
  1.7145563e-02
  7.9682994e-01
  2.5865856e-01
  1.9921333e-01
 -3.1065652e-03
 -2.1975370e-01
 -5.0012410e-01
  3.8586649e-01
 -1.0747952e-01
  5.6716148e-02
 -4.4431102e-01
  5.3524196e-01
  3.9664173e-01
 -1.4377144e-01
  3.5732406e-01
  4.6066070e-01
 -7.6071754e-02
 -5.3233191e-02
 -1.7734192e-01
 -8.4359553e-03
  2.6556993e-02
  4.0451530e-03
  2.2083949e-02
  3.8206326e-03
  1.2025497e-02
  2.3815332e-03
  5.8975508e-03
  3.6726870e-02
 -2.5252141e-03
 -4.3314793e-03
 -6.4574047e-03
  2.8986037e-02
 -2.0825030e-02
  8.3140712e-03
 -6.1426586e-03
  2.8159469e-03
 -1.5865384e-02
  2.3091942e-02
 -6.8031403e-04
 -3.0766308e-04
 -2.1120476e-02
 -4.6736170e-03
  2.1593506e-02
 -2.1509297e-02
  5.9233757e-04
  1.1016854e-02
 -4.6270285e-02
 -2.4287574e-02
 -2.4235358e-02
 -1.9847831e-02
  7.9408493e-03
 -8.7633271e-07
  2.1328488e-03
 -1.5282568e-02
 -4.8523708e-03
  1.9116345e-03
  6.6540055e-03
  2.4518462e-02
  2.9203610e-03
  1.0803445e-02
 -4.1132557e-04
  3.1866752e-02
 -2.8898876e-02
  1.9236716e-02
 -5.6765515e-02
  1.7573494e-02
  5.8397432e-03
  3.2009691e-02
 -6.2532285e-03
  2.1381086e-02
  1.3717271e-02
  1.6992788e-04
 -5.4127462e-03
  1.1698133e-02
 -9.2398571e-03
 -1.8151550e-02
 -5.5325635e-02
  3.1689405e-02
  1.0397580e-02
  3.0545723e-03
 -3.6882646e-03
 -8.8881804e-03
 -1.4378420e-02
  8.5515186e-02
 -1.1679432e-02
  5.1818220e-03
 -2.8919308e-02
 -4.3599680e-04
 -6.3496740e-03
 -1.3666386e-02
 -1.6535401e-02
 -1.0737965e-02
 -2.5388852e-02
 -1.7437857e-02
  2.4522714e-02
 -2.2377854e-03
  2.6746284e-02
  3.1237410e-02
 -7.2876541e-03
 -1.2401560e-02
 -2.5126994e-02
  6.8254611e-03
  5.4156901e-03
 -2.5105136e-02
  6.7254091e-03
  2.2601681e-02
  1.8205563e-02
  1.9083349e-02
  2.3017216e-02
 -2.0358855e-02
 -5.0674528e-03
 -1.0155149e-01
  2.8313168e-03
  3.3762768e-02
 -2.4953163e-03
  1.1272467e-02
  3.0167922e-02
 -1.3116186e-02
 -4.9790572e-02
  8.7356288e-03
 -2.5629750e-03
  1.5199308e-02
  3.6649380e-03
 -1.5877061e-02
  7.9092616e-04
 -1.1575704e-03
 -9.9653350e-03
  4.0437607e-03
 -1.9287862e-02
 -2.1080640e-03
 -3.2013349e-02
 -4.9648393e-02
  1.6282465e-02
 -1.9726535e-02
 -4.3382209e-02
 -4.9086623e-03
  4.3782140e-03
  1.2718314e-02
 -4.2644877e-04
 -2.5737206e-02
  6.6788336e-03
 -2.2782341e-02
  3.4079157e-02
  2.5429884e-02
 -1.5609356e-02
 -1.8156286e-02
 -1.7196827e-02
 -1.1543923e-03
 -1.6935992e-03
 -5.0417413e-03
 -2.5023792e-02
  5.4854829e-02
 -9.8223472e-03
 -6.9333296e-03
 -1.5335581e-02
  1.9087860e-02
  8.1562670e-03
 -1.2565239e-02
  1.1635423e-02
 -6.5437299e-03
  2.0037597e-02
  2.8633347e-02
 -3.0761007e-02
  2.8639521e-02
  3.4796707e-02
  2.8142266e-02
  1.1715319e-02
 -2.7290434e-03
  5.4719681e-03
 -5.1220306e-03
 -2.7420940e-02
 -7.7618412e-03
 -4.3701164e-02
 -3.1131445e-03
 -5.0169643e-02
 -5.3841122e-03
  3.8790193e-03
  1.6695929e-03
 -4.5595389e-02
 -1.1193748e-02
 -1.6155405e-02
 -6.5823337e-03
 -4.1473610e-03
 -3.2682053e-03
 -3.7782423e-03
  3.5782915e-03
  1.9684447e-02
  1.4369127e-02
 -4.2472564e-02
  3.8353931e-03
 -5.0989781e-03
  6.3643777e-03
 -1.8767670e-02
 -1.5189731e-02
 -7.6201397e-01
  8.0781821e-03
 -3.8700622e-02
  1.0359355e-02
  2.3501817e-02
 -8.4517879e-04
  2.0016009e-02
  1.4394787e-02
 -2.0780354e-03
  1.6855991e-02
  1.7336644e-02
 -1.3252570e-03
 -6.6647413e-03
  4.7174427e-03
 -3.0723242e-03
  4.6045799e-03
 -1.9453801e-02
 -6.7225685e-03
 -2.2261532e-02
  4.7220502e-04
 -6.1867698e-03
 -1.3215755e-03
 -2.6021088e-02
 -2.7721278e-02
  2.1896383e-02
 -9.3836421e-03
  4.2615673e-03
 -1.2016884e-02
  2.3419662e-01
 -9.3564782e-03
 -4.9646618e-03
  1.0958703e-02
 -2.1307962e-04
  2.7262815e-03
 -9.0414174e-03
  5.3774701e-03
 -8.7100416e-03
  1.9797854e-02
 -3.6583645e-03
 -3.3671055e-03
 -2.4504017e-02
  2.0224876e-03
 -2.0657159e-02
  5.2845483e-03
  1.9480435e-02
 -1.5008980e-02
 -3.0161716e-02
  2.3982488e-01
 -1.7122734e-02
  1.0572352e-02
  2.6326265e-02
  1.7755650e-02
  3.7454697e-03
  4.6207864e-02
 -3.3507161e-02
 -9.3438849e-03
  5.8164862e-03
  3.7211563e-02
 -1.6722403e-02
 -1.2050103e-01
  3.3673684e-03
  4.8434362e-03
  1.8686591e-02
  2.6297396e-02
  1.0074500e-03
  1.1003694e-02
 -2.3597653e-03
 -1.3354171e-02
  4.5404085e-03
 -1.2336832e-02
  1.5875652e-02
 -1.0354457e-02
  1.4707333e-03
 -6.6341020e-02
  2.3464398e-02
  2.5519159e-02
  1.2171575e-02
 -1.7225997e-03
 -1.1901982e-02
 -4.3906202e-03
 -1.4129083e-02
 -2.3396457e-02
  2.6940893e-02
 -7.1087979e-02
 -9.7258734e-03
 -8.5860696e-03
  3.6345616e-01
 -9.0314429e-03
 -1.1573752e-02
  4.9501364e-03
 -2.1337334e-02
 -1.1196043e-03
 -1.7104238e-02
 -3.9628581e-03
 -1.1978026e-02
  5.5834480e-02
  3.8095918e-03
 -7.2073549e-02
  2.4586692e-02
  1.0971983e-01
 -3.3854246e-01
 -1.8750811e-02
  3.3773899e-01
  1.5698945e-02
  1.3586995e-02
 -4.1294244e-01
  6.1547901e-03
 -3.0067244e-01
  1.1661703e-02
 -2.0302244e-01
  6.0662340e-02
 -2.2360636e-02
 -4.5851108e-02
 -9.5349103e-02
  8.3705552e-02
  2.9741606e-01
  1.2132839e-01
 -3.2950550e-01
 -9.8399922e-02
  2.1536190e-02
 -2.1375668e-01
 -2.4745984e-01
  2.4004199e-02
  3.5751205e-02
  1.2961142e-01
 -4.6615293e-03
 -3.5076686e-03
 -3.4322817e-02
 -4.6462780e-03
 -1.8113464e-02
 -2.4415812e-02
 -3.5771601e-02
 -5.0072871e-02
  9.4321491e-03
  1.2223152e-02
  1.4832716e-03
 -3.4660257e-02
  5.0459625e-03
 -4.4631143e-03
  4.6200426e-03
  6.8198018e-02
 -2.7195185e-03
 -8.9059351e-03
  2.0268491e-02
  1.2308005e-02
  6.1673820e-03
  2.7213531e-02
  1.7712750e-03
 -2.8001817e-02
 -1.7176943e-02
  1.5039051e-02
  6.3027564e-04
  9.6408194e-03
  5.5267986e-02
 -4.6984889e-02
  1.5661344e-02
  3.7673395e-03
 -1.3854850e-02
 -1.7847199e-02
  5.2622003e-03
  1.7216521e-03
 -3.3884879e-02
  6.5378437e-04
  1.4115663e-04
  4.3901883e-02
  4.5390684e-02
 -4.4743032e-03
 -3.4715079e-02
 -1.8177178e-02
 -3.6506779e-02
 -6.4887791e-03
  1.4816358e-02
 -3.0270053e-04
  4.7538150e-03
  1.9844683e-02
 -4.4653877e-03
  8.1690997e-03
 -2.4026509e-03
  1.1606541e-01
 -9.1848234e-03
  1.8478069e-02
 -5.4920230e-02
  7.1180072e-03
  2.3649398e-03
  9.6272836e-03
  6.2686689e-02
  2.5640589e-03
 -1.8348863e-02
  2.1733049e-02
  1.1335763e+00
 -7.8810500e-03
  2.1474913e-02
  2.4881671e-04
  4.7700196e-03
  5.4183841e-02
  2.9722604e-04
  3.2344550e-02
  2.6414482e-02
 -4.4367602e-03
 -2.5229936e-03
  2.6545290e-02
  6.6800974e-03
  9.2532635e-03
 -7.2345105e-03
 -2.2759136e-02
  7.5969123e-04
  1.6621498e-02
  8.3933873e-03
 -1.4787819e-02
  2.4486560e-02
 -2.3991007e-02
  4.1509839e-03
 -2.4642288e-03
 -5.8639566e-03
 -2.7408712e-03
  8.2419487e-03
 -2.7133641e-03
  3.5952874e-03
  1.1872873e-02
  1.7147144e-02
  1.2436734e-02
 -1.3455462e-02
 -6.0303858e-03
 -7.1597956e-02
  3.1556024e-03
  2.2038510e-02
 -3.5075054e-03
  2.0088352e-02
  2.4262955e-03
 -4.2018988e-03
  4.9509588e-03
 -2.7854454e-03
  3.6141681e-03
  1.3310174e-02
  6.7679649e-03
  2.4792165e-03
 -3.6267019e-03
  6.9106882e-03
  1.6189147e-02
  2.7192284e-03
 -1.0482481e-02
  2.5532665e-02
 -1.0163627e-02
  1.0790015e-03
  3.7080171e-03
 -1.3774693e-02
 -7.6861843e-03
 -1.4288767e-02
  9.2595797e-03
  1.9631224e-02
 -2.1287270e-02
 -3.2482683e-03
 -2.6327611e-03
 -2.3898205e-02
  1.5258212e-02
 -8.1265834e-04
 -1.7632863e-02
 -1.5336010e-04
  2.7172139e-02
 -2.5343015e-03
  9.3597127e-03
 -4.9768775e-03
  1.2411682e-03
 -3.6085306e-03
  2.5467191e-02
  4.5645852e-03
  2.5252929e-02
  3.2308830e-03
 -2.0245982e-02
 -1.1383815e-02
 -5.7726963e-03
 -4.1678045e-03
 -5.1611140e-03
  1.6143223e-02
 -3.9855024e-04
  4.3284502e-02
 -1.5044040e-03
 -1.1347199e-02
 -9.8125897e-03
  4.9618840e-05
  2.7209388e-02
  6.7654345e-03
 -4.6403003e-03
 -1.8222859e-02
 -8.6657852e-03
 -1.6981075e-02
 -6.1032344e-02
  3.3471675e-03
  1.1420453e-01
 -3.2316388e-03
 -6.9980985e-03
  5.8464850e-03
  9.4720982e-03
 -4.4769581e-02
 -3.4577407e-02
 -6.1597740e-03
 -1.0676075e-02
 -2.1937748e-02
 -3.1951871e-03
 -3.6105148e-02
  1.5081150e-02
  2.2900134e-01
  1.0190955e-02
 -1.3544749e-02
 -6.9609814e-04
 -1.5167140e-02
  1.5687245e-03
  1.0525177e-02
 -5.2405271e-04
 -2.6793974e-03
  6.5132319e-03
  4.0864669e-02
  1.1127586e-03
 -1.1226414e-02
  8.2105743e-03
  3.8194813e-02
  6.5799463e-03
 -8.6589961e-04
  1.9579200e-02
 -1.8752893e-03
 -2.8689863e-02
  1.5681910e-03
 -3.3093922e-02
  3.6354750e-02
  6.0905027e-03
 -4.0422261e-02
 -2.5208760e-03
  6.6297218e-02
  2.3605375e-02
  1.2254581e-02
  7.0164785e-02
  5.5104639e-02
 -7.6342234e-03
  4.8972215e-03
 -5.8787172e-03
 -1.6672431e-03
  5.9611667e-03
  6.2452927e-03
  3.5085876e-02
 -2.4287749e-02
 -1.2727748e-02
 -8.4502799e-03
  3.6782853e-02
 -3.7720211e-02
  1.0501990e-03
  4.8482004e-03
  7.7289105e-03
  1.6124526e-03
 -2.6712073e-02
 -1.6487436e-03
 -1.6907349e-03
 -1.3010155e-02
 -4.5303130e-03
 -2.3376858e-02
  2.4266666e-02
 -6.9017918e-03
  1.0025555e-03
  2.0691259e-03
 -3.8898259e-03
  1.2846417e-02
 -2.5500882e-02
  9.4786668e-03
  1.2175141e-02
  1.5280402e-02
  9.6137747e-03
  2.8047740e-02
 -1.2405642e-02
  8.0638044e-03
 -2.6573825e-03
  1.6988574e-02
  5.1201675e-02
  4.5277388e-03
 -9.0679778e-03
 -4.9022776e-03
 -2.3744199e-03
  3.3472993e-03
  3.0060297e-02
 -1.6435882e-01
  1.5347154e-02
  1.2538899e-02
 -5.6023924e-03
  3.7464681e-03
 -2.4451248e-02
 -9.0602199e-03
 -1.4693222e-02
 -1.6632549e-03
  1.1569060e-02
  2.4106618e-02
  3.7972141e-02
  3.2066155e-02
 -2.0806875e-02
 -1.4867045e-03
  6.2645022e-03
  5.8096438e-03
 -4.1941533e-04
  4.6725697e-03
 -4.2892110e-02
  3.2323286e-01
 -1.2677333e-04
 -1.5478827e-01
  5.3830820e-01
  4.7174878e-03
 -2.0770699e-01
 -3.3783678e-02
 -4.2512369e-01
  5.6709284e-01
 -3.7662990e-02
  3.0531624e-01
 -4.0123304e-03
  3.0813411e-01
 -1.7484166e-01
  1.1776103e-01
 -9.4748706e-02
  4.8025796e-01
  9.2807570e-03
 -2.9540664e-01
 -3.0424502e-01
  5.7479388e-01
  1.4394544e-01
 -1.7288116e-01
  2.9695946e-01
  5.7094824e-01
  9.3338778e-04
 -1.4784627e-01
 -2.3481372e-01
 -1.2102572e-02
  1.5483772e-02
 -2.1235680e-02
 -1.3871448e-02
  1.4479807e-02
 -3.2364260e-02
  1.1092423e-02
 -1.3515065e-02
 -2.7177481e-03
 -6.5588905e-03
 -3.9909251e-02
  9.3730837e-03
 -1.6676452e-02
 -3.1353142e-03
 -2.0918133e-02
 -2.2992251e-02
 -8.9967042e-02
  1.5998365e-03
 -2.6382422e-02
  4.4798180e-03
  8.7343119e-03
 -2.5605825e-03
  6.2724948e-03
 -9.0200026e-03
 -3.0479051e-02
 -1.4702311e-02
  2.1504004e-02
 -1.6819129e-02
  1.6292665e-03
  8.2154188e-04
 -1.8392747e-02
  7.7887489e-03
  4.1169371e-03
 -4.3213502e-02
  1.7175158e-02
  5.8993604e-03
  2.6454659e-02
 -1.7252740e-02
 -8.7098991e-03
  2.1365210e-02
  6.4481366e-03
 -7.2409082e-03
  2.8298298e-02
  3.7279716e-04
 -1.1388695e-02
 -3.6002358e-03
 -2.2242563e-03
 -2.1299709e-02
 -3.2936387e-02
 -1.0534644e-01
  5.7713665e-02
 -9.7571884e-04
  1.9983493e-02
  2.2616696e-02
 -2.3825485e-02
  1.5881617e-04
 -4.8757126e-03
  5.2826945e-03
  2.1878317e-02
  2.4007827e-03
  3.8187189e-03
 -4.1843217e-02
  1.1668362e-02
 -4.9029756e-04
  3.2233257e-02
  1.0418000e-02
  1.4281505e-02
  9.9353809e-03
 -9.7009065e-03
  2.3978462e-02
  1.7706256e-02
  1.3041418e-02
 -5.3363163e-02
 -7.2714500e-02
  3.4571481e-03
 -1.3726775e-03
 -9.2629250e-03
 -8.5144676e-03
 -7.1181511e-03
  1.6361827e-02
 -2.3916138e-03
 -4.6345573e-03
 -4.8749506e-02
 -2.0421017e-02
  5.8308113e-01
 -1.0134699e-02
  6.8798261e-03
  3.6836014e-04
  9.6919043e-03
  3.2280535e-02
 -5.3668418e-03
 -3.0710779e-02
  5.1598307e-02
 -1.5015467e-02
  2.0625591e-02
  2.9135443e-02
 -2.0416176e-02
  1.7007438e-03
  4.6549216e-02
  4.0651378e-03
 -9.2511056e-03
  2.9207215e-02
  8.2303192e-03
  1.4750856e-02
  9.1388859e-03
 -2.7939870e-03
  1.8314859e-01
 -3.9508455e-03
  4.2177737e-03
  1.6710121e-02
 -2.8954733e-02
 -1.0967407e-02
  4.2299195e-03
 -1.7244965e-03
 -3.8629291e-03
 -3.0637151e-03
 -2.1174610e-02
  3.9934035e-02
  2.3587970e-03
 -1.3143211e-03
 -2.3510710e-04
  2.2943471e-01
 -7.8650611e-03
 -1.4017941e-02
 -4.7724205e-03
  2.2048371e-02
 -2.3832625e-01
 -2.5250832e-02
  6.5931338e-03
  8.9493720e-03
  1.3868881e-02
 -6.1291871e-03
  1.5032383e-02
  1.1890937e-01
  1.7711997e-02
 -6.7084003e-03
 -7.8651598e-03
  1.2376077e-02
 -1.0938379e-02
 -1.3070240e-02
 -4.3895612e-03
  1.4991173e-02
 -2.2776077e-02
  6.3335556e-03
  2.8344344e-03
  4.5030467e-02
  1.2926272e-02
  3.9544296e-03
  3.2959619e-01
 -1.1821644e-02
  2.0649083e-02
 -1.9087465e-02
  4.8468160e-03
  7.6892343e-04
 -1.9987477e-01
  1.6987624e-02
  2.2482231e-02
 -2.5257803e-02
 -2.1462254e-02
 -1.4702852e-02
 -6.2158345e-03
 -7.2047561e-03
 -1.9573466e-01
 -5.8275373e-03
  5.1192328e-02
 -5.7918923e-03
  3.7100393e-02
  2.1005424e-03
  7.2588394e-03
  9.9739106e-03
 -1.6195981e-02
 -4.7462121e-02
  1.7547995e-03
  8.9494064e-03
 -8.6452151e-03
  9.4185062e-03
  2.2363482e-02
  3.9582420e-02
  3.1226248e-02
  6.9327666e-03
 -1.1439032e-02
  1.4103170e-02
  2.4344455e-03
 -1.9686364e-02
  2.7867537e-03
 -2.0911651e-02
 -6.3741701e-03
 -1.3838592e-02
 -3.9594494e-02
 -5.7898647e-01
 -9.4841495e-03
  1.0118322e-02
 -1.6752837e-03
 -1.4384976e-02
  1.6434776e-02
  5.4516625e-03
 -2.4005459e-03
  1.7366916e-02
  2.2817025e-02
  8.7713175e-02
 -7.3933639e-05
 -1.7126804e-02
  1.2400024e-02
  2.5334172e-03
 -2.2688697e-03
 -3.3045111e-03
  7.9738479e-03
 -3.0328430e-02
 -2.5028022e-02
 -7.2569937e-02
  2.6068235e-02
  2.2979008e-03
 -2.3223283e-02
  2.1298639e-02
  2.9167376e-02
 -3.7759403e-03
  1.1275142e-02
  7.3386922e-02
 -1.2278807e-03
 -1.4693326e-02
  3.5983726e-02
  1.5023962e-01
  6.2743384e-01
 -6.1878269e-03
  3.6689045e-03
 -4.9910620e-02
  3.2005206e-02
 -2.0535637e-02
  4.5900987e-04
  6.8154461e-03
  7.8860335e-03
 -3.0052387e-03
  1.1995651e-02
 -1.5540515e-03
 -1.3539809e+00
  2.8652066e-02
  3.8929374e-03
  4.9356073e-03
  7.0905074e-04
 -1.1891506e-02
 -3.1621668e-02
  1.1103596e-02
 -1.1330891e+00
 -6.5574899e-02
 -2.2744287e-02
 -4.1798392e-01
  8.5879825e-03
 -5.3805308e-03
  4.1240342e-03
  8.5658645e-03
  6.0314434e-03
 -1.3997550e-01
  7.8930687e-03
 -3.0716866e-01
  8.1856877e-02
  5.2690093e-04
 -5.1096965e-02
  2.2965282e-02
  2.4940370e-02
 -7.9325721e-02
 -2.9772282e-02
 -3.2818315e-03
 -3.2645315e-03
  2.1377029e-03
 -6.8341106e-02
  1.5869669e-03
  1.1329222e-02
 -2.2803519e-03
  6.5573901e-03
 -1.7766805e-02
 -1.2349456e-01
 -1.4262855e+00
  3.2720242e-02
 -5.8182880e-02
  7.2018109e-04
  3.2357236e-03
  1.8668890e+00
  7.3083870e-02
  1.2204270e-02
 -1.3286845e-02
  5.0858222e-02
 -2.3191546e-03
 -2.7892480e-02
 -7.8307599e-01
  1.1019320e-02
  3.5660904e-02
  1.3795231e-02
 -2.5002627e-02
 -3.6697414e-02
  8.8490710e-02
  3.8769890e-02
 -5.2853893e-03
  1.5350620e-02
 -1.9682573e-02
 -3.0979565e-03
 -1.3633998e-02
 -1.0795657e-02
  2.0037783e-02
 -1.1361555e+00
 -1.0011547e-03
  5.1018849e-02
 -3.0221414e-02
  1.1425807e-02
 -5.7238396e-03
  5.4064528e-03
 -5.6194112e-02
 -1.5869421e-03
 -3.5055648e-03
  5.5223876e-03
 -4.8894407e-03
  6.2184653e-04
 -6.8448344e-03
  2.1611061e+00
  1.0573916e-02
  2.4855532e-02
 -6.7090793e-03
 -1.0494609e+00
 -1.4706941e-02
  5.1734280e-03
 -1.6052207e-02
 -2.5902104e-01
 -9.0170875e-03
  1.0035318e-02
 -5.9179239e-02
  4.1042276e-02
 -4.5389721e-01
 -5.9697876e-04
 -3.3406314e-01
  2.9395523e-03
 -3.8497366e-02
 -2.3644410e-02
  1.1425328e-02
  4.3970183e-03
  2.9156070e-02
 -1.1748568e+00
  3.9712459e-02
  6.1115185e-03
  5.5154741e-01
 -2.8198626e-02
  1.6060773e+00
  2.8057903e-02
  4.7452473e-03
  5.3065475e-03
 -1.2552011e-02
 -7.0881201e-03
 -1.0006910e-01
  5.6384737e-03
  3.5349408e-03
  6.6949422e-03
 -1.1435018e+00
  6.4313714e-04
  5.8586206e-03
 -1.1344624e-01
 -1.1815018e-02
  1.1277756e-03
 -1.2596513e-02
  2.9337710e-01
  5.3630541e-03
  2.0905558e-02
  1.6892294e+00
 -4.8344624e-03
 -1.1599463e-02
  7.3550761e-02
  4.0769566e-02
  4.9957076e-01
  6.1166205e-02
 -2.8987244e-01
  6.5586275e-01
  3.8335356e-01
 -5.1128364e-01
  1.3124439e-01
  3.9453831e-01
  4.0765804e-01
  8.5578384e-03
 -5.3702062e-01
 -2.9955009e-02
 -8.4641621e-02
  3.0742630e-02
 -5.9094192e-03
 -6.5529672e-04
 -2.0387137e-01
 -2.4184553e-02
  1.8148558e-02
  1.2041980e-02
 -3.1886123e-02
 -5.9751729e-03
 -4.1602787e-02
  1.5053129e-02
 -3.0538130e-03
 -1.8796557e-01
 -6.9049381e-02
 -5.8279634e-02
  6.6874367e-01
 -3.8116917e-01
 -2.1474086e-01
  1.7062661e-01
 -2.3093094e-01
 -1.2135928e-02
 -1.3473277e-01
 -5.7393938e-02
 -4.9362425e-02
 -1.9660400e-01
 -3.1001404e-01
 -2.3534223e-02
  1.4239992e-01
 -8.1952715e-01
  4.2148370e-01
  4.6551788e-01
 -9.2914975e-01
  4.8039639e-03
  9.6603192e-02
  6.7179894e-01
  1.1905587e-02
  6.0306996e-02
 -2.9621440e-01
 -1.8708549e-02
 -7.3545676e-04
  5.5352179e-03
  7.1042398e-04
 -9.9470571e-04
 -3.1406425e-03
  9.6025933e-03
 -4.0713362e-02
 -4.8645427e-03
  4.6304300e-02
 -3.8437240e-02
  1.8297816e-02
 -1.6203877e-02
 -4.1489294e-01
  1.5840305e+00
 -2.5234799e+00
  3.1331840e-01
  2.0521028e+00
 -9.2841879e-02
 -8.3535504e-01
  3.4820467e-01
  1.5721950e-01
  3.0920434e-01
  2.3622864e-01
  5.4544449e-01
  5.0761002e-01
 -9.7384793e-01
 -6.5596908e-01
  7.1650310e-03
 -6.1526263e-01
 -7.4313605e-01
 -2.1225744e-01
  4.5465358e-02
 -6.1200029e-01
 -6.0643207e-02
  4.4717354e-01
 -6.8989611e-01
  6.4274335e-01
 -6.3453293e-01
  4.5554239e-01
  3.3830580e-01
 -3.7285265e-02
 -2.3284337e-01
  7.9862493e-01
  4.0480766e-02
  8.8928193e-02
  6.2257874e-01
  8.7215990e-02
  5.0520980e-01
 -7.1490365e-01
  1.6477834e+00
  3.5521694e-02
  5.4127377e-01
 -6.7990279e-01
  7.0147228e-01
 -2.8659859e-01
 -1.9131974e+00
  6.5221560e-01
 -5.2048069e-01
 -8.9705549e-04
  1.1344830e-01
 -9.2707753e-02
 -1.5466729e+00
 -1.0741376e-01
  4.5485690e-01
  3.4909744e-02
  3.9644766e-01
 -3.5362616e-01
  1.0481834e+00
  1.1901193e+00
 -1.2862355e+00
  3.8753107e-01
  3.1638551e-01
  2.9090008e-01
 -6.7965567e-01
  3.5372078e-01
  1.0292144e+00
  2.0953895e-01
  1.2497267e-02
  1.2497267e-02
  1.2497267e-02
  1.2497267e-02
  1.2497267e-02
  5.8297181e-01
  5.8297181e-01
  5.8297181e-01
  5.8297181e-01
  5.8297181e-01
  6.3002966e-02
  6.3002966e-02
  6.3002966e-02
  6.3002966e-02
  6.3002966e-02
  9.6977875e-02
  9.6977875e-02
  9.6977875e-02
  9.6977875e-02
  9.6977875e-02
  5.4299325e-02
  5.4299325e-02
  5.4299325e-02
  5.4299325e-02
  5.4299325e-02
  1.9501546e-02
  1.9501546e-02
  1.9501546e-02
  1.9501546e-02
  1.9501546e-02
