nep4_zbl 1 C 
zbl 1.25 2.5
cutoff 10 10 86 86
n_max 8 8
basis_size 12 12
l_max 4 2 0
ANN 150 0
  7.8558111e-01
 -1.9195642e-01
  3.7932384e-01
  1.2499262e+00
  7.2537535e-01
 -2.9366317e-01
 -5.3416330e-01
 -1.7767871e-02
  6.4239156e-01
 -2.2170199e-01
 -1.0400836e+00
 -3.7984240e-01
  9.5037401e-02
 -9.6378011e-01
 -3.0843672e-01
  9.3915373e-02
  1.0143203e+00
 -1.0214182e+00
 -1.5780063e-02
 -4.8927104e-01
 -7.7100168e-03
 -9.3382835e-01
 -2.6786029e-01
 -5.4372513e-01
  4.7499585e-01
 -8.3022219e-01
 -9.4502932e-01
  9.2485631e-01
  2.2396980e-01
 -3.7001455e-01
  6.9578081e-01
  9.8938000e-01
  6.3782108e-01
  1.0735764e-01
 -1.5730409e-01
  1.5531627e+00
  4.4004422e-01
 -2.2949025e-02
 -7.7488781e-03
 -2.5218761e-01
  1.2119609e+00
  1.6221534e+00
 -1.4037755e+00
  2.0722158e-01
  6.9611979e-01
  7.8209990e-01
 -1.4280627e+00
  1.0531083e+00
 -1.0264336e+00
  5.4010379e-01
 -1.0227598e+00
 -6.9489753e-01
  1.2485046e+00
  3.6954474e-01
 -1.5662013e+00
 -7.5045127e-01
 -6.3488759e-02
 -4.9759990e-01
  9.6278942e-01
  7.9438788e-01
 -6.4974570e-01
 -8.0106363e-02
 -1.4207426e+00
  5.3050619e-01
 -7.3836213e-01
 -1.0747286e+00
  4.7742641e-01
  6.7329937e-01
 -1.7894117e-02
 -4.7933364e-01
  8.8434577e-01
 -1.3747261e+00
 -5.1489550e-01
  8.5070378e-01
 -6.4965397e-01
 -1.9546049e+00
 -1.9674364e-01
  4.6345389e-01
 -1.3758924e+00
  1.3708813e+00
 -5.5262893e-01
 -1.8613856e-02
  3.0160898e-01
 -6.9388145e-01
  1.7333724e+00
  4.1376036e-01
  8.7257648e-01
  7.3404747e-01
 -1.5678948e+00
 -4.6058625e-01
 -2.0002282e+00
 -1.2148624e-01
  7.4668956e-01
  4.4658041e-01
  6.4857835e-01
 -3.4753817e-01
 -1.4466459e-01
 -9.1957462e-01
  3.1613794e-01
 -6.8536329e-01
 -3.6712018e-01
  4.9174139e-01
 -8.8508025e-02
  6.5304831e-02
 -4.2148399e-01
  1.7685963e-01
  1.2784159e+00
 -6.0728751e-02
  1.1940860e+00
  1.3238436e+00
 -6.7235494e-01
 -9.6393234e-01
 -9.9216855e-01
  5.8825189e-01
 -1.8191412e-01
 -1.0325226e+00
 -7.7504796e-01
 -2.5368413e-01
  5.3315467e-01
 -7.6412356e-01
 -1.1278164e+00
  1.4386833e+00
  2.3428719e-01
 -4.7223887e-01
  2.3247626e-01
 -1.7388158e-01
 -4.5062664e-01
 -4.3316916e-01
  2.9142945e+00
  1.0602865e+00
 -4.8997557e-01
  6.1085474e-01
  1.7562530e+00
 -1.0851172e+00
  1.0188885e+00
 -4.1969780e-02
  3.9046609e-01
  2.8364629e-01
 -8.0757946e-01
  1.0111985e-01
  2.7932474e-01
  4.5419343e-02
 -1.2256074e+00
  1.7720238e+00
  7.8811079e-01
  1.3412944e+00
 -6.6871905e-01
  1.9536982e-01
 -1.1552684e+00
 -3.2307908e-01
 -1.1229181e-01
  1.7995399e+00
  8.2713842e-01
  1.4862597e-01
  1.3295428e+00
 -2.1224139e+00
  1.9789782e+00
 -5.4143831e-02
 -1.1144071e+00
  5.4360127e-01
  6.6469297e-02
 -5.8532733e-01
  1.0228497e+00
 -5.2876238e-02
  4.9519584e-02
 -1.5500482e+00
 -2.1345718e-01
  3.7182131e-01
 -6.9291365e-01
  9.6603197e-01
 -1.9386689e-01
  6.4687371e-01
 -2.4549096e+00
 -2.5103500e-01
  8.6898029e-02
 -6.0716522e-01
 -5.9245378e-01
  7.8250313e-01
 -8.9342351e-04
  9.1403168e-01
  3.1141147e-01
  5.4101282e-01
  1.8600813e-01
  7.0984536e-01
  2.7395658e+00
  2.5510579e-01
 -9.8386788e-01
 -1.0359763e-01
 -6.1598164e-01
 -3.6756340e-02
  1.1096826e+00
  1.1071386e-01
 -2.7141744e-01
  1.9507578e-01
  6.9238925e-01
 -4.5334956e-01
 -2.2678220e-01
 -5.2951425e-02
 -1.6079714e+00
 -3.8200262e-01
 -1.1233776e+00
  1.9945852e+00
 -1.3536105e+00
  6.7359519e-01
  8.6290383e-01
  5.2296793e-01
 -1.1673766e-01
 -5.3463596e-01
 -1.0878956e+00
  2.7671322e-01
 -1.1860565e+00
 -8.0808824e-01
 -1.1810324e-01
  2.5802836e-01
  3.8457444e-01
  7.9942065e-01
 -3.1191793e-01
  3.1950256e-01
  3.8256485e-02
  1.0793339e+00
  1.3709401e+00
 -9.9208526e-02
 -1.1963167e-01
 -9.2871690e-01
  5.8800948e-01
  4.7994792e-01
 -5.6871331e-01
 -5.4910821e-01
 -3.6699629e-01
  1.3310073e-01
 -5.5654038e-02
  1.0318748e+00
 -1.3030990e+00
 -2.5433664e+00
  6.2513274e-01
  3.5230461e-01
  1.5317293e+00
  1.2445072e-01
  1.8510978e-01
  1.0762280e+00
 -5.5801070e-01
  2.3297867e-01
 -1.3609850e-01
 -1.6262544e+00
 -3.2666516e-01
 -2.2958770e-01
  1.4475863e-01
 -1.6015286e+00
 -1.9738391e-01
  1.8942563e-01
 -5.8095664e-02
  1.7931247e+00
  7.3772991e-01
 -6.6637737e-01
 -1.3779657e-01
  7.4473560e-01
 -3.3752072e-01
 -1.0407497e+00
 -1.1889123e-02
 -7.5179962e-03
 -6.5719175e-01
  1.7162985e+00
 -1.0308485e+00
 -4.9612898e-01
 -5.0416622e-02
  6.5537266e-02
  1.4422696e+00
 -1.5793316e-01
 -1.0701306e-01
  6.4475477e-01
 -1.2175032e-01
  1.3362947e+00
 -1.3088651e-02
 -8.8228667e-01
  1.0869808e+00
  5.4654992e-01
  2.5727469e-01
  1.0657465e+00
  1.0007217e-01
 -1.4835385e+00
  2.5443649e-01
 -7.7166677e-02
  1.0856766e+00
 -7.3875177e-01
  8.9546221e-01
  7.2667211e-01
  9.4091326e-02
 -2.2947712e-01
  3.2955486e-01
  8.3743311e-02
  4.6344668e-01
  2.1573406e-01
 -3.2544509e-01
  6.4894396e-01
 -9.2591363e-01
 -7.3321432e-01
  5.4686123e-01
  3.2951474e-01
  4.4259179e-01
 -2.1163877e-02
 -9.6059316e-01
 -4.4929555e-01
  1.0905135e+00
  3.7059563e-01
 -4.2531356e-01
 -1.5027449e+00
 -1.2495444e+00
  1.4565837e+00
 -6.9898975e-01
 -3.6119536e-01
  2.7650055e-02
  2.8427026e-01
  8.4311223e-01
  1.9954978e-01
  6.4571643e-01
  1.0492420e+00
  3.3391062e-02
  1.2975855e-01
  3.7799585e-01
  6.3672978e-01
  1.6420290e-01
 -6.3565934e-01
  5.9876621e-01
  2.5442189e-01
 -1.3337585e+00
 -1.5596521e-01
 -8.0107057e-01
 -4.0691590e-01
 -1.1755889e-01
  7.8087711e-01
  2.1708989e+00
  6.0068041e-01
 -3.9022434e+00
  1.4437391e+00
 -1.2714359e+00
  1.6744804e-01
  1.7177995e-01
 -1.7437634e+00
  6.0588211e-01
 -3.3014470e-01
 -2.4482610e+00
 -3.1420708e-01
  9.0597659e-01
  1.2195013e+00
 -5.4476410e-01
  2.1395758e-02
  1.2668417e+00
 -5.3668660e-01
  1.5401283e-01
  1.8470186e-01
 -8.8632941e-01
  7.1302187e-01
  1.5231425e-01
  1.0713228e-01
 -1.9539831e+00
 -8.2458116e-02
  5.2593227e-02
  6.7953509e-01
 -8.0365157e-01
 -3.9287353e-01
  7.6938778e-01
 -5.2489351e-02
 -3.8126308e-02
  1.8929686e-01
  1.3092393e+00
  2.5320158e+00
 -4.5645517e-01
 -1.7069236e+00
 -1.7651549e-01
  2.3677468e+00
 -7.8904487e-02
 -7.0793366e-01
 -5.4163730e-01
 -7.1757890e-02
 -7.1200711e-01
  7.8742743e-02
 -2.2557937e-01
  2.2551042e-01
  6.5471357e-01
  5.9786946e-01
 -1.6640393e+00
  2.5984284e-01
 -6.2005324e-03
 -1.0947820e+00
 -2.2831123e-01
  8.3603390e-02
 -1.8866400e-01
 -6.0863376e-01
 -4.3131098e-01
 -9.4533220e-02
  5.3758043e-01
  1.2387714e+00
  4.9146891e-01
  3.8287809e-01
  1.0009743e+00
  2.7089515e-01
 -1.4635402e+00
  1.4745213e-01
  1.3796631e-01
  3.9353076e-01
  1.8181880e+00
 -3.3077297e-01
 -2.2794960e+00
  7.7994192e-01
  1.0411135e+00
 -5.7475203e-01
  2.0279184e-01
 -4.1125783e-01
  5.0535953e-01
  7.6816934e-01
  6.9626456e-01
 -1.7428336e+00
 -1.8432310e+00
  1.8345191e-01
 -1.1426667e+00
  1.3692969e-01
 -1.1149279e-01
 -1.7730242e+00
 -1.0175195e+00
  1.1825536e+00
  4.8440200e-01
 -1.6759312e-02
 -1.9989429e+00
 -7.8215873e-01
  2.5211796e-01
  6.5107864e-01
 -6.7432284e-01
 -7.5141239e-01
  2.7972648e-01
  1.4690483e-01
  2.0181861e+00
  1.6963392e-01
 -4.6191514e-01
 -1.2164251e+00
  1.1507354e+00
 -3.2589269e-01
  1.7005708e+00
  8.8881689e-01
  3.7491018e-01
 -3.2386136e-01
  5.2328783e-01
 -1.9516958e-01
 -3.2913053e-01
  7.7140406e-02
 -5.5482417e-01
 -1.8962161e-01
  8.5300529e-01
 -9.5304734e-01
 -5.2398108e-02
 -5.0140530e-01
 -6.9603211e-01
 -1.2222807e+00
 -3.5880834e-01
  1.4317768e+00
 -2.9304838e-01
 -3.5453379e-01
 -1.3127960e+00
  9.3819070e-01
  8.5185039e-01
 -8.3459502e-01
  3.8486007e-01
 -1.2130239e+00
  3.4671137e-01
  6.7007422e-01
  1.3971975e+00
  7.6595259e-01
 -9.6220803e-01
 -2.0130260e-01
 -1.4738819e-01
 -1.0634473e-01
 -2.6496249e-01
  1.5635431e+00
  6.9095212e-01
 -6.6102731e-01
  1.2792732e-01
 -1.4618891e+00
  6.3455266e-01
  1.4657869e+00
  1.1304599e+00
  1.4140528e+00
  1.1596873e-02
 -1.6080090e+00
  6.9452769e-01
 -3.2823870e-01
 -8.1087178e-01
  9.2923093e-01
 -3.3669764e-01
 -1.9084218e-01
 -1.3943820e+00
  1.2662796e+00
  1.5927022e+00
 -1.1657459e-01
  1.2534420e+00
 -4.7216398e-01
  1.7564625e-02
 -1.1520470e+00
  2.9316804e-01
 -4.8125207e-01
  3.0990884e-01
  9.4026399e-01
 -7.6894331e-01
 -9.1254699e-01
 -1.4441931e+00
 -1.0106877e+00
  3.0141866e-01
  1.0732790e+00
 -6.7646265e-02
 -3.9376035e-01
  1.3558735e-01
  5.9230018e-01
  4.2275211e-01
  1.1014055e+00
 -3.6474612e-01
  3.0631933e-01
 -3.0364597e-01
  6.4303660e-01
  4.1849926e-01
 -1.4516459e-01
 -4.9278820e-01
 -4.8806342e-01
  6.5690285e-01
  2.3025510e-01
  6.4333171e-01
 -1.4485068e+00
 -6.5511489e-01
 -8.4892625e-01
  4.4371894e-01
 -1.2514386e+00
 -5.1679742e-01
 -2.5986695e-01
 -7.5725005e-03
  5.6933200e-01
  1.1656196e-01
 -3.0060145e-01
 -4.3263626e-01
  1.2497299e+00
 -1.0696383e+00
 -1.0411285e+00
  7.9806560e-01
  1.0929807e-01
 -9.7610962e-01
  2.3467295e+00
 -1.1458048e+00
 -4.7819090e-01
 -1.6061854e+00
 -1.3668665e+00
  7.7079338e-01
 -1.1152613e+00
 -4.7407664e-02
  5.8644079e-02
 -1.4400478e-01
 -4.1991463e-01
 -6.8076664e-01
  2.0875430e-01
  3.1450102e-01
  1.5087583e+00
 -4.2421681e-01
  1.4347030e+00
 -5.1957989e-01
  1.7507845e+00
 -4.6437192e-01
  6.4069223e-01
  9.8390174e-01
 -1.7764015e-02
  6.5337151e-01
  1.5639092e-01
  1.4853258e+00
  1.7213860e+00
  5.4050308e-01
 -4.4281611e-01
 -2.2853112e-01
 -1.4092147e+00
 -1.4586892e+00
  1.6068165e-01
 -2.9661566e-01
 -1.2978009e+00
 -9.7361743e-02
 -1.9257802e-01
  8.2302934e-01
  3.8805302e-02
  2.1931897e-01
  2.8299361e-01
  1.0104269e-01
 -1.6393302e-01
  3.2158279e-01
  5.6285125e-01
 -2.5331426e-02
  5.9505290e-01
 -3.3250591e-01
 -4.9345952e-01
  2.0122911e-01
 -1.2095479e+00
  8.3292300e-01
  1.8110354e+00
  1.5549329e-02
 -1.3273801e+00
  3.8580337e-01
 -9.0036666e-01
  1.4448174e+00
  7.0976353e-01
 -7.8397834e-01
 -5.4912186e-01
  1.3605037e-01
  8.5087216e-01
  1.5922793e+00
 -7.6282598e-02
 -2.1223000e-01
  1.4493692e-01
  7.3593062e-01
 -2.1478866e-01
  1.2714273e+00
 -9.7910273e-01
 -1.6644318e-01
 -8.5172415e-01
 -7.0362568e-02
 -1.2638245e+00
 -2.1118875e+00
  7.4024075e-01
  1.5864316e-02
 -5.3396118e-01
  3.9677006e-01
  3.2000144e+00
 -1.2705631e+00
 -1.2636935e+00
 -4.0290669e-01
 -2.8147089e-01
 -2.8228655e-01
  1.2227157e+00
  5.4515827e-01
 -3.6215180e-01
 -8.1725073e-01
 -2.4909599e-01
 -9.5236826e-01
  1.0751749e+00
  1.2312690e+00
  3.3212703e-01
 -9.7033679e-01
 -8.3533108e-01
  7.9042308e-02
  4.8340295e-02
  1.4088367e-01
  2.4280842e-01
 -1.0875341e+00
  2.0062555e-01
  3.3963025e-01
 -1.9613775e+00
 -4.0866506e-01
  5.5371875e-01
  6.7208630e-01
 -1.1119782e+00
 -1.6014282e+00
 -1.9112271e+00
 -1.1879683e-01
  9.1977721e-01
 -3.0369337e+00
  6.1336559e-01
  2.8161082e-01
 -1.2865493e-01
  8.3815235e-01
  3.8888220e-02
  5.6041974e-01
  1.2804279e+00
 -9.9706076e-02
 -1.3013171e+00
 -1.7597901e+00
  1.9952077e-01
 -1.4167053e+00
 -9.1937858e-01
 -1.2835317e+00
 -4.6293455e-01
 -9.6239525e-01
 -2.6103145e-01
 -1.0144799e+00
 -7.5904882e-01
  5.5663645e-01
 -3.5911325e-01
  1.1626065e+00
 -9.4667363e-01
  9.9811077e-01
 -1.3487385e-01
  3.7529221e-01
  1.5296875e+00
  6.4175203e-02
  8.1111610e-01
  9.0125227e-01
  2.7603615e-02
 -3.4968054e-01
 -1.9313094e-01
 -2.4905646e-01
 -9.4325364e-01
  4.8641381e-01
 -4.2241389e-01
  1.1075447e+00
  1.0095181e-01
  4.0681016e-01
 -6.2266386e-01
 -3.8136360e-01
  7.4665534e-01
  1.5029335e+00
  1.5364276e+00
 -2.7439213e-01
 -2.1836397e-01
 -6.7147326e-01
 -1.0410273e+00
 -1.0430129e+00
 -8.2784826e-01
  9.1288882e-01
 -2.7570292e-01
  5.9428507e-01
  2.2586651e-01
  9.0856576e-01
 -1.5136006e-01
  9.3401909e-01
 -9.7525376e-01
  8.0057418e-01
  6.5694529e-01
 -6.9289410e-01
 -1.0882155e+00
 -1.5807940e+00
  1.0066686e+00
  1.1942835e+00
 -1.0031170e+00
  1.2906990e+00
 -5.5664033e-01
  6.8691361e-01
  1.3262116e+00
 -9.0709895e-02
  8.8880256e-02
  2.2871931e+00
  1.4944624e+00
 -1.5862343e-01
  3.0949646e-01
  1.6832163e+00
 -4.6682000e-01
  3.7403479e-01
  3.4629631e-01
 -2.6421648e-01
 -5.0031000e-01
 -6.1150753e-01
 -3.8240212e-01
  2.4311678e+00
  2.1300223e+00
 -8.0750901e-01
  2.3373884e-01
  1.0840026e+00
  9.5582128e-02
 -2.3870516e-01
  6.1150473e-01
 -1.5021238e-01
  3.5403166e-02
  2.9637018e-01
  2.7213952e-01
  1.9686280e+00
 -2.9902729e-01
 -1.8712342e-01
  1.1764034e+00
 -7.3697639e-01
  1.0809069e+00
  6.1777526e-01
  8.6064482e-01
 -4.0152964e-01
  8.7903547e-01
 -8.6240456e-02
 -3.6008844e-01
  8.9915568e-01
  9.0995234e-01
 -9.0881869e-02
 -1.5519422e+00
 -1.0297505e-01
  5.2876246e-01
  8.1507957e-01
 -1.3040349e+00
 -9.7610402e-01
 -9.7988015e-01
 -3.6918160e-02
  8.7397546e-01
  1.3911963e+00
  2.7454758e-01
 -1.4551451e+00
 -4.9253532e-01
 -2.8412327e-01
 -1.2246146e+00
 -2.6557212e+00
 -3.8421667e-01
  3.2771200e-01
 -3.7377736e-01
  9.2336781e-02
  8.6007404e-01
 -4.8094999e-02
  1.4733079e-01
  5.5426520e-01
  9.0269691e-01
  4.8833084e-01
  4.9427275e-02
 -2.6168290e-01
  9.3731225e-01
 -6.2366110e-01
  1.0353729e-01
  3.0233850e+00
 -4.4396374e-01
  9.2638868e-01
 -6.6176277e-01
  6.2890202e-01
  1.9339339e-01
  8.0013156e-01
 -1.0279166e+00
 -5.4800496e-02
 -9.2900973e-03
 -1.6087321e+00
  2.2234493e-03
 -3.0749634e-01
 -8.5926050e-01
  3.3554208e-01
 -4.2783469e-01
  6.5507859e-02
  5.9506446e-01
 -1.3375056e+00
  6.8887025e-01
 -3.8465339e-01
  1.6816494e+00
 -3.7398037e-01
  1.3347263e+00
  1.8530680e+00
  1.4539473e+00
 -2.5315527e-03
 -1.8603039e+00
 -9.8971951e-01
 -1.8475285e-01
  1.6466345e+00
 -8.5390890e-01
 -1.5536774e+00
  6.1423916e-01
 -7.8053296e-02
 -4.4867262e-01
  1.8091780e+00
  8.5751575e-01
 -2.3999754e-02
  5.8886450e-02
 -8.1930524e-01
  2.9611298e-01
 -6.5301222e-01
  3.6298761e-01
 -9.6522975e-01
  7.4668747e-01
  6.7353433e-01
 -3.5744527e-01
  4.2457747e-01
  3.4624323e-01
 -6.2229687e-01
  9.5043987e-01
  1.8095590e-01
 -2.1170676e+00
 -1.2113277e+00
  4.2363697e-01
  2.8347197e-01
  8.7560080e-02
  1.3049877e-01
 -4.0558225e-01
  2.2474769e-01
 -1.4568390e-01
  8.4432060e-01
 -7.0239550e-01
 -5.3947520e-01
 -2.0292503e-01
 -9.8166090e-01
 -1.9992098e+00
 -4.8107762e-02
 -7.8495419e-01
 -3.1988716e-01
 -1.0311104e+00
 -7.6539916e-01
  6.8858922e-01
  2.3638323e-01
 -1.2756742e+00
 -3.3743382e+00
  1.7029272e+00
 -8.5618421e-02
 -1.3436836e+00
  1.7084473e+00
  2.1713812e+00
  3.9923987e-01
  8.3798647e-01
  1.4213132e+00
 -1.6092490e+00
 -9.5914203e-01
  1.5042742e+00
  5.4586954e-02
  4.3481925e-01
  4.0035790e-01
 -1.7227480e-01
  1.2063874e+00
  3.7700453e-01
 -3.7555560e-01
  1.2018615e+00
 -4.0971032e-01
  2.0487942e-01
 -1.4633298e+00
  2.8529736e-01
  9.5676190e-01
 -4.1451845e-01
 -6.2213838e-01
  2.9620621e-01
  9.2297876e-01
  6.4882629e-02
  7.7903539e-02
  3.9707345e-01
 -1.1006657e-01
 -3.9066693e-01
 -2.9151341e-01
 -2.5439018e-01
 -2.7619788e-01
  1.9056698e+00
  2.1230667e+00
 -9.4329965e-01
 -3.1380725e-01
 -2.8122446e-01
 -9.1405094e-02
 -1.4003760e+00
  1.2063214e+00
 -1.0757101e+00
 -4.0934181e-01
 -1.5951343e+00
  1.0329018e+00
  6.7227548e-01
  3.8304517e-01
 -1.7103996e+00
 -1.1476291e+00
 -7.5222123e-01
  1.9052911e-01
  2.3631568e-01
 -1.8378441e+00
  1.4734596e+00
 -2.0897588e-01
 -7.9510343e-01
  2.9342777e-01
  2.9375795e-01
  2.7840093e-01
 -2.8748989e-01
 -2.2420338e-01
 -5.8669192e-01
 -2.4610877e-01
 -1.1616368e+00
  1.8350660e+00
 -1.6055092e-01
  5.2238107e-01
 -1.1523758e-01
 -7.5068128e-01
  4.7772992e-01
  4.1542765e-01
 -4.9807459e-01
  1.1479110e+00
  1.2305783e+00
 -6.1178696e-01
 -1.3996209e+00
 -1.6717092e+00
  3.5282752e-01
 -1.5880358e+00
 -1.3632079e+00
 -4.8986164e-01
 -5.1445979e-01
  7.7208328e-01
  5.0120801e-01
  6.4147288e-01
 -4.8802629e-01
  3.8966218e-01
  4.8586625e-01
  5.1120293e-01
  1.9148581e+00
 -3.4939411e-01
  1.4275814e+00
 -2.1468614e-01
  8.9734459e-01
 -8.8525283e-01
  5.7260585e-01
  3.8067830e-01
 -7.4689364e-01
  3.6062144e-02
 -7.2921890e-01
  3.7048325e-02
  3.6049557e-01
 -1.1402191e+00
 -1.3253911e-01
 -8.2242280e-02
 -4.7423825e-01
 -1.0851778e+00
  5.4278958e-01
  1.4384993e+00
 -4.9431592e-01
 -4.2573345e-01
  8.8590086e-01
 -1.3399644e+00
 -2.0484045e-01
  4.0935364e-01
 -5.8493006e-01
 -1.2664783e+00
  1.7901162e+00
 -1.3943653e-01
 -2.0610563e-01
  8.4650648e-01
  8.6071171e-02
 -1.1657025e+00
  3.3179801e-02
  1.0208928e-01
  5.7684451e-01
 -5.2444142e-01
  1.2700287e+00
  1.6325761e+00
  2.8287950e-01
  9.9746799e-01
  1.9487463e-01
  1.0723550e+00
  7.8930187e-01
  1.3669016e+00
  5.3360689e-01
  7.3160082e-02
 -3.6391094e-01
 -2.0806730e-01
  6.2502837e-01
 -5.2537119e-01
 -2.0068257e+00
  2.5451824e-01
 -1.2104632e-01
  7.4897916e-03
  4.2509142e-02
  5.9611585e-02
 -2.9957026e-01
  1.0830909e+00
  9.3337022e-02
  1.7398031e-01
  4.6565931e-02
  1.1524229e-01
 -5.7179636e-01
 -8.9744568e-01
  7.4375331e-01
 -1.0027812e+00
 -1.3228338e+00
 -8.8354997e-02
 -6.9455707e-01
 -1.0767074e-01
 -1.7792771e-02
 -7.4957889e-01
 -3.9649218e-01
 -1.7599068e+00
  1.3652928e+00
 -2.3812674e-01
 -2.0224802e+00
  7.5184333e-01
 -8.1495994e-01
 -8.0105239e-01
  1.3534671e-01
 -5.0382335e-03
 -4.2366199e-02
  5.5138761e-01
  7.0554894e-01
  2.1499905e-01
 -6.6965419e-01
 -3.7842786e-01
  1.8715555e-02
  6.1092335e-01
 -1.1324195e+00
  2.4888557e-01
  7.1943694e-01
  1.7423190e+00
  1.0186845e+00
 -2.3499553e-01
  1.8700542e+00
  1.2969707e-01
  5.4009008e-01
  1.5749818e-01
  2.1315517e-01
  5.5376124e-01
  2.8344673e-01
 -2.8572035e-01
 -6.2240773e-01
 -6.5397459e-01
 -1.7850474e-01
  4.5123106e-01
  3.9034525e-01
 -3.0358341e-01
  1.8424155e-01
 -1.4252155e+00
 -4.9516961e-01
  2.2815606e-01
  5.8496666e-01
  7.6180410e-01
 -4.4061902e-01
 -6.9077110e-01
  3.2994413e-01
 -1.1508265e+00
 -4.3238398e-01
 -1.2806761e-01
  2.0275092e-02
 -5.8939654e-01
  2.5037339e-01
  7.8226531e-01
  2.9203022e-01
 -8.2539880e-01
 -1.3146610e+00
 -1.1315096e-01
  7.2833091e-01
 -3.5280934e-01
  1.1570899e+00
 -1.6285045e-01
  1.6308761e-01
  1.4852542e+00
 -8.6918756e-02
 -1.5788150e-03
 -5.5121619e-01
  1.3694715e+00
  1.7303340e+00
 -1.2428534e+00
 -7.2423112e-01
  4.4398537e-01
  1.6506772e-01
 -2.3704454e-01
 -8.9889920e-01
  4.6348569e-01
 -9.8890287e-01
 -2.7132456e+00
  4.9875051e-01
  2.6200637e-01
  4.8127884e-01
 -4.9575132e-01
  1.4732529e-01
 -5.9618052e-02
 -1.0853218e+00
  1.6890149e+00
 -2.6175539e+00
 -5.0794125e-01
 -1.2738529e+00
  5.5307221e-01
 -1.3770579e+00
  2.1963159e-02
  4.9947304e-01
  2.8672676e+00
  4.8226780e-01
  7.3599555e-02
  2.9455546e-01
  4.2540261e-01
 -2.1338476e-01
 -8.8167983e-01
 -1.4015301e-01
  1.2514865e+00
 -1.8450037e-01
  1.0081123e+00
 -1.9352462e+00
 -1.6226086e-01
  2.4345636e-01
 -1.8318695e+00
  1.2479470e+00
 -1.6315210e-01
  5.3643447e-01
  2.1266098e-01
 -1.5368080e-01
  6.4251900e-01
  9.5535427e-01
 -8.5676901e-02
 -1.6865016e+00
 -1.7580725e-01
 -1.0495983e+00
 -3.9990768e-01
  3.2881296e-01
  1.7365937e+00
  4.6972227e-01
  7.9648513e-01
 -4.7582132e-01
 -7.9247579e-02
  6.8374306e-01
 -1.0176152e+00
  8.6318088e-01
 -5.5268604e-01
 -1.1700860e+00
  2.4272058e+00
 -3.6715853e-01
 -2.3030414e-01
  1.3529089e-01
 -1.0469171e+00
  1.3602436e+00
 -2.5180269e-02
 -1.7012782e+00
 -2.0864580e+00
  4.0772042e-01
 -5.6839031e-01
 -1.7560842e+00
  1.3651961e+00
 -1.1108971e+00
 -8.0793542e-01
 -1.1878395e+00
 -5.8047539e-01
 -1.9356818e-01
 -4.7848722e-01
 -3.9457074e-01
 -1.7229101e-01
  5.6221992e-01
 -9.0214670e-01
  5.2373789e-02
  7.8646272e-01
 -3.8987043e-01
 -2.1881838e+00
  4.9904108e-01
  4.7696391e-01
 -1.9036853e-01
  2.0719953e-01
  9.1432720e-01
  4.2860946e-01
 -2.3237717e+00
 -4.4144791e-01
  4.2993817e-01
 -6.8915576e-01
 -1.2657304e+00
  1.5066026e-01
 -3.5702506e-01
  1.8812090e-03
  1.1634687e-02
 -1.8979566e-01
  2.6907256e-01
  8.5675114e-01
 -2.0126897e-01
 -5.5101454e-01
  7.5629008e-01
 -4.4830915e-01
  1.2816313e-01
  4.3492597e-01
 -2.5728032e-01
  2.5756267e-01
  8.3913368e-01
 -6.1317784e-01
 -4.5034313e-01
 -1.7842612e-01
 -1.3119233e+00
  8.8710129e-02
  9.3742090e-01
 -6.7989612e-01
  2.0079815e+00
 -6.3784480e-02
 -1.9011222e+00
 -2.6242030e-01
  1.5558326e+00
 -7.0635223e-01
 -9.4988793e-02
 -2.4449204e-01
  5.0818408e-01
 -7.1611798e-01
 -1.2587023e+00
 -6.1066467e-02
 -1.0403006e+00
 -1.4166180e+00
 -1.5663213e-01
  1.7179455e+00
 -3.8760740e-01
  8.5555607e-01
 -1.8834274e+00
 -1.8666207e+00
  1.3435383e+00
  1.1335429e+00
  1.0237033e-01
 -9.6315283e-01
 -2.2758317e-01
  2.1666715e-01
 -5.4091029e-02
 -2.5481531e-01
 -8.1235625e-02
 -2.5141692e-01
  7.8569531e-02
 -4.6777624e-01
  8.2558729e-03
 -1.7745887e-01
  1.3950136e+00
  5.5866992e-01
 -9.5802230e-01
  3.5317379e-01
 -7.1198177e-01
  1.5843399e+00
 -2.2925375e+00
 -1.1204736e+00
 -4.2553639e-01
 -8.3118230e-01
 -1.0768635e+00
 -3.2382816e-01
 -3.0889812e-01
  4.6372986e-01
  5.5718410e-01
  1.3772517e+00
 -1.0122783e+00
  1.2062063e+00
 -3.5028076e-01
  8.4381275e-02
 -4.7244139e-02
 -1.5038861e-01
 -4.2617396e-01
  1.0073218e+00
 -1.8041875e+00
 -3.0353084e-01
 -8.0399430e-01
  1.0938084e+00
 -3.0648780e-01
 -1.9232202e-01
  1.1264055e+00
 -1.6291560e-01
 -9.8525077e-01
 -2.1610439e-01
  1.3584489e-01
  1.6031953e+00
 -2.4845500e+00
  2.1517725e-01
  2.5016940e+00
  6.2891811e-01
 -1.0852622e+00
 -4.9949831e-01
  1.8913221e+00
 -1.2140661e+00
 -1.2351539e+00
 -1.2279030e+00
  1.0265747e+00
 -6.5010321e-01
  5.2086431e-01
 -2.3993464e-01
  1.0513133e+00
  7.4255216e-01
 -3.1205484e-01
 -5.9088163e-02
  1.9929942e-01
 -9.1033243e-03
 -1.2709498e-01
 -2.4890015e-01
  8.0712157e-01
 -2.8690025e-01
 -3.4244001e-01
  6.5360226e-02
  2.2606550e-01
  6.1730587e-01
  1.2669353e-01
  1.0664836e-01
  8.3560258e-01
  1.7185542e-01
  3.5843012e-01
 -5.3938327e-04
 -9.5574993e-01
 -1.9046118e+00
  1.7259711e+00
 -1.0965304e+00
  8.4560972e-01
  1.3587091e+00
 -3.4709860e-02
  7.0771241e-01
  1.0745525e+00
  7.7423525e-01
 -4.4505167e-01
  1.2397972e+00
 -1.1093535e+00
 -3.7484062e-01
  1.4589210e+00
  8.3747739e-01
  7.4519324e-01
 -2.7050585e-01
  1.2415310e+00
  3.1171981e-01
  1.0714574e+00
  4.6397649e-02
  1.0495073e-02
  6.7453361e-01
  9.1949236e-01
 -2.0063588e-01
  3.5312724e-01
 -2.0602881e-03
 -5.5607362e-03
  3.2848465e-01
 -9.8075080e-01
 -4.3360823e-01
  1.5692437e+00
  5.0029200e-02
  1.9519104e-01
  6.2572169e-01
  2.9901576e-01
  8.3905673e-01
  1.7015465e-01
 -8.6410457e-01
 -3.4672290e-01
 -8.3482462e-01
 -6.8952066e-01
  3.3705208e-01
 -4.7037092e-01
  1.6150700e-01
  2.3823258e-02
 -1.0335795e+00
  1.2180803e+00
  1.0052460e+00
 -2.3065077e-01
 -4.6617601e-02
  2.4992347e-01
  1.9203393e+00
  4.0866181e-01
 -7.6516062e-01
 -7.1487558e-01
  6.2931961e-01
 -1.5342312e-01
  1.4994550e-01
 -1.1181047e+00
  8.0070055e-01
 -6.2711203e-01
 -1.7337330e-01
  1.3971719e-02
 -3.0732799e-02
 -8.6507308e-01
 -1.8674073e+00
 -2.1732416e-02
  8.0459826e-02
 -4.5889747e-01
  6.6803956e-01
 -8.0196798e-01
 -1.6510036e+00
 -1.1003036e+00
  2.8328907e-01
  1.0206608e-01
  1.0919759e+00
  8.8337845e-01
 -2.0013149e+00
 -4.1894704e-01
  3.3852595e-01
 -4.9063167e-01
  7.0151508e-01
  1.1044163e-01
 -1.4575745e-01
  1.6980668e+00
  1.7538978e-01
 -1.4051104e+00
 -1.1414372e+00
 -3.7832406e-01
  2.8425893e-01
  1.9080381e+00
  3.7051849e-02
 -6.6019577e-01
 -3.2111894e-02
  6.1778712e-01
 -1.4558350e-01
  3.6910739e-02
  6.8564409e-01
 -9.6995378e-01
 -1.0489539e+00
  1.2929388e+00
 -2.0773247e-01
  1.8040481e-01
 -1.7474192e-01
  2.4869920e-01
 -1.1572249e+00
 -5.0578320e-01
  1.5184001e+00
 -1.8878787e+00
  1.9319085e+00
  1.6596219e-01
 -9.8858699e-02
  4.8402122e-01
 -1.4876920e+00
 -1.8932386e-01
 -3.7453771e-01
 -4.1285208e-01
 -2.1780441e+00
 -1.2522276e-01
  5.6843305e-01
  9.0922952e-01
 -5.2842528e-01
  3.8472590e-01
  9.6985102e-02
 -1.7166027e-01
 -8.3149111e-01
 -1.7210929e+00
  1.0695657e+00
 -1.9906325e+00
 -6.6157609e-02
  1.0008380e+00
 -4.0397160e-02
  6.3807023e-01
  1.9341172e+00
 -8.1190503e-01
  2.2642350e+00
  7.7307713e-01
  8.8675475e-01
 -1.3582885e-01
 -7.0369667e-01
  1.0307631e+00
  1.7182614e+00
  8.6602792e-02
 -3.1577039e-01
  2.5813019e+00
 -1.0557586e-02
 -6.3817523e-02
  6.7108905e-01
 -5.6740023e-02
  1.1209575e+00
 -5.6089413e-01
  9.0244520e-01
  6.3710237e-01
 -7.7447855e-01
  1.0157976e-01
  7.8786826e-01
  2.3923367e-01
  5.8585173e-01
  1.5416278e+00
  2.4523478e+00
  1.9570541e+00
 -3.9650637e-01
 -9.4431438e-02
  8.3894521e-01
  2.1857373e-01
 -4.9183163e-01
 -7.8009355e-01
 -6.5651846e-01
  4.6640879e-01
  7.1120119e-01
  1.2222534e+00
 -6.6903144e-02
 -1.6269484e+00
 -1.8018737e+00
 -3.9070309e-03
 -6.1953080e-01
 -3.5802469e-01
 -3.1721956e-01
  1.7425017e-01
  1.1698520e+00
 -1.8664168e+00
 -9.3024290e-01
 -3.6018614e-02
  5.0743723e-01
 -3.1779724e-01
  4.5665069e-03
  3.2383820e-01
  6.0288244e-01
 -1.4982152e-01
 -5.0177658e-01
  1.7289610e-01
 -5.1761550e-01
 -1.8581577e-02
  3.6138520e-01
  3.6640151e+00
  9.3580192e-01
  1.7377617e+00
  6.8934894e-01
  1.0491375e+00
  9.6420985e-01
 -8.5227209e-01
 -5.8862060e-01
 -2.8948565e+00
 -1.3684976e+00
  1.8418141e-01
 -1.0425184e+00
 -6.5115404e-01
  6.6930467e-01
 -5.9678429e-01
  8.7331855e-01
 -9.7405696e-01
  5.5298555e-01
  5.5183512e-01
 -9.3984827e-02
 -1.9868469e+00
  6.4061724e-02
 -1.1446258e+00
 -3.4673044e-01
  1.8789531e+00
 -6.5916091e-02
 -1.6114943e-01
 -1.1675552e+00
  1.4611765e+00
 -1.0748257e-01
 -1.1332449e+00
  8.3258635e-01
 -1.0377552e-01
 -1.1449549e-01
 -4.8789751e-02
  9.8960268e-01
 -1.1587492e-01
  1.3753524e+00
  1.4420966e+00
  9.4784486e-01
 -9.3821883e-01
  1.4188200e+00
 -1.0369978e+00
  1.3732398e+00
  3.6293361e-01
 -4.6704078e-01
 -2.8668568e-02
  1.3657289e+00
 -1.1861571e+00
  1.7835814e+00
 -9.1129565e-01
 -1.2796619e+00
  7.8029335e-02
 -2.0478858e-01
  6.9045502e-01
 -1.2628928e+00
 -3.5020602e-01
  1.4983153e+00
  4.3594301e-01
  1.5531363e+00
  7.3440182e-01
  1.6016281e+00
  4.6976086e-01
 -1.8001013e-02
 -1.6744025e-01
  1.6604801e-01
  1.6245110e+00
 -6.5025687e-01
 -2.9387715e-01
  7.7739340e-01
 -9.1956025e-01
  4.9270019e-01
  8.7417710e-01
  1.2114660e+00
  4.7663297e-03
  4.7083542e-01
  2.2496185e+00
  5.2752113e-01
 -5.5919427e-01
  3.0569583e-01
  2.1348588e+00
  9.2614388e-01
  1.8081157e-01
  5.1514596e-02
  9.0342778e-01
  2.2914004e+00
  5.2692652e-01
  7.3795003e-01
  1.7630658e+00
  8.5173297e-01
  4.4120044e-01
  7.8281486e-01
  5.2298218e-01
 -1.0422683e+00
 -1.0083934e+00
 -1.3333499e+00
  1.0962477e-01
 -1.4650449e+00
 -2.9538611e-01
  1.1206787e-01
  1.4127150e-01
 -1.4136626e+00
  5.9616548e-01
 -8.8177013e-01
 -3.3363142e+00
  1.5225658e+00
 -8.2079887e-01
 -6.3025959e-02
  5.8400756e-01
  6.9373362e-02
  4.0569824e-01
 -1.5456327e+00
  5.7545418e-01
 -5.1512986e-01
 -9.2846942e-01
  1.9577283e-01
 -7.6199394e-01
 -4.7219467e-01
 -4.8336919e-02
  1.4976357e+00
  9.6913218e-01
  1.1405553e+00
  2.3772220e-01
  1.2905857e-01
 -1.5587081e-01
 -8.2407367e-01
  2.8883964e-01
  1.2861753e+00
 -6.8041337e-01
  1.9107394e+00
  2.4296377e-02
  6.9076514e-01
 -1.0292250e+00
 -6.6524959e-01
  1.5093395e-01
 -3.1173573e+00
 -3.5947251e-01
  6.9497800e-01
 -1.0565623e+00
  2.7015829e-01
 -3.6778983e-01
 -1.7427137e+00
 -3.7819192e-02
  4.0978894e-01
  9.5173663e-01
  4.1124231e-01
  8.0189757e-02
  9.2482880e-02
 -1.4631915e+00
 -6.5841055e-01
  2.7209392e-01
 -8.0265021e-01
  3.4552228e-01
  2.4337910e-01
  5.8728296e-01
 -1.9607973e+00
  4.0844095e-01
 -7.2053760e-01
 -1.9810383e-01
 -1.8248585e-01
  7.7675068e-01
  1.9553949e+00
  4.8309559e-01
  6.6067979e-02
  8.0214876e-01
  1.2650576e-01
 -8.6672001e-02
 -1.5363337e-01
  8.0616361e-01
  7.1873540e-01
  1.8799378e-01
 -5.1398192e-02
  3.5716102e-01
  6.4564824e-01
  2.8232077e-01
 -2.6700100e-01
  5.7013887e-01
  8.6289251e-01
  8.3435750e-01
 -2.1060908e+00
  1.1594112e+00
 -1.2921348e+00
 -2.2682860e-01
  5.0769883e-01
  1.0572578e+00
  9.5595956e-01
 -8.2158729e-02
  3.3348563e-01
  1.8656397e-01
 -1.6735734e+00
 -1.1566169e-01
 -3.8012600e-01
 -1.1085249e-01
  1.5182890e+00
 -8.2293943e-02
  2.3657269e+00
 -9.3248898e-01
  5.3618139e-01
 -1.5555392e-01
 -1.1433762e+00
 -2.1081758e+00
  3.6772853e-01
 -2.6948121e-01
 -2.1297935e-01
  1.8202016e-02
  2.5240717e+00
 -1.4773847e-01
  7.2825372e-01
 -1.6416138e+00
 -5.0169891e-01
  1.8071024e-01
  1.0043789e+00
 -8.0130744e-01
 -5.9197640e-01
  1.8493626e+00
  1.1370174e+00
 -1.2331626e+00
  7.6975113e-01
  1.4370336e-01
  3.2074171e-01
  3.4093335e-01
  2.0526677e-01
  2.5921686e-02
  1.4275222e-01
 -8.4834963e-01
 -7.9872990e-01
  6.0597026e-01
  6.7508534e-02
  1.6996102e+00
 -2.5667560e-01
  1.5733989e+00
 -6.5976298e-01
 -2.1440623e+00
  7.9572803e-01
 -5.9387881e-01
 -9.5664626e-01
  5.1236576e-01
 -1.3053216e+00
  2.2638311e+00
 -1.7704342e-01
 -6.5987575e-01
  1.4116196e-01
 -6.5977019e-01
 -4.2070022e-01
 -6.1386377e-01
 -2.8242099e-01
  1.0247846e+00
  2.2365065e+00
  7.1094114e-01
 -3.7530592e-01
 -5.5622518e-02
 -2.7800336e-01
 -6.2462676e-01
  5.3005423e-03
  3.4093711e-01
  3.4092939e-01
 -2.8173068e-01
  1.7267646e+00
 -5.6832951e-01
 -6.3220918e-01
  8.6380392e-02
  1.9859979e-01
 -1.9301932e+00
  5.1068091e-01
  4.8470923e-01
  4.7284853e-01
 -3.4526160e-01
  5.6328577e-01
 -5.6917675e-02
 -2.3711853e-01
 -1.1196897e+00
 -1.2280238e+00
 -1.0115111e+00
  2.2432217e-03
 -2.9614449e-01
  1.4568503e-01
 -1.1819630e+00
 -6.0566682e-01
  1.4317590e+00
  1.0047266e+00
  4.8271224e-01
 -2.0334889e-01
  1.8787527e-01
 -2.9704267e-01
 -7.0885581e-01
  4.6304580e-02
 -5.1451486e-01
  8.0486751e-01
  1.5358764e+00
 -6.9122994e-01
  3.8896075e-01
 -1.6791891e-01
 -6.7686397e-01
 -5.4341936e-01
  1.2433364e+00
 -1.3261423e+00
 -9.0487623e-01
 -1.3618873e-01
 -1.0154326e-01
  3.3713818e-01
  3.5477716e-01
 -3.1835383e-01
 -4.0550843e-01
 -5.7154940e-03
 -1.7801078e-02
  1.3491446e-01
 -1.0223560e+00
  1.5174906e+00
  3.4895825e-01
 -1.1117363e+00
 -4.4525996e-01
 -9.2772740e-01
 -4.9613629e-02
  6.9412507e-02
 -9.9896753e-01
 -1.4559916e-01
 -3.7448215e-01
  6.2132215e-01
 -1.7639539e-01
 -1.7164201e+00
 -9.3350106e-01
 -1.1880465e+00
  1.6086800e+00
 -6.0766619e-01
  2.2644688e-01
 -4.3508798e-01
 -1.3708810e+00
 -9.1398317e-01
 -1.5458357e+00
  7.7581763e-01
 -2.4527983e-01
  1.6686668e-01
  2.7925023e-01
 -6.9094217e-01
  4.6670786e-01
 -2.1870002e-01
  5.8141727e-02
  2.8085184e-01
 -3.2736370e-01
 -3.0535242e-01
 -6.7650020e-01
 -1.1836671e+00
  6.4635026e-01
 -8.9862823e-01
  2.9148450e-01
  1.4875623e+00
 -9.2387223e-01
  3.3288544e-01
 -1.0506847e+00
 -1.2325208e+00
  3.7256110e-02
 -2.3536975e-02
 -1.2427456e+00
  1.3026116e+00
 -8.0059010e-01
  8.2718062e-01
  5.0263715e-01
  5.0629342e-01
 -1.8766226e+00
 -5.7061636e-01
  1.2294785e+00
  1.2282009e+00
  1.3611403e-01
  6.1693299e-01
  4.8071054e-01
 -9.2033541e-01
 -1.2340900e+00
 -6.3754243e-01
 -4.9626315e-01
 -4.0023647e-02
  1.1880465e+00
 -8.6115199e-01
  7.4768907e-01
  2.6557425e-01
  1.5731312e-03
 -1.6131865e-02
 -2.6506753e+00
 -2.0222639e-01
  7.8557080e-01
 -2.1364849e+00
  2.7245316e-01
 -4.3934396e-01
 -3.1774849e-01
 -2.8846890e-01
 -4.6341330e-01
 -1.9884940e-02
  7.6719034e-01
  4.3807086e-01
  2.5737854e-03
 -1.6426933e+00
  2.4020618e-01
  6.1903316e-01
  7.0661527e-01
  1.0073054e+00
 -1.6955003e-02
 -4.9950510e-01
  8.9363587e-01
 -4.8331815e-01
 -3.4292388e+00
 -1.4120321e+00
 -2.0358285e-02
  3.1715193e-01
  4.3558344e-01
  1.3861358e+00
  2.4182460e+00
  1.2760916e-01
  2.0962015e-02
  1.3744649e+00
 -1.4591047e-01
  4.3891087e-01
 -6.4849265e-02
 -5.3356808e-01
 -1.1176544e+00
  9.7666278e-02
 -6.3421339e-02
 -1.9223498e+00
  2.4580314e+00
 -1.6228111e+00
 -1.2102554e+00
  2.8741663e+00
 -1.0242449e-01
  1.1342473e+00
 -5.2841496e-01
  8.0347218e-02
 -2.4548997e-01
  2.4220932e-01
 -1.0827037e-01
 -1.2654562e-01
 -5.8757073e-01
 -3.4895156e-02
 -9.0259677e-01
 -1.8835015e+00
 -2.9290661e-01
  9.7616661e-01
  5.9075230e-01
 -7.4309850e-01
 -1.2151368e+00
 -2.1201488e-02
  1.9486223e+00
  1.9841101e-02
  2.5658066e+00
  1.5282843e+00
  1.0907656e+00
 -1.0019919e+00
  1.1068332e+00
  1.3139743e+00
 -1.2007587e+00
  1.0583259e-01
  9.4721955e-01
  1.5317426e+00
  8.2705840e-02
  1.2854144e-01
 -8.8773802e-02
 -4.9569023e-01
  1.8053819e+00
  5.7491761e-01
  4.3036455e-01
  7.1347535e-02
  2.7757460e-02
 -5.3898960e-01
  7.7668613e-01
 -5.4791468e-01
 -9.8991495e-01
  2.1126373e-01
  1.2830925e+00
 -1.3749712e+00
 -1.4847492e+00
  2.2473183e-01
  6.1823137e-02
  2.4536516e-01
  1.7537793e+00
 -8.3944574e-02
 -3.6194637e-01
  5.8750529e-02
  1.2840292e+00
  6.6452526e-02
  3.0469036e-01
  6.4802974e-01
 -9.6564651e-01
  2.4891144e-02
  7.2310305e-01
 -2.8214321e-01
  6.1644500e-01
 -1.4741683e+00
 -2.1895522e-01
  7.9938531e-01
 -1.0429952e+00
 -1.1486741e+00
 -6.2002498e-01
 -9.1480470e-01
  1.1138620e-02
  3.2090318e-01
  4.9112192e-01
  5.8592623e-01
  2.7496070e-01
  1.2500494e+00
  1.6856718e-01
  1.6471231e+00
  1.6757980e-01
  7.0601684e-01
 -7.2709477e-01
  1.0918295e+00
 -6.6249505e-02
  6.5125978e-01
 -1.0238774e+00
  4.6072227e-01
 -8.6859286e-01
 -4.0217343e-01
 -3.2797712e-01
 -2.9451838e-01
  1.6188353e+00
  9.4468093e-01
 -9.5330840e-01
 -3.1065223e-01
 -1.8598015e+00
 -7.0396096e-01
  1.6470672e-01
  1.3832710e+00
 -2.5774804e-01
  1.9808656e-01
 -4.8077121e-01
  1.7914212e-01
 -5.1144768e-02
  2.2781347e-01
 -1.6439638e+00
 -3.7019423e-01
  3.2529745e-01
 -1.9800825e-01
  4.7786817e-01
  4.8795376e-02
 -9.9632341e-01
  2.1403462e-01
 -7.0130742e-01
  5.5773813e-01
  9.0147930e-01
  9.8917854e-01
  8.8064378e-01
 -1.1320809e+00
  2.1009250e-01
  2.2692375e-01
  7.3680949e-01
 -4.5545033e-01
  4.4920972e-01
  7.8719425e-01
 -9.1991603e-01
 -2.7877271e-01
 -2.2359531e+00
  1.8699635e+00
 -5.3215753e-02
  6.3455546e-01
  2.4485320e-01
 -2.4068539e-01
  1.3111356e+00
  5.2460426e-01
 -4.0778089e-01
  1.2463098e+00
 -2.2436336e-01
 -3.1022179e-01
  8.7238765e-01
 -5.8155489e-01
  1.2385185e-01
  3.3108932e-01
 -1.1399046e+00
  1.7155929e-01
 -2.6040556e-02
 -7.6442277e-01
 -1.2528509e-02
  1.5088157e-01
 -1.0598426e+00
  1.8051361e-01
 -1.0424159e+00
 -1.0347791e+00
  1.0087870e+00
 -1.0202793e+00
  9.9140775e-01
  1.0743023e+00
 -1.8848589e-01
  9.8920918e-01
 -2.0709482e-01
 -9.9808134e-02
  3.2611018e-01
 -7.5225309e-02
  7.5787336e-01
 -2.8087685e-01
 -3.2129791e-01
  9.1446036e-01
  3.0715853e-01
 -7.9331863e-01
  2.8050610e-01
 -4.4704226e-01
  8.1018120e-01
 -3.1958756e-01
  2.2802334e+00
  1.4521281e+00
  2.8471488e-01
 -8.7052643e-01
  8.7475938e-01
  1.1088350e+00
 -4.8786131e-01
 -1.3944399e+00
  1.1477998e-01
 -9.5896226e-01
  9.2764747e-01
  3.0394995e-01
  8.9077222e-01
 -1.9335691e+00
  4.3578291e-01
 -4.8748648e-01
 -7.2332346e-01
  4.5753464e-01
 -1.4758778e-01
 -3.0378929e-01
  1.2690890e-02
  9.7664964e-01
  4.8353353e-01
  4.4754380e-01
 -9.4479614e-01
  1.4187750e-01
 -9.0184771e-02
 -1.3717242e+00
  4.6702713e-01
 -7.8634322e-02
 -1.5599390e+00
  1.2501762e+00
  5.3576618e-01
 -7.6753073e-03
  3.3255568e-01
 -7.5289331e-02
  3.6537150e-01
  1.1733451e-01
 -7.9493237e-01
 -1.6188418e+00
  9.6808338e-01
  1.0791379e+00
 -4.8712783e-02
 -8.7166220e-01
  5.7156754e-01
  5.8447011e-03
 -3.4642649e-01
  4.0264887e-01
  1.5294115e-01
 -1.0404364e+00
  1.3286548e+00
  1.1587486e+00
 -1.3163719e+00
  4.7303017e-02
  5.7406765e-01
  1.6820373e-01
 -8.8874912e-01
  2.9017730e-02
 -3.3587608e-01
 -1.4564177e+00
 -9.6024796e-02
 -2.9648367e-01
  1.5252652e+00
 -8.9708787e-01
  4.4903320e-01
  8.2278872e-01
 -8.4234965e-01
  1.5663239e+00
  1.2948335e+00
 -4.3922746e-01
  1.0997064e+00
 -1.0768394e+00
 -1.5320507e+00
  2.9099172e-01
  3.2543339e-02
 -1.1588238e+00
  3.2329965e-01
 -2.6367638e-01
  6.6898197e-01
 -8.6334914e-02
  9.2443369e-02
 -8.1875306e-01
  8.0889183e-01
  7.3352098e-01
 -1.4765474e+00
  1.1512745e-01
  1.5057391e+00
  9.2739803e-01
 -2.0400596e-01
  3.5513073e-02
  6.6417640e-01
 -8.9717984e-01
  4.6829018e-01
 -1.0349306e+00
  5.9162140e-01
 -6.6664284e-01
 -4.6686417e-01
  2.1253704e-01
 -5.8273949e-02
  1.8164639e-01
  8.6824125e-01
  1.1018679e+00
  2.8231764e-02
  1.3085547e-01
  4.8956108e-01
  2.6988146e-01
 -6.8898171e-01
  8.3241653e-01
 -3.8599584e-01
 -6.1118406e-01
 -4.4617501e-01
  5.9583187e-01
  1.1973042e+00
  2.1206989e+00
 -3.8402078e-01
  8.7102032e-01
 -5.2560079e-01
 -4.0074572e-01
  4.8837651e-02
 -4.4993237e-01
 -6.6137326e-01
 -1.1082681e+00
 -4.9046871e-01
  6.4611250e-01
 -2.2457266e-01
 -1.4615214e-01
  2.9558444e-01
  4.5467088e-01
  1.2787575e-01
 -5.0017184e-01
  7.3601371e-01
  1.8922970e-01
  2.1775061e-01
  1.2245349e+00
  9.2604560e-01
 -7.2585523e-01
  4.1376600e-01
 -1.1515414e-02
  1.1846900e-01
  6.6484970e-01
 -1.5140399e+00
 -3.3519068e-01
  3.0074546e-01
  2.4163705e-01
 -1.7508751e+00
 -7.3302627e-02
  1.7716974e+00
  6.4564198e-01
 -1.2737263e+00
 -1.9001422e+00
  2.9040188e-01
  1.6091138e-01
  2.1143867e-01
 -2.5898468e-02
  5.8895844e-01
 -6.0557050e-01
 -1.1387224e+00
 -9.9769503e-01
  5.6246704e-01
  5.8560693e-01
 -3.7844992e-01
  1.1294805e+00
 -5.1969320e-01
  2.8170580e-01
  2.7495447e-01
  1.3069924e+00
  5.8043265e-01
 -1.4086132e-01
 -2.0348178e-01
  3.2819068e-01
 -6.7958856e-01
  1.2229725e+00
 -3.8788140e-01
  8.9084321e-01
  5.4367775e-01
 -3.4665784e-01
 -3.1766325e-01
 -1.7836043e-01
  2.6492754e-01
  1.2869273e+00
 -5.3500837e-01
  1.1394042e+00
 -5.9448338e-01
  2.9888561e+00
 -1.9957511e+00
 -6.4878368e-01
  3.1666467e-01
 -4.5825166e-01
 -3.7633666e-01
 -6.0010356e-01
 -2.5296494e-01
  7.1638167e-01
  4.2128128e-01
  1.3441174e-01
  6.8699753e-01
  2.1339307e+00
 -9.8074955e-01
  3.6672243e-01
 -3.2251221e-01
  3.0830583e-01
 -1.0882572e+00
 -2.5519063e+00
  1.6337227e+00
 -1.7910098e-01
  1.0059811e+00
 -7.8515130e-01
  2.1029234e-02
 -1.4629832e-01
 -7.9777580e-01
 -6.5530646e-01
  3.0296364e-01
  1.0254507e-01
  1.0262315e+00
 -3.2636237e-01
  5.8346635e-01
 -1.2323372e+00
  2.3750204e-01
  8.2106268e-01
 -4.5014739e-01
 -1.4577340e+00
  1.6343789e+00
 -1.2018186e+00
 -3.3639655e-01
  3.2757914e-01
  2.0724311e+00
 -5.3435701e-01
  2.0735855e+00
 -8.9275128e-01
  1.2723113e+00
  1.4658180e+00
  1.0037980e+00
 -3.7469506e-01
 -2.2655664e-02
 -5.8172750e-01
  1.2588596e-02
 -3.6133763e-01
  1.3826061e+00
 -2.7155447e-01
 -9.7310233e-01
  1.7570371e-02
  1.5692016e-01
 -1.9799138e+00
 -4.5810068e-01
  1.4493796e-01
 -7.1792953e-02
 -1.3017587e-01
 -2.2644338e-01
  1.0888980e-01
  5.0959873e-01
  9.9470270e-01
  6.6963267e-01
  8.3120286e-02
  7.4098206e-01
 -3.9015752e-01
 -1.6193089e-01
 -1.1538162e-01
 -1.3487419e-01
 -1.7564411e-01
  3.8476607e-01
 -1.2412380e+00
  2.5594577e-01
 -4.1772953e-01
 -1.1052028e+00
 -2.1983832e-02
 -4.5960936e-01
  1.5584655e+00
 -2.2930352e-01
  9.7155648e-01
  8.0115330e-01
 -4.3747175e-01
 -2.0268360e-01
 -4.2202526e-01
  5.9986931e-01
  7.8024149e-02
 -3.6302906e-01
 -5.2920866e-01
  1.1325434e-01
 -6.2704498e-01
 -4.3582726e-01
  9.0819120e-01
  1.1407266e+00
 -1.7759345e+00
 -1.7035244e+00
  4.2588860e-01
 -2.6022944e-01
 -6.7075998e-01
 -3.7285155e-01
 -4.9190436e-02
 -7.9189914e-01
 -1.2578194e+00
 -1.0841709e+00
 -1.3637484e+00
  2.2142291e+00
  2.6603348e+00
  7.4206394e-01
 -2.1394571e-02
 -8.0668233e-02
  6.6809827e-01
  1.9629013e-02
  1.2318404e+00
 -1.3727988e-01
 -2.3121480e-02
 -1.9632968e-01
 -9.6050179e-01
 -7.4008512e-01
  1.0510528e+00
  6.9106585e-01
  8.7229975e-02
 -7.8925461e-01
  1.8229030e+00
 -3.9647177e-01
 -6.5153921e-01
 -9.9195167e-02
 -3.0378604e-01
  1.7894782e-01
  3.9399031e-01
 -1.5039878e+00
  8.4750545e-01
  1.8657838e-01
  2.2768088e-01
 -9.1507256e-01
 -1.3098981e+00
 -8.4194201e-01
  1.2757162e+00
  1.3236886e+00
  1.3071417e+00
 -1.1060313e-01
  1.7792020e+00
 -3.2362852e-01
 -1.4281731e+00
 -2.4896646e-01
  1.3671897e-01
 -1.1674942e-02
  1.0181751e+00
 -1.7891629e+00
 -1.4435508e+00
  7.4562973e-01
 -1.9488144e-01
 -2.3133637e-02
  1.9308889e-02
 -3.7646517e-02
  7.6097451e-02
  7.1902019e-01
 -1.8284036e+00
  5.2132148e-01
 -1.8138146e-01
 -7.2265035e-01
  2.8905052e-01
  2.0500524e-01
 -1.1764159e+00
  3.0135057e+00
  3.1617025e-01
 -6.1382633e-02
 -1.3766360e-02
  4.1850701e-01
 -3.5892847e-01
  6.7528360e-02
 -1.9180297e+00
  1.0730178e+00
  1.5668544e+00
  1.6007957e-01
 -9.4039261e-01
 -1.1776565e+00
  1.8979616e-01
  7.2995549e-01
 -2.3013648e-01
  6.6753608e-01
 -9.1344023e-01
 -3.1683217e-03
  5.2893901e-01
 -1.2062190e+00
 -1.9102235e+00
  9.2101169e-01
 -8.3996308e-01
 -2.0744011e-01
  1.3940027e+00
 -6.8317771e-01
 -2.7055604e+00
 -5.1604092e-01
  4.3329516e-01
  1.1605384e+00
 -6.6040087e-01
  1.8626340e-01
  2.8802228e-01
 -2.5641936e-01
 -4.8509896e-01
 -1.9952326e+00
  9.2629087e-01
  9.5978683e-01
 -1.3290660e-01
 -6.3732266e-02
  1.3948948e+00
 -4.7083718e-01
  1.6727643e-01
 -4.2695329e-01
 -1.3489598e-01
  5.7762545e-01
  4.6469249e-02
  2.1498740e+00
  3.2412669e-01
  1.7836848e+00
  1.5943130e+00
 -3.0921233e+00
 -2.8203836e-02
  6.2163633e-01
 -2.3609099e+00
  3.5685521e-01
  7.1305342e-02
  1.1998042e-01
 -2.7340713e-01
 -2.4078513e-02
 -2.2006004e-01
  3.7754586e-01
 -9.5774859e-01
  4.0822050e-01
 -1.0579904e-01
 -9.2087644e-01
  2.1821301e+00
 -1.2828993e+00
 -7.1126503e-01
 -4.4011077e-01
  1.1152701e+00
  7.6943350e-01
 -7.5264490e-01
  1.3813248e-01
 -1.6992287e-01
  9.2782333e-02
 -7.7542269e-01
 -1.0165261e+00
 -9.2387253e-01
  3.8401908e-01
  2.6164186e-01
 -2.4251597e-01
  2.7399400e-01
  1.1263833e+00
 -4.0707350e-01
 -7.8295827e-01
  4.3772388e-01
  6.4935260e-02
  2.7985948e-01
 -9.0820861e-01
 -9.9024969e-01
 -6.0820878e-01
 -9.0404019e-02
 -8.1066775e-01
 -5.9647566e-01
 -2.8808224e-01
  6.0534418e-01
  5.8781129e-01
 -5.6618905e-01
 -5.6409770e-01
 -1.7201735e+00
 -5.7339120e-01
  1.9899518e+00
  4.2060047e-01
 -6.3637173e-01
 -5.3809756e-01
 -1.0148385e-01
 -1.4854981e+00
 -4.4329807e-01
  1.7835434e-01
 -9.3086004e-01
  4.9174884e-01
 -1.2608300e+00
 -5.5999672e-01
 -4.6752286e-01
 -1.1772060e-01
  4.8301053e-01
 -2.8929427e-01
  6.8208122e-01
 -4.5383453e-01
  4.0114063e-01
  2.5802000e+00
  3.5103562e-01
 -5.9318656e-01
 -1.8608865e-01
 -1.7187063e-01
  7.0160913e-01
  7.8164890e-02
 -2.1865264e-01
 -1.5666763e+00
  3.9880678e-01
  1.1921085e+00
 -1.8412127e+00
 -5.0839525e-01
 -2.3038263e+00
 -1.4301214e-01
  1.5969667e+00
  1.2232419e+00
 -1.2704521e-01
  3.9599547e-01
  1.2924887e+00
  5.4970884e-01
 -3.2935071e-01
  4.5864281e-01
 -9.3025066e-02
  6.2498361e-01
  1.8433374e-01
  6.9625711e-01
  1.1566670e-01
  4.2108646e-01
  8.0107236e-01
 -7.0797759e-01
  3.3408709e-02
  7.5651217e-01
  2.1427074e-02
 -1.7085276e+00
  7.4435496e-01
 -2.6460648e-01
  7.8997135e-01
  9.9292165e-01
 -8.6815273e-03
  2.9146320e-01
  7.9102665e-01
 -3.6303177e-01
  1.0063981e+00
  1.0743618e+00
 -2.5165267e-04
 -8.0236167e-01
  9.8797935e-01
  1.5686491e+00
  3.6398712e-01
  1.3948762e-01
  2.2543368e+00
  4.8466083e-02
  5.9052229e-01
  2.5340798e-01
  2.2942117e-01
 -3.3433750e-02
  1.3953323e+00
 -2.8712884e-01
  7.7091658e-01
  3.7257504e-01
  5.9617662e-01
  6.5726441e-01
 -6.7504066e-01
 -3.9816302e-01
  7.8816199e-01
 -9.9230194e-01
 -3.1201264e-01
 -2.3752932e-01
  3.6986732e-01
 -1.0841172e+00
  8.3208099e-02
 -9.3319871e-02
  2.4960792e-01
  7.8093070e-01
  5.7348138e-01
 -1.9669163e-01
  3.3647832e-01
 -5.5061615e-01
 -4.6320472e-02
  3.2385090e-01
 -1.1736486e+00
  4.3039912e-01
 -7.0767593e-01
 -3.7214890e-01
 -8.0158222e-01
  1.5041305e+00
  1.0084065e+00
  1.3696312e+00
  8.0422744e-02
  1.4932610e-01
 -1.3637047e-01
  1.7319342e+00
 -7.3190302e-01
  1.2777289e+00
  9.3174773e-01
  5.2927035e-01
  1.9798027e+00
  6.0772985e-02
 -8.4425586e-01
  2.1183024e-01
 -5.1581138e-01
  4.3648992e-02
  3.4794247e-01
  9.8546004e-01
 -9.1711837e-01
 -6.5075213e-01
 -5.6836694e-01
 -1.3755411e+00
 -8.3877951e-01
  1.2245144e-01
 -2.6125801e-01
  6.4349639e-01
  9.3534076e-01
 -2.4301820e+00
 -1.1494613e+00
 -6.1335862e-02
 -7.1394640e-01
 -1.9224811e+00
  8.5121226e-01
 -1.4455605e+00
  1.1632862e+00
  8.5915315e-01
  2.1012935e-01
  4.6204277e-03
 -5.6545239e-02
  2.9069238e+00
  9.1795035e-02
  5.6114620e-01
  2.6919287e-01
  9.2496634e-01
 -1.2568665e+00
  1.2549700e+00
  4.1436934e-01
  5.7485765e-01
 -7.7048069e-01
 -2.1374834e+00
  4.7791031e-01
 -9.7510290e-01
 -1.9964423e+00
 -6.0843354e-01
  1.0280312e+00
  2.2846492e-02
 -5.7253534e-01
 -3.2733399e-02
 -5.3016073e-01
 -1.7420256e-01
  4.0726346e-01
 -5.6370217e-01
 -7.6096845e-01
  1.2822987e+00
 -9.1846144e-01
 -3.3779372e-02
  5.6010127e-02
  5.9722078e-01
  1.4402825e-01
  1.1225698e-01
  8.9856434e-01
  1.3473409e+00
  1.2631452e-01
 -1.1684095e+00
  1.2336494e+00
 -1.0732301e+00
 -9.2514282e-01
 -2.1762846e-01
  4.4477573e-01
 -2.6846218e-01
  5.6021535e-01
 -9.7269934e-01
 -4.3291640e-01
  4.5953959e-01
  1.1466669e-01
  3.3449490e-02
  8.5945690e-01
 -1.9599786e-01
  3.0730438e-01
  2.1070914e-01
 -1.5182165e+00
  5.6797403e-01
  3.3460677e-01
 -3.3898517e-01
 -7.6108170e-01
 -4.6564499e-01
 -7.8754753e-01
  2.1695536e-01
 -5.1724327e-01
 -1.1447905e+00
 -4.7229266e-01
 -1.1966843e-01
 -1.0884531e+00
  5.2282381e-01
 -1.6374140e+00
 -4.2448416e-01
  4.4543380e-01
  7.0249999e-01
  6.8374336e-01
  7.6650620e-01
 -1.2579039e+00
 -1.1198076e+00
  3.4096822e-02
 -1.2667153e+00
 -5.7454711e-01
 -5.5530655e-01
 -1.2067803e+00
 -5.7146388e-01
 -3.9355937e-02
  1.2938267e+00
 -3.7896389e-01
 -1.8009671e+00
  7.1800554e-01
 -6.1663189e-03
 -1.0511479e+00
 -1.1204711e+00
  2.0528004e-01
 -3.3330717e+00
  7.0816106e-01
  2.1741076e-01
  7.8632909e-01
 -9.5201904e-01
 -7.3056340e-01
  3.4273693e-01
 -9.6308303e-01
 -6.5870607e-01
  4.5888743e-01
 -7.6351702e-01
  1.3900356e+00
  5.6976289e-01
  7.0400588e-02
  7.3549008e-01
  3.0687809e-01
  2.0433576e+00
 -6.9726281e-02
  3.6252387e-02
 -6.8469584e-02
 -1.0502530e+00
 -8.2404965e-01
  3.0065662e-01
  6.5731281e-01
 -5.3765129e-02
  1.1318500e+00
 -1.2126817e+00
  3.3264476e-01
 -3.0068964e-01
  4.1411549e-01
  6.6791761e-01
  1.7316380e+00
 -1.8695991e+00
 -1.2380025e+00
 -4.1356128e-01
  2.5194421e-01
  1.4144735e+00
  1.6035976e-01
 -2.7246493e-01
 -7.1338367e-01
 -1.0157919e+00
  8.0707932e-01
 -1.5279843e-01
 -3.8915917e-01
 -3.5852039e-01
 -3.3845729e-01
 -4.5059136e-01
 -7.2154212e-01
 -4.1600993e-01
  5.4997045e-01
 -6.9945598e-01
 -1.0604037e+00
  1.7601780e+00
  1.1969200e+00
  4.6239012e-01
  3.4944788e-01
 -1.3301196e+00
  1.8036405e+00
 -2.1140144e+00
  1.9852327e-01
 -2.4859032e-01
  9.8551190e-01
  7.5328654e-01
 -1.9441359e+00
 -1.2165735e+00
 -4.8560488e-01
 -1.5097936e+00
  2.1210985e+00
 -4.6007067e-01
 -2.0454848e-02
 -1.4640762e+00
 -5.6058742e-02
 -1.0764630e+00
  3.2460489e+00
  1.7381715e+00
 -1.5548207e+00
 -7.9977852e-01
  4.3197051e-01
 -1.2689515e+00
  2.1950727e+00
 -8.7661862e-01
 -2.2149673e+00
  5.8608640e-02
 -6.5705083e-02
  5.1355422e-01
 -4.8808001e-02
  7.2800642e-01
  1.8537286e-01
  1.7386004e-02
 -8.0294028e-02
 -1.1279342e+00
  2.0679412e+00
  2.0191124e-01
  5.3178060e-01
  3.2119933e-01
 -4.7678974e-01
 -7.4828982e-01
 -9.2541176e-01
 -4.0586770e-01
 -1.6207744e+00
  2.3685922e-01
 -4.3350002e-01
  2.0609516e-01
 -1.5262448e+00
 -2.0160368e-01
  4.8575521e-01
 -1.4094270e+00
 -8.6956793e-01
  1.7032559e+00
 -7.1330131e-03
 -1.5556254e+00
  8.1638825e-01
  5.8736664e-01
 -2.6134345e-01
  2.6585618e-01
 -6.2757283e-01
 -1.0057764e-01
  3.1554663e-01
 -7.9795766e-01
  2.4003647e-01
  1.7177415e-01
 -1.6775985e-01
 -1.7319975e+00
  2.7282372e-01
 -2.5655463e-01
 -3.4138918e-02
  1.4730957e+00
 -4.3466452e-01
 -1.6819969e+00
  5.8124894e-01
  7.1836454e-01
 -1.6273837e-01
  6.9633245e-02
 -1.1532899e+00
 -1.3882633e+00
 -1.5945464e+00
  1.7710802e-01
 -6.8361208e-02
  1.8102729e-01
 -9.7243160e-01
 -7.5939918e-01
 -3.5526127e-01
 -9.6827334e-01
 -6.5162343e-01
 -5.0866723e-01
  7.7447826e-01
 -1.0246546e+00
  1.2466582e+00
 -2.9934815e-01
  6.1401701e-01
 -4.3497548e-02
  8.7587267e-02
  5.6471884e-01
 -2.4273571e-01
  7.7588356e-01
  7.0388234e-01
 -1.7049626e-01
 -6.3538128e-01
 -2.4604084e-01
 -8.3346301e-01
  1.9052483e-01
 -1.4811462e+00
  4.1791117e-01
  9.1260022e-01
  1.1885653e+00
 -3.5120049e-01
 -3.2248718e-01
 -1.2713404e+00
  4.5101497e-01
 -4.1981437e-03
 -9.7155988e-01
 -6.6000879e-01
 -1.1945091e+00
  5.0341600e-01
  6.5576559e-01
  7.0436364e-01
 -3.4862708e-02
 -3.7278828e-01
 -6.7152649e-02
 -2.0948973e+00
  5.6806320e-01
  9.3637399e-02
  7.7527940e-01
  9.4326008e-03
  1.9182378e-01
  1.0431238e+00
  1.3540462e-01
 -1.4262174e+00
 -1.3306962e-01
  6.2356299e-01
 -8.4918910e-01
 -2.1653218e+00
 -4.8765443e-02
  1.1704856e+00
 -8.4327465e-01
 -1.0386837e+00
  4.3275601e-01
 -1.9116864e-01
  2.0659062e-01
  1.1426153e-01
  1.6390833e+00
  8.7210202e-01
  5.3500694e-01
  1.1713719e+00
 -1.2975723e+00
 -4.3008757e-01
 -2.4534047e+00
  1.1113169e+00
 -5.8162719e-01
 -5.9186425e-02
 -3.3568788e-01
  7.2432661e-01
 -1.7987928e-01
  2.7730501e-01
 -1.6363718e-01
  5.6008947e-01
  3.8089198e-01
  1.4093510e+00
  1.6250600e+00
 -1.9453440e-03
 -8.6027294e-01
  4.3984797e-02
  7.1280253e-01
 -1.2286241e+00
 -4.8394073e-02
 -2.4759957e-01
  1.0210263e+00
  6.8044245e-01
 -6.4612412e-01
 -1.1949530e+00
  1.0312976e+00
 -5.3648466e-01
 -7.3807359e-02
 -1.3870767e+00
 -1.7144829e+00
  2.1070502e+00
  5.7594031e-01
 -4.3389075e-02
  1.0884058e+00
  7.3143089e-01
  7.5281270e-02
  6.3286293e-01
  1.2899117e-01
  1.5689412e-01
 -1.4237833e-01
  6.3422847e-01
  6.6309994e-01
 -7.4587262e-01
 -4.3342212e-01
  3.4618083e-02
  6.4801490e-01
 -3.5760558e-01
 -1.6975230e+00
  2.1726899e+00
  3.9077696e-01
 -9.7790316e-02
 -2.3309395e-01
  9.3246800e-01
  8.1000262e-01
  1.6304716e+00
 -4.0347401e-02
 -7.2899729e-01
 -2.4686811e+00
  4.6348229e-01
  2.7528754e-01
  8.5321963e-01
 -1.5137361e+00
  1.8871060e-01
 -6.8242514e-01
  2.4114409e-02
 -2.5272307e-01
 -9.1274118e-01
 -3.8964766e-01
  3.1547230e-01
  2.0142670e-01
  1.7023321e+00
 -3.1296644e-02
  3.9577596e-02
 -7.9505157e-01
  2.1195836e+00
  2.9725885e-01
  4.0262207e-01
 -1.5306879e+00
  1.0494928e+00
  1.2337239e+00
 -1.9358473e-01
 -7.9154140e-01
  7.5212188e-02
 -1.0082017e+00
  1.8815398e-01
 -3.2781427e+00
  2.3381257e-02
 -2.7440536e-01
  5.0721210e-01
  6.3344365e-01
 -2.2466236e-01
 -8.8000625e-01
  3.7216610e-01
  2.3355949e-01
  1.4709462e-01
 -1.2125462e+00
 -6.3456762e-01
 -4.5480281e-02
  1.1906592e-02
  1.3259885e-01
 -4.5665622e-01
 -8.1851345e-01
 -2.9606158e-01
  5.7774669e-01
  1.4647615e-01
 -6.5126413e-01
  1.9721928e-01
 -1.2637156e+00
  1.0413057e+00
  8.6794704e-02
 -9.0696579e-01
  1.2940918e+00
 -6.2416315e-01
 -1.7963451e+00
  5.0997204e-01
  1.0766878e+00
 -6.5780723e-01
 -7.6726043e-01
  1.0434803e+00
  6.7632079e-02
 -4.6554270e-01
  4.6713722e-01
 -9.5365757e-01
 -7.7255565e-01
  3.1202334e-01
  2.9519573e-01
  2.3388553e+00
  7.6733969e-02
  9.4679463e-01
  5.9557694e-01
 -7.7040952e-01
  2.5895669e+00
 -1.6040807e+00
  6.3985027e-03
 -6.3645470e-01
 -7.0560461e-01
  1.6541451e-02
  6.2449509e-01
 -1.9577877e-01
 -2.2638242e-01
  2.6410699e-01
 -8.0539888e-01
  8.6320710e-01
  1.3609785e+00
  1.7194921e-01
 -5.3359699e-01
  3.5775645e+00
  3.1825516e-01
  1.7966987e+00
 -9.5652372e-01
 -7.4253541e-01
  5.9816092e-01
 -3.7392950e-01
 -4.0494737e-01
  2.8945649e-01
  3.7436780e-01
 -5.6301750e-02
 -8.2108420e-01
 -2.7292070e-01
  1.1457363e+00
  5.4422110e-01
 -1.6298821e-02
  1.0142775e+00
 -8.8684596e-02
  1.5359476e+00
 -4.0690643e-01
 -2.8654980e-02
 -3.5978106e-01
  1.1069971e+00
  5.7728338e-01
 -1.6109619e+00
  7.1171381e-02
  3.7575921e-01
 -6.7870188e-01
  1.6988107e+00
 -3.2181615e-01
 -1.3533680e+00
  7.8908163e-01
 -1.1235430e+00
  2.0570185e+00
 -1.3723868e+00
 -2.2378640e+00
  1.8883185e-01
 -1.2186292e+00
 -1.4965783e-01
 -5.4686476e-02
 -1.5981523e+00
 -7.4563777e-01
  1.2706980e+00
  2.8938991e-01
 -1.1518551e-02
 -2.7621884e+00
 -1.5240626e+00
 -5.6893259e-01
 -1.0595983e-01
  3.6835539e-01
  5.3381574e-01
  2.1670301e+00
  8.1666428e-01
  9.0755403e-01
  1.4457752e+00
 -1.7511911e+00
 -1.1370262e+00
 -7.9611325e-01
  1.8204595e-01
  1.0043259e+00
  4.5005304e-01
  3.4604228e-01
  2.7701941e-01
  4.3766794e-01
 -1.7682812e+00
 -1.9833177e+00
  1.7078521e+00
  8.4415716e-01
 -5.5381423e-01
 -3.5051763e-01
 -9.4252855e-01
  6.5728098e-01
 -1.9658904e-01
 -4.7824702e-01
 -1.8025713e-01
 -3.3315277e-01
  2.1724014e+00
  3.5310340e-01
  2.5541618e-01
  1.6872497e+00
 -6.6705799e-01
  3.2967463e-01
  9.6885569e-02
 -7.6608646e-01
  1.1894478e+00
 -1.0134896e+00
 -1.0771040e+00
  1.0686128e+00
 -1.5364984e+00
  7.3909163e-01
 -6.0104549e-01
 -6.5609914e-01
  4.7265613e-01
  6.5032792e-01
  1.3612825e+00
 -9.7343886e-01
  9.9420094e-01
 -1.1503042e+00
  8.1774151e-01
 -9.5130064e-02
 -3.2399306e-01
 -3.0376327e+00
 -7.7112347e-02
  7.6109427e-01
 -4.7534755e-01
  1.6575681e-01
 -1.8310224e-01
 -3.3949390e-01
 -1.1528500e+00
 -5.3399920e-01
  4.8925553e-02
  8.4025723e-01
  1.5470766e+00
 -3.7883183e-01
  1.2642156e+00
 -5.0364023e-01
  1.6818130e+00
  4.2034647e-01
  8.0665284e-01
  3.2159203e-01
 -3.3668491e-01
 -3.1904605e-01
  8.1412017e-01
 -6.8849409e-03
  4.3252841e-01
 -4.8939330e-03
  2.9237863e-01
  6.5948382e-02
  3.3258757e-01
  6.8119019e-01
 -4.0655613e-01
 -4.1524264e-01
 -2.9236907e-01
  5.0984442e-01
 -8.5526913e-02
  8.1689978e-01
  7.9904628e-01
  1.2647479e+00
  1.1644800e+00
 -9.7316623e-02
 -1.4239963e+00
  4.4153011e-01
  5.4003090e-01
  3.9969709e-02
 -2.9969850e-01
  1.9694167e-01
 -3.1723800e-01
 -1.1808871e+00
 -1.8862312e-01
 -1.8175566e-01
 -3.2745975e-01
 -3.1144655e-01
  9.0253299e-01
 -5.9041625e-01
  1.4219770e+00
 -1.3024402e+00
 -5.6497955e-01
 -3.4566993e-01
 -6.8574637e-01
  1.1268511e+00
  3.4288242e-01
  9.1845781e-01
  9.3611658e-01
  7.8677255e-01
 -1.0039365e-01
 -1.2646002e+00
 -2.6776609e-01
  1.0023644e+00
  2.8411564e-01
  1.8308206e-02
 -1.6435605e+00
 -3.0205908e-01
  2.0348619e-01
 -6.0175729e-01
  4.6836597e-01
 -1.8948251e-01
 -9.2337501e-01
  5.2246773e-01
 -1.4364274e+00
  2.1048949e+00
  3.5571253e-01
  1.6598918e-01
 -1.6437249e-01
  5.0248760e-01
  7.0422918e-01
 -4.7735563e-01
  7.5007313e-01
 -1.5276378e-01
  4.3938771e-01
  4.1869372e-01
 -4.2977622e-01
  6.8981484e-02
 -9.5025182e-01
  1.2147765e+00
 -1.0196689e+00
 -2.0980976e+00
  2.7659053e-01
 -6.7455238e-01
 -1.3284761e+00
  1.2840825e+00
 -3.2091543e-01
 -9.0488777e-02
  1.5948367e-01
  1.0418279e-01
 -6.6679853e-01
 -2.1757630e-01
  3.8895768e-01
  3.2147568e-01
 -1.3012204e-01
  1.4532167e+00
  1.4168450e+00
 -1.2673600e+00
  8.5930604e-01
  1.3586010e-01
  4.8191007e-02
 -8.6886048e-01
  9.6547186e-01
  1.1663982e-01
 -3.9668679e-01
  4.7864386e-01
  5.4456341e-01
 -2.9734309e+00
  1.9850595e-01
  5.9004903e-01
  2.2343656e-01
 -1.6001755e-01
 -2.7781364e-01
  9.3186361e-01
  2.0924933e+00
  6.5992194e-01
  1.5350656e-01
 -1.4842844e+00
 -1.4024813e+00
  2.9661092e-01
  4.7823852e-01
  7.0841336e-01
 -2.9766527e-01
  1.0107355e+00
 -5.3813374e-01
 -7.8703731e-01
 -6.4961803e-01
  9.7807810e-02
  9.5767491e-02
  8.0777228e-01
 -4.8852494e-01
  6.7842297e-02
  7.1131700e-01
  1.8203185e-01
 -1.7144059e-01
 -4.9334571e-01
  8.7596722e-02
 -9.4479281e-01
  1.9676309e+00
  8.0379236e-01
  7.1444118e-01
 -4.1459139e-02
  4.7380945e-01
  3.9489529e-01
 -5.6301239e-03
  4.8957047e-01
  7.0179895e-02
 -1.1880046e+00
 -4.9369466e-01
  7.7114657e-02
 -2.0489857e+00
 -1.0487034e+00
 -6.4389664e-01
 -9.9940300e-01
 -1.8124880e-01
  9.6616074e-02
  3.6499286e-01
  5.4918629e-01
  1.3112479e+00
  8.3662975e-01
  2.4490000e-01
  3.6294922e-01
 -1.3157536e+00
 -4.8324555e-01
  1.0591447e+00
  5.8949673e-01
 -6.1517614e-01
  1.3391855e-01
 -6.0005301e-01
 -3.6919874e-01
  5.5910611e-01
  1.3374273e-01
 -1.3796502e+00
 -4.2345789e-01
  1.2034334e+00
  2.2685194e+00
 -2.3751464e-01
  1.0138520e+00
  6.7536730e-01
  6.1577666e-01
  1.4774522e+00
  1.0634227e+00
 -6.5225595e-01
 -1.4762446e-01
 -8.7622142e-01
  2.2547679e-01
  5.2372575e-01
  1.9753920e+00
 -8.9411026e-01
 -2.6696473e-01
 -1.1708080e+00
 -1.0029942e+00
  6.9599837e-01
  5.3177643e-01
 -2.2349313e-01
  1.2664602e+00
 -1.0840582e+00
  2.1997862e-01
 -9.0034944e-01
  1.7354132e+00
 -7.2509962e-01
 -2.0853837e+00
  4.9024859e-01
  2.5534550e-02
  1.1921687e+00
  2.3682048e+00
  3.8213065e-01
  4.0610614e-01
 -4.2397374e-01
 -2.2668639e-01
 -2.4706168e-01
 -2.2039249e+00
  7.8291219e-01
  2.6752651e-01
 -6.8393511e-01
 -9.9494480e-02
  9.2190313e-01
  2.5537853e+00
 -1.3946758e-01
  5.0378650e-01
  5.0146645e-01
  3.9936101e-01
 -1.1477097e+00
  2.2789191e-01
 -3.5227510e-01
  1.5466909e+00
 -2.4639951e-01
  2.9620674e-01
  8.8700271e-01
 -4.2845079e-01
 -4.8848584e-01
  6.8345487e-01
 -7.3813057e-01
  2.6542878e-01
 -5.9386992e-01
 -2.8939953e-01
  4.2484701e-01
  1.5474358e+00
 -1.3495030e-01
  2.9051476e+00
  7.8236204e-01
 -1.3445593e+00
  1.1348869e+00
 -3.1123216e+00
 -6.4390443e-02
 -5.6366247e-01
  1.4354564e+00
  3.2038975e+00
  1.8536583e-01
  1.1887549e+00
  1.0086792e-01
  9.7851765e-01
 -4.2051488e-01
 -1.0188440e+00
 -1.8229148e-01
 -1.2787398e+00
  1.5724232e+00
  1.1817455e+00
 -2.6009995e-01
  1.7517313e+00
  3.4284928e-01
 -1.5216956e+00
  1.2499121e+00
  7.1894741e-01
 -2.2988376e-01
 -4.3538681e-01
  2.6703990e-01
  2.2310882e+00
 -6.5614626e-02
 -1.7625632e+00
 -2.7811885e-01
  1.3131188e+00
  5.3419256e-01
 -2.2695193e-01
  6.1370701e-01
  6.9905466e-01
 -3.9704001e-01
 -2.2009346e+00
  2.4712966e-01
 -5.0115687e-01
  1.7261623e-01
 -1.4959896e+00
  8.0113840e-01
  1.6733471e-01
 -2.5702497e-01
  8.9641428e-01
  1.2589287e+00
 -1.0411761e+00
  4.2991692e-01
  2.0700619e+00
 -1.7412326e-03
  3.9029840e-01
 -7.8195566e-01
 -2.3408230e-01
 -4.3658784e-01
  1.6896762e+00
 -9.4177149e-02
 -1.1353552e+00
  1.7959243e+00
  7.0275366e-01
  4.4765303e-01
  1.8103002e+00
  1.4751452e+00
  1.8100383e+00
 -1.3271296e-01
 -2.1569059e+00
  9.4445783e-01
  6.0322887e-01
  8.2546395e-01
  6.3108867e-01
  1.4171891e-01
 -3.2402873e-01
 -1.5698845e+00
 -1.0792507e+00
 -2.3993981e-01
  1.9995750e-01
 -4.0156212e-01
 -1.1957115e-01
 -6.6802490e-01
  1.1029369e+00
  2.1256536e-02
 -1.4722823e+00
 -2.0126333e+00
  1.8118003e-01
 -7.8622222e-01
  3.1491911e+00
 -8.2195169e-01
  1.4540151e+00
 -1.2082441e+00
 -1.1545679e-01
 -4.3497783e-01
 -2.0501541e-01
  2.2126128e-01
 -1.4052327e+00
 -1.4073616e+00
 -4.0554592e-01
 -1.3417054e+00
  5.4982234e-02
  7.2561078e-02
  5.1860327e-01
 -6.9014728e-01
 -5.2999949e-01
 -4.0171832e-01
 -1.3340199e+00
  7.3484397e-01
 -1.6309079e+00
  4.2718112e-02
  1.2668015e+00
 -1.6656673e+00
  4.3786854e-02
  1.3450617e+00
  1.9636089e+00
  2.8572205e-01
  3.7234592e-01
  2.5928184e-01
 -2.9653084e-01
 -1.5556359e-02
  5.0687212e-01
 -1.2212420e-01
  5.6025505e-01
  1.6237698e+00
  2.8598523e-01
  7.1541876e-01
  5.9258169e-01
  5.7295668e-01
 -2.0408881e-01
 -1.1357494e-01
  7.1942598e-01
 -2.3561421e-01
  1.4397398e-01
  6.4699692e-01
  9.7797102e-01
 -9.5255516e-02
  5.6376922e-01
  7.9673007e-03
 -4.9376032e-01
 -2.4596477e+00
 -1.7064776e-01
 -1.1814361e+00
  9.6111141e-02
  1.9600563e-01
  1.8240839e+00
  6.5785849e-01
 -7.2405100e-02
  1.0062015e+00
 -1.1695848e+00
  2.6196585e+00
 -6.5642335e-02
 -6.9304812e-01
  7.4078076e-02
 -1.2889949e+00
  4.5374212e-01
 -3.4567204e-01
 -2.0010808e-01
  5.5725072e-02
 -6.8029247e-02
  4.6460262e-01
 -3.4772080e-01
 -1.6980171e-01
  8.6286420e-01
  1.2516683e+00
 -5.5789781e-01
 -5.9591377e-01
  4.6924391e-01
  1.6818638e-01
  2.1030116e+00
 -1.4337970e+00
  8.4139481e-02
  1.3503610e-01
 -4.7218341e-02
 -1.0219597e-01
  2.1497514e+00
  5.4151219e-01
 -1.5974998e-02
  2.8839609e-01
  9.2287350e-01
 -4.8231238e-01
 -1.1859705e-01
  7.8932959e-01
  9.7184330e-01
 -2.4590231e-01
 -1.4377357e+00
 -6.2880981e-01
 -2.4321581e-01
  3.6562905e-01
  1.1694900e+00
 -9.8266792e-01
  4.4509134e-01
  2.2518818e+00
  5.3827841e-02
  3.6323702e-01
  2.1510960e-01
  2.5780106e-02
 -7.7878058e-01
 -1.2476125e-01
 -5.6963284e-02
  6.2855417e-01
 -2.9401064e-01
  4.3353617e-01
  1.7680483e-01
  1.8231376e+00
  7.9416491e-02
 -8.8172004e-02
 -7.8481328e-01
 -2.8731340e-01
  1.1169247e-01
  1.5211082e+00
 -2.0031627e-01
  5.3289998e-01
 -1.1677563e+00
  9.3160039e-01
 -4.0641904e-01
  1.2060001e+00
 -1.7776203e-01
 -2.6893231e-01
  3.6251742e-02
  3.0554897e-01
 -3.6064634e-01
 -3.3948708e-02
 -2.7033942e+00
  8.1664875e-02
 -2.5087509e+00
 -1.7917511e-01
  1.9429018e+00
 -1.9886963e-01
  1.4524813e+00
 -4.3642560e-01
 -1.4291727e-02
  9.0518536e-04
 -1.3314025e+00
  1.1924745e+00
  6.6926152e-01
  1.6963407e+00
  6.9791608e-02
 -3.4382015e-01
  7.0506167e-01
  7.1091932e-01
  4.7256280e-02
 -4.7837645e-01
 -3.8638696e-01
  1.9895030e+00
 -1.2971634e+00
 -6.9215357e-01
  3.5074349e-02
 -6.0665011e-01
 -6.4053461e-02
  1.2213587e+00
 -3.1257045e+00
 -6.1723717e-02
 -5.0382614e-01
  2.0048325e+00
  2.3638492e+00
  1.6544761e-02
  5.2519596e-01
 -6.8966722e-01
 -1.1865491e+00
 -4.1098857e-01
 -1.9672744e+00
  3.0957720e-01
  1.0709308e+00
 -6.2425923e-01
 -1.1882312e+00
  1.6503729e-01
 -7.6553084e-02
  9.2310196e-01
 -7.0751804e-01
 -1.3381200e+00
  2.0533926e+00
 -1.5706089e-01
 -2.5943286e+00
 -6.3373184e-01
 -8.1847137e-01
  1.6937379e+00
  3.5460990e-02
 -4.0627837e-01
 -2.4400389e+00
  2.1691844e+00
  7.3425204e-01
  1.1510234e+00
 -3.6642453e-01
 -2.7936122e-01
 -2.4677374e+00
  1.0329415e+00
  1.4952970e+00
 -1.3892260e+00
 -5.7349336e-01
 -1.6629517e+00
 -1.1897902e+00
  1.7569793e+00
 -8.4979258e-02
 -1.1118609e+00
  1.5195540e+00
 -7.3862380e-01
 -1.0810257e+00
  2.3010258e-01
 -1.0202682e+00
  1.0976014e-01
 -1.4365081e-01
 -2.5372669e-01
 -4.9001521e-01
  4.4265613e-02
  2.3718624e+00
  2.7914541e+00
  2.4602529e-01
  1.6213657e+00
  2.0301187e+00
 -1.4371706e+00
 -5.3884065e-01
  1.7130929e+00
 -7.3508281e-01
  8.1992678e-02
 -6.2713498e-01
  1.9866673e+00
 -6.4083499e-01
 -1.2304515e+00
 -5.5909371e-01
 -7.4827641e-01
 -1.6868763e-01
 -1.1457413e+00
  1.4966545e+00
 -3.1861523e-01
 -1.0164959e+00
 -4.2573157e-01
  7.9381949e-01
 -1.4708424e+00
  2.1244810e+00
 -7.2835487e-01
  1.2454629e+00
 -9.8848248e-01
 -3.1992546e-01
  2.7263567e-01
 -1.1067846e+00
 -1.7162105e-01
 -6.5041190e-01
  8.8583362e-01
  6.5625715e-01
  2.1305935e-01
 -4.0731382e-02
  5.3288847e-01
  1.0586571e-01
 -2.7377784e-01
  1.2144877e+00
  1.1848903e+00
  1.4629862e+00
  1.5377734e+00
  1.6910867e-01
  8.1705606e-01
  5.8279502e-01
 -3.8848586e-02
  1.7225318e+00
  1.0596970e-01
 -1.3526417e-01
 -1.6160022e-01
 -1.3988395e-01
  1.0589930e+00
  7.3658031e-01
 -2.4857587e-01
 -1.2992904e+00
 -1.2558918e-01
 -1.9083306e-01
  9.4709456e-01
  4.1853843e-04
 -3.8910377e-01
  4.1126275e-01
  1.2009887e+00
  1.3658485e+00
  3.4921718e-01
  2.8633052e-01
 -4.0230361e-01
 -4.9000111e-01
 -1.3941219e-01
 -4.5461878e-01
  2.6486462e-01
  4.3497336e-01
 -9.1709983e-01
  1.2638929e+00
  3.2061914e-01
 -3.9032973e-02
 -1.2647758e-01
 -4.6627060e-01
  8.4105842e-02
  1.9562598e-01
  1.3041407e+00
  5.6584573e-01
 -1.0580940e+00
  8.3636391e-01
 -7.3283857e-01
 -1.7389330e-01
  2.4539296e-01
 -1.2599227e+00
 -1.4420209e+00
 -7.1948105e-01
  1.6384842e-02
  5.1815969e-01
 -1.7565703e-01
  4.1606620e-01
  2.0966490e-01
  2.5034845e-01
 -8.3003819e-01
 -9.2889631e-01
  1.9085993e+00
 -1.4408989e+00
 -2.3452811e-01
  3.9849666e-01
 -1.8302908e+00
 -4.2213071e-02
 -4.7515128e-03
 -1.0835800e+00
  6.3681918e-01
 -2.2465284e+00
 -5.5758929e-01
  2.9137042e-01
 -6.3679212e-01
 -6.9001037e-01
 -6.3008535e-01
 -1.1678389e-01
  6.9677137e-02
  1.6348447e+00
 -1.2524743e+00
 -7.6947618e-01
 -6.8920147e-01
  1.7990071e-01
  3.0977017e-01
 -3.3744326e-01
 -4.0479016e-01
  1.4357513e+00
 -5.0618291e-01
 -8.6434913e-01
 -4.3173972e-01
  1.7894797e-01
 -2.7398121e-01
  4.1353831e-01
  2.6132038e+00
 -4.6753639e-01
  1.1266394e+00
  2.0859861e+00
  2.2040093e-01
 -1.9550924e-03
 -7.8769314e-01
 -4.2614320e-01
  2.1201065e-02
 -1.0977390e+00
  3.9690387e-01
 -1.5878110e-01
  9.9101561e-01
 -1.5858353e+00
  3.7728783e-01
 -5.9334898e-01
 -5.9210759e-01
 -1.2854322e+00
  7.0472580e-01
  8.7987810e-01
 -5.0733203e-01
  2.5058034e-01
  5.3399742e-01
  1.4728441e+00
  4.0571982e-01
  2.5706823e+00
 -8.0535960e-01
  4.2281729e-01
 -6.0816291e-03
 -3.3325422e-01
 -2.0641510e+00
  8.9928967e-01
 -7.3114598e-01
  8.0137861e-01
 -3.2135945e-02
 -2.4658735e-01
 -1.1266284e+00
 -1.2670025e-01
  2.8601474e-01
 -6.4700258e-01
 -5.2675426e-02
 -5.2060872e-01
  2.6617265e-01
 -1.3665649e-01
 -1.3280872e-01
 -6.0009688e-01
 -3.9177649e-02
  3.2429746e-01
 -2.1332899e-01
  7.6511526e-01
 -1.1820289e-01
 -1.7269205e-01
  8.1709892e-02
  1.8955836e+00
 -1.2070739e+00
 -2.3198798e-01
  4.6368694e-01
  8.6604571e-01
 -4.2736793e-01
 -2.5544265e-01
 -9.8803401e-01
  5.6773752e-01
 -4.2897841e-01
 -5.2956749e-02
  5.7550669e-01
  2.6280147e-01
  6.4027393e-01
  1.4073223e-01
  3.1761423e-01
 -1.0389562e+00
 -2.7824500e-01
 -1.7776452e-01
  5.7581252e-01
 -4.2004526e-01
  6.6911197e-01
 -1.0861953e+00
 -2.3911762e-01
 -1.1110443e-01
  7.4130017e-01
 -1.4901085e+00
 -3.8847912e-02
  1.5396959e+00
  8.5612193e-02
 -3.8906017e-01
  2.0526791e-02
  1.8137099e-01
 -9.1509449e-01
  1.9318861e-01
  1.6596859e-02
 -8.8632181e-02
 -7.4074942e-01
 -7.7810895e-01
 -3.7811264e-01
 -7.2862124e-01
 -1.6017244e+00
 -6.6958979e-02
 -1.0861311e+00
  2.4586006e-01
 -1.9469918e-01
  1.7249334e+00
  2.4289502e-01
  9.4454186e-03
 -4.3577892e-01
  4.4285244e-01
 -4.2918569e-01
 -6.9157982e-01
 -2.1930454e-02
 -2.6620317e-01
 -6.0980064e-01
 -1.6887293e+00
  9.5901012e-01
 -4.5097551e-01
 -5.8932286e-02
  8.1932348e-01
 -1.6306168e-01
 -4.4782296e-01
  7.7106729e-02
 -1.9310458e-01
  4.8077848e-02
  7.5402409e-01
  2.2090434e-01
  5.4532808e-01
  2.7951586e-01
 -1.5369730e-01
  1.4696802e+00
 -5.5540705e-01
  9.8619806e-03
  3.4318262e-01
 -5.9812903e-01
 -1.1303908e-01
 -3.2302290e-01
  1.1460620e+00
  5.6692976e-01
  6.0615587e-01
  7.0511413e-01
 -1.6473627e-01
 -3.6787283e-01
 -8.1483948e-01
 -2.1632679e-01
  8.4835863e-01
  9.7840151e-04
  5.6331575e-01
 -1.0722003e+00
  4.7042504e-01
  6.7978650e-02
 -7.7397066e-01
  1.5340638e+00
 -1.8277872e+00
 -3.4977725e-01
 -1.4120661e+00
 -1.0006628e+00
  9.4862348e-01
  1.0787523e+00
  8.2724023e-01
 -6.3921660e-01
 -6.4474279e-01
 -7.8328329e-01
 -7.4373186e-01
  1.2693768e+00
 -8.1447864e-01
 -1.0679170e+00
 -1.3219279e-01
  2.3323454e-01
 -9.2178345e-01
  1.2342547e+00
 -4.4449744e-01
  7.6604044e-01
 -6.3853616e-01
  8.7574369e-01
  8.4054577e-01
  1.9753766e+00
 -5.2483499e-01
  7.9159993e-01
 -2.1046294e-01
  5.5307728e-01
 -9.5497733e-01
  8.1159361e-02
  7.0105517e-01
 -8.8251472e-01
 -1.7446103e+00
  1.0342153e+00
  1.7392036e+00
  3.8445568e+00
  1.1302170e+00
 -8.1434160e-01
 -6.2678468e-01
 -1.0658467e+00
  1.2013111e+00
 -4.4859827e-01
 -9.8792672e-02
 -1.9643316e-01
  1.1932466e+00
  6.4941549e-01
  4.2699125e-01
 -4.5047566e-02
  1.0432917e+00
 -2.0597010e+00
  1.4716733e+00
  4.3438306e-01
 -1.8610184e+00
  7.4366856e-01
  2.7108908e-01
 -9.5984256e-01
 -2.3547871e+00
  1.9872420e-01
 -2.5982404e-01
  9.7859001e-01
  8.2848018e-01
 -1.5621811e+00
 -5.4930234e-01
  3.1585130e-01
 -9.1398948e-01
 -5.8669442e-01
  1.5110695e+00
  2.3319207e-01
 -2.9007492e+00
  1.4043373e-01
  5.2375877e-01
  7.1349651e-01
  1.5063465e+00
  2.0570865e-02
  1.1188368e+00
  4.0228903e-01
  8.0233979e-01
  1.3393430e-01
 -1.5688686e-01
 -5.3439635e-01
 -2.8972057e-01
 -3.0215623e+00
 -8.6632758e-01
  1.1173042e+00
 -9.0224648e-01
 -1.2646587e-01
 -8.3400649e-01
 -3.9150503e-01
 -1.9553411e+00
 -7.6512170e-01
 -1.4023129e+00
  6.8710983e-01
 -6.1420542e-01
 -7.3361927e-01
 -9.4649929e-01
 -4.1317195e-01
 -6.2918209e-02
  1.5332175e+00
  7.5692199e-02
 -2.0869617e+00
  6.0185444e-01
 -1.1265801e+00
 -1.2034889e+00
 -1.7377796e+00
 -8.8600671e-01
  8.2704060e-02
  7.1523809e-01
  7.0553339e-01
 -5.5419433e-01
  1.0170430e-01
 -2.0331077e-01
 -1.6324093e+00
  1.1264032e+00
  2.0442578e-01
  1.9102802e+00
  9.2226559e-01
 -5.7412070e-01
 -1.6559992e+00
 -1.4336735e+00
 -4.4403237e-01
  1.9748855e-01
 -9.6284866e-01
 -4.1632506e-01
  1.1547029e-01
  2.4296832e+00
  5.8923191e-01
  1.5122852e+00
  5.3183323e-01
 -7.8442478e-01
  1.9128013e-01
 -1.2263592e+00
  1.0033796e-01
  5.7629701e-02
 -6.6954762e-01
  3.7170660e-02
  1.1136848e-01
  1.6975001e-01
  1.1972092e+00
 -9.4573385e-01
 -1.0986428e-01
 -2.6436899e+00
 -2.3651154e-01
  1.4331790e+00
 -4.5683512e-01
 -4.0023446e-01
  6.3633388e-01
 -2.5824285e-01
 -1.2562299e+00
  8.6084610e-01
 -1.7094978e+00
 -7.5669706e-01
  4.7507060e-01
 -5.1202226e-01
  1.7786330e+00
  8.8202715e-01
  5.6609040e-01
  2.7937002e-03
 -1.5096824e+00
  1.1309410e-01
 -2.1806255e-02
  1.9350569e-01
 -3.8346848e-01
  1.9138724e-01
  1.2516409e+00
 -4.0669855e-01
 -1.8913440e-01
  4.4491956e-01
 -1.2232319e+00
  3.4245101e-01
 -1.0455883e+00
 -1.7228645e+00
 -1.0874466e+00
 -2.5857654e-01
 -2.3596866e-01
 -4.6759337e-01
 -1.5291862e-01
  7.7454311e-01
 -3.3041021e-01
 -6.5742975e-01
  1.0745281e+00
  2.9060283e-01
 -5.1000673e-01
 -7.7526861e-01
 -9.6024133e-02
  6.4789313e-01
  5.0475532e-01
 -1.4035776e-01
 -3.5087594e-01
  4.9295580e-01
 -3.4644145e-01
  8.8566929e-01
 -1.2224604e-01
  1.1865040e+00
 -6.9581300e-01
  5.2898449e-01
  3.4910604e-01
 -6.3142622e-01
  2.9999065e-01
 -8.1392312e-01
 -1.5680379e+00
  7.1956551e-01
  6.3585109e-01
  1.9918275e-01
  1.6851887e-01
  4.7770706e-01
  6.5639633e-01
  7.9580176e-01
  1.7713206e-02
  1.2544333e+00
 -4.9107647e-01
 -7.2071570e-01
  1.0886554e-01
  1.9315587e+00
  1.9843615e+00
  1.0864388e+00
 -3.8610611e-02
 -9.1859591e-01
 -3.9428121e-01
  9.6993679e-01
 -2.2189805e-01
  4.3208784e-01
 -4.9726311e-02
  2.6084772e-01
  8.4457946e-01
  7.9365116e-01
  1.5010539e-01
 -1.4410731e-01
 -1.3458904e+00
 -2.8256646e-01
  1.0737019e+00
  2.2756980e-01
 -1.6725812e-02
  1.2013580e+00
  7.4345432e-02
 -6.6677296e-01
 -1.3186543e+00
 -7.6113296e-01
 -1.5261298e+00
  2.8032959e-01
 -4.9966592e-01
  1.5070875e-01
 -1.1758620e+00
  2.5925350e+00
  7.2492170e-01
 -5.1590097e-01
 -1.9995148e+00
  7.4480683e-01
  5.3898567e-01
  2.3634857e-01
  7.3967785e-02
 -3.0228605e+00
  1.2817507e+00
  8.8904661e-01
 -1.2808086e+00
  1.0168641e+00
  1.3164279e-01
  8.4739953e-01
 -1.2230417e+00
  1.0757007e-01
  2.3334408e-01
 -2.9871607e-01
  8.0080765e-01
 -4.1678917e-01
 -1.1861769e+00
 -1.8905269e-01
 -1.7468768e+00
 -2.4301630e-01
  1.5559894e+00
 -4.3740520e-01
  7.3198700e-01
 -3.9130995e-01
  2.3031446e-01
  5.4689181e-01
 -5.1409245e-01
 -1.6920183e+00
 -9.6718334e-02
  2.0454295e-01
  6.0891837e-01
 -2.4975116e+00
  9.8151159e-01
  6.5913200e-01
  2.7407300e-01
  2.1351404e-01
 -1.8421276e-01
 -1.0205643e-01
 -2.4382572e-01
 -2.0813632e-01
  3.7487033e-01
  2.7433524e-01
  2.9199111e-01
  1.7491212e+00
 -1.9869621e-01
  1.6327737e-02
 -1.7311739e+00
 -1.6044009e+00
  1.3761361e-01
 -1.9962084e-01
 -2.5019938e-01
 -1.7865677e+00
 -2.0205340e+00
 -2.9203880e-01
 -6.9668442e-01
  3.7570262e-01
 -2.4133008e+00
 -2.8846771e-01
  2.3108790e-02
  3.0871415e-01
  8.3430731e-01
  2.0582793e+00
 -1.5326337e+00
 -1.5920249e-01
 -1.3979991e-01
  6.8376911e-01
  2.9159442e-01
 -8.2894212e-01
 -6.9794142e-01
 -1.0897508e+00
  6.1623508e-01
  6.4877301e-02
 -1.3594214e+00
  9.4771582e-01
 -1.1252154e-01
  2.0568612e+00
  7.3248184e-01
  7.4986041e-01
 -7.6990676e-01
  6.5257132e-02
  1.3728526e-02
 -5.6999080e-02
 -2.5059533e+00
  1.9136381e-01
 -2.9493392e-01
 -3.9537367e-01
  3.8139454e-01
  6.7386657e-01
  1.1793333e+00
 -1.0702837e-01
 -3.4297526e-01
 -2.4352500e+00
  1.0118147e+00
  7.9321301e-01
  3.0633086e-02
 -1.1097928e-01
  4.7173306e-01
 -3.2730661e-02
  1.1747074e+00
  6.3138121e-01
 -9.6399409e-01
 -1.2187877e+00
 -4.8185879e-01
 -2.2053486e-01
 -6.3590592e-01
  5.9023857e-02
 -1.7224371e+00
 -4.9896145e-01
  3.9154962e-01
 -4.7297768e-02
  7.1566480e-01
  2.3014983e-03
 -2.2219200e+00
  3.0079368e-03
  1.1873358e+00
 -1.3261336e+00
 -1.0927445e+00
  3.8436078e-03
 -1.3543140e+00
 -5.0952584e-01
 -1.7251942e+00
 -1.7580135e-01
  1.2746567e+00
 -3.1271258e-01
 -3.0818832e-01
  1.8727875e-01
 -4.4182053e-01
 -1.6571587e+00
  5.3022522e-01
 -2.0316072e+00
  7.8521276e-01
 -1.2522333e+00
 -9.1582263e-01
 -1.1078646e+00
  5.9475410e-01
  7.8546184e-01
 -8.6883390e-01
  1.8047962e-02
 -4.3458065e-01
  3.1007332e-01
 -7.0816422e-01
  1.5872793e+00
 -9.7260201e-01
  2.9145294e-01
  1.5963328e-01
  1.8596473e-01
  8.0835223e-01
 -4.7551396e-01
  8.8796765e-02
  2.6441747e-01
 -6.3646026e-02
 -1.2181810e-02
  1.8898399e-01
 -9.7146258e-02
  1.1903390e+00
  2.5104040e-01
  5.3479940e-01
  5.3774250e-01
  1.0361617e+00
  8.9269303e-02
  4.7566551e-01
 -5.6501585e-01
 -5.7764482e-01
 -9.3665236e-01
 -1.1104271e+00
  6.1367494e-01
  1.0611594e+00
 -5.7695222e-01
 -6.5397549e-01
  5.1912233e-02
 -1.3275011e+00
  1.0932053e+00
 -1.5570323e+00
 -1.2529205e+00
 -7.9350853e-01
 -1.0741422e+00
  4.1732514e-01
  4.2980874e-01
 -1.4035021e+00
 -3.5896873e-01
 -5.8616436e-01
  1.0119925e+00
  8.1643336e-02
  9.5413774e-01
  2.9244399e-01
 -1.6766016e-01
 -4.0347305e-01
 -8.4988916e-01
  5.3710389e-01
 -1.4450642e-01
 -2.8223464e-01
  8.9791381e-01
 -8.9962733e-01
 -1.7503142e-01
 -3.8801980e-01
  1.7473887e+00
 -1.9544291e+00
 -4.6237180e-01
 -4.3089023e-01
  1.4256573e+00
  5.5608088e-01
  1.1038026e+00
 -2.4085499e-01
 -6.6510201e-01
 -1.0981444e+00
  3.9053804e-01
  6.2832516e-01
  2.4090539e-01
  2.3804371e+00
  5.0000109e-02
 -4.1104123e-01
 -6.8994755e-01
  9.5764577e-02
  1.0881628e-01
 -1.5962210e-01
  3.6266613e-01
 -2.9450092e-01
 -6.0042918e-01
 -1.0615368e+00
  2.2016076e-02
 -5.6884806e-03
  1.6437331e+00
  1.7925280e-01
 -8.4892070e-01
 -8.1392163e-01
 -1.8184296e+00
 -6.2821716e-01
  1.2766252e-01
 -1.4406106e+00
 -1.7895355e+00
  1.5602831e+00
  7.6107430e-01
 -1.9387026e-01
 -8.0735457e-01
 -1.6030900e-01
  9.2723417e-01
 -4.2102203e-01
  1.5131521e-01
 -1.3759203e+00
 -3.1053311e-01
  8.1321740e-01
 -1.6048880e-01
 -3.0368552e-01
 -5.3819436e-01
  8.4125483e-01
 -4.3604833e-01
 -3.1489399e-01
  4.8541543e-01
 -2.7350506e-01
  1.8934424e-01
  9.5030296e-01
  3.0830592e-01
 -2.1177265e-01
  1.1981502e+00
  1.8236569e-01
 -5.4794401e-01
 -6.2801026e-02
  5.5903416e-02
 -1.7254543e+00
  4.2111087e-01
  5.9237820e-01
  2.0703569e-01
  2.4837221e-01
  1.5862056e+00
 -9.3963975e-01
 -8.0974567e-01
 -3.2931408e-01
 -7.3935136e-02
  1.4599757e+00
  1.9713153e-01
 -1.9942322e-01
  2.0688169e+00
 -7.2990364e-01
 -1.3738394e-01
 -6.1260510e-02
  1.0286253e-01
 -4.1849043e-02
 -5.4785603e-01
 -4.3113664e-01
 -5.1188058e-01
 -1.4104140e+00
  6.6337925e-01
 -2.4304278e-01
  1.3265897e-01
 -4.0061080e-01
 -3.5466385e-01
 -6.3717887e-02
  1.0522408e-01
 -1.0979968e-01
 -1.2642463e+00
 -6.6291487e-01
  7.9906845e-01
 -9.0743244e-01
 -8.1975532e-01
  2.1759769e-01
  3.1939372e-01
 -1.6923140e-01
  9.0261775e-01
  6.6747987e-01
 -4.1479293e-02
 -1.1647086e-01
 -7.6232664e-02
  2.4799259e-01
 -8.1679159e-01
  6.6610044e-01
 -8.3404422e-01
 -1.4488076e+00
 -5.1642048e-01
 -8.0622852e-01
  3.6658391e-01
 -6.7315584e-01
 -9.6747339e-01
  3.5941994e-01
 -6.4500678e-01
 -7.3716104e-01
 -1.5393683e-01
 -1.4089922e+00
 -3.6468616e-01
 -2.8388709e-01
  3.7127501e-01
 -3.3676496e+00
  4.4676444e-01
 -9.8703420e-01
 -7.6625580e-01
  1.4624640e+00
 -1.1686058e+00
 -4.0732768e-01
 -6.6914213e-01
 -6.6796118e-01
 -4.2229319e-01
 -4.8677078e-01
  1.0372012e+00
  1.5483399e-01
 -1.1667875e+00
  9.9455726e-01
 -4.4621545e-01
  8.1235838e-01
 -1.0907148e+00
  5.0408447e-01
 -4.3011997e-02
 -9.4781274e-01
  1.6902551e-01
 -4.4378960e-01
  2.8011355e-01
  5.6281954e-01
 -1.9647105e+00
 -5.4336393e-01
 -8.2839124e-02
 -1.8112983e-01
 -2.3429744e+00
  2.9157722e-01
 -3.1249231e-01
  9.4058287e-01
 -8.1838250e-01
 -5.1438767e-01
  2.6283664e-01
 -3.4402168e-01
  3.5127841e-02
 -2.0393085e-01
 -5.0407945e-04
  8.3616811e-01
 -7.5708401e-01
  3.1995976e+00
  2.2692505e-01
 -7.7520263e-01
  1.0692998e-01
  4.8174363e-01
  5.7871521e-01
  5.5191950e-03
 -2.5135648e+00
 -2.1369430e-01
  2.0566497e+00
  1.3883775e+00
  7.5355589e-01
  2.7425742e-01
  1.3904874e+00
 -7.4745687e-03
  1.5320702e+00
 -4.6514836e-01
 -3.2307276e-01
  5.7849526e-01
 -8.3344752e-01
  6.0227382e-01
  4.1698372e-01
  1.2580116e+00
  1.3133891e+00
  2.9211783e+00
 -9.2849326e-01
 -3.2610688e-01
 -3.7832168e-01
 -9.0739357e-01
 -2.1347504e+00
 -1.1437188e+00
 -6.5351522e-01
  3.6361372e-01
 -1.3461477e+00
 -4.3773663e-01
  1.4128980e-01
 -9.6386409e-01
  3.1568465e-01
 -3.5974407e-01
 -1.4773357e+00
  4.5368290e-01
  7.3952448e-01
 -9.6211180e-02
  3.1267262e-01
 -6.8080574e-01
  1.3540012e+00
  1.7497305e+00
 -1.9192229e-01
  5.4430008e-01
 -3.0976963e-01
  4.1097397e-01
 -1.5607884e+00
 -2.9212563e+00
 -6.0159272e-01
  2.6798680e-01
 -1.9496825e-01
 -2.9633105e-01
  7.2723919e-01
  1.3269709e-01
 -1.4761935e+00
 -1.2382376e+00
  3.2090282e-01
 -8.2836646e-01
  2.2335978e+00
  4.4792607e-01
 -1.1997917e-01
 -8.7006783e-01
  7.2455233e-01
 -1.4458754e+00
 -2.8888276e-03
 -1.6679116e+00
  3.2345855e-01
 -1.2619969e+00
  1.1994387e+00
 -2.3614150e-01
  1.1597021e+00
 -9.2597646e-01
 -6.1366659e-01
  1.5891119e+00
  6.7493951e-01
  6.7776591e-01
 -4.8626038e-01
 -1.5575826e+00
  7.0107317e-01
  2.8383338e-01
 -2.6660845e-01
 -2.0771280e-01
 -1.9570878e-01
 -1.4725037e+00
  1.3420043e+00
  4.9400972e-03
 -5.2665663e-01
  7.2573513e-01
  1.0084852e+00
  1.7268102e+00
 -7.1373202e-02
  5.3610986e-01
 -2.7609310e-01
  4.6035236e-01
 -1.0173201e-01
  2.1245079e-01
 -1.2557046e+00
 -1.7778840e+00
 -6.2165147e-01
  3.8270810e-01
 -1.2482953e-01
 -2.6937711e+00
 -1.9090654e+00
 -7.7091318e-01
  1.0462105e+00
  2.3738337e-01
  6.2081230e-01
 -1.0512476e+00
  3.3249293e-02
 -1.4321706e+00
  5.2217633e-01
 -1.5761822e+00
 -1.6885498e-01
 -6.7080539e-01
 -9.0068646e-02
 -1.2918653e+00
 -1.1781428e+00
 -3.6843786e-01
  1.4406464e-02
  6.4083433e-01
 -1.5045869e+00
 -2.9480830e-01
 -6.2938625e-01
 -3.1899524e-01
  4.8628277e-01
 -8.5588294e-01
 -1.0184565e+00
  7.1817994e-01
 -1.6538259e+00
 -3.3701291e+00
 -8.3834219e-01
  3.0818153e-03
 -1.9598769e-01
  8.1813139e-01
 -3.3443132e-01
  1.0286289e+00
  6.3821763e-02
 -1.1696924e+00
 -6.7722571e-01
  9.1963835e-02
 -2.5139427e-01
 -1.4486986e-01
  6.9815569e-02
  7.6908857e-01
 -2.8020066e-01
 -5.0260234e-01
  1.3632701e-01
  9.0884829e-01
 -1.3929646e+00
  6.3683641e-01
  1.2212533e-01
 -5.7231867e-01
  1.2698425e+00
  5.9601688e-01
  1.9133092e-01
  1.5427132e+00
 -2.2463268e-01
  5.3020591e-01
  5.6055278e-02
  1.6759952e+00
  1.7583190e+00
 -2.4432826e-01
  5.3476155e-01
  6.7923135e-01
  5.4348671e-01
 -8.5722327e-02
  1.8232290e-01
  1.7220578e-01
  4.0636767e-02
 -1.1732680e+00
  9.6559060e-01
 -9.3193692e-01
 -1.2895010e+00
 -1.3862969e-01
  5.7153958e-01
  5.3022569e-01
 -7.7878672e-01
 -2.9835716e-01
 -3.5131338e-01
  5.3674537e-01
  6.2740469e-01
  6.3115406e-01
  4.0599939e-01
 -1.8695772e-01
  6.9807816e-01
 -5.0479335e-01
 -6.3700771e-01
  8.4753191e-01
 -1.8951646e+00
  7.4610907e-01
 -5.4541659e-02
  7.4529821e-01
  2.4899696e-01
 -1.5276228e+00
  6.8223280e-01
  1.1097638e-01
 -7.8018463e-01
 -2.8157216e-01
  1.3143734e+00
 -2.8434670e-01
  4.1384900e-01
 -9.7947448e-02
 -2.8316432e-01
  2.2305720e-01
 -7.4861306e-01
  1.4658811e+00
  1.3522848e+00
  4.6792957e-01
 -1.2539674e-01
 -2.5645287e+00
 -7.6559521e-02
  3.0229005e-01
 -6.8993902e-01
 -1.9703456e+00
 -6.4815432e-01
  2.8644139e-01
  3.7474477e-01
 -9.4952412e-02
  2.8857127e-01
 -1.9272412e-01
  2.2598438e+00
 -1.3074811e+00
  2.4664655e+00
 -7.5284845e-01
 -1.9200709e+00
  1.1699908e+00
 -5.0714797e-01
 -9.1954690e-01
  3.2736614e-02
 -4.5896047e-01
  2.0574759e-01
  1.0019864e+00
  5.0572485e-01
 -4.1300705e-01
 -1.3541633e+00
 -1.2104796e+00
  5.3036433e-01
  7.1625149e-01
 -8.1517196e-01
 -2.7864778e-02
  1.3864015e+00
 -7.6482791e-01
  1.7915043e+00
 -1.1333559e-01
  4.7146559e-01
 -1.0761734e+00
 -4.5220894e-01
 -1.1184688e+00
 -3.3081978e-04
 -1.1036060e+00
  8.1811506e-01
  3.0991125e-01
 -3.2738674e-01
  1.4859927e-01
 -9.6905410e-02
  1.4942153e-01
  3.6171004e-01
 -1.9331352e-01
 -1.4893293e+00
 -1.3420167e+00
 -6.2625092e-01
 -4.5750970e-01
  7.4443543e-01
 -6.8569742e-02
 -6.1718035e-01
  2.9935353e-02
 -1.1649472e-01
 -3.7347198e-02
 -2.9956073e-01
  5.0761664e-01
 -2.7774639e+00
  1.9960651e-01
 -1.4654550e-01
  4.2450178e-01
 -2.5296385e+00
  3.8214583e-02
 -2.3558917e+00
 -2.9788431e-02
  3.5371482e-01
  1.0626595e-01
  9.1193569e-01
  1.5292022e-01
  1.5320991e-01
  3.6705599e+00
 -1.5528424e-01
  2.7431956e-01
 -6.5140170e-01
  4.8605248e-01
  7.4343157e-01
  1.8926232e-01
  5.7172161e-01
 -1.5483291e+00
 -9.7121948e-01
  3.6262451e-03
  1.1861571e+00
  1.0448052e+00
  1.4753500e+00
  8.3308256e-01
 -7.9114854e-01
 -1.2921338e+00
 -1.5423411e+00
 -1.3393097e-01
  1.5263647e-01
  9.3489373e-01
 -2.8078163e-01
 -4.9902877e-01
 -1.1668264e+00
  1.1594713e+00
 -2.7778761e-03
 -1.4548804e-01
 -1.9165444e-01
 -1.2444762e+00
  1.1813159e+00
  1.2811020e-01
  6.6515994e-01
  7.3884982e-01
 -2.4749263e-01
 -5.9312439e-01
  1.6598381e-01
  3.1968379e-01
  1.7396343e-01
  2.5521358e-02
 -7.2511888e-01
  1.4912854e+00
 -2.9689720e-01
  8.5262233e-01
  3.4161809e-01
  1.6039369e+00
 -9.7808766e-01
  4.3265226e-01
 -1.0544356e+00
  9.2543706e-02
 -1.1402925e+00
  8.4968877e-01
  3.1264588e-01
 -2.3674062e-01
 -1.2236067e-02
 -1.2059213e+00
 -6.6755074e-01
 -2.6154020e+00
 -1.6387568e-01
  9.9078792e-01
  7.6791573e-01
 -2.4654716e-01
  6.6030794e-01
  2.2989812e+00
  3.9843932e-01
 -3.7453446e-01
 -8.4895444e-01
 -3.2428756e-01
 -4.0235147e-01
 -1.3203586e-02
 -2.1213798e-01
 -6.5519679e-01
  8.9545500e-01
 -7.0667475e-01
 -1.2394848e-01
 -5.0787914e-01
 -2.6097158e-01
 -1.4408754e-01
 -9.1231018e-02
 -1.5781519e+00
  9.7557396e-01
 -8.4595305e-01
 -1.2836541e-01
  1.3177644e+00
  1.0163206e+00
  9.3728207e-02
 -1.0555838e+00
 -8.9679539e-01
  6.8000710e-01
  1.0350805e-01
 -1.0839899e+00
 -1.1717457e-01
 -7.5834793e-01
 -8.4634580e-02
  1.3634305e+00
  4.1919175e-01
  3.4571892e-01
  1.0512633e-01
 -1.4081408e+00
 -3.7739862e-02
  3.2421693e-01
  4.8121139e-01
  2.2771573e-03
 -5.4451442e-01
 -1.4636068e+00
  1.7194690e+00
  2.0038035e+00
  8.7570685e-01
  3.4852079e-01
  2.4209729e-01
  4.7872644e-02
 -1.0395913e+00
  4.9814549e-01
  1.7371997e-01
 -3.1045839e-01
  3.5572034e-01
 -1.8096845e+00
  2.0479436e+00
  5.8333956e-02
 -9.2342401e-01
 -7.1866477e-01
 -1.7858008e+00
  1.0049547e-01
  1.2301241e+00
  1.6485171e+00
  2.0438623e-01
  3.0900800e-01
  4.4107258e-02
  5.7566005e-01
 -1.2195430e+00
  6.1974967e-01
  3.8478822e-01
 -4.0292274e-02
 -1.0141925e+00
 -1.4116553e+00
  7.1158953e-02
 -7.5453144e-01
  1.4105011e+00
  4.5756572e-01
  9.7836947e-01
  7.5587526e-02
 -6.0884660e-01
  2.4004182e-02
  3.0537078e-01
  2.3791026e-01
  3.8947761e-01
  5.5666542e-01
 -1.3068275e+00
  1.3856366e-01
  4.2098397e-01
 -2.4926208e-01
  9.1833204e-02
 -4.8868653e-01
 -2.3582904e-01
 -9.3469214e-01
 -1.2511905e+00
  1.7712295e+00
 -1.2621273e+00
  2.3301922e-01
 -3.7479085e-01
  1.7037202e-01
 -1.7493363e-01
 -6.0936101e-02
 -3.9353648e-01
 -4.6720129e-01
  1.3748449e+00
 -9.2090607e-01
 -7.2891229e-01
 -1.4482085e-01
 -5.1140559e-01
  4.4731507e-01
  1.1815839e+00
  6.6705519e-01
 -1.2521145e+00
 -2.4745035e+00
 -1.0492038e+00
 -8.0667555e-01
  9.8591799e-01
  5.7300913e-01
 -1.4717387e+00
  4.9093562e-01
 -7.2558939e-01
  1.3036966e+00
  5.5538964e-02
  1.2647607e+00
  1.6193994e+00
 -4.5237917e-01
 -1.6942199e+00
  2.2225732e-01
 -5.9927797e-01
  1.9182646e-01
 -8.5797541e-02
  1.3697115e+00
 -4.9176767e-01
  2.7057078e-01
  6.5038759e-01
  8.4361207e-01
  5.4178488e-01
 -6.6114217e-01
  1.5499377e-01
 -3.1485467e+00
 -9.9291241e-01
  2.3015072e+00
  4.4243473e-01
 -7.7668613e-01
  3.9686676e-02
 -2.0842816e-01
  7.7323997e-01
  4.2671278e-01
  5.1425254e-01
 -6.1350095e-01
 -3.7326536e-01
  1.3899322e+00
 -3.9333564e-01
  1.9550377e-01
  6.4448029e-01
  5.5052102e-01
 -1.3283083e+00
  1.7931728e+00
 -1.1593723e+00
 -2.3992111e-01
 -4.9123466e-03
  1.1047409e-01
  9.3889043e-02
 -5.6096655e-01
  9.3888365e-02
  1.5728812e-01
 -1.5688047e+00
 -3.2984996e-01
  8.6934201e-02
 -4.0060177e-02
  4.3406177e-01
 -5.8527744e-01
 -1.6932079e+00
 -5.9618306e-01
 -6.6226959e-01
  3.1262851e-01
  2.6672816e-01
  1.4020847e+00
 -9.1335922e-01
 -2.0240003e-01
  2.0147811e-01
  3.6945149e-01
 -6.9035202e-01
 -8.6584735e-01
  3.4010506e-01
  3.7838188e-01
 -1.9191558e+00
 -9.9991626e-01
  8.6735648e-01
 -1.8496062e+00
 -8.7748522e-01
 -5.8672774e-01
 -7.8388989e-01
 -3.1720769e-01
  6.0580266e-01
 -6.3177472e-01
 -2.7769944e-02
 -9.2127532e-02
 -6.7362046e-01
 -3.1559020e-01
 -5.2842641e-01
 -3.1213817e-01
 -8.3164357e-02
  3.6405552e-02
  5.7202552e-02
 -2.1775017e+00
 -1.9880036e+00
  2.0838082e+00
  2.7549989e+00
 -7.2451428e-02
 -2.5596509e+00
  3.1842920e-03
 -6.3799232e-01
  4.3193653e-01
  1.3210401e-02
 -5.9546697e-01
  2.5330135e-01
  2.0882006e-01
 -1.5236950e+00
 -7.4647403e-01
  9.4767660e-01
  3.7289539e-01
  8.1877023e-01
 -1.2452073e+00
 -2.5521293e-01
 -7.7248044e-02
  2.8543520e+00
 -3.1729501e-01
  1.2136067e+00
  1.2139427e-02
 -1.5665811e+00
 -4.8011690e-01
  9.8738074e-01
  1.5706384e+00
 -1.1453418e+00
  1.2602204e-01
  2.0263362e+00
  5.4784453e-01
  8.2183874e-01
  3.8679633e-02
  2.3934407e+00
  2.8761086e-01
  8.8540059e-01
  1.6580616e+00
  7.9241300e-01
  2.7121291e-01
 -3.0387238e-01
  1.2715627e+00
  8.7949854e-01
  3.0534410e-01
 -1.0789269e+00
 -5.6106406e-01
  1.8072829e-01
 -3.2456419e-01
  1.2138399e-02
 -9.2764968e-01
  6.4612025e-01
 -9.1443233e-02
 -7.6127373e-02
  1.0993677e-01
 -1.0873219e+00
  1.8370193e+00
  3.0642667e-01
  1.2270541e-01
 -4.9323049e-01
  3.7166965e-01
 -2.2337270e+00
 -2.7082250e-01
 -3.3870256e-01
 -3.8988501e-01
  2.3835675e-01
  2.0449107e+00
  6.3438797e-01
 -1.5677046e+00
 -1.7985252e-01
  5.9600282e-01
  5.0602156e-01
  2.0024458e-01
  3.7487026e-02
 -3.5786900e-01
  5.4004586e-01
 -2.5404063e-01
 -4.2295434e-02
 -3.2220468e-01
  1.8165491e+00
 -7.6662040e-01
  2.8076015e+00
  5.7619393e-01
 -5.7384014e-01
 -4.6955767e-01
 -1.6410725e+00
 -1.1517369e+00
 -1.2330490e+00
 -7.0762455e-01
  7.4574471e-01
  5.7086968e-01
 -1.7309817e+00
  2.3968224e-01
 -3.9831829e-01
 -2.2916688e-04
 -7.1180093e-01
 -8.2900387e-01
  1.3398397e+00
 -3.0114681e-01
 -9.8978929e-02
 -4.6741337e-01
 -1.1421674e-02
 -8.7152946e-01
 -2.8940496e-01
  1.0251186e+00
 -4.4482380e-02
  2.8971505e-01
  1.1513243e+00
 -5.2838888e-02
 -5.5285192e-01
  9.1538027e-02
  9.8361857e-02
  8.1724417e-01
 -6.6989470e-01
  1.0556930e+00
 -7.2410023e-01
  3.8772431e-01
 -1.6077372e+00
 -7.9704869e-01
  8.9563018e-01
 -2.8386790e-01
  1.5427518e-01
 -1.2759604e+00
 -8.5747713e-01
 -3.9134917e-01
 -2.4115020e-01
  2.7466917e-01
  5.3600585e-01
 -8.4834471e-02
 -1.3494947e+00
 -1.4315959e+00
  3.7164267e-02
 -1.2007118e+00
 -9.7807717e-01
  1.7472951e-01
 -1.7451747e-01
 -1.5205307e-01
  7.2243589e-01
 -3.0593815e-01
 -6.5782064e-01
  2.6837115e+00
 -4.6909165e-01
 -3.6758795e-01
  6.5324908e-01
 -7.0492995e-01
  1.8913265e-01
 -2.2815269e-01
  8.8885117e-01
 -2.9759470e-01
  2.9036355e-01
  1.1630222e-01
  2.9305735e-01
  2.7328283e-01
  6.1853528e-01
  1.2031060e-01
  1.1751984e+00
 -3.0499744e-01
  5.5777860e-01
 -2.0002858e-01
  7.4471486e-01
 -5.5126298e-02
  4.1923833e-01
  6.0469431e-01
 -5.1926609e-02
 -2.6231545e-01
 -4.7871578e-01
  1.0522422e+00
  2.1265476e+00
 -1.4364962e-01
  1.5727763e+00
 -6.7586911e-01
 -8.4141558e-01
 -7.3734701e-01
 -1.0834754e+00
 -9.6707141e-01
  7.5641519e-01
  9.4078422e-01
  2.3999608e-01
  1.6094728e+00
  3.5372302e-01
  4.6766096e-01
  9.7260618e-01
  4.1030940e-01
  1.1198623e-02
  2.8329003e-01
  1.7397841e+00
 -1.1524215e+00
 -1.7243789e+00
  4.8351237e-01
 -8.7181455e-01
 -3.3871037e-01
  7.9419255e-01
  4.4803667e-01
  4.1597509e-01
 -8.1516880e-01
 -1.2695292e+00
  1.9630034e-01
 -5.2128696e-01
  3.6813053e-01
  1.4494624e+00
  5.0584656e-01
  1.9558865e-01
 -4.5331603e-01
 -8.8135046e-01
 -4.2452621e-01
 -8.0142319e-01
  8.9497513e-01
  1.1662213e-01
  1.2651719e+00
 -5.6135301e-02
  1.2729063e+00
  1.8002625e-01
  4.6351537e-01
  6.9365180e-01
  1.4189129e+00
  1.9293909e-01
 -6.8980381e-03
 -1.0255610e+00
 -7.8184694e-01
  6.1048013e-01
 -8.7212610e-01
 -1.6794735e+00
  1.2164848e-01
  1.0654256e+00
  8.0465925e-01
  4.0903860e-01
 -7.7509683e-01
  4.7929046e-01
  2.6712510e-01
 -1.9209109e-01
 -6.4816886e-01
 -6.4874208e-01
 -1.4698948e+00
  1.4310956e-01
 -8.4647679e-01
  7.3194629e-01
  3.0550826e-01
 -2.0691293e-01
  1.2633429e-01
  1.8996090e-01
  1.3438041e+00
  3.2723415e-01
 -1.3295979e+00
 -1.2860980e+00
  1.1041956e-01
  3.3710327e-02
  5.7811236e-01
  2.2503601e-01
 -1.4894683e+00
 -1.8714719e-01
 -5.0769460e-01
 -4.8073980e-01
  4.3058619e-01
  9.8466384e-01
 -1.6445258e+00
  5.7920426e-01
  9.9750996e-01
  3.3055389e-01
  1.9994126e-01
 -1.2074254e+00
  6.6172016e-01
 -7.2490853e-01
 -1.4527364e+00
 -2.2578914e-01
  6.0707414e-01
 -8.7603748e-01
  3.0039325e-01
 -5.2126014e-01
 -5.6960419e-02
 -1.0076052e+00
 -9.2677718e-01
  6.2081877e-02
  3.3846217e-01
  1.6246645e+00
 -1.0981954e+00
 -8.0061817e-01
  2.3649809e-01
 -7.7581632e-01
 -9.4883710e-01
 -6.5456885e-01
  7.2160587e-02
  4.9597672e-01
 -1.6452318e+00
  6.2216246e-01
 -5.6440008e-01
 -3.3906472e-01
  1.3243625e+00
  4.7225705e-01
  4.2560822e-01
  3.9052582e-01
  6.4008909e-01
 -9.8044813e-01
  6.4634025e-01
  2.0760742e-01
 -1.9110734e+00
  1.6591040e+00
 -1.1376292e-01
 -6.1292750e-01
 -4.0198827e-01
  9.6456140e-01
 -2.4020777e+00
 -9.2515908e-02
 -3.1881729e-01
 -1.2652513e+00
 -9.7552285e-02
 -1.6699573e-01
  1.0224654e-01
  1.2046238e+00
 -1.3190594e+00
  7.7149677e-01
 -9.3040568e-01
 -1.5750800e-01
  5.2494317e-01
 -6.8188065e-01
  3.8580728e-01
  8.2513165e-01
 -2.0536469e-01
  4.2298990e-01
 -5.8633244e-01
 -1.8139373e-01
  3.6410492e-02
 -5.2062583e-01
 -8.9668356e-02
 -2.0103384e-02
  2.8287649e+00
  4.9106523e-01
  7.8910148e-01
  1.0615880e-01
  1.2739371e+00
  7.9087931e-01
 -3.6223096e-01
 -8.4251165e-01
 -9.4135481e-01
 -6.5698479e-03
  1.5006748e+00
 -1.4446554e+00
 -6.0059029e-01
 -4.5558354e-01
 -6.5636998e-01
  4.9384958e-01
 -1.5390273e+00
  1.3517119e+00
 -8.9047688e-01
  3.0246705e-01
 -3.3816457e-01
  9.0228391e-01
 -1.2420019e+00
  7.9796922e-01
  2.5967348e-01
  3.9857259e-01
 -4.5987913e-01
  7.9010332e-01
  2.8885734e+00
 -5.5892360e-01
 -2.8919978e+00
 -3.9713413e-01
 -4.0286702e-01
 -7.8534311e-01
 -1.1859435e-01
  1.2844859e+00
 -6.1293668e-01
  7.2590637e-01
  8.0006622e-02
  1.7300346e+00
 -7.6533562e-01
  3.4665298e-02
 -7.0473738e-02
 -7.0538497e-01
 -1.1555997e+00
 -7.9718876e-01
  8.1658792e-03
 -1.8392037e+00
 -2.0178762e-01
 -5.2935626e-02
 -4.0252469e-02
 -7.9789692e-01
 -9.1504133e-01
 -1.6809469e+00
 -5.3986287e-01
 -8.1882036e-01
  1.6924654e-01
  7.4187636e-01
  3.9147204e-01
  4.7490611e-03
 -2.2488932e-01
  1.4367467e-01
  2.4911106e-01
 -3.8298211e-01
  4.0960935e-01
  1.2051121e+00
 -5.1344424e-01
 -1.1601991e-01
 -1.8978170e-01
 -5.3041911e-01
 -1.3995032e+00
  6.8613160e-01
 -1.8013684e+00
  1.5477924e+00
  7.9363984e-01
  2.5247353e-01
  3.7956959e-01
 -2.5233442e-01
  7.4725431e-01
  1.1985955e+00
  1.0495307e+00
 -1.5841872e+00
 -5.4997498e-01
 -6.4113730e-01
 -2.1350171e-01
 -7.2342551e-01
  3.9541727e-01
 -3.3985972e-02
 -4.6112049e-01
 -7.6009041e-01
 -6.5639687e-01
 -1.1003724e+00
  7.2746441e-02
  1.3018679e-03
 -2.2894917e-02
  1.2258856e+00
 -2.3174219e-01
 -8.6799902e-01
 -8.4290139e-02
  5.6406379e-01
 -4.8060918e-01
  4.9501035e-01
  5.1272357e-01
 -2.4603206e-01
 -1.8984158e-01
  4.8893610e-01
  5.8429462e-01
  3.1781429e-01
 -8.3817892e-02
  1.0794399e+00
  8.9575374e-01
 -7.4314064e-01
 -1.1603165e-01
  8.0156595e-01
 -6.6182792e-01
 -1.9194847e+00
 -2.0891355e-02
  1.6687082e+00
  4.1624205e-03
 -1.2586308e-01
 -1.8537481e+00
 -9.4862804e-02
  4.7723660e-01
  1.1365105e-03
  6.5601684e-02
 -1.0110376e+00
 -4.9720943e-01
 -6.6722482e-02
 -1.8448336e+00
 -8.0426741e-01
  5.3299073e-02
 -6.6200238e-01
 -1.4630218e+00
 -5.6364399e-01
 -2.6622381e-02
  7.5218731e-01
 -4.1857100e-01
 -1.8611329e-02
  1.7066888e+00
 -9.8912394e-01
  1.5716575e-01
  1.5554298e+00
 -4.8048860e-01
 -1.1471643e+00
 -2.5032458e-01
 -3.6359233e-01
  3.4326130e-01
  3.6792877e-01
  8.0650282e-01
  9.3568996e-02
 -2.8041380e-02
  8.6716896e-01
 -1.4370072e-01
  2.8680224e+00
 -7.6610929e-01
 -5.7248276e-01
  4.1217104e-02
 -3.6186206e-01
 -1.3523676e+00
  4.0205953e-01
 -2.5575285e+00
 -2.6492259e-01
  1.0710447e+00
  3.2681587e-01
  2.8319401e-01
  5.1514697e-01
 -4.8172063e-01
  6.0363419e-02
 -8.8442737e-01
 -4.2585528e-01
  8.7947679e-01
  1.8398014e-01
  1.4759612e+00
 -1.0639685e+00
 -9.5752829e-01
  1.9693129e-01
  3.9420953e-01
  4.7438300e-01
 -2.0230684e+00
  6.2269086e-01
  5.7884037e-02
  1.6153767e+00
 -1.1923205e-01
  1.5186656e+00
 -4.7149831e-01
 -6.1300904e-01
 -4.9191514e-01
  1.6043042e+00
  1.6904761e-01
 -1.4637146e+00
  1.0306386e+00
  9.2910486e-01
  4.3630466e-02
 -1.7780906e-01
 -7.0400262e-01
  5.0022715e-01
 -8.5143548e-01
 -6.4744407e-01
  8.9303091e-02
  1.2884518e+00
 -2.1931679e+00
 -9.5105398e-01
 -6.9320071e-01
 -4.9158606e-01
 -8.8254267e-01
  2.1619707e-01
 -1.1841549e+00
 -4.4959506e-01
 -2.4726014e-01
 -9.7830616e-02
 -1.4051096e+00
 -1.0542266e-01
  5.7495672e-01
  8.2399946e-01
  4.3340889e-01
 -6.8523484e-01
 -3.5702589e-01
  8.8781208e-02
 -1.5775242e-01
  1.7929348e+00
 -2.0437658e-01
 -1.3428631e-01
  4.8358700e-01
 -3.2951215e-01
  1.9588757e+00
  1.1192032e+00
 -5.6733334e-01
 -4.3570900e-01
  1.4613740e+00
 -3.0993843e-01
  1.4498316e+00
 -1.9250593e-01
  6.0095620e-01
  1.3442898e+00
 -1.5506309e-01
 -1.3569441e+00
  7.4209422e-01
  8.6074568e-02
 -1.9456162e-01
 -3.3783579e-01
  1.6677240e-01
 -1.0272037e+00
  3.3753005e-01
 -4.6701559e-01
 -1.2676926e+00
  4.2611971e-01
 -1.1525943e+00
 -5.4887390e-01
 -5.4604656e-01
  3.1131670e-01
  9.0013921e-01
 -9.3913168e-02
  1.9864048e-01
  2.0298360e-01
 -7.5614232e-01
 -2.4078274e+00
 -1.7165529e+00
 -1.0079727e+00
 -1.2129440e+00
  1.5157686e+00
  1.0725923e+00
 -2.9672167e-01
  1.1814252e-02
  8.6590862e-01
  3.3435136e-01
 -3.6997864e-01
  2.4897330e+00
  1.5189551e+00
 -3.0930579e-01
 -3.5029761e-02
  1.5127598e-01
  1.7794850e-01
  1.6940321e+00
  1.5929062e+00
 -4.5351645e-01
 -5.1158017e-01
 -1.5261937e+00
  1.3202153e+00
 -8.6327600e-01
  2.1782246e+00
  2.8109437e-01
  6.2055159e-01
  3.8528910e-01
 -7.4947250e-01
 -7.8308553e-01
 -2.7638480e-01
  5.7188404e-01
  1.6637226e+00
  6.7028433e-01
 -8.7295845e-03
 -4.1876236e-01
  7.7014709e-01
  1.7268212e-01
 -5.5469833e-02
  6.7923796e-01
  8.3123481e-01
 -5.7309890e-01
 -1.1781718e+00
 -7.6540691e-01
 -7.5478572e-01
  7.7376050e-01
  7.8866827e-01
  4.9131521e-04
  6.1266834e-01
  6.4965564e-01
 -1.4331481e+00
 -4.1319311e-01
  3.1982762e-01
 -2.8924944e+00
 -6.8966407e-01
  4.6670991e-01
 -1.4845236e-01
 -1.9478610e-01
 -1.5004938e+00
 -1.2078225e-01
  3.9572683e-01
 -3.9032891e-02
  4.3084484e-02
  4.3708622e-01
 -3.9327037e-01
 -2.4715404e-01
 -7.4806476e-01
  1.3416445e-01
  3.9925936e-01
  7.3978662e-01
 -1.6667328e+00
 -1.2098529e+00
  1.3746381e-01
  5.3840804e-01
 -6.8635277e-02
 -1.7707571e+00
 -1.9825728e+00
  3.7018451e-01
 -1.3048314e+00
  5.8656269e-01
  7.5559610e-01
 -9.7704518e-01
 -1.1013841e-01
 -9.2830890e-01
  2.8956428e-01
 -7.6293331e-01
  6.7011797e-01
  9.7551191e-01
  7.1333289e-02
  1.9572333e+00
  1.4441365e+00
  2.9105476e-01
 -1.6446837e+00
  1.3795575e-01
  1.0017414e+00
  1.1918522e-01
 -1.2286209e+00
 -9.1092390e-01
  3.6317196e-01
  4.9568006e-01
  1.7867001e+00
  2.8434250e-01
 -4.8196008e-03
 -7.5923455e-01
 -1.3197974e+00
 -4.0037414e-01
  5.6746548e-01
  9.4056499e-01
  1.1986295e+00
  1.4838785e+00
  5.7105631e-02
 -8.8681901e-01
  4.3246812e-01
 -1.6014823e-01
  5.5111194e-01
  2.0222886e+00
 -8.5351688e-01
 -1.0018722e+00
 -3.2771963e-01
 -8.4961396e-01
 -6.2936401e-01
  4.7668621e-01
 -1.9348317e-01
  1.8975300e+00
 -1.2682899e+00
 -1.8788026e-01
  1.8938556e-01
  6.9066420e-02
 -6.0987478e-01
  1.0355928e-01
 -1.0187033e+00
 -7.9755902e-01
 -2.3345610e-01
 -4.4060621e-01
  5.4761863e-01
 -5.8602291e-01
  1.8229253e+00
  1.1308459e+00
 -5.0659055e-01
  1.4777432e-01
  7.3082924e-01
 -2.6350696e+00
 -8.2064223e-01
  4.4795480e-01
 -1.5983431e+00
  1.0723675e+00
 -4.8213136e-01
 -3.1321400e-01
  8.8941002e-01
  3.1522384e-01
 -2.1689568e-01
 -7.0900494e-01
  1.6004705e+00
  6.4347737e-02
 -1.1633193e+00
 -2.7596390e-01
  8.0901879e-01
  1.5327907e+00
 -1.2657899e+00
 -4.5466709e-01
  7.7940874e-02
 -8.9111656e-01
 -1.3315237e+00
  1.5168735e-01
  3.2429469e-01
  1.4252979e+00
 -1.4668192e+00
 -4.1321000e-01
  5.8790267e-01
  1.7419872e+00
 -1.4902552e+00
  2.3919709e-01
 -5.5852950e-01
 -8.0500311e-01
 -1.0787159e+00
 -4.6553186e-01
  7.9651499e-01
  4.8300242e-03
 -4.0536782e-01
  4.2891872e-01
 -7.9304385e-01
  4.8614614e-02
  1.1248511e+00
 -9.2406160e-01
 -1.6682729e-01
 -3.8955677e-01
  9.3563959e-02
 -1.9031468e-01
  3.2359440e+00
 -3.1580397e-01
 -3.5010004e-01
 -2.1689496e+00
 -1.6818393e+00
  1.0356573e+00
  1.0480119e+00
  1.3801548e+00
  4.8838568e-01
 -9.4470787e-01
 -3.4227487e-01
 -4.2399004e-02
  5.5392665e-01
  3.2242771e-02
  1.6917834e+00
  6.5143394e-01
  3.2074055e-01
 -1.6446391e+00
 -3.3235964e-01
 -1.1204219e+00
  1.7768257e+00
  2.3620081e-01
  7.2737676e-01
  3.1387413e-01
 -1.5292125e+00
  4.8024517e-02
 -6.0905781e-02
 -1.4213941e-01
 -1.0601978e+00
 -8.2929164e-01
 -1.1230562e-01
 -4.2171440e-01
 -2.5234535e-02
  1.0867047e-01
 -1.9730195e-01
  5.2589267e-01
 -7.0573556e-01
  1.2726054e-01
  5.7314330e-01
 -4.1939992e-01
  9.4463313e-01
  5.4523224e-01
  4.7835339e-02
 -4.0406460e-01
  9.1661918e-01
  2.8683984e-01
 -3.2575688e-01
  4.1474774e-01
  2.8451440e-01
  9.0984672e-01
 -7.7823800e-01
 -2.4718051e-01
  2.4810158e-01
  9.4276243e-01
 -6.9435656e-01
 -3.2735792e-01
 -5.6895280e-01
 -9.7692050e-02
 -4.4672477e-01
 -5.1180321e-01
  1.5134717e+00
 -6.4523697e-01
 -7.1455441e-02
  7.7747941e-01
  5.6963301e-01
  1.7524338e+00
 -6.2834406e-01
 -5.3781313e-01
  9.6878052e-01
  6.4099163e-01
  1.9510891e-01
  1.2288558e+00
  2.2973847e+00
 -8.7954849e-01
 -3.2420196e-02
  2.5472170e-01
 -1.6199799e-01
 -7.4508321e-01
  2.3503485e+00
 -3.0973611e-02
  3.9760032e-01
 -1.7657205e-01
  6.9208449e-01
  4.4785929e-01
  1.6669111e+00
 -1.0400153e+00
  6.1586063e-02
 -9.2167538e-01
  7.8888333e-01
  1.5324061e+00
 -1.0543447e+00
  8.8769174e-01
 -6.1189556e-01
  8.8584967e-02
  1.6213847e+00
 -5.0174558e-01
 -5.6615774e-02
 -8.3755814e-03
  1.2543412e+00
 -6.3474464e-01
  3.4402913e-01
 -7.5884676e-01
  9.8692709e-01
 -3.8821418e-02
  1.2468556e-01
  3.7006772e-01
 -7.8289515e-01
 -3.2934579e-01
 -1.3434360e+00
 -2.7373433e-01
  1.6886426e+00
  6.9988936e-01
  7.3533517e-01
  1.3193821e+00
 -5.4611683e-01
  1.3256827e-01
 -3.3929244e-01
 -2.0741408e-01
  1.4361314e+00
 -2.0698000e-02
 -1.0421906e+00
  2.0730376e+00
 -3.1072764e-02
  5.5910063e-01
  5.0538367e-01
 -7.8884971e-01
 -6.2262642e-01
  1.0796008e-01
  1.4062265e-01
  1.3919756e-01
  2.4752839e-02
  2.3252748e-02
 -9.3979752e-01
  1.2187294e+00
 -1.2837572e+00
 -3.9852509e-01
  6.0376781e-01
 -1.2283379e+00
 -1.5357057e+00
 -1.7578317e-01
  9.6039975e-01
  2.1745358e-01
  2.0262808e-01
  6.6255856e-01
  1.4233055e+00
  1.3231454e+00
 -2.8658703e-01
  1.3314301e-01
  1.3715025e+00
 -2.7913678e-01
 -4.8637748e-01
  2.6996117e+00
 -1.9662221e-01
 -6.2229085e-01
  1.0239140e+00
 -3.0575950e+00
 -1.9428256e+00
 -1.1072133e+00
 -1.1223562e+00
 -6.6164827e-01
  1.5914445e+00
  3.8677022e-02
  8.8809651e-01
 -9.9421537e-01
 -1.3329729e-01
  3.3275327e-01
 -1.0743963e-01
 -7.8895366e-01
 -1.2884134e-01
 -5.7378554e-01
  5.3856134e-01
  7.6298249e-01
  1.3802426e+00
  8.3598411e-01
 -1.3667715e+00
  9.3047297e-01
  3.1013007e+00
  1.4910351e-01
 -1.9994866e+00
 -2.0310223e+00
  3.2224980e-01
  7.2928920e-02
 -1.4001118e-01
 -6.6996878e-01
  1.7617326e+00
 -1.0728819e+00
  1.0807032e-01
  3.5863230e-01
 -8.4371406e-01
  6.7068976e-01
  7.3334545e-01
  1.2336390e+00
 -1.0874556e+00
  1.2960556e+00
  6.1788774e-01
 -1.1498141e+00
  5.2235919e-01
  5.1691514e-01
  1.9709365e-02
  1.2642774e-01
  4.9742979e-01
 -5.4508585e-01
  1.5183128e+00
  1.9526849e+00
 -5.9590930e-01
  2.1841991e+00
 -2.5950512e-01
 -8.1305933e-01
 -8.9662021e-01
 -8.0170948e-03
 -5.4723162e-02
 -6.1136490e-01
  8.4780484e-01
 -8.7059194e-01
  2.3527832e+00
  1.6153936e+00
 -2.1977687e+00
 -2.6012266e-01
  8.8508204e-02
  7.9715806e-01
