nep4_zbl 1 C 
zbl 1.25 2.5
cutoff 40 36 92 30
n_max 8 8
basis_size 12 12
l_max 4 2 1
ANN 150 0
 -1.6497027e+00
  1.3715072e-02
 -2.1180849e-01
 -1.0156681e-01
 -5.0040919e-01
 -1.7676307e-01
  1.3385287e-01
  2.3433229e-01
  1.2552692e-01
 -1.3751241e-02
 -3.5395762e-01
 -2.2315723e-01
  5.1458788e-01
  1.7776190e-01
  1.9612776e+00
 -2.3276536e-02
 -5.9848821e-01
 -9.9369548e-02
 -1.5068008e-01
 -1.7889128e+00
  2.5470030e-01
  8.4078804e-02
 -6.1681950e-01
 -1.5540353e+00
 -3.1078181e-03
 -1.9099356e-01
 -2.4654937e-01
  4.4820644e-02
 -6.0864967e-01
  1.7585737e-01
 -6.0384941e-01
  4.3540218e-01
  8.6752446e-03
 -1.3308826e-02
  6.3158107e-01
  1.9243971e+00
 -2.2885768e-01
 -6.1197883e-01
  2.2299023e-01
  1.0431511e-04
 -8.1570691e-01
  2.2394823e-01
 -4.3558908e-01
 -9.1308564e-01
 -1.4375895e+00
  1.1093291e-02
 -4.4317332e-01
  3.5387570e-01
  8.5065037e-01
  2.6880398e-01
  1.0657046e+00
 -1.4395218e-01
 -7.1818066e-01
 -1.4968414e+00
 -2.4831844e-02
  3.8203573e-01
  1.1648224e-02
  3.1813768e-01
 -2.1064870e-01
  1.0306286e-02
  3.7257570e-01
 -1.9137827e-01
 -2.3906401e-03
  4.3053031e-01
 -1.5653575e-02
  2.5298846e-01
 -9.7502989e-01
  5.6726301e-01
  1.0883541e+00
  1.0262671e+00
 -2.4564147e-01
 -7.8951991e-01
  6.3096076e-01
  1.3097165e+00
 -2.1731481e-01
  3.8556468e-01
 -2.4277179e-01
 -2.7467582e-01
  1.0528329e-02
  2.2680201e-01
  8.1591100e-01
  6.2927909e-02
 -4.9044516e-02
 -2.2417059e-02
  1.0726120e-01
 -5.9327853e-01
  7.4996543e-01
 -1.2662456e-02
  2.8016146e-03
 -7.5077486e-01
  2.2271602e-01
  1.9871935e-01
 -2.8719002e-01
 -2.8852910e-02
  1.2810281e-01
 -3.6323473e-02
 -5.9697952e-02
 -5.3929567e-01
  2.6520750e-01
  3.0728546e-01
  1.9321568e+00
 -8.8862307e-02
  1.1275227e-01
  1.3617188e-01
 -4.0236056e-01
 -1.1220392e+00
  6.3291126e-01
  1.0123588e+00
 -2.3330806e-01
  6.0327607e-01
  4.6417674e-01
 -5.7316703e-01
  5.2627828e-02
  5.4454207e-01
  4.8160487e-01
  4.6834130e-02
  5.6831634e-01
 -4.5154428e-01
  5.3016003e-02
  7.5284667e-02
 -2.7743706e-01
 -4.6416640e-01
  4.2216908e-02
 -7.3929034e-02
 -3.9169258e-01
 -1.4567722e-01
 -4.3768999e-01
  7.3941156e-02
 -7.1430437e-02
 -4.2232890e-02
  2.8797573e-01
 -5.2842087e-01
  2.2237343e-03
 -2.6959252e-01
  4.5970568e-01
 -2.1746205e-01
 -5.1725996e-01
 -4.6287097e-02
  1.2165274e-01
  5.8858097e-01
 -1.5783247e-01
 -7.0106164e-02
 -1.1464421e-01
 -4.1879192e-02
  3.4816951e-01
  1.2382050e-01
  1.2616624e-02
  4.7439188e-01
 -3.5913840e-01
 -1.1421871e-01
 -9.3874675e-01
  5.4854024e-03
  3.8842997e-01
  7.1387160e-01
 -1.6593140e-01
 -1.8604964e-01
 -3.1887916e-01
 -5.0833706e-02
  5.2239877e-01
 -1.1450952e-01
  3.5503943e-02
  5.1675844e-01
 -2.6058206e-01
 -6.5129563e-02
 -3.1647503e-01
 -2.2947653e-01
 -6.2782556e-02
  9.3217349e-01
 -6.9814622e-02
 -4.2486733e-01
 -1.6057028e-01
 -3.2152039e-01
 -6.0914803e-01
 -6.2011987e-01
 -7.6523267e-02
 -9.0785074e-01
  4.0729827e-01
  5.0299221e-01
  2.6741078e-02
  4.5736790e-01
  2.1462567e-01
  7.3346990e-01
 -3.6051562e-01
 -1.1062192e+00
  2.6956937e-01
 -9.9764645e-01
  7.1794167e-02
  1.0092860e-01
  2.2861058e-01
 -2.9854640e-01
  2.0623875e+00
  3.4179327e+00
 -6.0287064e-01
  5.0811071e+00
  8.8204676e-01
 -1.7935661e+00
 -1.7170490e+00
  2.5527987e+00
  1.9126955e-01
  7.0760548e-01
  3.8781777e-01
 -2.8377852e-01
 -3.8802049e-01
 -8.1456125e-01
 -3.9481275e-02
  4.4722375e-01
  1.4654418e+00
 -5.8069553e-02
 -7.2768199e-01
 -1.9623634e-01
 -6.7843825e-01
 -1.0141910e+00
  1.1568164e+00
  2.7808389e-01
 -7.9403716e-01
 -6.0185027e-01
 -4.2677286e-01
 -1.4956371e-01
 -1.9164287e-02
  8.7607181e-01
 -2.3722728e-01
  2.2101396e-01
 -6.0377739e-02
 -5.8010809e-02
 -6.4691746e-01
 -2.4233150e-01
 -3.3343554e-01
 -3.3509511e-01
  3.5334802e-01
 -1.0328963e-01
 -6.5443915e-01
  1.2187431e+00
 -1.4339449e-01
 -6.5595686e-01
  2.2685117e-01
 -2.6575282e-01
 -8.7785608e-01
 -1.5579312e-01
  2.6118070e-02
 -7.7254409e-01
  1.0376468e-01
 -1.1633486e-01
 -4.1737664e-02
 -1.7584570e-01
 -3.6558330e-01
  3.7425014e-01
  2.3185343e-01
  2.7428380e-01
  6.8532264e-01
 -3.9461520e-02
 -6.6034518e-02
 -6.3207620e-01
  4.7611389e-01
  2.0471901e-01
 -3.3842805e-01
  1.4188217e-01
  4.9239716e-01
 -5.4109865e-01
  2.3144905e-01
  1.6233350e-01
 -3.0958647e-01
  2.1641684e-01
 -4.9844110e-01
  2.2180828e-01
  5.3128500e-02
  6.0584047e-03
 -7.1673781e-02
 -6.9057620e-01
 -4.9262079e-03
  3.1866732e-01
  3.2782289e-01
  2.9883307e-01
  4.2531726e-01
 -1.4498799e-02
 -3.3701956e-01
 -3.6909696e-01
  2.0408846e-01
  9.7059083e-01
 -1.1286089e-01
 -1.1448911e+00
  2.4982652e-01
 -6.0022794e-02
 -8.6735629e-02
 -5.2981257e-01
  9.8635033e-02
  2.4696884e-01
 -6.7482924e-01
  2.5935468e-01
  2.6371969e-02
  6.0338974e-01
 -1.1947967e-01
  1.8569511e-01
  4.4760463e-01
  1.0715235e+00
 -2.7358302e-01
  2.6106489e-01
  7.7228308e-02
  4.9784222e-01
  1.8471436e-01
  1.8489264e-02
  1.2440064e-01
  1.3865461e+00
 -2.9340230e-03
 -1.2522286e-01
 -1.3209113e-01
  2.5732944e-02
 -1.1883193e-01
 -2.6051894e-01
 -9.1350310e-02
 -1.1879796e-01
  1.0941384e+00
  6.2874997e-01
 -1.9458944e-01
 -9.0029463e-02
  2.3778182e-01
 -3.7626413e-01
 -8.6117372e-02
 -2.0065390e-01
  5.4301590e-01
  6.0169253e-02
  1.9984554e-02
 -3.0283812e-01
 -7.4470475e-02
 -1.6575649e-02
 -6.0868088e-02
  9.4951272e-02
  4.4486848e-01
  2.5194058e-01
 -3.8938478e-01
 -8.7500857e-03
 -4.2357391e-01
 -3.4098235e-01
  2.0806906e-01
 -3.9268411e-03
  9.3088441e-02
  2.0694898e-01
  3.9105424e-01
 -2.7405810e-01
 -8.2273282e-02
  5.8633238e-02
 -1.0211774e-01
 -4.4730985e-01
 -1.0730701e-01
 -1.8414641e-03
 -6.6584475e-02
 -3.7363520e-01
 -2.9362714e-01
 -6.2229563e-02
  1.6670567e-01
 -3.8707197e-01
 -1.7952886e-01
  1.8532735e-01
 -3.6125791e-01
  4.7268414e-01
  4.6707636e-01
 -3.4667489e-01
 -1.1025511e+00
 -2.7603000e-01
 -2.4158528e-01
 -1.5476424e-01
  8.3300956e-03
  1.3555317e-01
  2.0352130e-01
  8.1480271e-01
  3.1949544e-01
  1.2793458e-01
  1.9475886e-01
  1.6489923e-01
  4.9760479e-01
 -2.7455994e-01
  1.5322727e-01
 -3.3908814e-01
  5.8757119e-02
 -7.6875687e-01
  6.4970441e-02
  2.0744833e-01
  3.5292760e-01
  2.7136573e-01
  3.0240029e-01
 -2.7830341e-01
 -1.0191327e+00
 -1.1663982e+00
  2.4397041e-01
 -5.2020628e-02
  1.2434081e-02
 -1.9251786e-01
  3.1293169e-01
 -4.1918275e-01
 -1.9186853e-01
 -2.1467887e-02
 -1.9248027e-02
  1.5247156e-01
  3.7297007e-02
  1.3660023e-01
  2.7657750e-01
  2.1460018e-01
 -2.2081828e-01
  1.7142059e-01
  5.6384802e-01
 -4.1382119e-01
 -3.2008377e-01
  6.6114551e-01
  5.4462963e-01
  1.1685629e-01
 -2.4837771e-02
  1.0373403e-01
 -1.6390122e-01
 -5.3464476e-02
  9.7944051e-02
 -2.7044240e-01
  1.4449619e-01
 -4.5773041e-01
  2.4225433e-01
  4.2519379e-01
  1.6342132e-01
 -4.8317778e-01
  3.6957815e-01
 -1.5990432e-01
 -1.8917663e-01
 -4.8278588e-01
 -1.7992987e-01
  1.6281281e-01
 -2.0162372e-01
 -3.1022036e-01
 -3.0584205e-02
  4.6196982e-01
 -1.2113580e-01
  1.2911999e-01
 -1.3665767e+00
  6.4283321e-03
  1.1430665e-01
  7.6223426e-03
  1.8796349e-02
 -4.9682397e-02
  1.9701909e-01
  2.4699548e-01
 -4.4721329e-01
  5.3953087e-01
 -6.7267992e-02
  4.1324699e-01
  6.1081642e-01
  4.1637221e-01
  3.1234896e-01
 -8.2868606e-01
 -5.8252513e-02
  5.9860721e-02
  3.1034935e-02
  3.1403825e-01
 -5.3031389e-02
 -7.3068213e-01
 -2.8687760e-01
  4.2355727e-02
  1.5463243e-01
 -5.5790901e-01
  9.9877067e-02
 -9.6002541e-02
  3.1336747e-02
  4.8856869e-02
 -2.8915116e-01
  2.1679577e-01
  7.8753519e-01
  9.1973960e-01
  5.1656151e-03
 -2.7064720e-01
  2.1212074e-01
  3.8359866e-01
  2.6872391e-01
 -1.5849830e-01
  2.0009212e-01
  2.6791453e-01
 -2.7329341e-01
  4.7967765e-01
  3.8993266e-01
 -1.1691052e+00
  3.4455037e-01
  7.6387125e-01
 -1.8374884e-01
  1.0316613e-01
  1.3638271e+00
  6.4557731e-01
  1.2396716e-02
 -3.7093621e-02
 -3.0636024e-01
 -2.0347561e-01
 -1.1201781e+00
 -1.1985363e+00
 -1.7524604e-01
  1.5001584e+00
 -3.2085508e-01
  3.5014984e-01
  5.3387785e-01
 -9.6017647e-01
 -7.2397210e-02
  1.2558627e-02
 -3.1124261e-01
 -4.0340658e-02
  1.5281060e-02
 -4.0731734e-01
 -4.6493983e-01
  1.8818867e-01
  5.1389521e-01
 -1.8248288e-01
  1.2424074e-02
  1.4034173e-01
  1.2046428e-01
 -3.0830178e-01
  1.1593797e-01
  1.7327309e-01
  2.3449537e-01
 -2.5619537e-01
 -2.0644674e-01
 -2.7825636e-01
 -6.5574773e-02
  1.5116437e-01
  2.8039755e-02
  2.8674704e-01
 -6.5042448e-01
 -8.2588494e-03
 -3.0477306e-01
 -6.9439209e-01
  1.8637326e-01
  4.2390749e-01
  7.4417651e-02
 -1.7317095e-01
 -2.0820099e-01
 -7.6090746e-02
 -4.0067825e-02
 -7.7105689e-01
 -3.2001520e-03
 -4.7678281e-02
  1.3697869e-01
  3.3538732e-01
 -1.1485781e-01
 -4.4656042e-02
  7.6681852e-01
  5.3608447e-01
  2.8217939e-01
  4.7419158e-01
  5.3493893e-01
 -7.2959983e-01
 -2.6451996e-01
 -4.6312520e-01
 -5.2725023e-01
 -4.7369581e-02
  7.3370054e-02
  3.5808927e-01
  6.7313188e-01
  1.8257934e-01
  1.6959536e-01
  8.5798144e-02
  1.0859779e+00
 -1.4505862e-01
  3.1556401e-01
 -4.9954309e-05
 -1.4313909e+00
 -8.0366023e-02
  6.3393503e-01
 -1.5802450e+00
  3.9307959e-02
  9.5107026e-02
 -3.9180693e-01
  2.9835877e-01
  1.4268132e-01
  6.6759026e-01
  3.1446549e-01
  4.1728336e-01
  1.4377023e+00
  3.3167309e-01
  1.3971479e+00
  5.9851390e-01
  3.4021178e-01
  1.9614267e-01
 -1.7418468e-01
 -1.6174838e-01
  5.3206784e-01
  3.0106878e-01
  4.3812728e-01
 -5.4849744e-01
  1.1422917e-01
 -3.0562991e-01
  8.0096191e-01
 -1.0702558e-01
  5.4286581e-01
  3.0666620e-01
  6.8452853e-01
 -2.4090981e-01
 -5.8044109e-02
 -1.5404752e-01
 -2.2735949e-01
  4.1838396e-01
  4.5201769e-01
  1.6755179e-01
 -8.2768315e-01
 -4.6934459e-01
  1.0509846e-01
  6.2853014e-01
 -2.2602637e-01
 -7.0345479e-01
 -2.2377368e-02
 -8.4897444e-02
 -3.6555621e-01
 -9.4293457e-01
 -7.3323262e-01
 -5.4832882e-01
  1.5657690e-01
 -3.0743578e-01
  5.6216683e-02
 -2.8851873e-01
  7.2021204e-01
 -5.9649069e-02
 -1.7903648e-01
 -4.8858956e-01
  2.0615061e-01
  4.0764785e-01
  1.2770438e-01
 -1.2746465e-01
  1.5567562e-01
  4.7150396e-02
  2.7294305e-01
  1.0142972e-01
  2.3421639e-01
  4.2895222e-01
 -1.9586119e-01
 -3.2380262e-01
 -3.1411597e-01
 -1.3872311e-01
 -6.0892466e-02
  1.2426235e-01
  3.7759017e-02
  2.1547394e-01
  1.3978943e-02
 -3.2699215e-01
  2.4303639e-01
  5.3132164e-01
 -2.6249230e-01
 -2.8635147e-01
 -3.0972776e-01
  2.6765367e-01
  6.7067790e-01
  1.7943494e-01
 -1.0434712e+00
  7.5890943e-03
  2.6515630e-01
  1.3821623e-01
  1.8683596e-01
 -3.2097936e-01
 -2.5467926e-01
  1.2242833e-01
 -1.8426363e-01
  2.4917488e-01
  2.1140864e-01
 -2.9747126e-01
 -7.9120763e-02
 -1.6926214e-01
  4.3269253e-01
  4.4639632e-01
  3.0439749e-01
 -1.6006611e-01
 -1.1430657e-01
  1.4838371e-01
  6.8411505e-01
 -1.6874549e-01
 -3.8449705e-01
  4.3211642e-01
  1.0866808e-01
  9.8743492e-01
 -1.4283668e-01
  2.7951092e-01
  2.4596688e-01
 -1.7178868e-01
 -3.0517461e-02
  1.9714750e-01
  3.5290840e-01
  2.1747032e-01
  8.1657124e-01
 -8.3026397e-01
  3.9603852e-02
  6.0507512e-01
 -7.9114385e-02
 -2.2333357e-01
  1.1026909e+00
  8.6345637e-01
  1.6456540e-01
 -4.0662524e-01
  1.3518178e-01
 -1.7516927e-01
 -2.0881966e-01
 -9.3888715e-02
 -3.2994291e-01
  1.1844772e-01
 -1.5030437e-02
  2.9731056e-01
  1.8794438e-01
  5.5436440e-02
  6.8502299e-02
  8.5157573e-02
 -5.0736880e-01
  3.6975583e-01
 -1.7485580e-03
 -5.4654568e-02
 -2.0725045e-01
  1.4261830e-01
  1.0903946e-01
  1.0950273e-01
  3.3992139e-01
 -1.5722868e-01
  6.0590107e-02
  9.4519950e-02
 -1.5654102e-01
  1.2471236e-02
 -9.7526884e-01
  3.1650183e-01
 -9.2530861e-02
  4.6903232e-01
  1.0622538e-01
  3.6998007e-02
 -5.3079736e-01
 -6.2326509e-01
  3.9221948e-01
 -3.7864761e-03
 -3.2500443e-01
  1.5381891e-01
  2.6183459e-01
 -7.7794534e-01
  1.6447333e-01
  2.2156124e-01
  2.5395593e-01
  2.6002786e-01
 -5.9541101e-03
 -1.6209371e-01
 -4.3836010e-01
  7.1570054e-02
 -6.3246644e-01
 -1.9007124e-01
 -1.3676703e-01
  5.2258275e-03
  8.3956428e-02
 -5.5590856e-01
  3.3536714e-01
  4.4857085e-01
 -1.9831869e-01
  4.4746146e-02
 -2.8007898e-01
 -2.8915277e-01
 -1.8106833e-01
  3.7389064e-01
 -6.4732157e-02
 -4.0471384e-01
  5.3417438e-01
 -5.0221000e-02
  3.3384582e-01
 -1.1744687e-01
  6.2867880e-01
 -8.7879854e-01
  5.3459752e-02
  3.2714311e-02
  2.6778126e-01
  2.3541044e-01
 -6.8833418e-02
 -1.7732514e-01
 -4.3018281e-01
  7.3471740e-02
 -1.4322886e-01
 -1.1839292e-03
  3.0796513e-01
  4.9339380e-04
 -5.2608210e-01
 -1.1145306e-01
 -5.9310276e-02
  5.4613858e-01
 -9.3630642e-02
  3.3624449e-01
  1.8967965e-01
  1.1644471e-01
  8.7849015e-01
 -9.3522772e-02
  1.5813524e-01
  5.2812345e-02
 -6.6352360e-02
 -7.1692187e-01
  9.3005449e-01
 -1.1731280e-01
  7.7317305e-02
 -2.4506453e-01
 -8.5849591e-02
  3.2143065e-01
  3.5986755e-02
 -7.4701563e-02
  5.5127908e-02
 -2.9868412e-01
  3.2687077e-01
  1.9523269e-02
  4.7578415e-01
 -1.9190367e-01
 -6.0438029e-02
 -5.9482086e-01
 -2.6504722e-01
 -2.9616490e-01
 -3.9709467e-01
  6.2488541e-02
  4.7109401e-01
  5.7642758e-01
 -8.1663346e-01
 -9.0629518e-02
 -2.1601883e-01
 -1.1187603e+00
 -1.0080656e-01
  1.5397511e-01
  1.3625319e-01
 -9.4120425e-01
  9.0189397e-02
  1.2101769e-01
 -3.7276962e-01
 -1.8655087e-01
 -3.6071959e-01
 -5.8442986e-01
  6.6766620e-02
 -9.2523180e-02
  2.8651917e-01
  3.6193699e-01
  5.9049301e-02
 -4.3273452e-01
 -1.1598142e+00
 -4.5080543e-01
  3.3255282e-01
 -1.8563880e-01
  1.7119251e-02
 -1.5720108e+00
  1.6672833e-01
  3.1097925e-01
 -7.5128347e-02
 -3.1179261e-01
  2.8086758e-01
  1.2514345e-01
 -5.0264823e-01
 -1.3784933e-01
 -2.2277448e-01
 -8.4155984e-03
 -3.9061841e-01
 -3.1661302e-01
 -7.9188114e-03
 -5.6745571e-01
 -1.7461817e-01
 -1.6716316e-01
 -2.5418185e-02
 -3.8428512e-01
 -1.9224563e-01
  6.8140596e-01
  3.8798463e-02
  9.5970757e-02
 -5.9205923e-02
 -6.3562787e-01
  3.4105647e-02
  1.3702896e-01
  4.6646494e-01
  2.6150182e-01
 -1.8713395e-01
  4.0143847e-01
 -1.1876260e-01
 -2.3710999e-01
 -3.1328082e-01
  3.0209184e-01
  1.3526791e-01
 -2.8875726e-01
  1.1844914e-01
 -7.0447159e-01
 -2.4161261e-01
  1.0570753e-01
 -1.1409190e-02
 -2.4224153e-01
 -1.1545199e-02
  3.3363378e-01
  1.2541579e-01
 -3.4828272e-02
 -1.5415396e-01
  3.1418931e-01
  1.7402661e-01
 -3.2435375e-01
  4.5433789e-02
 -1.0508792e-02
  2.2565976e-01
  8.3515361e-02
  9.9796273e-02
  1.6450723e-01
  3.4431362e-01
 -3.9290401e-01
 -1.1203881e-01
 -3.6256081e-01
  2.3685820e-01
 -5.7760015e-02
  2.1200475e-01
 -1.1927452e-01
 -2.9981056e-01
 -4.4221079e-01
 -3.0377936e-01
  2.1657656e-01
  3.1530938e-01
  8.2783020e-01
 -6.5986432e-02
  1.1813588e+00
  1.5439011e-01
 -2.3623748e-02
  4.1854557e-01
  1.4418472e-01
 -2.7183545e-01
  1.3493009e-01
  1.9374391e-01
  4.6233051e-02
  1.3165921e-01
  5.6802772e-02
 -1.7508416e-01
 -1.7501761e-01
 -3.0539948e-01
  7.2061971e-02
 -2.9005211e-02
  4.9966866e-01
 -1.4791812e-03
  6.2225676e-01
  2.4432325e-01
 -3.3818597e-01
 -5.4663473e-01
 -5.4699099e-03
  7.0885623e-01
 -9.4524466e-02
 -2.1061368e-01
  8.7701954e-02
 -3.2480169e-02
 -2.8648984e-01
  3.0907807e-01
  7.5805867e-01
 -2.6177511e-01
 -1.9465503e-01
  1.2046293e-01
 -4.2033726e-01
 -9.6299267e-01
 -1.3691254e-01
 -3.6486518e-01
  4.4312230e-01
  4.3707867e-03
  1.5787305e-01
 -4.3864498e-01
  1.2325582e-01
  3.8906011e-01
 -6.2154663e-01
 -8.0745339e-01
 -4.3583339e-01
  9.7489059e-01
  3.7018303e-02
  2.8433391e-01
 -2.6042560e-01
  2.0539509e-02
  2.3343141e-01
 -3.4007314e-01
 -6.8570405e-02
  4.1402158e-01
 -1.8008493e-01
 -2.5800571e-02
  1.1299886e-01
  4.1896537e-01
  2.4615110e-01
 -3.6658919e-01
  1.2525803e-01
 -1.1342765e+00
  1.0429848e-01
 -4.5624182e-02
  2.4139592e-01
 -7.7732241e-01
 -2.0729082e-02
  6.0473102e-01
  3.0889237e-01
  6.0670626e-01
 -8.9666493e-02
 -5.3964436e-01
 -6.0214177e-05
 -2.6245394e-03
 -1.7646414e-01
  2.9131144e-01
  3.8596255e-01
  4.0274579e-02
  4.3100435e-03
 -4.3180559e-02
  9.2527753e-01
  3.1778890e-01
 -6.1178112e-01
  1.6345850e-01
 -8.8689335e-02
  1.2580563e-01
 -9.8435348e-01
 -7.5020060e-02
  5.6850380e-01
 -9.1131061e-02
 -1.0207450e-01
 -2.7531236e-01
 -5.0765689e-02
 -1.5663671e-01
 -3.0368719e-01
  2.2639699e-01
 -2.2670623e-02
  7.9833314e-02
 -2.0114161e-01
 -1.8010712e-01
 -3.9180231e-01
 -7.4477233e-02
  1.6870398e-02
  8.2995641e-01
  1.1927361e-01
  1.0938103e+00
  4.3922249e-02
 -6.8196064e-01
 -2.3329821e-01
 -3.6076140e-01
  3.4545597e-01
 -1.8429017e-01
  2.4438225e-01
 -4.2391148e-01
 -1.8756580e-01
  5.9437627e-01
  3.0867535e-01
 -5.8302099e-01
  1.5211612e+00
 -4.1848150e-01
 -8.2154310e-01
  4.3227339e-01
  2.1940753e-01
 -5.6060735e-02
  2.2572298e-01
  1.1912301e-01
 -4.1060954e-02
  6.4723665e-01
  3.0558762e-01
 -1.2208541e-01
 -1.3822290e+00
 -1.5389063e+00
 -3.9751045e-02
 -6.3925192e-02
 -1.8283348e-01
 -1.7008144e-01
  2.0767401e-01
  7.9355411e-02
  2.6205379e-01
 -1.4627626e+00
  6.2454313e-01
 -1.8855927e-03
 -9.7062677e-02
  3.8464542e-02
  6.5127766e-01
 -7.7759618e-01
 -2.7596858e-01
  1.5345503e+00
  2.4743938e-01
 -1.4880538e-01
 -5.1436365e-02
  1.4837438e-02
  2.9928964e-01
  2.2993115e-01
  1.1166523e-01
  4.9333876e-01
 -9.8175824e-02
 -1.1321659e+00
 -4.8290271e-01
 -9.1427758e-02
 -6.3914871e-01
 -1.1093051e-01
 -4.3502894e-01
  3.1428000e-01
  6.1353213e-01
  6.0640693e-01
  1.2867735e-01
 -2.1260551e-01
 -1.0838444e-01
 -6.2384355e-01
  7.9644099e-03
  9.9195647e-01
 -6.3557386e-02
 -4.5338862e-02
  4.5658720e-01
 -5.3578261e-03
  3.2610261e-01
  4.1828433e-01
 -1.8304858e-01
 -1.2459624e-02
  6.1619364e-02
  2.4308358e-01
  1.4366628e-01
  2.0430434e-01
 -1.1955860e-01
  1.4944264e-01
 -1.3198896e-02
  3.5934758e-01
 -4.0842047e-01
  2.7148098e-01
  2.6528642e-01
  1.1960854e-01
  1.0424269e-01
  2.1656444e+00
 -2.4556452e-01
 -9.1063425e-02
  2.8074753e-01
  4.3087465e-01
  3.8100863e-01
 -3.5608882e-01
 -1.1576167e-01
  1.6081223e-01
  5.4611570e-01
 -1.1758080e+00
 -1.9962050e-01
 -1.3940518e+00
  6.5164350e-02
  2.4338551e-01
  5.2946609e-01
  4.1620889e-01
  6.6009027e-01
 -3.6267862e-01
  2.8984609e-01
 -1.9943176e-01
 -2.8858545e-01
 -1.0688635e-01
  3.1403494e-01
  2.6444189e-02
 -3.0117592e-01
 -7.2961539e-01
 -1.2655047e-01
  1.0655753e-01
  6.2063879e-01
 -1.8991980e-01
  6.3969398e-01
  9.7423457e-02
 -1.2034292e-01
 -2.5350240e-01
 -2.9363800e-02
  3.0823040e-03
 -2.3898859e-01
  3.6441483e-02
  3.8012877e-01
 -1.8372022e-01
  2.3066878e-01
 -4.3709332e-01
  1.3211212e-01
 -5.8733918e-02
  4.2363912e-01
 -7.5325578e-01
 -4.7780447e-02
 -7.4130422e-01
 -1.4209586e-01
 -2.4080770e-01
 -8.5320318e-01
  7.7093512e-02
  1.0584647e-01
  3.2851669e-01
 -1.9892754e-01
  3.3364099e-01
 -1.8856835e-01
 -4.3511382e-01
  1.5012847e-01
 -2.4938813e-01
 -4.6872637e-01
  3.8382229e-01
  6.2944901e-01
  3.7508601e-01
 -3.7075201e-01
  1.0302113e+00
  8.7329783e-03
 -1.9892830e-01
 -4.1256648e-02
  4.5250046e-01
  5.9521127e-01
 -3.6242489e-02
  1.2013686e+00
 -6.8055332e-02
 -8.8646062e-02
 -2.1890263e-01
 -3.0864453e-01
  5.3800482e-01
 -1.4377192e-01
  7.4340189e-01
 -1.3667312e-01
  5.6459361e-01
  1.0627899e+00
  1.3926175e-01
  1.6486877e+00
 -4.2822611e-01
  4.2453545e-01
 -2.8864470e-01
  3.2807526e-01
 -3.8256976e-01
  8.8419449e-03
 -3.4709898e-01
  2.3599786e-01
  5.7944819e-02
 -6.2887973e-01
 -8.3291602e-01
  2.5739862e-02
 -8.2522787e-02
  5.9614364e-02
 -4.8363149e-02
  7.6977158e-01
  2.1756217e-01
  2.7367988e-01
  1.1391617e-01
  1.5536070e-01
 -6.6092950e-01
 -3.8171613e-01
  2.0533283e-01
 -3.3074516e-01
  3.7436545e-02
 -2.1273318e-01
 -3.2912719e-01
  6.1218824e-02
 -2.8197733e-01
  5.7468623e-02
 -6.3546199e-01
  3.1260949e-01
  3.5413578e-01
  2.9908806e-01
 -6.8120807e-02
 -9.0127367e-01
  4.8594889e-01
  2.0891827e-01
 -5.8927916e-02
 -3.3421436e-01
  4.3990117e-02
 -1.9504291e-01
  1.6024929e-01
 -4.4821280e-01
  9.8239221e-02
 -6.3123131e-01
 -3.0820736e-01
 -9.8786898e-02
 -4.7487432e-01
 -2.0223591e-01
  1.6757843e-01
  2.0955537e-01
  6.5769845e-01
 -2.0223691e-01
 -9.1314457e-02
  4.2292017e-01
 -3.5143429e-01
 -2.6705533e-01
 -2.3440309e-01
 -6.9427788e-02
  1.1755754e-01
  2.6782730e-01
  4.3351179e-01
  7.0445907e-01
  6.6383398e-01
  1.0654544e+00
  3.3666566e-02
 -2.0362248e-01
 -1.2567674e-01
 -6.0081655e-01
 -6.7547187e-02
  2.0537564e-01
 -1.9214849e-01
 -6.6800654e-01
  3.7240565e-01
 -3.8207561e-02
  3.6549902e-01
  2.1943527e-01
 -8.9837171e-02
 -2.3899919e-01
 -1.0053526e-01
 -4.6390850e-02
 -3.7840343e-01
 -4.4789651e-01
  1.7134489e-02
  1.2857048e-01
 -7.9420479e-03
  3.7048131e-01
 -4.3494487e-01
 -3.8475373e-01
 -1.7765340e-01
  5.7160723e-01
  1.7134733e-01
 -2.1748064e-02
  1.4889701e-01
  4.0344706e-01
  4.4459897e-01
  6.0795230e-01
  4.9783885e-02
 -1.2699109e-01
 -4.3379483e-01
 -4.3766055e-02
  4.6364766e-01
  6.2868047e-01
  1.9549598e-01
 -3.1980163e-01
 -7.2430110e-01
  5.8271065e-02
  5.1903415e-02
  7.8706615e-02
 -3.0308411e-01
  9.5019918e-03
  5.4433316e-01
 -1.1844029e-01
 -1.0768743e-02
 -1.0791036e-01
 -4.8815802e-01
 -4.0521973e-01
 -1.1352088e-01
 -4.8564902e-01
 -7.3842332e-02
 -2.6135615e-01
  1.9566403e-01
 -4.8266119e-01
 -1.2559643e-01
 -9.4439231e-02
  2.0352012e-01
  1.9496614e-01
 -7.8393430e-01
 -7.0545480e-02
  3.5913974e-01
 -1.9915743e-01
 -1.5341318e-01
 -2.0563266e-01
  6.6730601e-01
 -2.7006942e-01
  3.7689275e-01
 -3.9775267e-01
  2.4138102e-03
 -3.3273396e-01
 -2.4227741e-01
 -2.2423913e-01
 -1.6512744e-01
 -4.4699821e-01
  1.6767593e-01
  5.6520677e-01
  7.7591769e-02
 -2.5859499e-01
  6.4086892e-02
 -8.5244430e-03
 -4.5943674e-01
  2.6101050e-01
 -7.3232576e-03
 -3.5126263e-01
 -9.8080301e-01
 -3.4111860e-01
 -3.6961287e-01
 -2.4483265e-01
 -2.2520176e-01
 -8.2242101e-02
  1.9258179e-01
 -1.7505600e-01
 -3.4523129e-01
  5.7800376e-01
  6.7687088e-01
 -1.7719211e-01
  3.7041467e-01
 -1.3074125e-01
 -4.0231008e-02
 -1.5395385e-01
 -6.1210954e-01
  9.3985371e-02
  3.0682316e-01
 -6.2316781e-01
  3.7778559e-01
  2.3365833e-01
  1.5393525e-01
  2.1413263e-02
  1.3979102e+00
 -1.1542451e-03
 -3.4226713e-01
  1.5093167e-01
 -3.8009071e-01
  4.4766432e-01
 -5.1172018e-01
  8.2189582e-02
  1.7426060e-01
 -4.8707992e-02
 -2.8498286e-02
  9.5060408e-02
  6.5015189e-02
 -1.8150000e-01
  2.8365785e-01
  1.0010419e+00
  1.8333651e-01
 -2.9250506e-01
  2.3296422e-01
  1.3304779e-01
  1.0286693e-01
  2.2439143e-01
 -7.1893863e-02
  8.8279858e-02
  2.2773290e-01
 -2.9604721e-01
  4.2169285e-01
 -1.1813849e-04
 -1.4871854e-01
  6.6571608e-02
  3.2482916e-01
 -1.1118540e+00
 -2.8364149e-01
  6.2589490e-01
 -1.8086857e-01
  2.2923864e-01
 -6.4858250e-02
  8.1572287e-02
  1.6771515e-01
  4.6356937e-01
 -6.0745817e-02
  3.5227814e-01
 -8.2718623e-01
 -4.3467164e-01
  2.4549328e-01
 -1.5292085e-02
  8.8353217e-02
 -9.1091907e-01
 -3.8921311e-01
  1.1760509e-01
 -7.3713169e-02
  1.4482157e-01
 -1.3526267e-01
 -1.5825592e-01
  8.2091242e-02
 -6.9268090e-01
  1.5206341e-01
  2.5522551e-01
 -6.2294048e-01
 -1.9960520e-01
 -6.7000300e-02
 -5.7759744e-01
 -1.8070151e-01
  1.7337215e-01
 -1.4800295e-01
 -3.0716538e-01
 -5.8301628e-01
 -9.4003397e-01
 -1.9265530e-01
 -2.6545730e-01
 -8.6429968e-02
  5.3680772e-01
 -9.0863124e-02
 -3.7559319e-01
  3.3942962e-01
  5.7461452e-02
  8.9526337e-01
  7.8042448e-01
 -4.1978487e-01
 -1.0277571e-01
 -1.8302020e-01
  2.1726526e-02
 -7.3558390e-01
 -4.9594875e-02
  1.2631434e-01
 -1.5730813e-02
  9.0019745e-01
  2.4960133e-01
  2.6815137e-02
  2.4859522e-01
  5.4766113e-01
 -5.9924549e-01
 -1.6292053e-01
  1.8819876e-01
  2.8014990e-02
  2.1544085e-01
 -7.0798941e-02
 -2.6720846e-01
 -9.5616609e-02
 -1.6462573e-01
  1.4529754e-01
 -1.4412150e-01
 -2.4724999e-01
  2.4272348e-01
 -5.4682738e-01
  1.1662562e+00
 -7.3014516e-01
 -1.6573590e-01
  1.9003274e-02
 -9.0855384e-01
 -2.7646983e-01
  2.5818530e-01
  1.2830926e+00
 -1.4754836e-02
  3.1693015e-01
  9.1981374e-02
 -1.5895234e-01
  1.2031418e+00
  3.3236653e-01
 -3.1757283e-01
  9.6079230e-02
  6.3678503e-02
  2.1126080e-01
  2.2112785e-01
  3.6547956e-01
  2.8318632e-01
 -7.3669046e-01
  5.2564394e-02
 -3.5896394e-02
  4.3815196e-01
  6.0363793e-01
  2.4746934e-01
  4.0984991e-01
 -3.9469612e-01
  6.6242599e-01
  4.5823342e-01
  4.2451742e-01
 -5.1299114e-02
 -8.8013642e-02
  2.4799609e-01
 -3.2326016e-01
 -1.7065738e-01
 -7.4149586e-02
 -5.7130194e-01
 -1.9487596e-01
  1.7486911e-02
  4.5200750e-01
  3.5745382e-01
 -1.0183348e-01
  2.5114458e-02
 -2.6639986e-01
 -3.9417481e-01
 -5.4687243e-02
 -7.8790590e-02
 -1.0786147e-01
  4.2057440e-01
 -5.5549175e-01
  8.6070001e-02
  2.8978693e-01
 -2.4276175e-02
 -3.9187232e-01
  1.4413734e-01
 -3.5673324e-02
  4.0563781e-02
  2.8339878e-01
 -7.3770618e-01
 -5.4563856e-01
 -1.8441452e-01
 -1.5015183e-01
 -5.8994645e-01
  3.4436390e-01
 -1.9332552e-01
  2.9522240e-01
  2.8558663e-01
 -1.6018806e-01
  2.2272868e-01
  3.3278003e-01
 -1.5373586e-01
  9.0197563e-02
  1.6998645e-02
  3.1655663e-01
 -2.4763650e-01
  2.0243865e-01
  1.4293616e-01
 -1.4338187e+00
  1.2914801e-01
 -2.8016442e-01
  8.0260850e-02
 -1.3574309e-02
  6.1243397e-01
 -3.1663367e-01
 -5.6762433e-01
 -1.8728758e-01
 -4.9307123e-02
  4.0898117e-01
  1.7256939e-01
 -1.5826696e-01
 -4.0540591e-01
 -5.6299871e-01
  7.6819941e-02
 -8.2835114e-01
  1.1587132e-01
  3.0965919e-02
 -1.2830330e+00
 -5.2635306e-01
 -2.5638146e-02
 -1.1516246e-01
  1.6173873e-02
 -3.4717929e-01
 -2.7383056e-01
  1.0382762e-01
 -1.0110770e+00
  1.9829195e-02
  4.4014398e-02
 -2.1931982e-02
 -2.9152950e-02
  8.6544268e-02
  1.5394081e-01
 -7.7791102e-02
  6.3998878e-01
  9.1081686e-02
 -1.6238512e-01
 -1.4847209e-01
  3.2126960e-01
 -1.6875328e-01
  3.9059368e-01
  2.4161723e-01
  2.3852359e-01
  2.8037304e-01
  6.9247597e-01
  1.9078673e-01
  3.7461931e-01
  3.8670253e-02
 -7.1422823e-02
  5.6183392e-01
 -6.0914302e-01
  8.6931002e-01
 -5.0603449e-01
 -1.0707656e-01
 -1.0970903e-01
 -6.6760045e-01
 -1.0879902e+00
 -2.1099642e-02
 -8.4086046e-02
 -1.8355852e-01
  2.0292526e-01
 -7.6108277e-02
  3.4221461e-01
 -2.9102060e-01
  3.7903878e-01
  6.9334233e-01
 -9.0017617e-02
 -1.0419365e-01
  9.8713204e-02
 -2.2678769e-01
 -1.1225326e-01
  4.3584710e-01
 -1.5354064e-01
 -3.6820206e-01
  1.8372419e-01
  3.0757281e-01
 -2.2218409e-01
  1.4033185e-01
  5.6029058e-01
 -5.8060181e-01
 -3.3099938e-02
  3.9346397e-01
 -3.3133751e-01
 -1.4148857e-01
 -6.6037551e-02
 -7.0664454e-01
 -3.7565511e-02
 -7.7708371e-02
 -4.6035755e-01
 -4.0132594e-01
  2.6753840e-01
 -9.0312725e-03
  2.6767492e-01
 -2.1861257e-01
  1.7602569e-01
 -9.0844691e-02
  8.6563855e-02
  9.9355653e-02
 -2.2745222e-01
 -1.3321796e-01
  4.2564247e-02
 -2.8170514e-01
 -2.0139712e-01
  2.5689748e-01
 -1.4802365e-01
 -2.3490024e-01
 -3.2015771e-02
 -3.6434248e-01
 -2.4002055e-02
  5.1046167e-02
 -3.5942400e-01
  5.0733030e-01
  7.3631126e-01
  1.2077986e-01
  2.2981463e-01
 -2.8859315e-02
 -2.8390002e-01
 -3.6833134e-01
 -4.1397774e-01
  4.4856042e-01
 -4.7649619e-01
  6.2762924e-02
 -2.1359509e-01
 -1.1609308e-02
 -4.0773865e-02
 -6.3173115e-01
  9.9964535e-01
 -7.5920117e-01
 -1.3374276e-01
 -1.1132836e-01
  6.8814069e-01
 -2.2458141e-04
 -5.9170235e-02
 -5.2013898e-01
  1.3620466e-01
 -8.8339102e-01
 -4.7401789e-01
 -2.3759149e-01
  8.9921035e-02
 -5.5813882e-02
 -2.8158924e-01
  5.6131274e-01
 -3.6031567e-02
 -2.8928855e-01
 -3.1388485e-01
 -5.0234664e-02
  5.1976091e-01
  1.0606405e+00
  6.2707525e-01
  3.7814903e-01
  1.8730511e-01
 -4.7382951e-01
 -2.3489943e-01
  2.8637269e-01
 -2.8519267e-01
  3.2639441e-01
 -1.9803225e-01
 -2.7371225e-01
  1.4144248e-01
 -2.7398038e-01
  1.8861382e-01
  9.6386321e-02
 -1.1935542e+00
  1.0305195e+00
 -1.9300565e-01
 -4.6551415e-01
 -4.5992944e-01
 -6.6263743e-02
  1.8231155e-01
 -5.1616800e-01
  2.6338296e-02
 -7.3112115e-02
  9.1868170e-02
 -3.1298661e-01
 -1.3744228e-01
 -1.3482878e-01
 -8.1669845e-02
  7.0905405e-01
 -8.2004428e-02
 -1.1879515e-01
 -9.1800749e-01
 -4.0912488e-01
  9.6949983e-01
 -1.5060281e+00
  8.0098343e-01
 -4.0279564e-01
  2.5403700e+00
  1.8326701e-01
  1.9063363e-02
  1.2591939e-01
 -6.2297630e-01
 -6.2197858e-01
  8.8557810e-01
  8.6176211e-01
  1.3209392e-01
  1.9104085e+00
 -1.1685428e-01
  4.5692842e-02
 -2.1175146e+00
 -1.5684702e+00
  8.0948824e-04
 -1.8280642e+00
  1.0934128e+00
  4.6380410e-01
  6.8065763e-01
  2.7969089e-01
  3.9252669e-01
  1.7887677e-01
  3.2991928e-01
 -1.7554620e-02
 -2.5659314e-01
 -2.0355578e-01
  1.8452154e-01
 -3.3570665e-01
 -7.3789485e-02
 -1.6012292e-01
  3.6454618e-01
 -2.7931902e-01
  3.0746621e-01
  3.5106364e-01
 -1.8492715e-01
  5.8386676e-02
  2.9064387e-01
 -8.6113924e-01
  2.2336781e-01
 -5.9620637e-02
  5.1050180e-01
  4.0114057e-01
  9.5611382e-01
 -4.5367905e-01
 -9.1959439e-02
 -1.0214487e+00
  7.3910490e-02
  6.0031486e-01
  1.8653993e-03
  5.7659134e-02
 -1.1133502e-01
 -1.6417344e-01
 -1.6149132e-01
 -1.4397119e-01
 -3.4093243e-01
  5.1538713e-02
  6.0194689e-01
 -1.3447732e-03
 -7.1375638e-01
  1.5524599e-01
 -1.6342081e-01
 -7.0807970e-01
  8.7039642e-02
 -3.2942932e-02
 -5.0974373e-02
  2.7692893e-01
  4.8835471e-01
  3.7331054e-01
 -2.7181259e-01
  3.1565943e-01
  2.5719303e-01
  2.4630930e-01
 -7.3303181e-01
  5.8048874e-01
 -1.6133625e-02
  8.6595446e-02
  6.1928768e-02
 -3.6942225e-02
 -1.6705185e-01
  1.8631548e-01
  2.8781900e-01
  2.1596202e-01
  5.4685438e-01
 -2.5948784e-01
  2.0874614e-01
 -3.7886521e-01
  2.9218969e-01
 -6.8035567e-01
  6.3966262e-01
 -7.5083071e-01
  9.1581327e-01
  4.7009441e-01
 -5.2886002e-02
  4.6282131e-02
 -3.3245930e-01
 -5.6188637e-01
 -1.5592895e-01
  6.2810063e-01
  1.0204571e+00
 -6.7290705e-01
  2.5502500e-01
  3.6998296e-01
 -1.5386946e-02
 -7.8222200e-02
 -1.4195532e-01
  1.7815697e-01
 -4.2257421e-02
 -2.3027630e-01
 -9.2396384e-01
  1.8691844e-01
  2.1640009e-01
 -2.2855954e-02
  4.9804163e-01
  3.6176479e-01
 -2.3190846e-01
  1.3298056e-02
  7.1514165e-01
 -3.3740553e-01
  3.0357609e-02
 -1.0205753e-01
 -4.2198139e-01
  9.3199566e-02
 -1.8674733e-01
  9.2267257e-01
 -8.3680928e-01
  4.8892070e-02
  1.7115830e-01
 -2.2116652e-02
 -1.9618520e-01
 -1.0350044e-01
 -2.0857673e-02
  1.0822924e-03
  3.6734375e-01
 -3.2539904e-01
 -1.2713897e-01
 -8.6824054e-01
 -2.0214197e-01
 -3.7447490e-02
 -4.3743260e-02
 -2.0290369e-02
  1.1780038e-01
  2.4967083e-01
 -3.8511550e-01
  2.0247255e-02
 -4.3962786e-01
  1.9303650e-01
 -2.3786527e-01
 -4.6173769e-01
 -2.4817355e-01
 -1.9398625e+00
 -8.3620951e-02
  1.1653344e-01
  5.4180878e-01
 -6.5699592e-02
  6.3423514e-02
  3.8299483e-01
  1.2182513e-01
  4.2777237e-01
  3.3621559e-01
 -2.2564523e-01
 -1.4841582e-01
  2.3524521e-01
  1.4561726e-01
 -5.7561498e-02
 -6.3494802e-01
  1.2705758e-03
 -3.4535179e-01
  7.2144680e-02
  1.1166021e-01
  1.2504435e-01
  2.6439092e-01
  5.7490617e-01
 -6.9050586e-01
 -2.0272408e-01
  8.6493917e-02
 -4.3914142e-01
 -3.9605895e-01
  7.3826961e-02
 -7.5565904e-01
 -4.9174242e-02
 -1.1990473e+00
  5.6072366e-01
 -2.0335476e-01
  8.7197237e-02
  3.0913746e-01
 -3.0097967e-01
  1.0942563e+00
  2.2897866e-01
  1.5149622e-01
 -5.1739529e-02
 -3.4662142e-02
 -3.3498806e-01
 -1.8463294e-01
 -1.2110656e-01
 -3.1424407e-02
 -1.9699442e-01
  1.4990355e-01
  4.2831138e-01
  2.1023467e-01
  2.3792167e-01
 -7.5886488e-02
  6.8880546e-01
 -2.5158781e-01
  2.7704088e-02
 -1.4212047e-01
  9.1404431e-02
  2.0646729e-01
 -2.7027190e-01
  1.8648399e-01
  4.2853701e-01
  4.9616043e-03
  1.3091345e+00
  5.6178689e-02
  2.3934461e-01
 -1.2604323e-01
  5.9172891e-02
  1.9080538e-01
  3.6905274e-01
 -4.5716056e-01
  2.7051717e-01
  5.7933968e-01
  7.3208398e-01
 -1.0613019e-02
  9.1068372e-02
  2.4269896e-02
  7.9260446e-02
 -4.2320570e-01
  9.2061888e-03
  2.2489969e-01
 -9.6141860e-02
 -4.7823212e-01
  3.2513860e-01
 -6.5274902e-02
  8.3896905e-01
 -5.6500894e-01
 -7.3782098e-01
  1.3404676e-01
 -4.4606236e-01
 -3.2001276e-02
  4.7196308e-01
  2.1433498e-01
  1.1750008e+00
 -4.7900900e-02
 -3.4309438e-01
 -3.6891669e-01
  7.1515220e-01
 -6.4531150e-03
 -2.1403357e-01
  5.5843139e-01
 -8.3378047e-01
 -2.6332882e-01
  4.5928070e-01
 -1.6352275e-01
  1.1134654e+00
 -3.9525032e-01
 -2.9506991e-02
 -1.0848261e-01
 -2.4733232e-01
 -5.4522451e-02
 -4.6209013e-01
 -4.3068320e-02
 -1.5561593e-01
 -3.5811415e-01
  7.0973361e-01
 -7.4091643e-01
  2.8327309e-02
 -1.0300103e-01
 -2.0879780e-01
 -6.1755005e-02
  1.8334164e-01
 -2.3633891e-01
 -3.6554587e-01
  3.4895424e-02
  1.0185467e-01
  5.4627186e-01
  1.8464780e-01
  1.3933355e-01
 -3.4265098e-01
  1.3632813e-01
 -2.1884432e-02
  3.3935985e-01
  1.0284660e+00
  9.1506839e-02
 -3.3097070e-02
  5.7163119e-01
 -2.6014948e-02
 -1.9835701e-02
  2.4727197e-01
 -1.2327460e-02
 -1.1637054e-01
 -1.2648419e-01
  4.3059792e-02
 -2.1662681e-01
 -2.5174272e-01
  2.1184887e-01
 -3.8992932e-01
  1.2200045e-01
 -1.4711256e+00
  5.0063231e-03
 -6.1004639e-01
  3.8297424e-01
 -6.1575588e-02
  1.3174331e-01
 -4.5797095e-01
  1.7271110e-01
  3.3809409e-01
  5.8098849e-02
  3.4282103e-01
 -2.4175185e-01
  7.8415060e-03
 -5.9708756e-01
  2.8213132e-02
  4.9383715e-02
  6.1578619e-01
 -5.8985466e-01
  7.4421620e-01
 -2.1320884e-01
  2.2998963e-01
  1.4238757e-01
  1.1881967e+00
 -1.6815884e-02
  3.0441115e-02
  1.7396168e-01
  4.4750860e-01
  1.0047593e-01
 -7.0699364e-01
 -2.6802504e-01
  3.5025650e-01
 -1.5524134e-02
  3.5592848e-01
 -2.2191079e-01
 -2.7771804e-01
 -1.4776710e-01
  4.6117985e-01
 -2.6441839e-01
 -3.2874271e-01
 -9.9921234e-02
  3.4806049e-01
  9.3074578e-01
 -1.6481137e-01
  9.0314889e-01
  1.1201774e-01
  2.7187058e-01
  1.6188414e-01
 -4.0520608e-01
  4.5217136e-01
 -1.7934166e-01
  4.6027204e-01
  4.1903153e-02
 -4.0962584e-02
  8.2210414e-02
 -3.8433412e-01
  1.8904155e-01
  1.0588764e+00
  2.2834490e-01
  1.7638195e-01
  3.9062876e-01
  1.3721934e-01
 -3.0457929e-01
  1.4788504e-01
  2.8445604e-01
  4.9409661e-01
 -2.2180155e-01
 -3.2126850e-01
 -3.7622654e-01
  4.2471123e-01
 -5.8189739e-02
 -3.0248883e-01
  2.7818826e-04
 -1.0024531e-01
 -8.1920408e-02
  1.8645821e-02
 -6.6898507e-01
  1.1290271e-01
 -9.7963758e-02
  7.4989164e-01
 -4.9527913e-02
 -3.8977239e-02
  8.7763119e-01
  9.1317016e-01
 -3.2721284e-01
 -9.6385938e-01
 -4.3428230e-01
 -4.5255768e-01
  5.7164568e-01
  5.3095496e-01
  4.7677469e-01
 -1.8324369e-01
 -3.3984467e-02
  1.4763111e+00
 -7.2997943e-02
 -1.0812012e+00
 -4.7018388e-01
  4.7946721e-01
 -6.0156703e-01
  8.5601971e-02
 -3.1832460e-01
  3.3127058e-01
  4.5459762e-02
 -4.0240145e-01
 -1.2821492e+00
 -3.8633764e-01
 -2.5099862e-02
  4.5635328e-01
 -4.5945185e-01
 -3.2939194e-03
 -4.9904164e-02
  8.5178897e-02
 -5.0592220e-01
 -2.3928244e-01
 -5.1815414e-01
  3.6515605e-01
 -1.7326714e-01
 -3.5838473e-01
 -2.4130341e-01
 -7.2242007e-02
  5.7772762e-01
 -2.5475132e-01
 -1.0814065e-01
  4.4366878e-01
  3.0196613e-01
  1.5442879e-01
 -8.1936829e-03
  7.0042485e-01
  3.4089327e-01
  4.0031123e-01
  1.0695656e-01
  3.2938106e-03
  2.3218638e-01
  1.3710839e-01
  1.3054104e-01
  3.6336422e-01
 -2.9929796e-02
  6.1387379e-02
  1.9288632e-01
  3.2236519e-01
  2.6081324e-01
 -7.9457426e-01
  3.5774204e-01
  2.7281028e-01
  7.2218889e-01
 -7.9901600e-01
 -7.2794634e-01
  1.9367456e-01
 -2.1215729e-01
 -3.4035617e-01
  2.5502631e-01
 -1.8149605e-01
 -3.2257449e-02
 -3.0780479e-01
  8.4879540e-02
  4.1270930e-01
  2.0749852e-01
  1.2992108e-01
  5.3415403e-02
  5.0808823e-01
 -8.2549316e-01
  1.5109360e-01
 -4.9510014e-01
  1.0102879e+00
 -7.0349723e-01
 -9.9692039e-02
 -2.9746410e-01
  1.9333091e-01
  2.8035560e-01
 -2.2244704e-01
 -2.6701337e-01
  1.7789190e-01
  8.9110263e-02
 -3.7978381e-02
  1.7099467e-01
 -2.4489906e-01
 -2.2097400e-01
  1.7832775e-01
  2.4634069e-01
 -1.8699545e-01
  1.1070994e-01
 -1.2867439e-01
 -6.2824003e-02
  3.9117384e-01
 -4.3210316e-02
  2.1615341e-01
 -3.7471211e-01
  1.2959062e-01
 -1.8449016e-01
  3.2042453e-01
  6.4456749e-01
  3.4434447e-01
  4.3497878e-01
 -1.1755192e-01
  3.3381391e-01
 -1.5356702e-01
 -2.2376828e-01
 -1.2475844e-02
 -2.5681832e-01
 -1.2108032e-01
  2.9066566e-01
 -6.2538832e-01
 -1.9538226e-02
 -5.8937538e-01
  1.8611464e-01
  8.1346102e-02
 -3.0182225e-01
  3.5573873e-01
  1.6806105e-01
 -5.0378817e-01
  4.4694731e-01
  7.0100188e-02
 -1.4659289e-01
  4.9720448e-01
  3.4446239e-01
  3.5670340e-01
  1.7951804e-01
 -2.1265568e-01
 -2.9742410e-02
  7.0857830e-02
  1.7432007e-01
  3.8535798e-01
  4.9981412e-01
 -9.3717337e-02
  2.0886937e-01
 -2.1424752e-01
  2.5111994e-01
  1.5237468e-01
  4.2980674e-01
  1.5775970e-01
 -7.1836799e-02
  1.1746596e+00
 -2.2273575e-01
 -7.0108920e-01
 -1.7713059e-01
  4.2921120e-01
 -4.7065731e-02
 -6.2120366e-01
 -1.1838864e-01
 -4.9387097e-02
  5.4552257e-01
  5.6385130e-01
  3.7500009e-01
 -2.0766038e-01
  3.6302740e-03
  3.1730875e-02
  8.7142813e-01
 -6.4515150e-01
  1.6159102e-01
 -2.2645242e+00
 -5.4480396e-02
 -2.4524766e-01
  3.1448752e-01
 -7.3944020e-01
 -1.4634189e-01
 -1.9529116e-01
 -8.9556533e-01
  5.1010686e-01
 -4.2635582e-02
 -2.0321184e-01
 -3.1096751e-02
 -3.5548311e-01
  3.2224157e-01
 -3.2152337e-01
  8.7027758e-01
  4.5053750e-02
  9.8967373e-01
 -4.0818694e-01
 -1.9103320e-01
 -5.9637435e-02
 -6.3403241e-02
 -2.2579290e-01
  2.4517384e-01
  5.5407351e-01
  2.8609923e-01
  1.1634099e+00
 -2.0092459e-02
  2.6322141e-01
 -1.0500239e+00
 -6.3401312e-02
  2.2039774e-01
  4.3351075e-01
 -7.5088221e-01
 -3.8013679e-01
 -2.1062772e-01
 -9.1403586e-01
  4.6738669e-01
  3.0430326e-01
 -4.5822161e-01
  2.7577940e-02
  4.1495621e-01
 -4.0191017e-02
  3.6167175e-01
 -6.6317551e-02
 -4.9970680e-01
  7.8726345e-01
 -2.5049621e-01
  6.9258206e-02
  1.5310852e-01
  6.7729557e-01
  6.2331659e-01
 -4.2247675e-02
 -3.8830554e-01
  5.6331899e-02
  8.6756729e-02
 -5.5034678e-02
 -3.9837113e-01
 -1.2636496e-01
 -1.6795619e-01
  2.6204291e-01
  7.2677946e-01
 -3.2704771e-02
 -1.3446538e-01
 -3.3776236e-01
  9.9633539e-01
  5.9716481e-01
  1.7432034e+00
 -6.6709025e-03
 -2.4965192e-01
 -3.4804475e-01
 -2.0056079e-01
  7.5179321e-01
  2.9170251e-01
  8.7362848e-02
  2.4629547e-01
  4.7989884e-01
  1.8277963e-01
 -9.2285335e-01
  3.8981876e-01
  1.5071527e+00
  4.1768745e-01
  3.1818378e-01
  2.3976409e-01
  2.3354089e-01
  1.3273414e+00
  1.4696357e-01
  1.1033589e+00
 -7.4099606e-01
  2.2341479e-03
 -7.7527630e-01
 -6.3258845e-01
 -1.4397529e+00
 -8.0144602e-01
  1.6370523e+00
 -4.5266232e-01
  6.4676404e-02
 -3.5561442e-01
  1.1371073e+00
  1.7716332e-01
  8.8861972e-01
  7.3047900e-01
 -1.6991132e-01
  3.5875469e-01
 -1.4463578e+00
 -4.8477006e-01
 -1.0748028e-01
  3.6503702e-01
 -6.9298625e-02
  2.3816973e-02
  2.0582998e+00
  1.4365491e-01
  3.9481208e-02
 -3.3386052e-01
 -8.7604821e-01
  2.1285845e-01
 -2.1830346e-02
  7.1518528e-01
 -1.4908147e-03
  1.0089990e-01
 -2.3582903e-01
 -1.3868932e-01
 -1.7506427e-01
  5.1380157e-01
  6.2205726e-03
 -1.5586542e-01
 -7.1458513e-01
 -1.9684456e-01
 -1.6727476e-01
  4.3144096e-02
 -3.3011034e-01
 -1.0071279e-01
 -1.0488561e-01
  3.8942784e-02
  1.8981120e-01
 -2.1961160e-01
  5.2258652e-01
 -2.3104781e-01
  1.4604367e-01
  3.9611292e-01
  3.9388377e-02
  6.9415428e-02
 -3.9304790e-01
  6.8528283e-01
  1.0929109e-01
  5.4134095e-01
 -6.9758028e-02
 -3.1748697e-01
 -2.7172819e-01
 -2.5337562e-01
  1.9264723e-01
 -2.1952231e-01
 -1.0292467e+00
  1.7352657e-01
  1.1915580e-01
  3.8559166e-01
  7.6539464e-02
 -2.2632135e-01
 -2.4587338e-01
 -8.3852448e-02
 -4.4033888e-01
  7.4191296e-01
  5.0319487e-01
 -4.8462081e-01
 -2.9112663e-02
 -3.6669683e-02
 -4.3675378e-01
 -1.0769455e-01
 -1.3553365e-01
  2.0084228e-01
 -4.1892189e-01
 -4.8067275e-02
 -3.7548718e-01
 -5.2528107e-01
  1.6984555e-01
  2.0313436e-01
  1.0887222e-01
 -5.8988327e-01
 -2.1927957e-01
 -7.0362633e-01
  4.4543315e-03
  1.3369905e+00
  3.4649944e-01
  2.2933027e-01
  2.1562335e-01
  4.3029144e-01
 -1.1622094e+00
  2.2386317e+00
  1.3834040e-01
  1.1495574e+00
 -1.3057369e+00
 -1.3732339e+00
  1.3216104e-01
 -1.0720433e-01
 -6.1395328e-02
  3.0397800e-01
 -8.4848695e-02
  1.7092708e-01
  5.0741249e-01
 -1.0013374e-01
 -4.0407404e-01
  4.9253604e-01
  4.0293357e-01
 -4.3309873e-01
 -4.9376398e-01
  2.8297207e-01
  2.9713768e-01
 -8.2884496e-01
 -9.2532575e-01
 -3.6462858e-01
 -3.3225045e-01
  8.4513354e-01
 -1.2368560e-01
 -2.2442843e-01
 -8.1360377e-02
  1.3126054e-01
  1.6520429e-01
 -3.8973263e-01
 -5.7285529e-01
 -4.8665836e-01
 -6.3494432e-01
  8.5531905e-02
  5.4311877e-01
  5.5654848e-01
  1.1913401e+00
  6.3076842e-01
  3.3974999e-01
  1.8172359e+00
  4.1735250e-01
 -5.9051838e-02
 -1.7972840e-01
 -1.6286913e-01
  1.8368499e-02
  1.5079916e-01
 -6.2058284e-03
 -3.7981287e-01
  2.1977029e+00
 -1.9766045e-01
  1.2440876e-01
  6.1115891e-01
  6.7994818e-02
  6.6907592e-02
 -4.6911478e-01
 -2.8020276e-02
 -2.0860709e-01
 -5.4726806e-02
 -5.0853197e-02
 -3.5196555e-01
  1.2437979e+00
  4.5398228e-02
 -1.2529327e+00
 -6.5208900e-01
  1.1715711e-01
 -4.2532012e-01
  4.7036988e-01
  1.3175616e-01
  2.1595754e-01
 -6.1599091e-02
 -2.5543633e-01
  2.9325861e-01
  6.4385129e-04
 -9.9393122e-02
 -1.1937355e-01
 -1.4104494e+00
 -1.7143501e-01
  8.3684802e-01
  4.7789600e-01
 -6.3747615e-02
  2.0061022e-01
  1.1405892e+00
 -4.0125138e-01
 -7.7905422e-01
  9.8721313e-01
  2.1360052e-01
  4.2965567e-01
 -9.2939474e-02
  6.9367051e-01
 -6.4637011e-01
 -7.2966766e-01
  1.0527749e+00
 -1.1589870e+00
 -9.0324247e-01
 -1.4285944e-02
  6.1811984e-01
  5.0399381e-01
  7.4074797e-02
 -1.4496653e-01
  3.4442213e-01
  2.2090478e+00
  8.8445991e-01
  1.5821195e+00
  1.1761060e-01
  3.6118630e-01
 -5.9258485e-01
  3.3248678e-01
  2.6775426e-01
  2.1405219e-01
 -7.4518979e-02
  8.0352288e-01
  2.5612006e+00
 -4.0648129e-02
 -1.0915472e-02
 -1.1975943e-01
  1.7228865e-03
 -2.6587960e-01
 -1.0119385e-01
 -5.1717676e-02
  8.6333856e-02
  4.8252709e-02
 -1.4408420e-01
 -7.1565026e-01
 -7.7136821e-01
 -5.4683214e-01
 -8.0852962e-01
 -2.5352708e-01
  2.8250059e-01
  8.5454747e-02
 -2.3223786e-01
  1.1680983e-01
 -1.3051003e-01
  8.3482039e-01
  4.0637478e-01
  5.1131028e-01
 -7.3572651e-02
  4.8913333e-01
  2.9858944e-01
 -1.8051181e-02
  6.0314876e-01
 -2.8497323e-01
 -4.0283967e-02
 -5.4634923e-01
 -7.2795278e-01
  1.0261916e+00
  1.1794432e-01
 -2.7317244e-01
  4.0890479e-01
 -8.3601326e-03
  3.9732313e-01
  8.5005732e-03
 -2.0940071e-01
  3.5650355e-01
  6.2533301e-01
 -4.1599673e-01
 -3.8176864e-01
 -9.8009169e-01
 -1.8278730e-01
  3.7714645e-01
 -6.3359314e-01
 -3.4467605e-01
 -9.4807185e-02
  7.9031333e-02
 -1.1713430e-01
  2.2923326e-01
 -1.5628371e-01
  2.8866532e-01
  3.6638689e-01
 -7.6879340e-01
  2.5773628e-02
 -9.2674419e-02
 -1.3974240e+00
 -4.8176673e-01
  1.1696950e-01
  7.1580887e-02
  5.4996252e-01
 -4.1019064e-01
 -4.2802480e-01
 -3.6036077e-01
  7.1336463e-02
 -8.4322743e-02
 -3.8320042e-02
 -1.9803946e-01
 -1.9505045e-01
 -9.3232840e-02
 -8.1206329e-02
  3.6783469e-01
 -1.0827582e-01
  9.3713176e-01
  3.9763641e-02
 -3.9899299e-01
  5.2917016e-01
 -3.9768100e-01
 -9.0109207e-02
  3.4990355e-01
 -9.1499233e-01
 -1.7339062e-02
  5.3766501e-01
 -4.8644105e-01
  2.4102430e-01
 -6.5870069e-02
 -6.0269367e-02
 -5.7647878e-01
  4.6207514e-01
 -1.8005353e-01
  1.9535847e-01
  3.4546018e-01
 -1.2567034e-01
 -4.4619510e-01
  1.6658831e-01
 -2.8878048e-02
  1.7504615e-01
  7.6374345e-02
 -2.8939584e-01
  1.8593308e-01
 -4.0803587e-01
  6.1289799e-01
 -5.8395654e-01
 -3.5101894e-01
 -6.8173349e-02
  1.9575109e-01
 -2.1195335e-02
 -1.9013464e-01
 -2.9263625e-01
 -9.0966463e-02
 -1.8456751e-01
 -4.2531416e-02
 -3.5295653e-01
  2.2113163e-02
 -1.2953877e-01
 -7.4680096e-01
  3.3418038e-01
  8.5022844e-02
 -8.6121315e-01
 -6.2674411e-02
  8.6503528e-02
 -1.0790174e-01
 -2.2961333e-01
 -8.9999251e-03
 -1.4602061e-01
  2.4377808e-01
 -4.2087725e-01
  2.0824027e-01
 -4.9184434e-02
  4.9626598e-01
  7.8569211e-02
 -4.1516596e-01
 -5.2801353e-01
  1.2092063e+00
  3.6143208e-01
  3.8835883e-01
  5.8616436e-01
 -1.7108378e+00
 -9.3198264e-01
 -1.4296374e-01
  5.8765936e-01
 -4.3408924e-01
 -1.4969917e-01
 -3.2538831e-01
  7.3290724e-01
 -2.2242798e-01
  1.9656585e+00
  4.0921134e-01
 -5.4950744e-01
  4.8629966e-01
  1.8785213e-01
  1.1527733e-01
 -4.6979748e-02
 -4.9151370e-01
 -1.1777829e-01
  2.1234586e+00
  3.5180598e-01
  3.9105815e-01
  8.0921167e-01
 -2.3249038e-01
  1.3179159e+00
 -1.1284063e-01
 -8.7517854e-03
 -9.5470876e-02
  7.8090936e-01
 -8.7219790e-02
 -1.0538109e-01
 -1.7585032e+00
 -2.3035618e-02
 -2.4780454e-01
  5.9151953e-01
  3.2655787e-01
  3.0686226e-02
  4.6835160e-01
  1.0974749e+00
  1.5964966e-01
  3.3328271e-01
  1.4893706e-01
 -6.0333973e-01
 -3.7537014e-01
 -4.3783936e-01
  1.1191800e-01
  3.2033351e-01
  8.7247866e-01
  2.4282423e-01
  1.2823529e+00
 -1.2475967e+00
 -9.7207822e-02
  1.1592370e-01
 -4.8363659e-01
 -4.4345713e-01
  4.5998994e-02
 -4.6627519e-01
 -2.0518474e-01
 -1.5440278e-01
  6.2151426e-01
 -1.7927462e-01
 -3.0544099e-01
  9.5251757e-01
  6.2647760e-01
 -1.7011541e+00
  1.0202387e-01
 -7.8099889e-01
 -4.8079896e-01
 -2.6128957e-01
  8.5916692e-01
 -4.4461548e-01
 -9.5948920e-02
  3.7521224e-02
 -7.5177395e-01
 -3.3115661e-01
 -1.6141703e-02
  4.3784380e-02
 -2.0524055e-01
 -2.8424513e-01
 -5.0753069e-01
 -1.7505407e-01
  6.3869476e-02
 -7.2048932e-01
  6.4636695e-01
  2.1612132e-01
 -1.4002405e-01
 -7.4145335e-01
  1.0548401e+00
 -6.4498198e-01
  7.0944212e-02
  4.3355763e-01
 -1.0797980e+00
  4.1033363e-01
  3.2316932e-01
 -2.0362310e-01
  3.0676842e-02
  4.1667852e-01
  9.7168185e-02
 -4.0766720e-02
 -1.0129231e+00
  2.1763203e+00
 -5.0113525e-02
 -6.7305163e-02
 -1.6024938e-01
 -1.7932751e+00
  1.0901532e+00
 -1.5919176e-01
  5.5543631e-01
  6.7040473e-01
  2.6466209e-01
 -6.0753468e-02
  4.3928400e-01
 -7.4887395e-02
 -1.7151974e-01
 -1.9461763e-01
 -2.1220905e-01
  7.0270807e-02
  6.9468695e-01
 -8.0377114e-01
  3.8142341e-01
  2.3858093e-01
  1.0397585e-01
 -5.8896340e-02
 -7.2777085e-03
  8.2599890e-01
 -4.5562685e-01
 -1.3077511e-01
 -5.8945787e-01
  2.9000761e-02
  8.9218336e-01
  3.7505955e-01
  9.7625166e-01
  1.9228297e-01
 -4.9303743e-01
  3.4462765e-01
 -2.1361783e-02
 -1.2201446e-01
 -1.8234437e-05
 -3.0062625e-01
  4.3201238e-01
  2.1684790e-01
 -1.8326072e-01
 -1.4429252e-01
 -9.9874936e-02
 -8.0306304e-01
 -2.3341064e-01
 -2.8573754e-01
 -9.7195588e-02
  3.5453466e-01
 -1.4318800e-01
  3.5202354e-02
 -2.7109620e-01
 -4.2115487e-03
 -2.9107118e-01
 -3.0320743e-01
 -5.8885860e-01
  7.4092740e-01
 -1.3084379e-01
 -3.3258799e-02
 -8.3334513e-02
 -8.8351276e-03
  5.1193577e-01
  5.5754048e-01
  6.4391457e-02
 -4.0173542e-01
 -4.6851191e-01
 -3.8753203e-01
  1.9546823e-01
 -6.9489636e-02
  8.3071738e-01
  8.3659135e-02
  3.5975510e-01
 -7.4839152e-02
 -6.2050235e-01
 -4.1189391e-02
  1.6573842e-01
  9.6195117e-02
  2.8349204e-02
  4.0161517e-01
  4.1570619e-02
  7.0750490e-02
  1.9875593e-01
 -1.9063422e-01
  9.1206864e-02
  6.0449746e-02
  1.0147874e-02
  8.4427431e-02
  1.0861430e+00
  8.6681120e-02
  1.2206978e+00
  2.1996649e-01
 -1.1344073e-01
  5.6239888e-02
  2.0648607e-03
  1.1813843e-01
  2.4756762e-01
  3.2522199e-01
  6.5322471e-01
  1.9516787e-01
 -1.2058457e-01
 -2.8717143e-02
 -5.0029480e-01
 -3.3508146e-01
 -4.0826571e-01
 -4.5416126e-01
  2.3479706e-01
  5.2901670e-02
 -3.8298726e-01
  6.8619423e-02
 -4.3099430e-01
  9.3374783e-03
  4.6224445e-02
 -1.4376901e-01
  2.5287440e-01
  4.0518093e-01
  4.9270979e-01
 -7.5558931e-01
 -1.9216835e-01
 -8.0761991e-02
  1.2622905e-01
 -1.6251303e-01
  4.1569543e-01
 -3.2245990e-02
 -3.9948094e-01
  8.2693040e-02
 -5.9143730e-02
  3.8409945e-01
 -4.2144778e-01
 -3.4637290e-01
  3.4965760e-01
  1.4995856e-02
  1.3366827e-01
  9.8294809e-02
  1.5044232e-02
  6.1165024e-02
 -7.0549317e-02
 -4.2210865e-01
  1.5197149e-01
  3.2310402e-01
  7.6152760e-01
 -2.4415483e-01
 -8.8712081e-02
  4.3143633e-01
  1.9938633e-02
 -1.0778229e-01
 -4.4698876e-01
 -2.1181518e-01
 -1.2409823e+00
 -1.7547528e-01
 -8.4478371e-02
 -1.4209166e-01
  2.2213367e-01
 -1.2055498e-01
  7.0320211e-02
  4.9153805e-01
 -1.0302320e+00
  7.1362925e-01
 -2.6243193e-02
 -4.8297409e-02
 -1.2065656e-01
 -4.4736439e-01
  1.6781569e-01
 -1.8416020e-01
 -3.6451536e-01
  1.3006873e-01
 -6.0070418e-02
 -2.1462615e-01
 -1.7157476e-02
  1.3303976e-01
 -4.7637346e-01
 -4.6113250e-01
  4.2364314e-02
 -1.7032985e-01
  3.8794389e-01
 -1.7940716e-01
 -1.6995355e-01
  3.0341774e-01
  2.2918994e-03
 -1.5102597e+00
 -2.2163250e-01
  2.4933569e-02
 -1.8906005e-01
 -3.4462130e-01
  8.8242447e-01
  2.8826514e-01
 -3.2810235e-01
  5.5703431e-01
  2.6157266e-01
  1.6434264e-01
 -2.0179956e-01
 -4.4168150e-01
  1.8124039e-01
  3.4108001e-01
 -5.3935832e-01
 -4.7360906e-01
 -3.0205566e-01
  1.3653375e-01
 -1.7102872e-04
  4.1255194e-01
  1.4637388e-01
  3.2275108e-01
 -4.8271269e-01
 -3.5061665e-02
 -9.9905528e-02
 -9.6696913e-02
  3.1906077e-01
 -1.3857110e-01
  7.4208123e-03
 -5.0410914e-01
 -1.1079146e+00
  2.7436379e-01
  6.5892555e-02
  3.7300327e-01
  3.6178845e-01
 -1.2316382e-01
  3.5392946e-01
 -9.5797427e-02
 -7.3464513e-01
 -3.5645806e-03
  3.7545189e-02
  6.5945351e-01
  4.2048942e-02
 -9.0916738e-02
 -6.0506940e-02
  2.5932252e-01
 -3.2680187e-01
  3.2970086e-01
  8.6147594e-01
  2.9297176e-01
 -2.6346276e-02
  1.8910227e-02
  3.2445014e-01
 -6.8014753e-01
 -8.8792646e-01
 -6.8272579e-01
 -2.2505236e-01
  9.4189423e-01
 -1.9649820e-01
  1.0540300e-01
 -1.7661376e-01
  2.5207788e-01
  1.0093541e-01
 -1.3271308e-01
  4.4830510e-01
  5.9602112e-01
 -9.3939796e-02
  1.6821927e+00
 -7.4871522e-01
 -5.2113444e-01
 -1.6095075e-01
  1.0063391e-01
 -4.8286956e-02
 -2.2880544e-01
  3.3633269e-02
 -1.1879386e-01
 -1.1930364e+00
 -3.1549731e-01
 -8.7488669e-01
 -4.8063135e-01
 -6.8025482e-01
  6.8809509e-02
  1.4194988e+00
  3.0183899e-01
  7.3329961e-01
 -7.9067546e-01
  3.2697629e-02
  2.1836685e-01
 -3.7388718e-01
 -5.0276315e-01
  8.2554156e-01
 -3.4695640e-01
  3.5403375e-02
 -4.0980862e-03
  5.7027500e-02
  4.4514169e-03
 -5.8258217e-02
  5.6981003e-01
 -4.1541138e-01
 -6.9705538e-02
 -2.2103554e-01
  4.0300250e-01
 -2.7237794e-01
 -2.5466493e-01
 -1.7430715e-02
 -4.9946498e-02
 -2.0679772e-01
  1.2095762e+00
  6.1882343e-03
  1.6088392e-01
 -2.9137425e-02
 -2.3892941e-01
  3.6584464e-01
 -1.1453228e-01
 -5.3087676e-01
 -5.9014529e-01
  1.4486898e-01
  3.0422807e-01
 -2.2976525e-01
  2.1844566e-01
  6.6158456e-01
  4.5366913e-02
 -8.3951902e-01
  6.3192600e-01
 -1.1917914e-02
  3.4232676e-01
 -1.0995009e+00
 -2.5093032e-04
  2.0968059e-01
  3.9613709e-01
  1.8855989e-02
  3.0555755e-01
 -3.9142001e-01
 -2.8644612e-01
  3.1714579e-01
  2.1676436e-01
  2.0903194e-01
  4.2090476e-02
  3.9940786e-02
  2.3514529e-01
 -4.1758668e-01
  1.4957412e-01
  2.4400687e-01
 -1.4495085e-01
  5.7915751e-02
 -4.7473305e-01
 -5.5016726e-02
  2.9496172e-01
 -9.5300414e-02
 -6.0861629e-02
 -5.3906117e-02
  1.7903391e-01
 -9.3315691e-01
 -4.4014502e-01
  2.0764163e-01
 -5.9132844e-01
 -7.9043263e-01
  1.4218530e-01
 -2.8538078e-01
 -5.6679320e+00
 -9.8424065e-01
  3.3327904e-01
  1.3305366e+00
  1.1305095e+00
 -2.7924368e+00
  2.9192030e+00
 -3.3490893e-01
  5.4441112e-01
 -1.6971750e+00
 -2.4505116e-01
 -1.3043263e-03
  4.0958339e-01
 -3.6396289e-01
  1.0316968e-01
  3.5265720e-01
  3.9062104e-01
 -3.4233364e-01
 -1.3042957e-01
  2.4785416e-02
  1.9801119e-01
  6.5221637e-01
  3.6406851e-01
  1.3114705e+00
 -4.7034729e-01
 -1.1565585e+00
  2.3495068e-01
 -2.5233421e-01
 -2.1853430e-02
  1.0080407e-01
  5.4041862e-01
  9.5431484e-02
  9.8605955e-01
  1.0582951e+00
  5.4474866e-01
  7.6713627e-03
  3.6674867e+00
 -6.2077785e-01
  5.4859170e-03
 -1.4350492e+00
  7.3082978e-01
  2.0920105e-01
 -1.6221762e-01
 -7.2830105e-01
  3.6154222e-01
  1.2599041e+00
 -4.1514155e-01
  4.1276497e-01
  8.6924933e-02
  1.2425091e+00
  1.4414270e-02
 -2.0147057e-01
 -1.3578512e-01
 -3.7665591e-01
 -7.7647841e-01
  6.2615001e-01
  9.1612920e-02
 -4.8683178e-02
  8.3302051e-02
  4.9372174e-02
  2.1433602e-01
  5.7474905e-01
 -7.7121806e-01
  1.1194922e+00
  1.6969624e-01
  1.3834304e-01
 -1.1275560e-01
 -2.1668644e-01
  1.2231017e+00
  1.3436337e-01
  2.3291928e-01
 -8.5036971e-02
  8.0106747e-01
 -3.4378880e-01
 -5.0442956e-02
 -9.2435604e-01
 -3.4242684e-01
 -9.8239398e-01
  2.0307863e-01
 -1.0342127e+00
  3.6711475e-01
  5.1960862e-01
 -6.4972061e-01
  1.5203612e-01
 -2.4051778e-02
  4.3122450e-01
  2.8340010e-02
 -2.1889411e-01
  1.3964022e+00
 -1.6999111e-02
  5.0653070e-02
 -2.7547789e-01
  5.7264581e-02
 -2.6708838e-01
  5.4195625e-01
  1.3059701e-01
 -2.7790489e-02
  6.0646266e-01
 -1.3175870e-01
 -1.0616317e+00
  2.7671927e-01
  1.4301227e-01
 -6.5537256e-01
  3.2509837e-01
 -1.4499043e-01
 -1.5873656e-01
  1.1244013e-01
  3.3828470e-01
 -3.8232204e-02
 -1.0258074e-01
 -1.5452512e-01
 -2.1589407e-01
  1.7543260e+00
  7.6770216e-02
  3.5336826e-02
  3.7120104e-01
  4.5624757e-01
 -7.8222044e-02
 -9.1285475e-02
 -2.5258014e-01
 -7.1792221e-01
  4.7412044e-01
 -3.6045018e-01
 -6.9427705e-01
  4.8813198e-02
  9.1209167e-01
 -9.6332473e-01
  1.0466979e-01
  3.7288371e-01
  7.7627540e-01
 -3.3392644e-01
 -1.8409705e-01
 -3.0685273e-01
 -7.7970639e-02
  2.8162920e-01
 -1.1349621e-01
 -2.5426877e-01
 -6.3581385e-02
  4.8678088e-01
 -9.7786941e-02
 -4.2185438e-01
 -1.5600836e-01
  1.1193485e+00
  4.6381924e-01
  3.8820338e-01
 -8.2296723e-01
 -6.2445160e-03
  9.3689859e-01
  4.3711774e-02
  3.4684074e-01
 -6.8234879e-01
 -2.2198646e-01
 -5.6156933e-01
 -3.7484887e-01
 -5.1019514e-01
 -3.9564469e-01
 -7.7943154e-02
  1.6846834e-01
 -1.6121572e-01
  2.9912570e-01
 -1.4289252e-01
 -1.1219819e-01
 -1.7045824e-01
  6.7947231e-02
  1.3906308e-01
 -2.5833687e-01
  6.3086800e-02
  1.0780863e-01
 -4.0322430e-02
  4.2636334e-03
  2.3997386e-01
 -4.6897880e-03
  8.0113269e-02
 -6.3577485e-01
 -1.3396150e-01
  3.9581101e-02
  2.8765178e-01
 -3.2768416e-01
 -1.0970582e-01
 -5.2145785e-01
 -3.2866037e-01
  2.0952308e-01
  1.1074585e-01
 -1.8289244e-01
 -1.2885146e-01
  1.8329458e-01
 -2.7311396e-02
 -9.7088121e-02
  3.5480326e-01
 -6.8447489e-01
  3.4064245e-01
 -2.3297001e-01
 -1.5419272e-01
  3.8572565e-02
 -4.3015999e-01
 -2.2636321e-01
 -4.6055213e-01
 -2.8918093e-01
 -2.1546385e-03
  5.8946859e-02
 -4.2446265e-01
  4.9279321e-02
 -6.7646861e-01
 -4.5122538e-02
 -6.5573841e-01
  2.0607333e-03
  7.5255156e-01
 -5.8120817e-01
  5.1401383e-01
 -3.7736604e-01
 -5.8758056e-01
 -6.7349219e-01
 -1.4588438e-01
 -1.5288204e-01
 -1.2241399e+00
 -4.5100018e-01
  3.3555201e-01
 -7.0071256e-01
 -9.0467709e-01
 -3.2359242e-01
  3.1700411e-01
  3.6101782e-01
 -2.1695845e-01
 -7.1653932e-02
 -3.7231493e-01
  2.4525572e-01
  3.1953347e-01
 -5.7245821e-01
  6.0706228e-02
  1.1904602e+00
 -8.7974656e-01
 -4.1330612e-01
  4.9824409e-02
 -1.9642821e-02
 -5.6963825e-01
 -6.8591014e-02
 -2.8672853e-01
  1.4316036e-01
 -7.5813364e-03
 -1.7369531e-01
 -7.1314305e-01
 -1.0450338e+00
 -1.0049406e-01
  5.4046738e-01
  1.2398424e-01
  3.7373796e-01
  1.3746002e-01
 -6.7904270e-01
  5.0370848e-01
  6.6458619e-01
  8.2226449e-01
 -1.8640175e-01
  1.0259610e-01
  3.9552131e-01
 -6.4524162e-01
 -2.4465460e-01
 -1.7745715e-01
  5.1323140e-01
 -1.7439070e-01
  1.9717716e-01
 -8.6473942e-01
  2.4895395e-01
  3.0008838e-01
 -1.4667165e+00
 -6.5370959e-01
 -5.9318233e-01
 -1.2908733e-01
  4.4599101e-01
  4.5511103e-01
 -2.1313882e-01
  6.1520547e-02
 -5.6940723e-02
  7.0241749e-01
 -2.6652288e-01
  1.8201116e-01
 -3.1053808e-01
 -3.0121438e-02
 -1.6203200e+00
  2.4311854e-01
  3.0557606e-01
  6.1730498e-01
  7.7669406e-03
  2.3389801e-01
 -9.0900153e-02
 -1.5800638e-01
 -1.1604659e-01
  1.1668942e+00
 -1.6048375e-01
 -1.1164015e-01
 -4.7425827e-01
  8.7280735e-02
 -1.6712977e-01
 -9.0333316e-03
  1.1051482e-01
 -1.6883363e-01
  1.4978566e-02
 -1.4124225e-01
 -6.0725760e-01
 -2.1786396e-03
  2.8820586e-01
  9.0361662e-02
 -2.4861163e-02
  6.9970652e-02
 -9.3199298e-02
  2.8485584e-01
 -3.6974937e-02
  2.7208173e-01
  8.0703102e-02
 -3.2668552e-01
  1.6388772e-01
 -2.8234513e-02
  1.2027857e-01
  2.5288588e-01
  6.2337130e-02
  1.1774620e-01
  2.2086926e-02
  9.5171444e-02
 -2.8351616e-02
 -6.0712719e-01
 -1.0811418e+00
 -8.6535048e-01
 -1.0911046e+00
 -1.0142508e+00
  2.0464866e-01
  1.0855668e+00
 -2.4975552e-01
  8.8743530e-02
  1.1433162e-01
  4.4813588e-01
 -1.5654898e-01
 -1.3990609e-01
  3.5052311e-02
  5.1931750e-02
 -2.0437413e-01
  3.1904119e-01
 -3.5365155e-01
 -7.0407487e-02
 -3.7938964e-02
 -8.9605939e-01
 -4.6959657e-02
 -3.1574255e-01
 -1.1794686e-02
  2.6366192e-01
  2.0832134e-02
 -3.7859514e-01
  1.2930503e-01
 -6.3466763e-01
 -2.8145659e-01
 -9.7030304e-02
 -1.1701190e+00
  2.1111932e-01
 -3.0537027e-01
  7.5460881e-01
  1.0987956e-02
  3.0861035e-01
 -5.3082790e-02
 -1.8440489e-01
 -2.2565460e-01
 -1.4662968e-01
 -1.1840362e-01
  3.0498770e-01
 -7.4067116e-01
 -1.3899235e-01
  8.8543206e-02
 -7.2090840e-01
 -1.1248685e-02
  7.5164324e-01
 -1.2351985e-01
 -2.0780593e-01
  1.0976551e-01
 -8.6925089e-01
  5.8344162e-01
 -1.7964391e-01
 -2.7786869e-01
  2.5852337e-01
  5.3930289e-01
  2.4726607e-01
  3.3693680e-01
 -1.8527611e-01
 -5.0374198e-01
  5.9343302e-01
 -4.7449651e-01
 -9.9658333e-02
 -3.5272073e-03
 -2.9523641e-01
  2.9362714e-01
 -4.1650870e-01
  1.3913514e-01
  5.6735650e-02
  7.6326840e-02
  9.1304861e-02
  1.7033154e-02
  1.8847640e-01
  6.4749920e-01
  1.5759915e-01
 -8.2048625e-01
  1.2551112e-01
 -2.0269451e-01
  1.9703393e-01
 -1.3432905e-01
 -8.2372540e-01
  8.3966881e-02
  7.0456839e-01
 -4.4546574e-02
  3.0694643e-01
  1.4567479e-01
 -1.7923525e-01
 -8.8183945e-03
 -6.3427007e-01
 -3.6524877e-01
 -3.8492817e-01
  4.9631830e-02
 -5.4011278e-02
 -9.9234515e-01
  2.0421787e-01
  5.2101810e-02
  5.8137733e-01
 -4.4846293e-01
  2.6997441e-01
 -5.5419844e-01
 -1.5250862e-01
 -6.5325314e-01
  2.3118335e-01
  3.7065440e-01
  7.7410355e-02
  2.4175753e-01
  3.2767281e-02
 -1.8031169e-01
 -2.4612619e-01
 -5.0379461e-01
  2.4491182e-01
  4.7602534e-02
  1.0683523e+00
 -6.7925168e-04
 -8.1674065e-03
  1.9310106e-01
  6.8854980e-02
  3.4927934e-01
 -6.2369216e-02
 -7.4829918e-01
 -1.5042549e-01
 -5.8426923e-01
 -9.5507562e-02
 -9.1578789e-02
 -6.1606264e-01
 -5.4947829e-01
  2.7452637e-02
  8.6227618e-02
  4.6738094e-01
  1.5338415e-01
 -1.1967374e-01
  1.5500582e-02
  1.1810404e-01
  3.0588043e-01
  5.0594527e-01
 -1.1032041e-01
 -7.5032637e-02
 -1.3746123e-01
  6.0605979e-01
 -2.3892091e-01
  2.5285521e-01
 -4.1419619e-01
 -6.7974091e-01
  2.7291510e-01
 -1.9611225e-01
  5.0009076e-02
  5.3324815e-02
  1.9551028e-01
 -5.8071259e-02
 -1.6806319e-01
 -3.6733803e-01
  6.6699479e-03
 -2.6061147e-01
 -7.2164223e-02
  1.0064372e-01
  2.6246786e-01
 -1.0226797e+00
 -3.5351351e-01
  6.6845161e-01
 -6.6749215e-01
 -1.8808590e-01
 -3.9972436e-01
 -4.2339602e-01
  4.1273627e-01
 -2.8360924e-01
 -4.2448020e-01
 -4.3199636e-02
  9.5332645e-02
  4.7388781e-02
 -1.5919268e-01
 -1.7558100e-02
  8.3263594e-01
  1.1728825e-01
  3.9964297e-01
  3.4777841e-01
 -6.9963497e-01
 -9.7281367e-02
 -3.1281427e-01
 -1.4206046e-01
  2.2787797e-01
 -5.2976084e-01
  3.8783431e-01
  5.7951796e-01
  1.4451987e+00
 -2.4871047e-01
 -3.1196998e-02
 -2.1104875e-01
  2.3031798e-01
  2.2343801e-01
  4.8771241e-01
  3.0915743e-01
 -6.6233709e-02
 -6.5625757e-02
 -8.2231450e-01
 -4.3902600e-01
 -2.4871165e-02
  9.9965826e-02
  7.1436185e-01
 -5.0238095e-02
  8.8035703e-02
 -7.7092451e-01
  5.7087544e-02
 -7.4301422e-01
  3.7804100e-01
  2.7954242e-01
  1.1740728e-01
 -1.2298306e-02
 -2.0724453e-01
 -1.1834214e-01
 -2.2710441e-01
 -1.2084725e-01
  1.7211349e-01
 -3.0457097e-01
 -9.0300506e-01
  5.5734195e-02
  5.1690465e-01
  1.6331023e-02
  2.0603396e-01
  1.1137673e-03
 -8.9734914e-03
  6.1864406e-02
  1.2988557e-02
  7.4124062e-01
 -4.6485409e-01
  9.7002792e-01
  1.1995244e-01
 -5.2700305e-01
 -4.2165726e-01
 -6.6685694e-01
 -2.5351611e-01
 -8.2660727e-02
  4.9297723e-01
 -5.5273198e-02
  4.2990941e-01
 -3.3133024e-01
  2.5579792e-01
  1.0547166e+00
  1.8765584e-01
  9.1684319e-02
 -8.2571876e-01
  1.2291084e-01
  7.8947383e-01
 -3.2859838e-01
 -5.6609941e-01
 -5.2962047e-01
 -6.2375104e-01
  1.2100344e-02
 -1.2632598e-01
 -5.3880179e-01
  3.8968804e-01
  9.4550168e-03
  1.7962526e-01
  4.3534223e-02
  1.4958684e-01
  1.8794405e-01
  5.6576627e-01
  2.4998882e-01
 -2.4012977e-01
 -5.0958645e-01
  3.9035577e-01
  9.6764550e-02
  2.9500374e-01
 -4.4483155e-01
  1.0232189e-01
 -1.0310461e-01
 -9.8583215e-01
  1.5678173e-02
 -1.5343238e-01
 -3.3523142e-01
  4.9369380e-01
 -1.0783538e+00
 -8.6175643e-02
 -3.4054410e-01
  2.4256271e-01
  2.1820353e-01
  1.5610075e-01
 -3.3810664e-02
 -8.0210760e-02
  9.9433005e-01
  2.6730895e-01
 -3.7983459e-01
 -7.6192077e-03
  2.0631351e-01
 -3.0022392e-01
  4.1540882e-01
  2.7876216e-01
 -3.5334740e-02
  1.7936377e-01
  3.6028747e-02
  2.3655979e-01
 -2.9504243e-01
 -7.3383890e-02
  6.6461420e-01
 -4.2108685e-01
 -2.4516417e-01
 -6.5520698e-01
 -3.2471570e-01
 -1.0557525e-01
  2.1843670e-01
 -3.5515559e-01
  4.2890352e-01
 -3.6833408e-01
  3.7828428e-01
 -4.6143028e-01
  3.2636452e-01
 -2.5971037e-01
 -9.0736258e-01
  6.8512875e-01
 -1.2186697e-01
 -1.4276028e-01
 -1.0524740e-01
 -2.4373462e-02
  2.2285365e-01
 -2.7886316e-01
 -6.3025961e-03
 -3.2129276e-01
  5.6541455e-01
  1.5807238e-01
  8.5751563e-02
  1.4315001e-02
 -1.6970831e-01
  3.1656870e-01
  1.1982314e-03
 -5.7819132e-02
  1.7219339e-01
 -4.4036737e-01
  9.7632088e-02
 -1.1492043e-01
  3.7683627e-01
  3.4682411e-01
  4.7693557e-01
  5.4920349e-02
 -8.9557916e-01
 -4.4432644e-02
 -6.7608424e-02
  2.7795250e-02
 -4.6101749e-01
 -5.0335425e-01
 -6.2173646e-02
 -9.2304721e-02
  1.4075580e-01
  1.0331942e+00
  4.6780160e-01
  6.8557298e-01
  7.8745759e-01
  1.8497242e-01
 -4.5756596e-01
  1.6607699e-01
 -2.5651065e-01
 -1.3889994e-01
  2.9969442e-01
  1.9007722e-02
  1.2281367e-01
 -3.7114072e-01
  2.3525774e-02
  9.9164352e-02
 -2.0015174e-01
  2.5523463e-01
  2.5891343e-01
  1.1669017e+00
 -3.6172843e-01
  4.0408755e-03
  1.0769773e-01
  4.7020000e-01
 -1.8901828e-01
  6.8991564e-02
 -6.2485673e-02
  2.5468558e-02
  3.4707800e-01
  1.7018895e-01
  1.2221267e-01
 -2.3804674e-01
 -3.5595935e-02
 -2.3440343e-01
  1.5735465e-01
 -6.6024327e-01
  5.3882176e-01
 -1.2235650e-01
 -1.9446447e-02
  1.9037367e-01
  2.8386852e-01
 -4.9358675e-01
  2.5641531e-02
 -5.6383073e-01
 -1.9441049e-01
 -1.7511934e-01
 -3.8934359e-01
 -7.2362623e-03
  2.0503621e-03
  3.9770380e-03
  1.0968256e-01
  6.1595079e-02
  5.3312961e-02
  2.3661862e-01
  6.1685536e-02
 -9.0488213e-01
 -1.5913442e-01
  5.7284474e-01
 -1.6900462e-01
  6.8065262e-01
  2.0910634e-02
 -3.3362049e-01
 -4.1138554e-01
  1.0609213e+00
 -2.8775495e-01
 -1.0194273e+00
  4.9885076e-01
  3.8343850e-01
  2.2338454e-01
 -7.5876780e-02
 -3.2226977e-01
  2.6775898e-02
  3.7030205e-01
 -1.7350715e-01
  5.3404611e-01
  1.1131819e-01
 -1.8973239e-02
  3.6835796e-01
  2.3160091e-01
  4.1432187e-01
  2.0797263e-01
 -1.3488510e-02
  4.0563020e-01
 -5.9622534e-02
  2.6407960e-01
 -4.1560572e-02
 -1.8625942e-01
  2.6121011e-01
 -4.2540077e-02
 -1.5917209e-01
 -5.4795635e-01
  2.5598577e-01
  3.7332088e-01
  4.4336636e-02
 -3.0321327e-01
  5.5583018e-01
 -2.8606534e-01
  1.5803958e-01
 -2.7462879e-01
 -1.8641715e-01
 -5.1031721e-01
 -1.3944530e+00
  4.7187501e-01
 -1.1980615e+00
  1.1405529e-02
  5.7820927e-02
  3.0022174e-01
 -6.5061885e-01
  4.0282494e-01
 -1.3899293e+00
  3.7772831e-02
  7.0053875e-01
 -9.4000220e-02
 -2.0107085e-01
  2.5890484e-01
 -5.1292700e-01
 -1.0320576e-01
 -2.4880918e-02
 -7.6642621e-01
 -3.3003649e-01
  3.7218046e-01
 -4.5732696e-02
 -1.5522085e-01
 -5.3744030e-01
  5.8723815e-02
  5.7013053e-01
  5.0640601e-01
 -1.4235950e+00
  7.3207623e-01
  5.5108327e-02
 -3.1626916e-01
  4.1365689e-01
  3.0854182e+00
  3.8523585e-02
  2.1609129e-02
 -2.9153436e-01
  8.7225509e-01
  6.5512878e-01
  1.4845245e-01
  8.6547661e-01
 -7.4523288e-01
  2.7739604e+00
 -1.5648270e-01
 -5.2969065e-02
  3.0283028e-01
 -3.7996680e-01
 -2.2200435e-02
 -3.1444658e-02
  1.1889715e+00
  8.8576126e-01
 -4.7943451e-02
  7.3360330e-01
 -2.3491734e-01
  7.2852425e-02
 -9.5348048e-01
  2.9640209e-02
 -2.4305695e-01
  1.8122992e-01
  3.7622672e-01
  1.3935107e-01
  2.4083579e-01
 -7.2095655e-02
 -4.3245298e-01
 -2.6772094e-01
  1.3407946e-01
  1.8567301e-01
 -3.4772441e-01
 -1.1428357e+00
 -4.4961050e-02
 -1.6714959e-01
 -3.9391372e-02
 -9.9356687e-03
 -6.5370739e-01
 -5.7714635e-01
 -4.9362667e-02
 -4.4880861e-01
 -1.7798640e-01
  6.2717307e-01
 -3.7001511e-01
 -5.7772279e-02
  4.1203633e-01
  3.2310480e-01
 -1.2194676e-01
 -7.4993247e-01
  1.8711066e-01
  5.7142742e-02
 -8.8626271e-01
 -4.4678521e-01
  2.9854411e-02
  1.0248590e-01
  4.1885397e-01
  5.9384357e-02
 -2.2563480e-01
 -1.8304808e-02
  3.4653053e-01
  1.6369893e-01
 -8.5698378e-01
  3.2643926e-01
  1.9808508e-01
  2.2149986e-01
 -1.6886021e-01
  2.7835068e-01
 -1.6941397e-01
 -3.8092601e-01
 -4.0075204e-01
 -6.3822812e-01
 -7.4513599e-02
 -5.3388894e-01
  4.2530246e-02
 -8.2984966e-01
  9.0256184e-02
 -9.4622612e-02
  7.0180064e-01
 -3.3172008e-02
 -4.8016682e-01
 -3.6680380e-01
  2.2077063e-01
 -8.0288388e-02
  6.1470401e-01
 -4.6622890e-01
  7.3856361e-02
 -4.7808029e-02
 -2.1075903e-01
  8.5873351e-02
 -2.8115854e-01
  7.1636730e-01
 -5.7624149e-01
  3.5984606e-01
 -9.9238001e-02
  1.0193585e-01
  6.4059399e-02
 -5.1472522e-02
  2.5334322e-01
  1.2696108e-01
  1.7072239e-03
 -2.1580471e-01
 -2.8067723e-01
 -3.2723129e-02
  3.8953349e-01
  2.0595810e-01
 -3.3474484e-01
 -3.5779732e-01
 -1.8282144e-01
 -6.3554324e-02
 -2.5282630e-01
 -4.5588279e-01
  3.9605397e-01
 -8.6652243e-01
  5.4532743e-01
  2.0814044e-02
 -1.8323538e-01
 -7.7718422e-02
  1.5932839e-01
  3.6725351e-01
  2.2279878e-01
  1.1059456e-01
 -4.9917422e-02
 -1.7026106e-01
  2.3929176e-01
  1.1250576e+00
 -6.2368557e-02
  1.5300140e-02
  2.4941394e-01
 -3.9401305e-01
  1.0910708e-01
  5.5826455e-02
 -3.0545719e-02
 -4.6780971e-01
 -2.1226452e-01
  1.0749816e+00
  9.2356451e-02
 -3.5449110e-02
 -9.8847486e-02
  5.0456345e-01
  4.1142029e-01
  2.3059180e-01
 -2.4235969e-02
 -5.3911842e-03
 -1.4328632e-01
  2.3720163e-01
  1.5980875e-01
 -1.4970441e-01
  7.1486682e-01
  8.5816586e-01
  1.9390757e-01
 -4.2464364e-02
  4.3162695e-01
  7.2291523e-01
  1.0209579e+00
  2.0970158e-01
 -1.0966009e-01
  2.8681311e-01
 -9.0244240e-01
  1.3881271e-01
  8.1310421e-01
 -1.0812436e+00
 -4.9472690e-02
 -1.5223939e-02
  3.2194313e-01
 -8.3088934e-02
 -5.4647166e-01
 -1.8446861e-01
  1.9919647e-01
  3.1782128e-02
  4.8779520e-01
 -2.3801988e-01
  2.1588539e-01
  6.0061999e-02
  2.2402763e-01
  2.1668686e-01
  5.9545659e-02
  8.7331271e-01
 -3.1512219e-01
  2.0228527e-01
 -1.6109991e-01
 -8.3807826e-01
 -1.3034287e-01
 -7.7185464e-01
  9.7398862e-02
 -1.0873613e+00
  2.9098090e-02
 -1.6403428e-01
  2.2726995e-01
 -5.2809466e-02
  2.4829984e-01
 -1.9119911e+00
 -2.8509814e-01
 -3.2100949e-01
  1.3793334e-01
  6.7533769e-02
  2.7528417e-01
  2.8856816e-02
 -5.8007008e-01
 -4.4103095e-01
 -8.4855944e-01
  2.1632466e-01
 -1.4667524e-01
  2.9380149e-01
 -5.9294130e-04
  2.0462774e-02
 -1.5754350e-03
  1.0354337e-01
 -6.6057962e-01
 -8.2058581e-03
 -2.7154344e-01
  9.1928758e-02
 -1.4705816e-01
 -9.6951798e-02
  2.0560287e-01
  3.7500265e-01
  5.8205080e-01
 -3.8542581e-01
 -1.1347647e+00
 -1.0896350e-01
 -3.8077015e-01
 -2.4231456e-01
  3.2186341e-01
 -2.5211316e-01
 -3.5067368e-02
 -8.3072425e-04
 -5.0101978e-01
  1.2593503e-01
 -6.6318542e-02
  9.7079769e-02
  4.2947926e-02
 -1.6014770e-01
 -3.1947756e-01
 -3.5000694e-01
 -2.0272706e-01
 -1.5657218e-01
  5.1881003e-01
 -7.3755527e-01
 -2.7166462e-01
 -9.6832335e-02
 -3.1870657e-01
  2.1343957e-01
 -1.2158333e-01
  7.2733033e-01
 -4.9354720e-01
  1.0709009e-01
  6.0395271e-01
  5.0016403e-01
  6.8931770e-01
 -6.1672544e-01
 -1.4694841e-01
  2.9971924e-01
 -1.6756438e-02
 -1.4694017e-01
  2.5396446e-02
 -1.0152360e-01
  2.8219849e-01
  2.7333593e-01
  1.1654709e-01
  3.6618590e-01
 -1.6887203e-01
 -4.8676816e-01
 -1.6845593e-01
  1.7498533e+00
  6.9862239e-02
 -2.3090351e-02
  1.3735791e-01
 -2.2556700e-01
 -1.4411762e-01
  1.6211127e-01
 -1.4946252e-01
 -1.0830176e-04
  7.3874229e-01
 -5.6385998e-02
  8.7743834e-02
  4.2353701e-02
  2.7195555e-01
 -2.8536823e-01
 -2.2331223e-01
  2.5890476e-01
 -3.0100730e-01
  6.8957679e-02
  4.9167690e-03
 -1.3691463e-01
 -6.0828041e-02
 -6.7251332e-02
 -6.5737240e-02
 -9.1425128e-02
 -6.0938936e-02
  1.2286039e-02
 -4.1568917e-01
  4.6204913e-02
 -2.0352586e-01
  4.1024756e-02
  1.5937246e-01
  6.0295945e-01
  2.5046191e-01
  2.0300860e-02
  5.2608961e-01
 -6.7328358e-01
 -2.9213670e-01
 -2.0060113e-02
  8.1593499e-02
 -1.6574889e-02
 -3.7236896e-01
 -1.5187098e-01
  5.1801616e-01
 -6.9743574e-01
 -2.0195248e+00
 -3.3407308e-02
  5.4358795e-02
  1.3600799e+00
  3.2626209e-01
 -1.7681691e-01
  1.0572100e-01
 -4.0503472e-02
 -3.9172912e-01
  3.3258399e-01
  1.4657208e-01
 -1.0824507e-01
  4.9890113e-01
 -6.2777776e-01
  1.0087005e-01
 -2.3523688e-01
  1.2151629e-02
  6.7617029e-01
 -1.8397993e-01
  2.4299306e-01
 -8.3769101e-01
 -9.3572602e-02
 -1.5068686e-01
 -3.3232380e-02
 -3.7311342e-01
  4.4677813e-02
  4.6626377e-01
  4.5565280e-01
 -5.3546783e-02
 -3.2738096e-01
 -3.2716136e-02
 -1.2765113e-01
  5.4591196e-04
 -2.6496732e-01
 -5.7862524e-02
  4.4173416e-01
  7.5089589e-02
  1.9811840e-01
 -1.0639856e+00
  2.5937834e-01
  2.0897357e-01
 -3.2844540e-01
 -6.2962031e-01
  8.2127374e-01
 -8.1361371e-01
  3.1430584e-01
  2.6569140e-01
 -4.5407647e-01
  2.2798027e-01
  4.6907917e-01
  1.5537897e-01
 -1.6273132e-01
  2.2986001e-01
 -7.4130073e-02
  9.0435094e-01
 -4.6507052e-01
  3.4291703e-01
  2.2194497e-03
  7.0954603e-01
 -1.2401254e-01
 -3.3047095e-02
  1.2311658e-02
  4.8161972e-01
  2.4160743e-01
  1.3312152e-02
  4.0013909e-01
 -9.1383445e-01
  9.0671378e-01
  2.6454705e-01
 -3.4084279e-02
  1.1436985e-01
 -2.7434301e-01
  7.6551354e-01
  2.3391041e-01
 -1.2090713e-01
 -1.0175871e-02
 -4.6374214e-01
  4.0064505e-01
  4.9391985e-01
 -3.4753561e-02
  2.9553076e-02
 -2.6395544e-02
 -1.7445907e-01
 -7.9274869e-01
 -5.6463712e-01
  4.8292792e-01
 -1.8812032e-01
  6.6236995e-02
 -8.7304031e-03
 -3.1813523e-01
  4.1915470e-01
  3.9629626e-01
 -1.0681116e-01
 -9.0733540e-01
 -4.7345966e-01
  5.1514024e-01
 -7.8643680e-02
 -4.3386355e-01
 -2.3389858e-01
  3.6022443e-02
 -6.7257397e-02
 -3.6007452e-01
  7.4430865e-01
  1.4170240e-01
 -3.7809980e-01
  7.2498418e-02
 -2.6524100e-01
 -5.9911855e-02
  8.1594098e-01
 -4.4377536e-01
 -3.1089550e-01
  6.0346246e-01
 -3.2139719e-02
  2.7401420e-01
 -4.3231183e-01
  2.0207585e-01
  9.0666151e-01
  6.1766684e-01
 -7.2031003e-01
 -3.4040596e-02
 -1.8904915e-01
  7.2362661e-02
  2.2859593e-01
 -1.1576283e+00
 -2.5629508e-01
 -3.0566430e-01
 -1.0236348e+00
  1.4618619e-02
 -5.5648023e-01
  7.5078201e-01
  9.5455058e-02
  6.2485594e-01
  2.0223492e-01
  2.0854345e-01
  2.1108888e-01
 -4.0368584e-01
 -8.2176584e-01
 -9.0734434e-01
  3.1445098e-01
 -2.8468111e-01
 -1.0114908e-01
 -3.1667414e-01
 -7.3366612e-02
 -4.2833257e-02
 -2.2643360e-01
 -2.4003768e-01
 -1.3590494e-01
  8.7415832e-01
  8.2356557e-02
 -2.3362983e-02
 -5.6660352e-03
  3.8215882e-01
  8.4822215e-02
 -1.0742344e+00
 -1.3395792e-01
 -7.8728241e-01
 -2.3508096e-01
  5.1723826e-01
  2.6284212e-01
  4.1031176e-01
 -9.6744448e-01
 -2.3774216e-02
  6.1456352e-01
 -2.9882836e-01
  5.8425482e-02
 -1.3368678e-01
 -2.5347203e-01
  3.8104579e-01
 -3.2662705e-01
 -7.0441663e-01
 -7.6193124e-02
  1.5292662e-01
  8.9653569e-01
  5.7306014e-02
  5.8955129e-02
 -1.7102453e-01
 -1.2847975e-01
  6.5630108e-01
 -1.2743081e-01
  2.0087363e-01
  1.2752885e-01
 -1.4751898e-01
  2.0055188e-01
 -2.0057029e-01
  2.2681814e-02
 -2.0260786e-01
 -6.2961274e-01
 -2.3700061e-01
  2.6409623e-01
  1.3249287e-01
 -1.0704150e-01
  3.7196299e-01
 -2.8469288e-01
 -3.5925359e-01
  1.2200391e+00
  2.7724331e-02
  1.7148803e-01
 -6.2770996e-04
  1.7671730e-01
 -3.3821726e-01
 -4.6871889e-02
 -1.9147202e-02
 -1.3577089e-01
 -3.0925727e-01
 -5.6112653e-01
 -5.9734768e-01
 -2.3782095e-01
 -3.8393468e-01
  2.7875412e-01
 -6.3366872e-01
  7.6326534e-02
  5.0780064e-01
 -3.2097632e-01
 -4.2126618e-02
 -5.2336586e-01
 -4.9466941e-01
  9.8522432e-02
 -8.6304027e-01
  1.5786119e-01
 -1.6843621e-02
  5.1620513e-01
  1.7704009e-01
  5.0502513e-02
  5.9745360e-02
 -1.3724564e-01
 -1.0492695e-01
 -6.5646154e-01
 -5.8248883e-01
  5.5182815e-01
 -1.5895733e-01
  1.5222552e-01
  4.2115794e-03
 -1.2213597e-01
  8.2938038e-02
  4.5062569e-01
  2.6864204e-01
 -3.9480287e-01
 -2.8167579e-01
  2.7910656e-01
  4.2621732e-02
  4.4488585e-01
  4.3438501e-03
 -6.3989945e-03
 -2.4163975e-01
 -1.7436560e-02
  2.2945611e-01
 -6.4262129e-02
  1.3345307e-01
  6.4365123e-03
  4.4286397e-01
  4.2875704e-01
 -2.4239491e-01
  4.1046506e-01
  1.4312170e-02
 -9.6731061e-01
  2.9988107e-01
 -2.9228006e-02
  4.1788405e-01
 -6.4053334e-02
 -7.6700449e-02
  1.0147677e-01
  9.5712548e-01
  2.7770606e-01
  3.5805252e-01
  3.6231691e-01
  2.4799713e-01
 -3.0262911e-01
 -5.8157188e-01
 -2.8332800e-01
 -1.9001567e-01
 -1.9571610e-01
  2.4348044e-01
  3.2084602e-01
  1.6578515e-01
  8.9393742e-02
  7.1053690e-01
  1.8893552e-01
 -2.0745626e-02
 -1.0931465e-01
  1.4521553e-01
 -1.0720690e-01
  2.1533744e-02
 -1.0821554e-01
  3.1168271e-02
  4.1241893e-01
  1.4028218e+00
  1.0941416e-01
  9.7946286e-01
  5.5977118e-01
 -5.1024491e-01
 -3.8509542e-01
  1.1622738e+00
 -6.3271731e-02
  3.9706489e-01
  4.5544095e-02
 -1.7120603e-01
  7.1361743e-02
 -2.2355355e-01
 -3.6803168e-01
  3.9441332e-01
 -2.0652330e+00
 -5.1044978e-02
  9.0579993e-01
 -3.9345685e-01
  1.3146907e-01
  1.9730380e-01
 -1.4116426e+00
  7.8880139e-02
  1.4540693e-01
 -3.9759234e-02
 -3.4122503e-01
 -8.4966874e-01
 -2.3255223e-01
 -2.2630975e-02
 -1.1756995e-03
  2.8582165e-01
  9.0347326e-01
 -4.6375260e-01
  9.1233844e-01
  1.3658546e-01
 -9.1102558e-01
  2.9795742e-01
 -3.3269665e-01
 -8.7353230e-01
 -2.3077898e-01
 -3.0937177e-01
 -1.0005667e+00
 -1.4929434e+00
  3.4081256e-01
 -3.0952740e-01
 -2.5755277e-01
 -5.6088078e-03
  1.6618448e-01
  2.3648933e-01
 -2.8045120e-02
  5.0342870e-01
 -1.7947452e+00
  4.6306860e-01
  1.8432309e-01
 -6.1186361e-01
  9.8148033e-02
 -4.1027248e-01
  1.2488312e+00
 -3.7832555e-01
  3.2844669e-01
 -4.8633989e-02
 -5.2506752e-02
  1.7278099e-01
  4.2777362e-01
  8.2177542e-02
 -1.1004459e+00
 -9.7987302e-02
  4.5342049e-01
  1.5320066e-01
 -6.9470271e-03
  2.0610192e-01
 -2.9851624e-01
  5.0579369e-02
 -9.9804789e-02
  4.6841329e-01
  7.3190138e-02
 -7.2574759e-01
 -3.1553668e-01
  2.1132475e-01
 -7.9256222e-02
  2.0227825e-02
  1.8914640e-01
  5.5204056e-02
 -3.6468860e-03
  8.7921602e-01
 -7.9196922e-02
  1.4561479e+00
  1.2903734e-01
  4.6719798e-01
 -6.5068793e-03
 -9.2761070e-03
  3.4811165e-02
 -1.2978867e-01
 -2.1000661e-02
 -8.6635187e-02
  4.1353455e-01
 -9.1347748e-01
 -6.4759970e-02
  1.4771159e-01
  2.9470655e-01
 -2.3378754e-01
  2.6259959e-01
  2.2362159e-01
 -8.1507280e-02
  2.6241490e-01
 -6.3367859e-02
  3.4414902e-01
  3.5882163e-01
 -1.3606806e-01
 -2.1246204e-02
 -6.2495190e-01
  9.7705118e-02
  4.8238199e-02
  3.3612710e-01
 -7.9442674e-01
  6.1259530e-03
  1.9869947e-01
  2.1656634e-01
 -4.8765939e-01
  6.2011242e-01
  3.6493179e-01
 -1.1016205e-01
  5.2974021e-01
 -2.5097921e-01
 -6.3415565e-02
 -1.6413824e-01
  1.2450453e-01
  4.6624549e-02
  8.5064447e-01
 -1.1322726e+00
  5.1191753e-01
  5.1090372e-01
  1.1759336e-01
 -4.1243681e-01
 -3.3215752e-01
 -2.5861392e-02
 -2.2598696e-01
  4.3690823e-02
 -2.4354631e-01
  8.9312798e-01
 -8.2262680e-02
 -4.8102367e-01
 -3.7446782e-02
  3.9348140e-01
  6.8855488e-01
 -5.2871639e-01
  5.3675884e-01
  2.7628660e-01
 -5.3948746e-03
  4.0456346e-01
  6.5635449e-01
 -2.0649667e-01
  9.7081256e-01
 -6.1968744e-01
 -6.8150890e-01
 -1.5526918e-01
 -1.5002645e+00
 -1.6456866e-01
 -4.0768939e-01
  7.1774894e-01
 -2.3339204e-01
 -3.6440513e-01
  1.0777210e+00
 -3.3331114e-01
 -1.4548224e-01
  1.1808015e+00
 -3.6571184e-01
  3.2024822e-01
 -7.8012037e-01
 -7.7564381e-02
  5.1438190e-02
  3.9685777e-01
 -1.5465558e-01
  1.1821669e-01
  2.5407967e-01
  3.8174790e-01
 -1.3543708e+00
  2.1553898e+00
 -3.0453572e-01
  4.1843480e-01
  2.1853541e-01
  2.4660271e-01
  7.8264081e-01
  3.3478685e-02
 -8.7916762e-02
  2.7122262e-01
  1.5792546e+00
 -6.4325941e-01
 -4.9913893e-03
 -1.0958654e-01
  1.9784237e-01
  2.7262039e-02
 -2.0333774e-01
  9.2499517e-02
  8.5842676e-02
 -4.7103173e-01
  2.2148287e-01
  1.7306636e-01
 -3.4062648e-03
 -3.8189578e-01
 -8.8398345e-02
  6.4953423e-01
  1.9992557e-01
  3.6525324e-01
 -6.8183444e-02
 -2.5441164e-01
  6.8491620e-01
  1.5286571e-01
  2.1120546e-02
 -2.2780010e-01
 -5.4015577e-01
 -3.7418103e-01
 -1.2637161e-02
  1.0651816e-01
  7.0810013e-02
  4.7441255e-02
  1.8132457e-01
 -5.3997076e-01
  3.4855574e-01
  1.2077913e-01
 -3.4913830e-02
  4.0160626e-02
 -6.5379351e-01
 -1.7167248e-01
  3.9665282e-01
 -2.2890390e-01
 -3.2318932e-01
 -2.3460919e-01
  2.6194498e-01
 -3.8332358e-01
 -6.0188072e-03
  3.1376293e-01
 -2.5222179e-01
  6.5708096e-04
  1.0903402e-01
 -9.4209582e-02
 -3.8471368e-01
 -4.0389431e-01
 -1.2159113e-01
 -1.3350727e-01
  4.8496965e-02
 -1.2027119e-01
  5.7537091e-01
  2.0040685e-01
  1.6834456e-01
 -5.3146482e-02
  1.9256702e-01
 -2.1841387e-01
 -3.7332821e-01
 -6.3513152e-02
 -3.4335327e-01
  4.5607588e-01
 -3.2863662e-01
  4.0032655e-02
  5.5920827e-01
 -4.5120865e-01
  1.9461246e-01
  2.9471777e-02
 -1.4109042e-01
 -1.0012876e-01
 -5.0811374e-01
 -2.0561987e-04
 -6.0327774e-01
  2.4148531e-01
  2.6786503e-01
 -2.0294382e-01
 -8.0009818e-01
 -1.2012314e-01
  2.2704878e-01
  1.0462542e+00
 -7.9968698e-02
 -4.7381729e-02
  1.6090865e-01
  5.1141653e-02
 -1.3687806e-01
 -6.5618470e-02
 -1.7253231e-01
  8.2941651e-02
 -6.7394328e-01
 -9.6490949e-02
 -4.1703972e-01
  2.1043660e-01
  4.8916537e-01
  3.0837759e-01
  1.7017614e+00
  7.3662065e-02
 -1.6955154e-01
  9.8379105e-02
  2.6029456e-01
 -9.4456062e-02
 -3.0151257e-01
 -7.1173437e-02
 -1.7639543e-01
 -4.1193292e-01
 -2.8397334e-01
 -9.0758437e-01
 -1.0748886e-01
  4.3838447e-01
  1.6422980e-01
 -1.7908376e-01
  3.6415303e-01
  2.6595065e-01
  2.0534328e-01
  1.4090374e+00
  8.4869698e-02
  7.8245938e-02
 -1.5239233e-01
 -7.0352173e-01
  4.9118334e-01
 -8.8533211e-01
  7.4194498e-02
  3.0729216e-01
  7.9058677e-01
  6.7402688e-03
  6.9959410e-02
 -2.9457033e-02
  2.6763504e-02
  6.8158605e-03
 -1.5994491e-01
 -1.9571932e-01
  4.0636152e-01
 -2.6613733e-01
 -3.0776989e-01
 -3.5012054e-01
  1.4260806e-01
 -5.4901898e-02
  1.7179266e-02
  1.7720440e-01
  2.0916827e-01
  1.4973128e-01
  1.9363737e-01
  9.5201954e-02
  8.6799361e-02
  7.7710925e-03
  3.6959958e-01
  2.7041405e-01
  1.3796584e-01
 -1.7291710e-01
  1.9298846e-01
  7.6728627e-02
  4.7056904e-01
  8.9495592e-02
  1.0254784e-01
 -1.0694466e-01
  1.9815077e-01
  3.0600694e-01
 -8.7927394e-02
 -2.9294378e-01
  8.0532702e-03
  2.2402717e-01
  7.9341747e-02
  1.8642518e-01
 -4.7938980e-02
 -5.7301134e-01
  9.8863252e-02
 -5.9906047e-02
  7.7859856e-02
  2.5255972e-01
 -1.7990451e+00
 -6.6046655e-01
  5.2060324e-01
 -3.0833229e-02
  6.0770273e-01
 -4.5263836e-01
  2.6072115e-01
  5.5077277e-02
  1.0810374e-01
  7.5446926e-02
  1.3804418e-01
  1.8490492e-01
 -4.5512331e-01
  7.9912317e-01
 -1.2945138e-01
  2.3037948e-01
  2.7536356e-01
  4.3522388e-01
 -2.5295782e-01
  7.2182810e-01
  4.5227163e-02
 -3.7942085e-01
  1.0369185e+00
  6.3558030e-01
 -3.2280314e-01
 -1.4718449e-01
 -1.1744999e-01
  1.0350427e-01
  2.5079346e+00
  2.3630896e-01
 -2.7666458e-01
  2.0174201e-01
  2.5722995e+00
 -1.2097996e-01
  5.0166883e-02
 -9.3344337e-01
 -5.7317495e-01
  3.9190155e-01
 -9.2097834e-02
 -9.1937758e-02
  3.4741965e-01
  2.0667376e-01
 -5.2557391e-01
  6.8840450e-01
  9.8039776e-01
  2.1030052e-01
  2.2613094e+00
 -2.6079944e-01
  1.2658499e-01
 -8.5154676e-01
  1.0430831e+00
 -8.2069957e-01
 -1.1397638e+00
 -1.9406248e+00
 -4.4631399e-03
  1.7251538e+00
  1.1701044e-01
 -2.1626136e-01
 -3.3819261e-01
  1.4707551e+00
  3.3137760e-01
  2.2821063e-01
  1.5528798e+00
 -4.6961436e-01
  1.8002064e+00
  5.4410654e-01
  2.8477645e-01
 -2.0892738e-01
 -4.1083017e-01
  1.0342977e+00
 -3.3464469e-02
  2.0263286e+00
  9.7129476e-01
 -6.0669798e-03
 -6.9951653e-02
  1.8554883e-01
 -4.3306559e-01
  1.4779307e+00
  4.1954938e-01
  5.2420545e-01
 -8.6422664e-01
  1.1841969e-01
 -2.2079925e-01
  1.1654394e+00
 -1.0664531e+00
  2.8582796e-01
  2.5961909e+00
 -2.4147709e-01
 -5.5476475e-01
 -2.5167134e-01
  1.2046640e-01
 -5.5605540e-04
  1.0376921e-01
  1.0019296e-01
  1.6885935e-01
  7.4598986e-01
  6.8611777e-01
  5.1675219e-02
  1.0848282e-01
  7.8072673e-01
  2.3931544e-02
  2.8572544e-01
 -1.4622682e-01
  2.7607709e-01
 -4.3291456e-01
  5.3228402e-01
  5.2873886e-01
 -1.6883944e+00
 -5.6979191e-01
 -9.1323835e-01
 -1.6142802e-01
 -5.1387197e-01
  2.8508914e-01
  1.7932762e-01
  9.6114680e-02
  5.1700509e-01
  1.2268604e+00
  3.9720107e-03
 -6.3758487e-01
  7.3454666e-01
  2.3764092e-02
  3.2592848e-01
 -9.4559819e-01
 -2.0580599e-01
 -9.5798574e-02
 -1.1115506e+00
  7.6836549e-02
 -2.0278382e-01
  4.4674861e-01
  1.1745817e-01
 -1.1694463e+00
  2.0757250e-01
 -6.7416364e-01
  1.1632643e-01
 -1.6057167e+00
  3.7344208e-01
 -2.6406792e-01
 -7.3587531e-01
  2.5659311e-01
 -3.7809408e-01
  8.2440984e-01
  6.1146909e-01
  1.6215326e-01
  3.6136520e-01
  1.1191159e-01
 -6.5602526e-02
  2.4859303e-01
  1.0589520e-01
 -1.4698246e-01
 -2.6090937e-02
  9.1546500e-01
 -1.1580246e-01
 -2.2912949e-01
 -2.7676392e-01
 -1.8463273e-01
 -3.1977758e-01
 -2.0670408e-01
  3.5831559e-01
 -1.8532637e-01
  3.4590542e-01
  7.3127711e-01
 -4.3925837e-01
  6.5374768e-01
  5.1501393e-01
 -5.7946093e-02
  1.0670953e+00
 -2.4121577e-01
 -4.2552280e-01
 -3.5588267e-01
 -2.4925977e-02
 -3.8599643e-01
  6.1538577e-02
  6.0975450e-01
 -3.4974236e-02
 -3.2085395e-01
 -1.1383139e-01
  2.6374465e-01
  2.0364968e-01
  1.6311282e-01
  2.9915118e-01
  2.5939980e-01
  2.9765474e-02
  2.9683265e-01
 -2.1071428e-01
 -2.3761921e-01
  2.5457656e-01
 -1.9900574e-01
  6.4029145e-01
 -8.6502248e-01
 -8.5246426e-01
 -6.6835296e-01
  1.6611128e-01
 -7.5470573e-01
 -1.0072422e-01
 -6.4860962e-02
  2.3012325e-02
 -4.1241404e-01
  1.2091098e+00
 -1.8482262e-01
 -4.4817865e-01
  2.2100522e-01
  1.8037341e+00
 -1.6185671e-01
  5.8741909e-02
 -2.1988624e-01
 -6.2717623e-01
 -6.1612610e-02
 -1.2704407e-01
 -1.8118791e-01
 -3.4472901e-01
  2.3852070e-01
  7.9291955e-02
 -1.0619460e+00
  1.6343424e-01
 -1.0291780e-01
  1.9339895e-01
 -4.7147313e-01
  2.5505695e-01
 -4.9807456e-01
 -6.9316047e-01
 -7.5889415e-01
 -1.4169392e-01
  6.4025742e-01
 -4.6076304e-01
 -8.9925185e-02
 -1.9513296e-01
  9.6559133e-03
  4.1559872e-01
  2.4997441e-01
  8.7595677e-01
  2.5784150e-01
 -4.0119970e-01
 -4.1329813e-01
  4.0875357e-01
 -6.7845041e-01
 -1.6644670e-02
  6.2959117e-01
  1.2692328e-01
  3.6844867e-01
 -6.5528107e-01
  1.0271860e-01
 -3.0800125e-01
 -4.5881197e-03
  3.3484703e-01
  2.4720617e-01
  4.4794577e-01
  4.9241188e-01
  2.1043569e-01
  8.0485910e-02
 -4.7583213e-01
  1.4941047e-01
 -3.1453112e-01
 -1.6802178e-01
  1.0335792e+00
 -2.6914057e-01
  2.5072746e-02
 -1.2168957e-01
  8.9803003e-02
 -1.3613980e-01
  5.6601588e-02
  2.5538409e-01
  1.3043430e-01
  1.5830807e-01
 -1.4226745e-01
  9.2792556e-02
  4.0433344e-01
 -5.1805395e-01
 -8.5491568e-02
  2.4525529e-01
  2.7883255e-01
 -8.1040204e-02
  3.0601746e-01
 -1.1783568e-01
  5.9484470e-01
  3.2012650e-01
 -3.9137739e-01
 -7.8655772e-02
  5.8767980e-01
  7.4981999e-01
  2.1729837e-01
  2.1163659e-01
  4.6713355e-01
  1.3167337e-01
  2.1270642e-02
  1.5082216e-01
 -4.2084131e-01
 -2.7713516e-01
 -3.1880206e-01
 -1.8796821e-01
  7.0769536e-01
 -1.3431534e-01
  1.0412569e-01
  4.1533083e-01
 -7.2675222e-01
  8.7492168e-02
 -4.8841944e-01
  2.5711507e-01
  5.3477073e-01
 -2.7588841e-02
 -3.8979924e-01
 -8.5197106e-02
 -7.5758892e-01
 -2.6938823e-01
 -3.6644569e-01
 -4.0994938e-02
 -2.1251467e-01
  3.3219844e-02
  6.4640313e-01
 -2.2468753e-01
 -2.1837655e-01
 -8.9161210e-02
  8.7957066e-01
  2.4891253e-01
  4.5184425e-01
 -6.8914253e-01
 -2.0074518e-01
  2.6439556e-01
  6.0627330e-03
 -5.4162432e-02
  1.5469672e-01
 -6.9772148e-01
  1.0347944e-01
  2.9018116e-01
  8.2027757e-01
  2.9453507e-01
  1.5426309e-01
 -7.1532714e-01
 -2.2671567e-01
  3.5976164e-02
 -5.7720429e-01
 -4.4005468e-01
 -4.7862139e-01
 -3.1381126e-02
 -6.6841170e-02
 -3.0393967e-01
 -1.0498613e+00
 -1.6856115e-01
 -3.1532148e-01
 -2.5872612e-01
  2.9435465e-01
 -1.4407887e-01
 -1.3296446e-01
 -4.6475109e-01
 -1.2631735e-01
  1.6332127e-01
 -3.9182666e-01
  1.3327856e+00
 -1.5627395e-01
  2.4393792e-01
  1.7673865e-01
  3.5652775e-01
  8.6332506e-01
  1.8684093e-02
  8.0661070e-01
  1.8857431e-01
  7.6009715e-01
  3.2538265e-01
 -3.0046239e-01
 -2.1969853e-01
 -1.9706799e-01
  3.2777902e-01
 -2.2045724e+00
  4.3477476e-01
 -4.1946155e-01
 -1.3812609e-01
  1.0620886e+00
  6.6155624e-01
 -5.9337234e-01
  9.8893076e-01
  2.8353846e-01
 -1.0994953e+00
 -8.9132562e-02
 -1.0234980e-01
 -1.0472396e-01
 -7.6812971e-01
  1.2677367e-01
 -2.8052762e-01
  4.8088571e-01
 -2.5506610e-01
 -8.3316702e-01
 -1.0643167e-02
 -5.1161915e-01
  7.6286592e-02
  1.1989546e+00
  1.4459653e-01
 -2.9157504e-02
 -6.8808508e-01
 -7.3068202e-02
  3.3598864e-01
  2.3267490e-01
  3.0209962e-01
  1.5347885e-01
 -5.0103217e-01
 -1.6589086e-01
 -9.2370935e-02
 -1.1169410e-01
 -2.0578732e+00
 -1.1705668e+00
 -6.4441919e-01
 -1.8068467e-01
 -2.2881198e+00
 -4.0661016e+00
  1.3808022e+00
  2.0657325e+00
 -2.5226587e-01
  6.4881682e-01
  1.5843000e-02
 -4.3828204e-01
  7.2006142e-01
  1.8962581e-02
  5.2761151e-03
  4.5730010e-01
 -2.9079652e-01
  3.5497252e-02
 -9.1293067e-02
  5.4420656e-01
  4.0228489e-01
  7.8304172e-01
  2.1547697e-01
  2.7231887e-01
 -3.4730291e-01
 -1.2080336e+00
  4.9162218e-01
  1.7769754e-01
 -2.5185966e-01
 -1.9594024e-01
  7.7141464e-02
  1.0564637e+00
  8.8468325e-01
 -5.5680519e-01
 -8.5489172e-01
 -2.9025111e-01
  2.7646643e-01
 -7.8953737e-01
  4.2335349e-01
 -3.9026165e-01
  2.3102872e-01
 -1.0391562e+00
  6.2761628e-03
 -2.7117735e-01
 -4.0858820e-01
  1.6992605e-01
 -8.0319047e-02
  2.7589554e-01
 -1.2353451e-01
  2.6037595e-01
 -7.5216562e-01
  2.5332665e-01
 -4.6449253e-01
 -3.9058679e-01
 -1.0204601e+00
 -1.4544298e-01
  4.0941161e-01
  2.1090212e-01
  2.9230359e-01
 -7.3756717e-02
  1.5170342e-01
  1.9725074e-01
  4.5243490e-01
  6.9005698e-01
  3.1755605e-01
  4.8221686e-01
  2.0889100e-01
  2.1368182e-01
  5.7626444e-01
 -9.1642670e-02
 -3.5295597e-01
  1.1981652e+00
 -1.1628862e-01
  1.1255102e-01
  5.0547939e-02
  2.4931906e-02
 -2.1043679e-01
  2.7336520e-01
 -3.1280401e-01
  2.4089798e-02
 -6.9133028e-02
  4.7584492e-01
 -6.4715393e-02
 -1.5128109e-01
  8.0860007e-01
 -3.1569350e-01
 -1.1093422e-01
  2.2299485e-01
 -1.4951912e-01
  4.3665726e-02
  2.9351819e-01
 -5.2803814e-01
 -1.8311109e-01
 -4.0276414e-01
  2.5973770e-01
  1.5697682e-01
  1.3239580e-03
 -1.6211452e-01
 -1.0124887e-01
  2.6396531e-01
  8.3379887e-02
  2.9520935e-01
 -2.5580944e-02
  7.0727473e-01
  4.5962385e-03
  6.2710929e-01
  2.5751191e-01
  2.0279808e-01
 -2.6953614e-01
  5.9396036e-02
  7.9019137e-02
  6.3049465e-01
  1.2382014e-01
 -3.3965507e-01
  4.6151567e-01
 -1.0226452e-01
  2.4820779e-01
 -5.8342361e-01
  6.0449636e-01
  2.2768570e-02
 -3.2137474e-01
  6.2099618e-01
  1.1706058e+00
 -4.9241596e-01
 -3.5638568e-01
 -6.8970360e-02
 -1.7153141e-01
  2.8193855e-01
 -5.7255155e-03
  2.6986870e-01
 -1.3220318e-01
  8.6246592e-01
 -2.2272672e-01
  5.9512687e-01
  4.2714614e-01
  2.0657004e-01
  1.2485369e-01
  1.9251901e-01
  1.9871975e-01
  1.4743891e-01
 -3.6078620e-01
 -1.7748553e-01
 -5.5537321e-02
 -4.6206143e-02
  9.4712079e-02
  1.1052079e-01
 -1.4862534e-01
  3.7458280e-01
 -3.1920411e-03
  2.7420056e-01
 -3.6112946e-02
  3.3318419e-02
  3.9589435e-01
 -2.4739612e-02
 -5.1574618e-02
 -4.7041811e-02
  6.8169117e-01
 -1.8208405e-01
 -4.6148518e-01
 -8.6338393e-02
 -7.4516547e-01
  2.8608426e-01
  2.5081021e-01
  4.1986194e-01
 -7.5957313e-02
  3.2217613e-01
  8.6540669e-01
 -2.9933599e-01
 -1.9308269e-01
  7.1733795e-02
  1.8515331e-01
 -1.1442111e-01
  1.2783240e-01
 -1.1606082e-01
 -2.8482428e-01
 -1.4124614e-01
 -4.9828398e-01
 -2.9685006e-01
  3.0720359e-01
  1.5371564e-01
  2.2796406e-01
  2.7749413e-01
  6.9557242e-02
 -4.6225390e-01
  1.2747408e-01
  6.0304284e-01
  2.9359144e-01
 -2.5580907e-01
  1.1242325e-01
  6.4053848e-02
  2.9198867e-01
 -2.3259815e-02
  6.3684523e-01
 -7.4858904e-02
 -1.7958385e-01
  2.2904105e-01
 -3.1941742e-01
  5.0579347e-02
 -8.0112880e-01
 -9.5773011e-01
  3.0362764e-01
 -1.2392037e-01
  3.0240875e-01
 -3.2337293e-01
 -4.7409880e-01
  3.7232429e-02
 -6.1032796e-01
  3.1341022e-01
  1.2677683e-01
  2.4812257e-02
 -4.8820540e-02
 -5.7915115e-01
  9.8909006e-02
 -6.5692537e-02
  3.5769618e-01
  2.2884295e-03
 -3.4316945e-01
 -3.5719004e-01
  4.8399594e-02
 -1.7382945e-01
  1.2279301e+00
  5.0131220e-01
  5.3393044e-02
  2.6050046e-01
 -6.4342506e-02
 -1.7621075e-01
  6.7618191e-02
  1.1134776e-01
 -4.5302036e-01
  6.3504517e-01
  1.1919705e+00
 -2.2719757e-01
  1.6481739e-02
 -4.8199940e-01
  3.5612084e-02
  5.4137629e-01
  1.3827322e-01
  5.3207850e-01
 -1.9317012e-01
  2.7766526e-01
 -7.3363304e-02
 -1.0257911e-01
 -2.5035873e-01
 -1.6928101e-01
 -4.6387199e-02
 -2.5177047e-01
  1.4262778e-01
 -6.5829009e-01
 -5.3938991e-01
  2.5840834e-01
 -4.8857111e-02
  2.4089117e-01
  7.7954388e-01
 -1.6905930e-02
 -5.5450815e-01
 -1.1891107e-01
  2.1194462e-01
 -3.2417029e-01
  7.1827345e-02
 -6.3682544e-01
  5.5173408e-02
 -2.3240559e-01
  4.4503402e-02
 -9.8174322e-01
  2.0094737e-01
  5.4850906e-01
 -4.4202006e-01
 -6.2531188e-02
  2.6887026e-01
  3.3378801e-01
 -4.3206882e-01
  2.5516424e-01
 -4.6108386e-01
  8.5714385e-02
 -1.8041050e-01
 -4.2237800e-01
  2.2261063e-02
  6.2671518e-01
  1.5906651e-02
 -1.0459729e-01
  8.7287939e-01
 -6.8611927e-02
  5.5385989e-01
 -6.1914003e-01
 -1.5287438e-01
  2.4870927e-02
 -6.5328401e-01
 -1.4550398e-01
  1.1052635e+00
  2.0915629e-01
  9.9651881e-02
  1.2525481e-01
  3.7073023e-03
 -1.2658715e-01
 -5.0168818e-01
 -5.4362774e-02
  2.4772562e-01
 -4.6068363e-02
  4.4907358e-01
 -2.6076320e-01
  2.3484636e-02
  2.8088391e-01
 -8.1861511e-02
 -1.6823462e-01
 -2.0413020e-01
 -2.0704557e-01
  2.1784537e-01
  2.8526209e-02
  1.2975471e-01
 -1.8451469e-01
  1.0610221e-01
 -8.0930956e-02
  2.2782312e-01
  1.5558715e-01
  1.2912691e-01
  3.6088458e-01
  5.4441541e-01
  9.2544287e-02
 -6.2995879e-03
  6.5077674e-01
 -9.8214507e-01
  1.7972890e-01
  1.1744633e-02
 -2.2502626e-01
 -6.6081032e-02
 -8.1675309e-01
 -1.1337236e-01
 -3.1405410e-01
 -1.0844619e-01
  6.2397927e-02
  1.4153676e-01
  3.0765232e-01
 -4.4903856e-02
 -6.6401505e-01
  5.1551586e-01
  2.3463725e-01
  8.1972172e-03
 -5.4074928e-02
  5.6967881e-02
  1.4384261e-01
 -1.1402827e-01
  7.3707096e-02
  3.0372655e-01
  4.3492347e-02
  1.3836659e-02
  1.1726367e-01
  1.2022469e-01
 -2.2885178e-01
 -1.5892692e-01
  2.0962201e-01
 -1.3568912e-01
  2.5999498e-01
 -1.9390872e-01
 -3.1285834e-01
 -4.0452835e-01
  4.9241734e-01
 -3.5241696e-01
 -1.0393525e-01
 -1.3538906e-01
 -5.2919429e-02
 -6.6370644e-02
 -5.1376390e-01
  9.7848020e-02
  5.9891725e-01
  1.5203905e-01
 -6.4903349e-01
 -2.2919647e-01
  2.5655869e-01
  1.7383853e-01
  1.7784145e-02
 -1.0057697e-01
  1.5083940e-01
  7.4002963e-01
  9.0033442e-02
 -3.5780019e-01
 -1.7347394e-01
  1.8433052e-01
  1.5748231e-01
  5.4007006e-01
  4.6372160e-01
 -7.3659629e-02
  6.7506582e-02
  2.6159418e-01
 -1.1546898e-01
  6.4717926e-02
 -8.1747139e-01
 -2.0749587e-01
  1.7126031e-02
  1.1786405e-01
 -2.2659062e-01
  2.9305434e-01
  1.6663229e-02
  2.2048649e-01
  9.5988587e-02
 -6.4554060e-01
  2.5973225e-01
  1.0312840e-01
  2.4322614e-02
  1.4383237e+00
 -4.5242682e-01
  2.5391722e-02
  2.6769149e-01
 -1.5088955e-01
 -1.6005963e-01
 -5.9470423e-02
 -1.8937707e-01
 -4.9497411e-02
  9.6680558e-01
  2.9440472e-01
  6.6247113e-02
 -2.8966242e-01
 -2.3479506e-01
 -1.8328728e-01
 -1.5967104e-01
  1.5602218e-01
  3.7569529e-01
 -3.1398204e-01
 -4.9066788e-01
  3.6563233e-01
  3.7724712e-01
 -8.1751752e-01
  6.5502757e-01
  4.1126522e-01
  8.9683041e-02
 -5.6914411e-02
 -6.4985931e-01
 -3.9864808e-01
 -9.5164413e-03
 -1.9829436e-01
  8.6355537e-01
 -3.6616412e-01
 -3.3865340e-02
 -2.6695809e-01
  2.2918256e-01
 -1.9807693e-01
 -6.1184028e-03
 -1.3638477e-01
 -9.7497925e-02
 -1.1338950e-01
  2.1904297e-01
 -8.1734449e-01
 -3.6651218e-01
 -3.9926404e-04
  1.9681811e-01
 -4.9785653e-01
 -1.3687383e+00
 -1.5414011e-01
  8.5098865e-03
  1.6261542e-01
 -1.3321635e-01
  1.1262811e-01
  1.9579662e-01
  4.0107902e-02
 -3.5693741e-01
 -8.9746431e-02
  5.8547288e-01
  3.6316732e-01
 -6.5357961e-02
  1.7910931e-01
  4.6968898e-01
 -2.3823696e-01
 -3.4784980e-02
 -1.0659462e-01
  1.4264619e-01
 -2.6465109e-01
  2.4310350e-01
  5.5087503e-02
 -3.1956339e-01
 -4.6482080e-01
 -6.1634541e-02
  4.9609634e-01
  1.4582503e-01
 -1.4164678e-02
 -1.0595979e-01
 -1.5246974e-01
 -5.8511836e-03
 -2.8827873e-01
 -1.0499866e-01
 -6.0006863e-01
  5.7655561e-01
 -1.1810442e+00
  5.9302056e-01
  3.3053339e-01
  2.7537835e-01
 -4.4921800e-01
 -3.0924457e-01
 -3.3524331e-02
  1.4085658e-01
  1.9036517e-01
 -8.5584112e-02
 -6.8779647e-01
  2.6603657e-01
  5.0885975e-01
  5.9331402e-02
  4.8184451e-02
  3.1716046e-01
  2.2120674e-01
 -3.9859280e-02
  1.1160544e-01
  3.4636760e-01
  4.3558237e-01
 -9.7887892e-01
  4.2773917e-01
  2.8621551e-01
 -1.3340716e-01
  6.0934460e-01
  1.2815568e-02
 -9.2922121e-02
  8.6995143e-01
  1.0806670e-01
 -8.7635559e-01
 -7.7063495e-01
  3.5172018e-01
  3.3388439e-01
 -8.3246410e-02
 -2.3065305e-01
 -7.8943914e-01
 -9.7067162e-02
  2.8043896e-01
 -3.3792797e-01
 -3.5088342e-01
 -7.1525162e-01
 -1.3784283e-01
 -1.0016730e+00
 -2.8131887e-01
 -6.1665963e-02
  1.8520838e-01
  7.4603617e-01
 -7.4570132e-03
 -5.9998667e-01
  1.1729008e+00
  8.7471354e-01
 -1.4906335e-01
  2.8194485e-02
  6.1236676e-02
 -1.0162867e-01
  1.0405837e+00
  4.3994132e-02
  1.8629445e+00
 -1.0063233e+00
 -7.1719833e-02
 -1.2286220e+00
  1.3528620e-01
  1.7512341e-01
 -7.0199281e-02
 -1.1889350e-02
 -5.9782833e-01
 -3.6045310e-01
  9.4372731e-01
  8.3708063e-02
  3.0028572e-02
  6.0351515e-01
 -1.6044627e-01
  1.4582863e-03
  7.8814358e-01
 -7.2606489e-02
 -5.1570743e-02
 -1.5735961e+00
  2.3097837e-01
  3.5964802e-01
 -1.6497960e-02
 -3.3517489e-01
  1.5474792e-01
 -1.6240159e-02
 -1.5433937e-01
  1.6504593e-01
 -4.5681506e-01
 -2.0069042e-01
 -1.5487291e-01
 -1.0572935e-01
  2.9817617e-01
 -2.2873512e-02
  5.4094051e-03
 -6.7936707e-01
  3.5325479e-02
 -1.4027877e-01
  2.3452322e-01
  2.3353419e-01
  1.3265890e+00
 -1.0616599e+00
 -1.5300828e-01
 -4.7364119e-02
  6.0757834e-01
 -4.4072428e-01
 -1.3553616e-01
  1.6242930e-01
  7.5799003e-02
  7.6099746e-02
 -3.4943447e-01
  9.2160255e-01
 -1.7932224e+00
 -9.8034842e-03
  2.7988830e-01
 -1.1303066e+00
  1.7825346e-01
 -9.7129959e-01
 -3.3603841e-01
  5.6486826e-02
  1.0385563e+00
 -3.3751178e-01
 -2.4314527e-01
  5.0724947e-01
  1.1010702e+00
 -4.0624732e-01
 -1.0620770e-01
  4.4607061e-01
 -1.0215494e-01
  3.7009808e-01
 -3.4074473e-01
 -2.1057091e+00
 -2.0003928e-01
 -1.0397899e+00
 -3.4757879e-01
 -1.2702919e+00
  1.1844021e-01
 -1.9133039e-01
  1.9232635e-01
 -4.8138189e-01
 -5.5577230e-01
  1.5896238e-01
 -1.4815152e+00
  8.7301895e-02
 -8.1996925e-02
  4.6768489e-01
 -2.2526808e-01
  2.5218442e-01
 -1.1149559e-01
 -1.3592313e-01
  7.0025641e-01
  5.5396003e-01
 -8.0152071e-01
  1.8170114e-01
 -4.3695170e-01
 -4.8814020e-01
 -4.6335188e-01
 -1.7866962e-01
 -1.8405153e-01
 -2.6129141e-01
 -4.0352678e-01
 -8.1417370e-01
  3.5668901e-01
  3.2984173e-01
  1.0174224e-01
  2.0310281e-01
  6.6869450e-01
  1.9462474e-01
  9.8176003e-03
  2.8964254e-01
  7.2971493e-01
 -2.7421805e-01
  1.5485695e-01
  1.1260012e-01
  3.5019380e-01
  2.2940472e-01
  4.1283417e-01
 -5.2209908e-01
 -1.9574302e-01
  7.5897801e-01
  1.4560778e-02
  7.5165367e-01
  2.6993206e-01
  2.3416902e-01
  5.7065409e-01
  1.4581451e-01
 -1.1671882e-01
 -6.7286497e-01
  4.9613625e-01
  1.3323054e-01
 -1.1587307e-01
  3.1271940e-01
 -5.7005085e-02
 -3.2278478e-02
 -4.0086141e-01
  8.3124489e-01
  1.4593539e-01
 -1.4094904e-01
  3.6659279e-01
 -1.2816521e+00
  7.7685452e-01
  2.7483454e-01
  1.4670085e+00
  7.7649480e-01
 -2.3510578e-01
  5.1064992e-01
 -4.5598969e-01
  7.7182579e-01
  8.5597835e-02
 -5.6803709e-01
  4.4670933e-01
 -2.4594292e-02
 -5.7587907e-02
 -3.7576050e-02
  2.2253707e-01
 -4.0088013e-01
 -1.0331626e+00
 -2.7543640e-01
 -5.6962425e-01
 -2.6987228e-01
 -8.9293448e-03
 -3.6370203e-02
 -2.4084741e-01
  4.0444747e-02
 -3.0410990e-01
  8.4942251e-01
 -1.7177474e-01
  1.7966840e-01
 -2.6689487e-02
 -1.1690897e+00
 -3.7124697e-02
  2.3867717e-01
 -4.5467952e-01
 -1.0917640e-01
 -2.7818152e-01
 -8.0286157e-01
 -4.5862368e-01
 -1.6819772e-01
 -1.9239831e-01
 -1.6676515e-01
  6.8539366e-02
 -4.3273216e-01
 -2.9350388e-01
 -7.6946720e-02
 -8.8919413e-01
  3.0275384e-01
  7.4151479e-02
  7.4425107e-01
 -6.4246006e-02
 -1.1592454e-01
 -5.9324767e-02
  1.7687073e-01
 -1.4297777e+00
 -2.5529957e-01
  9.9269129e-02
  5.9125495e-01
  1.3164560e+00
  5.8022654e-01
  1.0521425e-01
  3.2705149e-01
  6.5150253e-02
  1.5353821e-02
 -1.5708259e-01
  8.5144430e-01
  6.4485604e-01
  2.9405934e-01
 -2.9171711e-01
  1.7787632e-01
 -4.8051823e-02
 -6.0096979e-01
 -1.3423100e-01
  4.8754465e-02
  8.3016872e-02
 -5.9896249e-01
 -1.0576370e-01
 -1.5097323e-02
  4.5047887e-02
  3.7750912e-01
  7.7248067e-02
 -5.8426487e-01
 -1.1031856e-01
  9.9714756e-02
  2.2029328e-01
 -1.7523465e-01
 -1.6526690e-01
  1.3390423e-01
  1.7262524e-02
  8.1556416e-01
  2.6900205e-01
 -5.1969254e-01
  5.6346565e-02
 -1.1001198e+00
  5.6969069e-02
 -2.8979939e-01
 -1.4438006e-01
 -2.9715556e-01
 -2.6118061e-01
  3.7793204e-01
 -1.7421187e-01
 -3.8144518e-02
 -9.4143933e-01
  3.5072580e-02
 -6.7958355e-02
 -4.0823790e-01
 -2.9889351e-01
 -9.9101382e-01
 -2.9527831e-01
  6.5691680e-02
  5.1092702e-01
 -2.1180390e-01
  5.4215658e-01
  2.2618929e-01
 -7.0182748e-02
 -2.4242833e-01
 -4.8958269e-01
 -1.2427332e-01
  2.1440990e-01
 -1.1487243e-02
  9.8103508e-02
 -5.3004819e-01
 -2.9765162e-01
  2.5332567e-01
  1.1557027e-01
 -3.8712293e-01
 -5.8048721e-02
  1.2939402e-01
  5.8000139e-04
  1.5289891e-02
 -4.1267839e-01
 -8.2693100e-01
 -2.4872975e-01
 -5.2659476e-01
 -3.5805702e-01
 -5.3684282e-01
  1.9472232e-01
  7.1225929e-01
 -2.4378663e-01
  1.4461271e-01
 -4.3687142e-02
 -8.8074535e-02
 -3.0131370e-01
  6.0617965e-01
 -6.4874075e-02
  3.9640689e-01
  2.5522602e-01
 -4.1368011e-01
  2.0382214e-01
 -5.6510426e-02
 -2.0778303e-01
  3.9964965e-01
  1.5383805e-01
  3.8431174e-01
  6.1798237e-02
  7.1628070e-01
  2.1646057e-01
  5.5063921e-01
  3.5905558e-01
  4.9065705e-02
 -8.2093067e-02
  8.5780555e-01
 -2.5548777e-02
  1.5768917e-01
 -4.6718091e-01
 -6.2455392e-01
  1.8611069e-01
 -8.3475292e-02
 -3.2063857e-01
  2.7037832e-01
 -7.8410804e-01
 -6.5222628e-02
  8.4058136e-02
 -5.9062943e-02
  1.8342640e-01
 -4.2989260e-01
 -3.9012304e-01
 -2.9036636e-02
  1.3612945e-01
 -5.1432735e-01
 -3.6244041e-01
  1.2009539e-01
 -1.2316594e-01
 -2.5318438e-01
  1.0713788e-01
 -7.4628554e-02
  3.6813408e-02
  2.9430568e-01
  2.9191366e-01
 -1.9333309e-01
  5.1817268e-01
  5.8656503e-02
 -1.0014323e-01
 -4.5877848e-02
  1.8359398e-02
  2.8066880e-01
 -6.4179070e-02
  3.0103275e-01
 -5.5874610e-01
  8.1139490e-02
 -1.8869106e-01
  2.1426211e-01
 -6.3895065e-01
  3.7378356e-02
  1.3198659e-01
  7.2211486e-01
 -4.4466492e-02
  1.3611123e-02
 -4.6815455e-01
  4.3183848e-01
  5.1964825e-01
 -6.3915175e-01
  1.4954473e-01
 -1.6826992e-01
 -7.1310103e-01
 -2.2203634e-02
  1.1129609e-01
 -1.5800190e-01
  1.0695700e-01
 -1.2967819e+00
 -4.2466992e-01
  2.4416491e-01
  2.5568068e-01
  2.4334645e-01
 -5.1007491e-01
 -3.6997888e-02
  2.0361826e+00
 -1.1116032e-01
 -2.2916202e-02
 -1.3047482e-01
  3.6287785e-01
  1.0984583e-01
 -2.4078600e-01
 -5.3606933e-01
 -9.4828628e-02
 -2.8375363e-01
 -3.5137880e-01
 -4.5290524e-01
 -2.9662785e-01
  7.6386482e-02
 -6.7128390e-02
 -3.3079156e-01
 -4.6087965e-02
  1.4561187e-01
 -2.3088802e-03
  2.0237887e-01
  9.6418023e-02
 -3.6389905e-01
  4.7278869e-01
  5.5482072e-01
 -1.2738313e-01
  6.0614002e-01
 -1.7356600e-01
  4.0614280e-01
  1.0492615e-01
  3.4112412e-01
 -2.3430893e-01
  4.2692730e-01
 -5.9696842e-02
 -2.9073381e-01
  2.7390385e-01
 -5.4061450e-02
  3.0171311e-01
 -2.3796161e-01
  5.1317823e-01
  3.6014330e-02
 -1.8091572e-02
 -5.8985587e-02
  1.3920315e-01
 -3.8031686e-02
 -1.9951151e-01
 -1.2025005e+00
  3.4028569e-01
 -1.0756617e+00
 -1.0458846e+00
  5.0679213e-01
