nep4_zbl 1 C 
zbl 1.25 2.5
cutoff 10 8 120 64
n_max 4 4
basis_size 12 12
l_max 4 2 0
ANN 150 0
 -4.9348637e-03
  2.1713428e-01
 -1.3078908e-02
  1.5448352e-02
  2.4734410e-02
 -9.1783032e-02
 -4.1058831e-02
 -7.6384582e-02
 -1.5470287e-01
 -1.1325481e-01
 -2.6714107e-02
  6.3929176e-01
 -1.0571381e-02
 -5.5451248e-02
 -2.5793381e-02
  1.0346977e-02
  6.8546697e-02
  1.6167396e-01
  1.8946804e-01
 -4.9490514e-01
 -3.8933900e-01
  2.7242480e-02
  1.9828269e-02
  1.8506112e-02
 -3.3128962e-01
 -7.4518241e-02
  7.6857626e-02
 -8.6187772e-02
  8.3448701e-02
  4.4924887e-03
  6.4909691e-01
  6.7070085e-01
  2.4721224e+00
  1.4027456e+00
 -7.6198226e-01
  3.8871229e-01
 -5.6931108e-01
 -6.1601151e-02
  1.4028342e-01
  6.6946022e-02
 -1.9366537e+00
 -2.7742214e+00
  1.0225848e+00
  1.2588483e+00
 -9.5950764e-01
 -1.8068155e+00
  1.6360059e-01
  8.1432380e-02
  5.9300333e-01
  3.1180727e-01
 -1.1431203e+00
 -9.2279476e-01
  1.1103443e-01
  6.3022763e-01
 -8.0152267e-01
  3.5680146e+00
 -1.0112139e-01
  1.2068287e+00
  9.7641394e-02
 -8.7986177e-01
 -2.3064421e-02
  1.9739600e-01
  1.0846581e-01
  1.7768559e-01
 -1.2503742e+00
 -3.0965060e-02
  2.3970043e-03
 -1.3094584e-02
 -1.5688835e-01
 -1.2852785e-02
 -3.8232781e-02
  1.0960248e+00
 -2.3575120e-02
  6.4867516e-03
  7.7217704e-01
  3.5872678e-03
 -3.9350051e-02
 -9.3241006e-01
  3.6852479e-01
 -1.0955518e-02
 -4.2336163e-01
 -1.0048206e-02
 -1.7161394e-03
  5.1503762e-04
 -4.6864878e-02
 -1.5019525e-03
 -1.0440440e-01
  3.9650187e-01
 -4.0204238e-02
 -1.5971230e-03
  4.8435174e-02
 -2.8969856e-02
 -9.3537644e-03
  3.9647314e-01
 -4.4589356e-02
  2.0912910e-02
 -1.5963906e-01
  1.4967756e-01
  3.4723118e-02
  5.6052182e-02
  1.1296854e-01
 -8.6289652e-02
 -3.5767753e-02
  6.8739690e-03
  3.9476398e-02
  1.1915667e-02
  8.8257179e-02
 -2.4489716e-03
  2.9606501e-02
 -7.8654597e-03
 -2.2009870e-02
 -5.9053890e-02
 -2.4760393e-02
 -3.8159490e-02
 -1.4922554e+00
  1.0151710e-01
 -1.4917567e-01
  1.0041633e-01
 -8.8896327e-02
  7.2287977e-02
  4.0820652e-01
 -1.3681908e-01
 -1.7503279e-01
 -1.2672232e+00
 -5.6713617e-01
  1.6142279e-01
  2.7679375e-01
 -4.1157588e-02
 -4.4513397e-02
  8.9229071e-01
 -1.1929017e+00
 -2.6640478e-03
 -7.9069006e-01
 -2.6052305e-03
  9.1195673e-02
 -4.5342842e-01
  3.5399815e-01
 -3.5740477e-01
 -1.4473711e-01
  2.1524895e-02
  8.1108741e-02
  8.4677440e-01
 -3.5781267e-01
 -5.8569379e-02
 -1.2051780e+00
 -3.8691106e-01
 -7.6738829e-03
 -3.5165377e-02
 -7.9137594e-01
 -2.8802443e-01
 -4.0841475e-02
  6.0030958e-03
  7.3860854e-02
  8.9394435e-02
  4.2662627e-01
 -1.8583110e-02
 -2.4041411e-01
 -1.8098909e-02
  3.2133523e-02
 -1.4497573e-02
 -4.9769646e-01
  1.6684693e-01
 -1.5109094e-02
 -7.6387036e-01
 -8.8223165e-01
 -4.8774531e-01
  5.1429456e-01
 -5.5414554e-02
  1.9202031e-02
  2.6785168e-03
 -1.5348491e-01
  2.2971340e-01
 -3.0856916e-01
  1.3951715e-02
 -7.5514853e-01
  7.0665173e-02
  2.1236215e-03
  1.7868038e-02
 -8.0573298e-03
 -4.4495282e-01
 -4.9731243e-02
  7.2114445e-02
  1.0472005e-01
  4.6911490e-01
 -3.1803366e-02
 -4.4986769e-03
 -4.7989912e-02
  1.1213444e-02
  2.7575908e-02
 -1.7032054e-01
 -6.7770383e-03
 -8.6984301e-01
 -2.1602031e-02
  2.8905472e-01
 -4.1760314e-01
  2.0045964e-01
  4.2351702e-01
  5.4692131e-01
  4.9070306e-02
  2.7053984e-02
  1.5951446e+00
  2.8390273e-02
  4.2651789e-03
  6.2973750e-01
  3.8353015e-02
  6.8937436e-02
 -4.3455446e-03
  3.3025104e-01
 -3.8364694e-02
  1.5891515e-02
 -4.4854733e-01
 -4.1869450e-01
  2.5545714e-02
  4.8128077e-01
  1.0627998e+00
 -6.8618691e-01
 -2.4034942e-02
 -6.4505231e-01
  5.8925295e-01
  2.3270588e-01
 -8.6730254e-01
  3.1468692e-01
  4.7537813e-01
  7.6237351e-02
  1.4636420e+00
 -6.2451478e-02
 -1.2474462e+00
 -1.7791496e-01
  9.0996081e-01
 -3.4149954e-01
  4.7362328e-01
  8.2417601e-01
  1.5277761e-01
 -3.0958244e-01
 -9.1268963e-01
 -1.0398131e-01
  1.9293189e-01
  4.4647310e-02
 -4.0008999e-02
 -3.8525615e-02
  7.9310730e-02
 -5.7061799e-02
 -3.4688987e-02
 -1.9512348e-01
 -1.6226677e-02
  5.6244310e-02
  4.3113839e-02
  8.9871868e-02
 -1.2258489e-01
  5.9478849e-02
  7.4428892e-01
  1.0651760e-01
  4.6231050e-02
 -2.7522506e-02
  5.7285096e-02
 -9.3689315e-02
 -1.6243825e-02
 -2.0340590e-03
 -3.3013120e-01
 -7.9892583e-02
  1.3050592e-01
 -8.3853483e-02
  1.2810102e-01
  2.8766027e-01
 -8.1620857e-02
  5.4156370e-03
  3.2756686e-02
 -3.6753509e-02
 -3.5881300e-02
 -7.2646059e-02
  8.2674176e-02
  4.6966160e-03
 -3.2772792e-03
 -9.2081055e-03
  5.0562005e-02
 -2.1233918e-02
 -1.6615121e+00
 -9.2421100e-02
 -3.1760015e-02
  1.5680385e-01
  6.4409580e-03
 -3.5690767e-01
  2.5095753e-02
 -1.9353643e-01
 -7.4348271e-01
  8.5139789e-02
  2.0622203e-01
 -1.0899281e-01
  3.5027724e-02
  8.0487497e-02
  3.5932768e-02
 -1.6144219e-01
  9.1186918e-02
 -7.0925929e-02
  8.8752676e-03
  7.3644556e-03
 -9.5147826e-02
 -1.1993883e-02
 -3.4955129e-02
 -1.7342487e-01
 -3.6491755e-02
 -6.1000489e-02
 -5.4444638e-03
 -5.0689276e-02
  4.0022146e-02
  3.7728354e-02
  1.0306637e-02
 -1.3562220e-01
 -6.7805625e-02
  5.3927973e-02
 -1.2138858e-02
  2.0842771e-01
 -1.8305298e-02
 -1.5606596e-01
 -2.4376900e-03
  1.5239581e-02
 -1.7227575e-02
 -3.0621395e-02
  5.6545533e-02
 -3.9380908e-02
  6.2301107e-02
  3.8888440e-02
  4.2508900e-02
 -2.5975758e-02
  4.3062255e-02
  7.5189564e-03
  4.1343123e-03
 -6.5741953e-03
  5.6005834e-04
  7.9913571e-02
 -5.9048426e-03
  2.4289197e-01
 -5.2339278e-02
 -5.6445941e-02
 -2.9814738e-01
  7.3030151e-02
  5.4415909e-04
 -2.4229702e-02
 -6.2602796e-02
 -8.4540486e-02
  2.0187559e-02
  1.4540952e-01
 -5.4133195e-02
 -4.1807755e-03
 -6.0889136e-02
 -1.2074127e-01
  2.2184351e-01
  1.0224300e-02
  2.4294785e-01
  1.5916876e-01
 -9.3543917e-02
 -2.4207579e-02
 -6.9202811e-02
  1.2904043e-01
 -1.1928193e-01
 -1.5051268e-01
 -4.8344497e-02
 -4.9166724e-02
 -9.4626948e-02
  2.1042909e-02
  6.3672431e-02
 -4.3791357e-02
  1.8283299e-01
 -2.9785793e-02
 -6.7172778e-01
 -7.2822578e-02
 -8.3773434e-02
  2.9030045e-02
  1.7947505e-01
 -6.7499176e-02
 -1.1205415e+00
 -5.7628918e-02
 -4.1182279e-03
 -2.2579545e-02
 -2.5697747e-01
 -3.4180589e-02
 -2.6651695e-01
  5.5905361e-02
 -9.9380221e-03
  4.3844946e-02
 -2.4081989e-01
  9.8994923e-01
  3.0839073e-02
  8.0977969e-02
 -9.9107809e-02
  1.8059801e-01
  4.1136600e-02
  9.1508269e-02
 -7.5167760e-02
  1.9451948e-01
 -1.2187679e+00
  2.2772918e+00
 -4.7313663e-01
  9.7073990e-01
  5.0057596e-01
 -7.2917350e-02
 -4.2554915e-01
  4.2268906e-02
  1.4263487e-01
 -3.5389405e-02
 -2.2405500e-02
  2.9353654e-01
  3.3855072e-01
  5.5007762e-01
 -8.7582970e-01
  1.2715777e+00
 -2.7388330e+00
 -1.6670404e-01
 -1.0321497e+00
 -7.5800472e-01
 -1.5080220e+00
  4.6500638e-02
  3.4487715e-01
  1.0128423e-01
  3.1582597e-01
 -2.0817947e-01
  4.5540759e-01
  9.1214940e-02
  3.5044417e-02
 -9.1817468e-01
  6.3929036e-02
 -3.0199315e-02
 -3.5586547e-02
 -4.5312408e-01
  1.6621435e-02
  5.9441198e-03
 -2.0431997e-01
  2.8521754e-03
  6.4115621e-02
 -5.5404003e-03
  4.4635534e-02
 -5.1452212e-02
 -1.6830532e-01
  2.5484754e-02
  3.3351570e-02
  5.0598808e-02
  7.9252839e-02
  1.4802723e-01
 -2.3275092e-02
  4.0603124e-02
  1.7539150e-01
 -4.8317034e-02
 -1.0640235e-01
 -2.7436942e-01
  4.7799915e-02
  6.0370985e-02
 -2.0860368e-01
  1.8100567e-02
  2.7082175e-02
  6.2650561e-02
 -3.5250735e-02
 -3.0792007e-02
 -2.2779679e-01
 -2.7187804e-03
 -1.6560478e-02
  1.6573438e-02
  2.4740914e-01
 -5.1419739e-02
 -7.1140803e-02
 -4.7837071e-02
 -9.7069182e-02
  1.4590491e-01
 -7.6405309e-02
 -4.7352895e-02
 -2.4062540e-01
  1.4377268e-02
  4.6579581e-01
 -9.2846602e-02
  1.2187213e-01
 -8.8367768e-02
 -6.7669797e-01
  3.4931201e-01
  4.7974709e-02
 -2.3206972e-02
  1.6235026e-02
 -4.9568239e-01
 -3.3565701e-03
  3.5793297e-02
  1.1487427e-01
 -8.9758314e-02
  3.9700817e-02
  5.5533046e-01
 -2.9213271e-01
  2.0608571e-01
  2.1692087e-01
  1.5094712e-02
 -6.3882178e-01
  1.1374443e+00
  2.4507797e-01
 -2.0535830e-01
 -2.4235656e+00
 -1.5186102e+00
  1.3452673e+00
  9.4357741e-01
  1.1898841e+00
  6.5694317e-02
  3.1778634e-01
  9.2448913e-02
 -1.2541540e-01
  7.9170001e-01
  6.3204497e-01
  3.7466747e-01
  1.0893855e-01
 -2.1595109e-01
  2.7283262e-02
  2.8245440e-02
  1.1852096e-01
  6.4976931e-01
 -1.4403778e-02
  6.1591971e-01
  3.0592066e-01
  6.4925268e-02
  1.2214963e-01
 -1.1377393e-02
  9.1669835e-02
 -9.4455153e-02
 -5.2900020e-02
  3.1185459e-02
 -1.5152205e-02
 -3.4628347e-02
  1.5482593e-02
 -1.4145674e-02
  8.9453168e-02
  9.9906139e-03
 -9.2997152e-04
  6.0861204e-02
  1.3108062e+00
  4.3117087e-02
  1.0053322e+00
  9.0140401e-04
 -2.3901653e-02
  2.8825559e-02
  3.0813998e-02
  5.6283706e-01
  2.5183818e-01
 -8.9661676e-01
  3.4290493e-02
  3.5832845e-02
 -2.2801341e-02
  4.2410519e-02
  3.9270971e-02
 -1.8342516e-01
  8.0619112e-02
 -4.9481872e-01
 -2.1525515e-02
 -3.6627192e-02
  1.4769159e-02
  5.8726012e-03
  1.1778814e-01
 -5.8524683e-02
 -1.6025241e-01
  7.2661377e-02
  6.4559959e-02
 -3.5665866e-02
  3.7185021e-03
 -1.4561755e-02
  1.2043328e-01
 -5.0274223e-02
  1.4146461e-01
  1.1561758e-02
  2.8675983e-02
 -1.1909100e-01
 -5.0797693e-02
 -9.6020838e-03
  4.3847073e-02
 -6.2939890e-02
  1.7661743e-02
  8.5539091e-03
  3.2445047e-02
  1.3562922e-01
 -8.6342312e-02
 -3.5377543e-02
 -2.0705381e-02
 -1.6841477e-01
  2.3592766e-01
 -1.0934062e-01
 -1.1054046e-02
 -6.4240658e-01
 -2.1415517e-01
 -6.1593048e-02
 -1.7994395e-01
 -2.7398923e-02
 -5.4787998e-03
 -7.8396343e-02
 -4.6575665e-02
 -1.6485225e+00
  1.6233657e-02
  2.7445417e-03
 -2.5270307e-02
  1.1086431e-01
  1.3792161e+00
  6.7338243e-02
  4.8644817e-01
  2.3525575e-02
 -6.2577540e-01
  2.0382883e-02
  8.2178246e-03
 -3.1311959e-01
 -1.5804168e-02
 -3.4601413e-02
 -4.7996610e-02
 -5.2395117e-02
 -1.9436868e-02
  5.1613148e-02
  1.7642589e-02
 -8.1744425e-02
 -2.4416827e-02
 -3.4601822e-01
  5.0031353e-02
  1.5365347e-01
 -2.9991826e-02
 -7.6239251e-02
 -1.4772911e-02
 -2.3822561e-02
  1.5137705e-01
 -3.0144004e-02
 -3.7085843e-01
  2.9744197e-02
 -1.6771895e-01
  3.2416970e-02
 -4.5392498e-01
 -1.9512426e-02
 -6.4612843e-02
 -6.1472282e-02
  8.5643984e-02
 -1.6265829e-01
  8.7464474e-02
 -4.5892999e-02
  2.0465005e-02
  4.9110521e-02
  2.9979303e-01
  5.8834940e-01
  1.8314468e-02
  3.3423257e-01
  1.7118634e-01
 -6.2097233e-02
 -1.1125834e-01
  2.0770626e-01
  3.2339010e-01
 -6.9454305e-02
  2.1165946e-01
  1.9919273e-01
  1.1769905e+00
  1.0466550e-02
 -1.2324899e+00
  4.9791375e-01
 -7.1938622e-01
 -3.8088468e-01
 -7.0219153e-01
 -1.4329128e+00
  8.3413020e-02
  9.7848338e-01
 -1.2882169e-01
  1.5568544e-01
  4.2956847e-01
 -3.4886099e-02
 -3.9790437e-02
  4.1769738e-03
  5.7228442e-02
  6.4638667e-02
 -1.0134231e-01
 -1.7553363e-02
 -3.1054648e-02
  3.3409652e-01
 -2.2809896e-01
  7.3673137e-02
  1.9153789e-01
  1.7634392e-02
 -1.9622847e-01
 -1.2569602e-01
 -2.9005645e-02
  1.2007579e-02
  1.7793445e-02
  2.8806366e-03
 -1.7624350e-01
 -2.3286553e-02
 -6.2288042e-02
 -1.4715697e-01
  1.9383952e-02
 -1.9476545e-01
 -1.7332321e-02
  5.8140680e-02
 -8.3850026e-02
  2.8686982e-02
 -1.2952961e-02
 -9.3785979e-02
  6.2302161e-02
  4.0192906e-02
  7.0507871e-03
  3.6599975e-02
  2.7010718e-01
  2.5883308e-01
  9.6354270e-03
 -1.8969011e-01
  1.5743278e-01
 -6.2170010e-02
 -9.7374491e-02
  1.9073270e-01
 -6.0397177e-03
  6.3249022e-02
 -9.7542934e-02
 -3.9415088e-04
  1.0173873e-03
  8.3781660e-02
 -1.0227949e-03
 -3.0169123e-01
 -3.0321451e-02
  6.2091411e-03
  9.4167218e-02
 -4.1607171e-01
  2.0440036e-02
 -1.0862983e-01
  5.4765735e-02
  1.2698245e-02
 -2.6806849e-01
  1.0080709e-01
 -3.5472647e-03
  2.4427881e-02
 -1.2470543e+00
 -4.3321273e-01
  1.9288171e-02
  1.3572440e-03
  1.4596377e-02
 -2.9504370e-02
 -5.9484631e-02
 -6.7465506e-02
  6.6015154e-02
  2.7244918e-02
 -6.4552012e-03
 -6.9921892e-03
 -3.7090980e-02
  6.1515411e-03
 -9.8781623e-02
 -1.4751712e-02
  2.3087642e-01
 -8.1344843e-01
 -5.1078375e-02
  9.8974213e-02
 -1.8511461e-01
 -3.6735345e-02
  8.8962115e-02
  2.0372538e-01
 -2.2819124e-01
  2.7278682e-02
 -3.2496866e-02
  5.6744874e-03
  6.9892958e-02
 -1.4180784e-01
  2.2480927e-02
 -1.2337383e-01
  8.1650667e-02
 -1.0300814e-01
 -1.5276407e-01
  9.1706246e-02
  3.0962856e-02
 -1.2551884e-01
 -6.3357768e-03
 -8.5933609e-03
 -2.5094470e-01
  3.2068115e-02
  3.6731299e-02
 -6.7497775e-02
  8.7196557e-03
 -4.2136782e-01
 -4.7780973e-01
 -1.8903364e-01
  8.3476298e-02
 -1.2615557e-02
  6.4336792e-02
  1.8994741e-02
 -1.0141049e-01
  1.1359369e-01
 -3.2618591e-03
 -1.0145876e-03
  6.0484845e-02
  2.3629028e-01
 -6.1469775e-02
  4.8180681e-02
  2.5799465e-01
  1.0104917e+00
 -4.6537485e-02
 -3.7688091e-02
  4.2674329e-02
 -2.6989427e-01
  1.2370481e-01
  1.0469104e-01
 -7.4787602e-02
  1.0756333e-01
  7.3646703e-03
 -5.2158430e-02
 -1.0734495e-01
  3.2567669e-02
 -5.6042925e-02
 -2.8157172e-06
  1.4866884e-02
 -6.6553347e-02
  3.9089698e-01
 -1.5923277e-03
  4.7118597e-02
 -2.1482418e-01
 -2.7012929e-01
 -7.6616667e-03
 -5.3697769e-02
 -4.5824278e-02
 -3.5297960e-02
  2.5272882e-01
 -1.5022917e-01
  3.0373724e-02
 -7.0676148e-02
 -3.5987221e-02
  8.0526538e-02
  3.1100141e-02
 -2.1799041e-02
 -6.0163777e-02
 -3.2080594e-02
 -4.8440490e-03
  8.4059332e-03
  2.4885023e-02
 -2.1750666e-02
 -1.1841768e-02
  4.7108334e-01
 -5.5287831e-02
 -3.0911194e-02
  1.1096267e-01
  8.1072270e-04
  2.2660539e-02
 -1.3681808e-02
 -1.0642583e-01
  5.7982903e-02
 -1.2908328e-02
  2.8089397e-02
  6.4787060e-02
  2.9830839e-02
  2.8129233e-02
  1.7663819e-01
 -5.6620497e-02
 -7.0957288e-02
  7.2206207e-02
  4.7355704e-03
 -6.6186853e-02
  1.1424532e-01
 -5.8333382e-02
 -6.7466140e-02
  2.5341708e-02
 -7.1181413e-03
  1.1227768e-02
  4.3928970e-02
 -1.0053257e-02
 -7.6831889e-01
 -6.4654909e-02
 -9.0639547e-02
 -6.7049973e-02
  2.2518195e-02
  6.0884301e-03
 -3.8155630e-02
 -1.5390753e-02
 -1.2678622e-01
 -3.7697375e-01
 -3.7337743e-02
  1.4486424e-02
 -3.9730981e-01
 -8.5227350e-03
 -9.8454438e-02
 -4.9765896e-02
 -2.0041634e-01
 -6.8213291e-02
  7.2971955e-02
  1.2407343e-04
  5.7160530e-02
 -7.0187310e-03
  6.5230089e-01
 -1.2284626e-02
  5.6571651e-02
  3.0599635e-03
  3.1266439e-01
  3.6547162e-02
 -1.4372648e-03
  2.7292043e-02
 -2.7484993e-02
 -8.6307108e-02
  2.0074354e-01
  9.2448391e-02
  2.6151326e-02
  9.3144281e-03
  1.7343635e-02
 -4.6307560e-02
  1.5545120e-03
  4.6949700e-02
 -1.8883163e-02
 -3.6098577e-02
 -9.8987438e-02
 -3.4001136e-01
 -4.0977818e-01
 -5.2661884e-01
 -3.5161301e-02
  3.0725718e-01
  1.9924394e-03
  1.4346465e-01
 -1.0417219e-02
 -4.1514017e-02
 -1.1278185e-01
 -2.2662499e+00
 -7.2944552e-02
 -3.9528319e-01
  5.9682328e-01
 -3.8807064e-02
  7.1807876e-02
 -6.1621201e-01
  9.1113609e-01
  2.6328078e-01
  4.7873858e-01
  1.5358852e+00
  1.1743206e+00
 -4.5051835e-02
 -8.9192849e-01
 -8.2211822e-01
 -2.4074805e-01
 -8.3903864e-02
  2.2532633e-01
  1.1007860e+00
 -7.7683508e-01
 -1.4619423e+00
  5.4187906e-01
  2.0910496e-02
 -7.3888570e-01
 -5.0349778e-01
  1.5066421e-02
 -1.1877183e-01
  4.0466983e-02
  9.3916118e-01
  2.1453882e-02
  4.7794214e-01
  1.6442289e+00
  1.4273869e+00
  5.2594799e-01
 -1.7181239e-01
 -5.2088106e-01
  5.8405520e-03
 -2.5429664e-02
 -7.7927673e-01
  1.7774855e+00
 -4.4481999e-01
  3.4107432e-02
 -3.6383393e-01
  5.0610203e-01
  5.6595504e-01
  9.8656845e-01
  1.7194229e-01
 -1.6331823e-01
  7.4391149e-02
 -1.3876015e-01
 -1.5026097e-01
 -3.0671567e-01
  1.7517228e-01
 -5.9375101e-01
  3.4517968e-01
  3.6475474e-01
 -4.2876564e-02
  8.9188071e-04
 -1.4975666e-01
  2.9515341e-02
 -8.2796067e-01
 -1.4004740e-02
  1.1414484e+00
  5.7385485e-03
 -2.8758287e-01
 -1.9451010e-01
  3.0924449e-02
  6.0232937e-01
  1.5377419e+00
  3.9355464e-02
 -3.5417587e-02
  6.9554263e-01
  3.9500784e-04
 -2.4559925e-01
  8.6237121e-01
  6.6860831e-01
 -7.6674628e-01
  5.6850374e-01
 -4.6540529e-02
  1.3410666e-02
 -3.2935326e+00
  1.7769408e-01
  5.7705611e-02
 -2.3477022e-01
 -1.0922518e-01
  4.5765582e-01
  5.0509367e-02
 -2.9168153e-01
  3.5481709e-01
  5.3196315e-02
  5.3915765e-02
  2.8085008e-02
 -2.1820648e-01
 -5.4183332e-03
  2.2446955e-02
  3.9616726e-02
 -7.1517698e-02
 -6.7540698e-02
  5.4993663e-02
  1.1412412e-01
 -5.6842923e-01
 -9.6359275e-02
 -8.4896766e-02
  2.5759017e-02
 -5.4360574e-01
 -5.4002814e-02
 -1.7198032e-01
  4.9958974e-02
  5.6193501e-02
 -3.1654470e-02
  7.6153621e-02
  9.5084496e-02
  1.5736496e-01
  1.1778935e-02
 -7.5272225e-02
  8.1874877e-02
  1.4339016e-01
 -2.6867460e-02
  1.5159838e-01
  2.0006041e-01
  1.6512322e+00
  3.7085843e-01
 -6.5180510e-01
  4.9497691e-01
 -6.6515690e-01
 -7.3328400e-01
  6.2670344e-03
  2.6111549e-01
  7.3859163e-02
  2.0967460e+00
 -6.2247932e-01
  2.4718385e+00
 -3.7932482e-01
  6.3029125e-02
  6.3879055e-01
 -2.0306948e-01
 -3.8798600e-01
  3.6416826e-01
 -1.6826467e-01
  7.9608983e-01
  1.5428323e+00
 -1.1051564e+00
 -1.7389929e-01
  3.6311328e-01
  5.2597111e-01
  1.2400258e-01
 -8.3095394e-02
 -7.7756986e-02
 -4.0878603e-01
 -2.7953669e-02
 -1.6612574e-01
  1.7589109e-02
 -1.3917923e-02
  7.8312140e-03
  1.2681420e-01
  8.2698405e-02
 -2.5537986e-02
 -1.1251201e-01
 -5.8198222e-03
  1.2900810e-01
  3.9937872e-02
 -3.2260336e-02
  2.6670784e-01
  1.9292305e-01
 -9.4919389e-01
  1.4076243e-01
 -7.4012563e-02
  1.0385217e-02
 -3.1153992e-01
  3.3092190e-02
  9.3686730e-01
 -5.1076550e-02
  2.8342450e-02
  1.1960828e-01
 -1.2660123e-01
 -4.9797706e-02
 -4.8590101e-02
  7.1318500e-02
 -3.9546255e-02
  5.5188581e-02
 -9.9102184e-03
 -2.0249136e-02
  5.0772578e-02
 -2.4431117e-02
 -2.2419250e-02
  2.2959019e-01
 -1.7638905e-02
 -4.2105414e-02
  3.2512385e-02
 -4.5198135e-02
  7.8611240e-02
  3.3157694e-01
 -8.8025434e-03
 -7.3697472e-01
 -2.5080189e-02
  1.7199690e-02
  2.9054007e-01
  3.9468091e-02
  4.6540745e-02
  4.1472256e-02
  1.7841492e-02
  1.0891863e-02
 -4.4551678e-02
  3.7154041e-03
 -2.6024997e-02
  4.5477960e-02
 -1.8715181e-03
 -1.8301013e-01
 -4.7166236e-03
  4.8357498e-02
 -9.7009160e-02
 -1.0973020e+00
  2.2381705e-01
 -4.2183068e-01
 -3.1207247e-02
 -1.6631590e-02
 -4.4536388e-01
 -1.0223825e+00
 -1.4188507e-02
 -1.8919389e+00
 -8.8706899e-01
  1.3685536e-01
 -8.1357569e-02
  8.3894944e-01
  1.5804874e+00
  7.1350746e-02
  5.3265834e-01
 -2.4217581e-02
  1.3458367e-01
 -6.2682933e-01
  4.7894105e-01
 -1.3812269e+00
 -8.2549423e-01
 -2.3536438e-01
  6.7917436e-01
 -1.6549693e-01
 -1.9064454e+00
  2.2674179e-01
  6.3565564e-01
  1.0472952e-02
  2.4499536e-01
 -3.2902104e-01
  2.1765611e-01
 -4.0594954e-03
 -9.7373733e-03
  5.8311170e-01
  3.8386472e-03
  5.9981834e-02
  3.5595626e-01
 -2.6115522e+00
  6.6750395e-01
  2.5121108e-01
  7.3601383e-01
 -5.8851343e-01
 -5.3104442e-01
 -4.4629443e-03
 -3.9006308e-01
 -5.3308499e-01
 -1.0185896e-02
 -6.9620210e-01
  5.4356623e-01
 -1.9354343e-01
 -6.1343201e-02
 -1.8264197e-01
 -2.8012687e-01
 -1.3173327e-01
  3.4413371e-02
 -1.0824579e-01
  1.9184312e+00
  1.6212098e-02
  1.4303538e-02
 -9.7697191e-02
 -1.5106636e-02
  2.7004480e-02
 -5.3403717e-03
  6.6194481e-01
 -7.7453099e-02
 -7.5252540e-03
  1.7276535e-02
  1.5832566e-02
 -1.4818282e-02
 -6.1207574e-02
  7.8153692e-02
 -5.0157420e-02
  5.8941473e-03
  1.8744385e-02
 -1.1428530e-01
  2.8267058e-02
 -6.6197038e-02
 -2.0409271e-02
 -4.6241812e-02
 -5.0087422e-02
 -2.7344663e-02
  7.9131037e-02
 -3.5320878e-02
 -4.1507654e-02
 -1.0962494e-01
  2.0745350e-02
  7.6165423e-03
 -8.0966935e-02
  1.5257812e-01
  2.4124859e-02
  7.2655164e-02
  3.1853914e-02
  1.9875602e-03
  4.0696170e-02
 -9.1023445e-02
  6.6398811e-03
 -2.9116787e-02
 -8.3107948e-02
 -1.3987066e-01
 -7.2731540e-02
 -7.9977401e-03
  1.0062558e-02
  8.2834261e-03
  7.8878194e-02
  1.4116405e-02
  9.4721101e-02
 -1.4166924e-01
  7.4367452e-04
 -5.6074611e-03
 -8.6548296e-04
 -2.6038075e-03
  1.9809692e-01
  1.0461842e-01
 -5.3383160e-02
  2.1813966e-02
  7.0593625e-02
 -1.6499970e-02
 -7.3891632e-02
 -4.0117663e-01
 -4.9962807e-02
 -9.6582003e-02
 -4.8565585e-03
 -9.8929517e-02
  1.2772971e-01
 -1.7104141e-02
  7.0977561e-02
 -1.8517318e-03
 -6.3530996e-02
 -3.6207780e-02
  4.8315734e-02
  5.4057026e-03
  3.9577175e-02
  5.9506010e-02
 -8.6238034e-02
 -1.6170538e-03
 -1.3043849e-02
 -1.6930853e-01
 -1.1047380e-01
  1.9465002e-01
 -2.2319980e-02
 -1.2199698e-01
 -2.4606191e-01
  7.0518389e-02
 -1.7485369e-02
 -2.2672934e-02
 -2.4427319e-02
 -2.7009801e-03
 -2.6098812e-02
  1.4986075e-02
 -6.3577846e-02
 -4.6665825e-02
 -6.7503028e-02
 -1.0537424e-01
  2.8134646e-02
  6.9917636e-03
 -1.2184535e-01
 -4.8406493e-02
 -5.1873904e-02
  9.3371272e-03
 -4.3621756e-02
 -2.6760591e-02
  3.1944069e-03
 -5.3923810e-03
 -5.8361691e-01
  4.0787913e-02
  1.7192372e-03
  9.9137530e-02
  1.7835850e-02
  1.6335692e-02
  9.8557532e-02
  1.9344940e-03
  4.7332607e-02
  7.9151236e-02
  1.0940945e-01
  4.4798058e-02
  3.2762647e-02
 -2.0551728e-02
 -9.4449461e-02
 -1.0639022e-01
  5.0946724e-02
 -3.1237684e-02
  1.4545102e-02
  3.3498902e-02
  7.5850360e-02
  1.4753711e-01
 -7.4258400e-03
 -5.2491952e-02
 -5.0269562e-01
 -1.1239802e-01
  7.0984755e-03
 -3.9594460e-02
  1.7659644e+00
  5.0280346e-03
 -2.1508509e-02
  3.7490863e-02
 -2.3219010e-01
 -6.4307913e-02
  6.8676002e-02
  4.9089726e-02
 -2.9535982e-01
 -1.1997165e-01
  2.2891594e-02
  1.0083477e-02
  2.6784739e-02
  6.1571144e-02
 -1.8847601e-02
  7.2344378e-02
 -9.4098091e-02
 -1.0924275e-02
  7.4587959e-01
 -4.0650286e-02
 -7.9640504e-03
 -1.6097652e-02
 -6.5466315e-02
  2.4159467e-02
  2.4435398e-01
  1.2583232e-01
 -2.2320580e-03
 -7.0686825e-02
 -3.8258883e-01
  5.8506499e-03
 -2.2570059e-01
  3.4271237e-02
 -7.8272015e-01
 -6.3412741e-02
  1.1812127e-01
  2.6968601e-01
 -2.0776063e-01
  8.0647066e-02
 -5.3193390e-01
 -2.7253097e-02
 -6.6584444e-01
  1.4530610e-02
  9.5071509e-02
  2.3493876e-01
  4.2509414e-02
  3.5103586e-02
  1.8067941e-01
  9.6067989e-01
 -1.4897761e-01
  1.0074359e+00
  3.0181471e-02
  1.4697605e-02
  1.1468325e-01
 -2.1354643e-01
  1.0213815e-02
 -8.1614524e-02
 -7.7560920e-01
  1.4821288e-01
 -8.7490924e-02
 -9.5079556e-02
 -4.8354319e-01
  3.1864446e-02
 -9.0924755e-02
  6.8019271e-02
  2.2887947e-02
 -2.2016462e-02
 -4.4616583e-01
  6.1234549e-02
  1.9648645e-02
 -4.4903681e-02
  3.0699562e-02
 -1.9922559e-03
  2.0155106e-01
  6.4382255e-01
 -1.1156150e-01
  1.2402327e-01
  6.9591421e-01
 -8.1032741e-01
  2.9510114e-01
  1.0745672e+00
  8.9030176e-01
  5.4418492e-01
 -4.2683847e-02
 -8.0958360e-01
 -8.1735301e-01
  7.9672819e-01
 -2.7782893e-01
  1.9448298e-01
  5.7361835e-01
 -3.2079401e+00
 -3.8144413e-01
  4.5841372e-01
  3.5988787e-01
 -1.0959939e+00
 -1.7384397e-02
 -9.3280756e-01
 -3.2983938e-01
 -1.9821858e+00
 -4.1437605e-01
 -6.5201119e-02
  1.3532755e+00
 -7.9291150e-02
  8.3875448e-01
  3.6227366e-01
  5.8155346e-01
  8.5081381e-01
  3.7751775e-03
  2.3942710e-01
  7.7880479e-02
  8.0748677e-01
  5.8062649e-01
 -1.6894642e-02
 -3.2149591e-03
  5.1860075e-02
 -2.1219544e-01
 -1.2451974e-01
  1.1318870e+00
  7.2561741e-02
 -2.2955071e-02
  4.1074172e-02
  1.3757953e-03
  5.6584460e-01
 -2.9938653e-01
  7.7891715e-02
 -2.6073067e-02
 -2.8509656e-01
 -4.8429626e-01
 -7.9338431e-01
  6.0614556e-01
  3.7052844e-02
 -3.6920661e-03
  6.1119478e-03
  2.0074019e-01
 -1.4414200e-01
  1.9639940e-03
 -1.5996185e-01
  1.1960469e-01
  1.2581536e-02
  1.6465539e-01
 -1.1523601e-01
 -9.1573335e-02
 -2.4091512e-02
  2.1937074e-02
 -4.7910430e-02
 -9.0773694e-02
 -5.3443797e-02
 -5.3022780e-02
 -4.0619258e-02
 -5.8887827e-01
 -1.9630320e-02
 -2.4803206e-02
 -1.6978487e-02
 -7.1421154e-02
 -5.7931972e-01
  6.3521639e-02
  1.0855476e-02
  1.7966127e-01
 -8.2982585e-02
 -2.5089001e-03
  4.4463735e-02
 -3.2931515e-03
 -1.4476986e-01
 -6.4208262e-02
  2.9469188e-02
  3.6747046e-02
 -7.2944713e-01
  7.8350149e-02
 -1.4174747e-01
  4.4780385e-01
 -1.1911337e+00
  1.3364062e-01
  1.2605228e-01
  3.9457339e-03
  2.8354016e-01
 -6.5440476e-01
  3.2420419e-03
  9.9102545e-01
 -5.8352554e-01
 -4.5882541e-01
 -1.3482623e-01
  8.6540627e-01
  1.4007739e+00
 -1.5828122e+00
  1.1250299e+00
 -1.0249143e+00
 -6.5545924e-02
  2.7422833e-01
  4.6699473e-01
  4.3044928e-01
 -5.3946137e-02
 -4.2948571e-01
 -2.3989918e-02
 -6.1645985e-01
  7.6155132e-01
  1.6381495e-01
  1.1027961e+00
 -5.7755166e-01
  1.5101385e-02
 -2.4275213e-01
 -6.0778850e-01
 -7.9081915e-02
  4.2279728e-02
  2.1435227e-01
 -8.7615117e-02
 -2.6836762e-02
  1.8617376e+00
 -3.4598783e-02
  4.9526654e-02
 -8.8944271e-02
 -1.1096565e-01
  1.4079010e-01
 -8.7115154e-02
  7.7916408e-01
 -7.8232892e-02
 -7.4625029e-03
  8.1327528e-02
 -6.2634729e-02
  1.0014867e-01
 -1.0714356e+00
 -6.6184819e-02
  4.5446623e-03
  7.9114912e-03
 -3.3289436e-02
 -1.1593307e-02
  2.6963945e-02
  1.0971998e+00
  8.0050319e-01
  2.1665118e+00
 -6.9011793e-02
 -3.9227289e-01
 -7.8708333e-01
 -2.4823873e-01
  9.8329252e-03
 -4.4349650e-01
 -5.6357086e-01
 -1.3011690e+00
  9.0090621e-01
 -4.5462865e-01
  6.1346662e-01
 -1.6097867e-01
 -1.4183654e+00
  4.0795556e-01
 -1.0441900e-01
  1.0988100e+00
 -1.7723888e+00
 -3.5226271e-01
  8.8888937e-01
 -4.0781346e-01
  1.6359149e-01
 -7.7544278e-01
 -8.8201863e-01
 -1.6170564e-01
  1.7314867e+00
 -5.9334576e-01
  7.5542998e-01
 -1.1445683e+00
 -3.3773911e-01
  2.4992767e-01
  6.4264894e-01
 -9.5345718e-01
 -1.5357424e-01
  1.4671779e-01
 -8.0873954e-01
  1.9161792e-01
 -4.4898402e-02
  1.8579334e-01
  1.9982152e-01
  4.0810728e-01
 -8.7465084e-01
 -4.8526967e-01
  1.4004092e+00
 -1.7775639e+00
  3.4856740e-01
 -9.5522158e-02
 -1.1778516e-01
 -2.7788344e-01
 -1.8830856e+00
  1.4965449e-01
  6.9216177e-02
  8.2327642e-02
 -7.9002947e-02
 -1.0061572e-01
  2.5713667e-01
  1.0837896e+00
 -2.5727378e-02
 -2.0655496e-01
 -1.8043563e-02
 -1.7977078e-01
 -5.2307602e-02
 -5.1194075e-02
  7.0451744e-02
 -1.9519493e-03
 -4.0658042e-02
  8.3007798e-02
 -1.4047715e-02
 -9.3594324e-03
 -3.6656776e-01
  2.5696602e-02
  8.1917360e-02
  2.6881929e-02
  6.7298716e-01
  1.1625922e+00
 -1.6619001e-01
 -1.5148488e-02
 -2.6285009e-02
  7.1525164e-02
 -3.0344687e-02
  6.5018512e-02
 -3.6704749e-02
  8.3494864e-02
 -9.2131458e-02
 -2.1565091e-03
 -8.5745715e-02
 -8.9190938e-03
 -3.6746608e-03
 -3.4886170e-02
 -1.0711416e-02
 -8.4838793e-03
  1.2757233e-01
 -1.0380512e+00
 -4.8588854e-01
  1.5008746e-01
 -1.0487926e+00
  5.1014394e-02
 -1.1722778e-02
 -4.4017807e-02
  5.8538588e-03
  1.5373800e-02
 -5.4877740e-03
  9.7185194e-01
 -1.2401267e-01
  6.9559067e-01
 -9.9263541e-02
  7.2193868e-02
 -2.0450781e-01
 -6.2281538e-02
  1.5902139e-01
  1.3438697e-01
  9.4618835e-02
 -4.4891775e-02
 -9.9956542e-02
  6.3207462e-02
 -3.6140457e-02
  7.2079623e-01
  7.4463502e-02
 -2.2345636e+00
  1.7837834e-01
 -7.3161888e-01
 -3.7064570e-01
 -7.7625215e-01
 -3.0733725e-02
  1.0519730e-01
  1.8106876e-01
 -1.6099377e-01
 -3.7997916e-01
 -1.4471701e-01
  7.0805782e-01
 -1.7443697e+00
  1.6755721e-01
 -1.8625396e-01
 -6.6910964e-01
  2.0561006e+00
 -1.8282259e-01
 -7.4997973e-01
  1.5060806e+00
 -3.4538820e-01
  1.2388185e+00
 -1.4038214e-01
  6.2849754e-01
  3.4688604e-01
 -1.5815142e+00
  2.5644214e-03
 -6.1338145e-01
  1.4568081e-02
  1.6219740e-01
  9.1225058e-01
 -9.7695708e-02
  1.5920527e-02
  1.5738532e-02
 -1.4139736e-01
  5.3834207e-02
  2.2338217e-03
  1.4719616e-01
 -1.4761901e-01
 -7.0167654e-03
 -3.9771232e-03
  1.9302355e-01
 -1.0210498e-01
 -2.8382504e-01
  4.2489511e-01
 -3.0467752e-01
 -1.2517879e-02
  8.6342305e-02
 -3.4310497e-02
 -2.3465506e-03
  8.3065771e-02
  4.8326500e-02
 -1.5861598e-03
 -6.3134974e-01
  7.8004785e-02
 -2.4769101e-02
  3.0140351e-03
  4.9897611e-01
  3.0877883e-02
  7.6104128e-03
 -1.1936075e-01
 -6.7313296e-01
  5.4675490e-01
  2.9370633e-01
  9.7721434e-01
  8.2767469e-01
 -1.1002956e-01
 -1.0021218e+00
 -1.5789853e-02
 -1.5831733e-02
 -1.7022168e-02
 -5.2412465e-02
  3.0549407e-01
  2.9227731e-01
  2.5114846e-01
  1.1958809e+00
 -1.1405116e+00
  3.4420845e-01
  9.8081851e-01
  3.4831509e-01
  8.5520887e-01
 -1.6851182e+00
  2.6131764e-01
 -2.5522354e-01
  4.3904915e-02
  5.0028332e-02
  7.4827401e-03
  6.3010454e-01
  2.1469492e-01
 -3.5400234e-02
  8.9295901e-02
 -7.6559149e-02
 -4.3839745e-02
 -5.5042692e-02
 -2.1213251e-01
  8.5731089e-02
 -3.2912593e-02
 -1.3672895e-02
 -4.1376282e-03
 -1.6091023e-01
  6.2540814e-02
 -3.8685814e-02
 -9.3126364e-02
 -5.4388251e-03
  6.4202362e-01
  5.0485674e-02
  4.4115521e-02
  1.5709901e-02
 -6.6246033e-02
  2.3193060e-01
  2.6990149e-02
 -8.3111122e-02
 -5.7321829e-01
  5.4179914e-02
 -1.3303041e-01
 -2.2373490e-02
 -7.8503840e-02
 -3.4301832e-01
  1.4141519e-02
 -5.3824022e-02
  1.1163993e-02
  5.6217309e-02
 -2.1341354e-01
 -1.2651440e+00
  2.6946658e-01
  1.6482189e-01
 -5.1967353e-02
  2.1683147e-02
  4.6974186e-02
 -6.2993780e-02
  4.4560826e-01
 -1.3608566e-02
  2.6020695e-02
 -6.5684646e-02
 -3.2676600e-02
 -8.1216507e-02
 -1.2742771e-01
 -1.1833613e-02
  7.5737417e-02
  1.6228852e-01
 -2.3657694e-01
  9.4121248e-02
  5.2124798e-01
  7.1186399e-01
  4.9140744e-02
  3.6548787e-01
 -1.0145425e-01
  4.6861403e-02
  7.2838150e-02
 -4.7813743e-02
 -1.9007113e-02
  8.1749141e-02
 -4.2213634e-02
 -5.9765741e-02
 -3.1509183e-02
 -3.8206682e-02
 -1.6198225e-02
 -1.9147466e-03
  1.2577964e-01
 -2.0677360e-02
 -1.7686874e-02
 -3.3322085e-02
 -7.1745679e-02
 -1.8051669e-02
  4.6180515e-03
  6.1533609e-03
 -8.2605697e-02
  1.3176256e-02
  3.8711862e-03
  1.7364668e-02
  4.9575135e-02
  9.1057777e-02
  1.5434893e-03
  4.4895636e-04
 -1.0005066e-01
  3.5907677e-01
  7.2909340e-02
 -4.1770004e-03
  5.2943565e-03
  1.5923770e-02
 -2.4841301e-01
  4.5201732e-03
  1.7747793e-01
  6.9820076e-02
  1.3514279e-01
  3.4442058e-01
  3.5786551e-01
 -7.4800320e-02
  8.6195000e-02
 -1.0865062e-02
 -9.7402081e-02
  7.6802662e-03
 -2.1566522e-04
 -1.4281164e-01
 -8.1642739e-02
  2.1278541e-01
 -3.6604765e-03
 -1.4679487e+00
 -5.0059728e-02
 -2.9037017e-02
 -2.2181680e-03
 -7.0699550e-02
  4.3017924e-01
  5.1262262e-03
  3.0528745e-02
  3.4209963e-02
  1.9451630e-01
  6.4616546e-02
  1.4664300e-01
 -4.0478777e-02
  1.8639786e-02
  2.7998295e-02
  3.1282689e-02
  2.2093354e-02
  6.7799301e-03
 -1.1210620e-01
  4.9081310e-03
 -6.6582210e-02
 -1.4594597e-01
 -6.1271274e-01
  8.5216008e-02
 -1.0503669e+00
  8.5483122e-01
 -9.3052499e-02
  4.2220265e-02
 -2.9664336e-02
 -8.8470608e-02
 -3.0903071e-01
 -7.2715074e-02
 -1.7830826e-02
 -6.7905456e-02
 -2.4556346e-01
 -1.0714908e-01
  6.0402106e-02
  1.4021769e-02
  3.6967418e-03
  8.1224225e-02
 -2.8295556e-01
 -3.3309555e-01
  8.1647776e-02
  4.4703729e-02
  5.3740885e-02
 -7.1792156e-02
 -2.2235323e-01
 -6.2615730e-02
  2.7215293e-01
 -7.6125017e-03
 -6.6083349e-02
  2.1495579e-02
 -3.6847584e-02
  3.5270252e-03
  5.3115755e-01
 -1.0770927e-01
 -5.3031478e-02
 -5.3008974e-02
  1.7856013e-02
  3.1111875e-01
  4.5440733e-02
 -3.5765454e-01
  6.3541360e-02
 -6.8518603e-03
 -6.8490230e-03
 -8.4855169e-01
 -2.7249691e-01
  1.7814610e-02
 -7.1706563e-02
 -5.1779620e-02
  1.3286836e-01
  1.2160158e-01
 -7.7339277e-02
  5.9738223e-02
  2.5317860e-01
 -1.5228269e-01
  2.5721949e-01
  5.3612334e-03
  3.1362793e-01
 -1.1839981e-01
 -2.7408761e-01
  3.3638689e-01
  2.5080383e-01
  6.2877047e-01
  1.4776614e+00
 -6.7409313e-01
  7.3204494e-01
  9.9579811e-02
 -1.0115398e+00
 -8.4057236e-01
 -3.3711616e-02
  3.3839044e-01
  4.5922381e-01
 -2.9143593e-01
 -7.7276754e-01
 -2.8802297e-01
 -5.4286051e-01
  7.3998339e-02
  5.0739553e-02
  1.9166927e-01
  1.6618235e-02
 -5.6515513e-03
 -2.2121975e-02
  2.6582226e-01
 -2.1501338e+00
  1.0432211e-01
  5.8193070e-01
 -2.0857738e-01
  4.2007396e-01
  2.9502712e-02
 -1.8676731e-01
  4.0166337e-02
  6.0967195e-01
 -3.5355094e-01
 -4.4214788e-01
 -1.6014773e+00
 -2.0075022e-01
  1.3437164e+00
 -1.3492723e+00
 -2.6748767e-01
 -1.2014601e+00
  7.6350802e-01
 -7.9248577e-01
  4.6711153e-01
 -5.5794412e-01
  7.6675045e-01
 -2.5195995e-01
 -3.9320081e-03
 -6.7220026e-01
 -1.4557205e-01
 -1.7183159e-02
  6.1744404e-01
 -2.8604180e-01
  1.2413886e+00
  9.1110133e-03
 -9.0699866e-02
  7.9478860e-02
 -1.2526727e-01
  1.0247164e-02
 -2.1901599e-01
 -2.4050534e-02
 -8.4827438e-02
  3.1366996e-02
  6.9321416e-02
  1.6016912e-02
 -4.3611232e-02
  4.6872541e-02
  2.9906034e-02
  3.0894581e-02
 -9.2898495e-02
  4.9779803e-01
 -8.1370004e-02
 -2.6913311e-03
 -4.0125947e-02
 -2.6185989e-01
  6.6529948e-01
  1.2734316e-01
  5.7284977e-02
  9.1505170e-02
  5.8380932e-01
  1.2580004e-01
 -5.6698006e-02
 -4.0281704e-03
 -3.3601534e-02
 -5.4673375e-05
 -8.9381607e-03
 -3.2820329e-02
  2.1727928e-03
  2.7429843e-01
 -4.1217249e-02
 -2.2809446e-02
  2.1371047e-01
  3.6927033e-02
  2.1037582e-02
 -6.1547863e-01
  2.0629982e-02
  2.3623494e-02
  1.0407092e-01
 -1.9315347e-02
  4.5773987e-02
  3.7465718e-02
 -1.3311788e-03
  1.3474458e-01
  8.0221511e-02
  6.0611062e-02
 -3.2248311e-03
 -2.4664970e-02
  5.4325007e-02
 -1.6979574e-01
  9.8332949e-02
 -4.8424534e-02
 -6.0010436e-03
 -1.0225900e-05
  2.6201352e-01
  2.8775638e-02
 -8.0301659e-03
  1.0026116e+00
  6.9666781e-02
 -2.7972450e-02
 -2.7087623e-02
 -1.0027576e-02
 -5.0123516e-02
 -2.2582644e-01
 -5.8346342e-02
 -1.4447615e-02
  1.7127853e-02
  2.2357404e-02
  1.0281228e-02
 -8.7685652e-02
 -7.2353031e-04
  5.2235257e-03
  1.6149107e-02
 -3.7011839e-02
 -1.5459344e-01
  1.0293650e-02
 -1.4537928e-01
  1.3117696e-02
  5.8372200e-02
 -3.5637032e-02
 -7.2669804e-02
 -2.8462595e-01
  4.0482901e-02
  2.8125210e-02
  1.2597027e-01
  7.4698113e-02
  4.4385833e-01
 -1.1574696e-01
 -2.2880126e-02
 -3.4340519e-02
  5.9418675e-02
  6.0059141e-02
  1.1585976e-01
  6.9461346e-02
 -1.6816344e-02
 -2.9553415e-03
 -3.4941312e-02
  1.0193723e-01
 -1.6605605e-01
 -7.0729833e-03
  4.3628260e-02
 -3.7345067e-02
 -5.0408272e-03
  5.0300881e-02
  9.2002377e-02
  4.7202583e-02
 -4.4120207e-02
 -7.2979328e-04
  8.1586480e-02
 -9.0290792e-02
 -1.4122215e-01
  2.7727818e-03
 -7.2275333e-02
  1.3099682e-01
  5.8407564e-02
 -5.1165041e-02
  8.6070865e-01
 -2.7205175e-01
  1.2645956e+00
 -1.1674232e+00
 -3.2440332e-01
  5.1806718e-01
  6.2807524e-01
 -2.9221076e-01
  4.9573553e-01
 -3.6883020e-01
  3.2467961e-02
 -6.3354325e-01
  8.4371018e-01
  2.1833277e-01
  3.1740969e-01
 -8.9480484e-01
 -2.5367224e-01
  3.0518559e-01
  5.8105505e-01
  7.7553421e-02
 -3.3318132e-02
 -7.0077044e-01
 -5.9106660e-01
  1.1343571e+00
 -2.4118673e-03
  3.0256847e-01
 -3.3005381e-01
  7.7065587e-02
 -5.8711874e-01
  6.2327050e-02
 -5.1555288e-01
  1.3164322e-02
 -4.7783729e-01
 -1.4110588e-01
 -4.5906142e-03
 -2.8093254e-02
  2.5142258e-04
 -4.3235675e-01
 -2.0455686e-02
 -1.3139067e-02
  3.3419572e-02
 -7.8204572e-01
 -1.6373412e-01
  4.1356298e-01
  4.8597071e-02
  1.0876740e+00
 -2.2020236e-02
  1.1684395e-01
  1.0218228e-01
 -3.0660968e-02
 -3.5969645e-02
 -5.1566754e-03
  2.3461374e-02
  1.4102934e-01
 -5.6854118e-02
  9.7128741e-02
  8.0834806e-02
 -1.6214211e-02
 -6.1630562e-02
  1.3002166e+00
  1.0519919e-01
 -6.9476627e-02
  2.8902331e-02
 -4.7451269e-04
  1.2873268e-01
  1.5275861e-02
  2.8726062e-01
  2.5421029e-02
  2.8477412e-01
  3.7567142e-02
 -2.1686504e-02
 -3.1725308e-03
  1.0332618e-02
  1.5445510e-01
 -2.7847799e-02
 -3.2197870e-02
  6.5782182e-02
  7.6593505e-03
 -7.3058926e-02
  1.1284090e-02
  2.6316326e-02
  1.1735588e-03
 -4.1970450e-02
 -6.5104015e-02
 -2.9689071e-03
 -6.6311628e-02
  1.1518811e-01
  7.6440316e-01
  3.0060509e-02
  1.1550645e+00
 -5.6819600e-01
 -5.8361202e-02
 -2.3152729e-02
  1.0885307e-02
 -5.6156356e-02
 -2.3218041e-02
  1.8331021e-02
 -4.5282137e-02
 -1.5448239e-02
 -4.2244673e-02
 -5.3534195e-02
  1.9051306e-02
  1.2241345e-01
 -1.9342048e-02
  5.1938627e-02
 -1.4079789e-04
 -2.9308517e-02
 -1.6366711e-01
 -1.9392536e-03
  8.5206116e-03
 -4.8266873e-02
  4.4438336e-03
  1.0763401e-01
  1.0716165e-01
  3.7286200e-02
 -1.9827707e-02
  2.6484665e-02
  6.2818457e-03
  8.6382724e-02
  1.0862653e+00
 -9.6141762e-01
 -2.7273458e-01
 -9.9032032e-01
 -2.2133200e+00
  9.7172402e-02
  3.2558598e-02
 -8.4992424e-02
 -5.6461447e-01
  1.9388836e-02
  9.9957836e-01
  3.0127533e-02
  2.0037571e-03
 -1.0706289e-01
  1.3254257e-01
  3.6599839e-01
  1.1647520e+00
  6.5656656e-01
  4.1819921e-01
  1.1008936e-01
 -4.0295121e-01
  9.0086631e-02
 -3.9904084e-02
 -3.7472099e-01
  1.1972420e+00
 -4.8277523e-02
 -8.9076586e-02
 -1.0443509e+00
  1.4071479e-01
  4.6102744e-01
  1.1179746e-01
  4.4596592e-01
  4.4872474e-02
  2.8291690e-01
 -1.3724131e-02
  1.8527135e-01
 -3.1550011e-01
  1.6794331e-01
  2.1074858e-02
  2.0031884e-02
  2.1906656e-03
 -1.7947653e-01
  3.4146774e-01
  5.3119493e-01
 -8.9921612e-01
 -9.4534364e-03
 -1.0019568e+00
 -1.4912571e+00
 -4.5604914e-02
  7.0647500e-02
 -5.6927985e-01
  3.2733861e-01
 -8.6716451e-02
  1.5499901e+00
  1.8268970e-01
 -4.7824975e-02
 -1.8849162e-02
  1.2835266e-01
 -1.4516526e-02
  1.0301672e-01
 -3.6715621e-01
 -7.4482167e-01
 -1.5137194e-01
  9.7834446e-02
  8.4675574e-01
 -5.6202840e-02
 -5.2176383e-03
 -4.5523381e-01
 -3.9589992e-01
  2.1714491e-03
  6.8180943e-01
  5.2032685e-01
 -3.1076556e-01
 -5.7275280e-02
  7.3851079e-01
  5.2116770e-01
  1.5804358e-01
  3.8182840e-03
 -4.4891873e-01
  5.5856389e-01
  1.8428437e+00
 -1.0667847e+00
  6.4963721e-02
 -7.7428222e-01
 -9.2162633e-01
  3.5563055e-01
  1.3273220e-02
 -6.1501157e-02
 -2.0888809e-02
  1.0520947e-01
 -2.3816040e-01
  3.0098068e-02
  1.3007186e-01
  8.7542355e-01
 -1.8574034e-01
 -7.6471940e-02
  1.3969100e-01
  2.8003192e-02
  1.0938920e-01
  3.7883688e-02
 -1.0071497e+00
  1.7643432e-01
  3.5534701e-01
  3.3511147e-01
 -3.0016792e-01
 -1.9615328e-01
 -2.8705237e+00
  6.7186721e-02
 -1.8046150e-01
 -1.0839835e+00
  1.0499367e-01
 -8.1373818e-02
  3.1452966e-01
  2.2205240e-01
 -1.7891435e-01
 -8.7664172e-02
 -2.2952950e-02
  2.7410230e-03
  7.2535224e-02
  3.4950279e-02
  5.9580680e-02
  1.1371739e-02
 -4.8036095e-02
  1.6028796e+00
 -6.1926633e-02
  1.4330847e-02
 -1.0004730e-01
 -3.2735258e-01
  5.8156367e-02
 -1.2738566e-04
 -2.4898395e-02
  1.0514406e-01
  5.4369427e-02
  1.1298041e-01
 -7.9341644e-01
  3.4692392e-02
  5.5687648e-01
 -1.6174494e+00
  7.3443189e-02
 -5.5163926e-03
  2.8284582e-01
 -8.0648184e-01
 -8.9150317e-02
 -1.2612489e-01
  1.6413264e-01
 -5.2104607e-02
 -3.2932054e-02
  1.6815582e-01
  1.0301760e-01
 -2.0234482e-02
  5.5764969e-02
  7.7128313e-02
 -8.2805526e-01
 -1.4615926e-02
 -3.7930071e-02
 -1.2835424e-01
 -1.1352527e-02
  6.9267541e-02
  8.6106025e-02
  7.6467860e-03
 -5.8767870e-02
 -5.3487746e-03
 -2.3557892e-02
 -8.1426315e-03
  8.6580592e-01
  3.6419298e-02
  8.9199895e-01
  4.0711142e-02
 -3.3706248e-02
  2.2524180e-01
  5.5083218e-03
  1.2021788e-01
  6.3898914e-02
  8.2687825e-02
  5.3948677e-01
 -4.2552069e-02
 -1.5646522e-01
 -5.5055257e-02
 -1.5729977e-01
 -1.1167305e-02
 -7.8635260e-02
  1.9905475e-01
 -6.2325969e-02
  1.9436386e-01
 -8.2571143e-03
  2.7289776e-02
  1.8609159e-02
 -7.0088297e-02
 -2.4471921e-01
  1.8155310e+00
  1.9151641e-01
 -9.3302943e-02
 -1.1842667e-02
  1.0224550e-02
  2.9760540e-01
  2.7827390e-02
 -2.7159590e-01
  1.2505315e-01
 -5.2432570e-04
 -6.0931053e-02
 -9.3574062e-02
  2.0381169e-02
  3.1420325e-03
 -2.8288439e-02
 -1.1653019e-01
 -2.1471847e-02
 -1.0729782e-02
 -7.8300670e-02
 -1.4591581e-01
  6.6444814e-02
 -8.2797579e-02
  1.6406758e-02
 -7.1838278e-01
 -4.9963351e-02
  2.7843392e-02
  4.2735618e-02
  4.8831385e-03
 -4.3880693e-03
  1.4985279e-03
 -1.0067301e-01
  2.0307502e-02
  2.7528843e-01
 -1.7838107e-01
  8.7356687e-02
  3.5655376e-02
 -1.8707510e-02
 -5.7060574e-03
 -1.2123339e-01
  1.8038740e-02
  1.2567650e-01
 -2.1342974e-02
 -1.4719338e-03
  3.3648282e-02
 -6.5280803e-02
 -1.8563651e-01
 -4.4946056e-02
 -5.8652770e-02
 -2.3610586e-02
  5.9151854e-02
 -2.7204955e-02
 -1.0738432e-01
  6.9005859e-01
 -3.7948534e-01
  5.2221902e-02
 -1.0219861e-01
 -3.1393997e-02
  9.8478752e-01
 -1.6276300e-02
  5.9492481e-01
 -9.5396116e-02
  1.5466329e+00
 -2.0538502e+00
  1.0316417e+00
 -2.8530018e-02
  8.0747068e-01
  8.1331098e-01
  1.5286570e+00
 -1.2551664e+00
 -5.1894188e-01
  6.3289303e-01
  7.5028014e-01
  1.6984962e-01
 -1.9040635e-01
 -2.2842835e-01
 -1.8574779e+00
 -8.9315629e-01
 -5.8742428e-01
 -2.9021832e-01
  9.9859647e-02
 -5.7699639e-01
  7.6312027e-03
  1.8333040e-01
 -1.5992999e-01
 -2.5081995e-01
  8.8625568e-01
  1.1561559e+00
  3.1219059e-01
 -1.5626991e-01
 -1.2838079e-01
 -1.0869496e-01
 -8.3520132e-01
 -1.1439501e+00
 -1.1587259e+00
 -4.5490768e-02
 -6.3783640e-01
  6.8942539e-02
  4.1567944e-02
 -1.8704109e-01
 -3.5158074e-01
 -2.3245955e-01
  5.8300203e-01
  2.2429595e+00
 -5.2209711e-01
 -2.7046245e-01
  4.1056180e-01
  5.6227934e-01
 -1.5613256e-01
 -8.1550407e-01
  1.2682892e-01
 -7.5694597e-01
  3.0830000e-02
 -7.8942299e-02
  3.9727747e-02
  7.7010877e-02
 -1.4335032e-04
 -5.0729014e-02
 -7.3541147e-01
  1.0562006e-01
 -4.8633065e-02
 -9.3222447e-02
  8.0453202e-02
  9.5513768e-02
  8.0668814e-02
 -5.0081408e-01
 -2.4139421e-02
 -1.9810719e-02
  9.6094375e-03
  4.1211274e-02
  5.3319059e-02
  7.3976621e-02
 -5.4531142e-02
  1.0052156e-01
  9.8235890e-02
 -6.2332577e-03
 -1.4434201e-02
  9.6181557e-02
 -2.2711018e-02
  5.8719408e-02
 -8.0822863e-02
  3.8464088e-02
 -2.7589467e-03
  5.4420538e-02
  1.5349957e-01
 -1.1861939e+00
  4.8728082e-02
 -9.3268536e-02
  1.4793828e-01
  8.0344066e-02
  1.5510193e-01
  3.0318091e-02
  2.8245816e-01
 -2.2766966e-02
 -3.0647799e-02
 -1.2972984e+00
  5.1404005e-01
 -7.4805319e-01
  9.0795979e-03
  2.6537333e-02
  4.7395831e-01
 -5.5333292e-01
  2.1053530e-02
  1.1634990e-01
  4.6259996e-01
  8.0275601e-01
  3.7106314e-01
 -6.6147342e-02
  2.2601062e-02
  7.8992039e-02
 -3.7522174e-02
 -3.0107987e-03
 -3.0805942e-02
  5.4072505e-01
 -1.2551011e-02
  9.9240255e-01
  3.2053769e-02
  1.1257552e-01
 -1.7384028e-02
  1.1478369e-01
  5.5383842e-02
  1.0166242e-01
 -5.5639464e-01
 -3.9187327e-01
 -8.0757625e-03
  8.4585035e-03
 -6.0682427e-03
  8.3853473e-04
 -1.7550547e-01
  1.3850649e-01
 -2.9183054e-01
 -3.4266990e-02
  1.5176980e-02
 -8.7015849e-01
 -4.2909962e-01
 -7.6090381e-03
  5.7323033e-01
  1.7436753e-01
  3.1482659e-02
  3.3776570e-02
 -3.8725268e-02
 -2.8522976e-02
 -1.5085349e-02
 -1.0200501e-01
  1.1426812e-03
 -2.2558019e-02
  1.0250661e-02
 -8.1460795e-04
 -4.4919066e-02
  1.5325356e-02
 -1.0900978e-01
 -2.3178884e-01
 -4.0042628e-02
  4.3148211e-01
  1.1529898e-01
 -2.5826434e-02
  1.8766561e-01
  2.9570347e-01
  8.4194350e-01
 -1.3639544e-01
  4.7711946e-02
 -1.0396645e+00
  2.5821972e-01
 -8.2989149e-03
 -4.0803898e-02
  2.4446913e-03
 -1.3711418e-01
  1.0724407e-02
 -4.8579322e-03
 -1.1046934e-01
 -7.3117852e-02
  6.1009910e-02
 -2.0226213e-01
 -6.7087549e-01
 -6.8537101e-02
  3.5367796e-01
  1.1002479e+00
 -5.7633007e-01
  1.4332730e+00
 -1.7779527e+00
  3.1453136e-02
  1.4975674e+00
  1.4164530e+00
  6.1616421e-01
 -1.4797924e+00
  1.5195328e-01
  2.6483619e+00
  1.6398171e-02
  5.7651204e-01
 -6.6259724e-01
  8.2428831e-01
  1.2243105e+00
  1.0855162e+00
  2.7464381e-01
 -1.9020125e-01
 -2.2933647e-02
  4.9693488e-02
  7.6471722e-01
 -1.1188727e-01
 -1.1629325e+00
  6.9591068e-02
  1.8078775e+00
 -1.1920086e-01
 -2.2872586e-03
 -3.9177794e-02
  2.3525842e-02
 -3.4530689e-03
  6.7576535e-02
 -1.4833677e-01
  6.6551673e-03
 -4.2487327e-02
  8.3826497e-02
  1.6302742e-02
 -1.6540233e-02
 -1.5396892e-01
  1.2290146e-01
  2.3040660e-02
  1.0129657e-01
  7.3603480e-03
 -2.3616180e-02
  8.2298564e-03
  1.0407775e-01
 -6.3432954e-02
  3.2925151e-02
 -1.1789190e-02
  1.1491471e-02
 -6.0648667e-03
 -3.4512889e-02
  8.6921584e-03
 -1.3082790e-02
  1.0918089e-01
  9.2513017e-02
 -5.0724111e-02
 -2.0031378e-02
 -2.8658321e-01
 -7.5277543e-01
 -1.0657928e-01
  8.1327641e-03
  3.2201342e-02
 -1.1342142e-02
 -1.3149829e-02
  7.2918527e-02
  2.0279551e-03
  3.6572918e-02
 -8.6572416e-02
 -1.7034139e-01
  5.8028985e-02
  6.4857864e-01
 -1.2144328e+00
 -2.2447048e-02
  5.4408791e-03
 -2.1262349e-01
  7.9303153e-02
 -2.3330581e+00
  1.8076845e-02
 -2.2199756e-02
  2.2195330e-01
  9.6632197e-02
 -5.4052517e-02
 -7.7986620e-02
 -1.8036587e-02
  2.3383304e-01
  9.6514606e-01
 -2.1303642e+00
 -1.4390068e-01
 -1.4514808e-03
 -1.1762670e-01
  1.0928856e+00
 -1.2388732e+00
  2.3735449e+00
 -6.0876942e-01
 -4.0435559e-01
 -3.5062107e-01
 -1.7371736e+00
 -2.7512398e+00
 -7.3216525e-03
 -1.2559652e+00
  3.8821080e-01
  1.5113096e+00
  3.5862882e-02
  7.8747118e-01
  5.9172601e-02
 -5.9946787e-01
 -8.3580327e-01
  4.7229630e-01
  6.5658146e-01
 -1.0222281e+00
 -3.2101344e-02
 -3.4671685e-01
  1.1777296e+00
 -5.1688623e-01
 -1.6576315e+00
 -8.2908198e-02
  2.8607044e-02
  5.3396188e-02
 -2.3484478e-02
 -1.0726855e+00
 -4.9131662e-02
 -3.3178276e-01
  1.4293076e-01
  3.4892470e-02
 -1.0090242e-03
 -3.3864489e-01
  2.4530591e-02
  5.7044562e-02
  9.7833546e-03
  3.4809053e-02
  7.1673930e-02
  6.1943973e-03
  5.4784175e-03
  5.6693390e-02
 -1.0466956e-01
 -3.5138182e-02
  3.4665477e-02
 -2.6827578e-02
 -1.0625563e-01
  8.4707320e-02
  1.7243056e-02
  7.0293702e-02
 -1.2094891e-01
  3.2030664e-02
  1.2027102e-02
 -1.2723222e+00
  6.9034004e-01
 -3.3107218e-01
  9.1883147e-01
  8.7976116e-01
  4.6546012e-02
  9.4837673e-02
  4.3481660e-01
  5.1474590e-03
 -2.8620359e-01
  1.1064683e+00
  1.7365469e-01
  2.6070741e-01
 -1.9102322e-01
  9.8817885e-01
  1.7105924e-01
 -2.7867565e-01
  5.3106431e-02
  1.0745010e+00
 -1.3792506e-01
 -1.8661675e+00
 -1.3124843e+00
 -1.4985727e-01
  1.6820280e-01
  1.1963785e+00
 -2.9409757e-01
  6.5442054e-03
 -6.1487341e-01
  2.5332198e-01
 -3.1960398e-02
 -7.1436181e-03
 -4.2029575e-02
 -1.8744592e-02
  1.0816806e-02
 -6.2820144e-02
  2.6794955e-02
 -8.5083358e-02
  6.4456195e-02
  5.5685610e-02
  7.2173215e-02
 -1.5989162e-01
  6.6917971e-02
 -4.7293514e-02
 -7.9676900e-03
  1.0126227e-01
  3.7428431e-02
 -3.9463237e-02
  3.0341309e-03
 -5.6648619e-02
 -5.5611781e-03
 -1.4111836e-02
  2.6667807e-02
  4.8450708e-02
  7.2155863e-02
 -3.9958637e-02
 -1.4160499e-02
 -5.7953011e-02
  2.7359229e-01
 -5.5217654e-02
  1.0892168e-01
 -9.1171756e-02
 -2.0484185e-01
 -2.1235216e-02
  2.5889413e-02
 -2.2526531e-02
 -5.0589964e-02
  4.2613815e-03
 -1.3697319e-01
  3.1705546e-01
  9.4506061e-03
  1.3647524e-01
 -2.4835153e+00
 -8.5803650e-02
 -2.1405157e-02
 -1.0773909e-01
 -2.3753194e-02
 -1.0899895e-01
 -4.4326697e-02
 -2.9348917e-02
  1.1746163e-01
 -1.1623704e-01
  1.7245401e-01
 -5.8784503e-02
 -2.5721947e-02
  6.1292950e-02
 -7.9495557e-02
 -1.8919010e+00
  1.9099388e-02
 -6.0074865e-03
  3.9748177e-02
  4.5884918e-02
 -1.1972289e-01
  2.4771037e-02
 -6.8401694e-02
  6.0253303e-02
 -1.0350295e-01
 -1.2432016e-02
 -1.4365346e-03
 -2.0091788e-01
  2.3205823e-03
 -9.4325244e-02
  4.2698425e-03
  1.3798973e-02
 -1.7818632e-02
  1.6162013e-01
  4.0372152e-02
  5.4165523e-02
 -8.5969374e-02
  1.0457238e-01
 -1.2463366e-01
 -7.9722507e-03
 -9.0406360e-03
  2.2093708e-02
  1.9747848e-02
 -6.7517482e-02
  1.0058116e-01
 -1.0532247e-02
 -8.1756651e-02
 -8.6480128e-03
 -1.6902151e-02
  8.1536002e-02
 -2.8690305e-03
 -1.0071287e-02
 -1.4076179e-01
 -3.7592899e-03
 -3.6142389e-03
  7.7527161e-03
  1.5623569e-02
 -7.7786557e-02
  6.4385742e-02
  8.3093487e-02
  3.7560895e-02
  4.9004622e-02
 -7.8467779e-02
  5.4057043e-02
  4.9563184e-02
 -3.0142516e-02
  9.2031844e-02
 -7.3566907e-03
 -2.2932416e-02
 -1.9836383e-02
 -2.3543288e-01
 -4.1502818e-02
  4.8326924e-02
 -2.2304999e-02
  1.7805450e-02
 -1.4808676e-01
 -6.8254848e-03
  1.0415681e-02
 -1.1797842e+00
 -3.9764330e-02
  6.8080240e-01
  1.9914342e-02
  6.0719453e-02
  3.6245544e-02
  1.5626812e-01
  5.3637747e-02
 -2.6384097e-01
 -7.8779928e-02
 -5.0449248e-02
  9.6472852e-02
 -6.9576590e-03
  7.2622327e-03
  1.5280855e-01
  9.4462194e-02
  1.0670816e-01
  8.2258634e-02
 -5.4423664e-02
 -5.0869428e-02
  6.5148817e-03
  3.1141093e-01
  4.4795498e-01
 -5.3592843e-01
  6.5889224e-02
  5.6649816e-01
  2.6607168e-01
 -1.9555549e-01
  6.6609882e-02
 -1.7920276e-02
 -1.9635206e-01
  2.2166209e-01
 -6.1453447e-02
 -6.9615670e-02
  1.0880138e+00
  1.3320044e-01
  2.4626253e-02
  6.3303001e-02
  6.6547491e-02
 -2.7542374e-01
  1.2743710e-02
 -1.3215770e-01
 -4.2029655e-01
 -1.8468601e-01
 -5.2326076e-02
  1.1869674e-03
  6.1471038e-02
 -9.9068743e-01
  5.6832559e-02
 -2.4908992e-02
 -3.0141464e-02
  3.1232139e-02
  9.0419483e-01
  7.4490565e-03
 -2.7679649e-01
  8.5319124e-02
  4.9698311e-03
  6.6309325e-02
 -1.5287491e-02
  1.2527372e-01
 -1.3982837e-01
 -8.2740737e-03
 -1.5063851e-01
  7.2494924e-02
  6.7075887e-03
  5.3746004e-02
  4.3827030e-03
 -1.0607683e-01
 -1.6563131e-01
 -5.1213060e-02
  1.4374404e-02
 -5.4712057e-02
 -1.0169037e-01
  1.2239869e-01
 -1.1093227e-01
  2.6884908e-02
 -9.9111982e-03
  2.2504729e-01
  2.9806605e-02
 -2.3278038e-01
 -9.1630511e-02
  2.9779043e-02
  9.3868924e-03
  1.3135999e-01
  1.9212312e-01
  1.1802521e-02
  2.0944573e-02
 -1.7687847e-03
  6.3422702e-02
 -1.7767996e-03
 -1.0031158e-02
  5.8223266e-02
 -1.8007273e-02
 -3.2756198e-02
  2.4802284e-01
  6.7063592e-02
  7.4124984e-02
 -3.9984781e-02
  2.1533592e-02
  6.0305174e-02
  1.6368832e-02
 -5.0913896e-02
 -1.0812860e-01
 -5.2837096e-02
  7.5458147e-02
  2.2532810e-02
 -8.4078781e-02
  8.1184227e-03
  1.2182914e-01
 -3.8569223e-02
  3.1386696e-02
 -4.3392565e-02
 -1.8406387e-02
  7.4345775e-02
 -2.7319135e-02
 -1.0850285e-01
  5.3220425e-02
  1.1163378e-02
 -1.3914916e-01
 -2.3175176e-02
 -1.1142073e-02
 -4.2223103e-02
  4.8334822e-02
  1.9144230e-01
  7.5135887e-02
  4.6209540e-02
  9.2387669e-02
 -2.3024807e-02
  3.7472367e-02
 -2.8002180e-02
  1.2869921e-01
 -3.5547778e-01
 -9.5308654e-02
  1.8081383e-03
 -4.1499399e-02
  2.9312924e-02
 -2.5122207e-02
 -1.3492665e-01
  1.4720295e-02
  1.4456462e-02
  1.2152568e-01
 -5.3678886e-03
 -1.7760769e-02
 -2.1923242e-02
 -7.7071026e-02
  2.7610689e-02
  2.0896325e-02
  8.0953740e-02
  3.5902742e-02
  6.5591782e-02
 -1.5702036e-01
 -1.3409019e-01
  9.4814613e-02
  6.0406752e-02
  4.9328592e-02
  2.4889788e-01
 -2.3994507e-01
 -3.5471570e-01
  5.9326598e-03
  4.3190292e-01
 -1.9739209e-02
 -2.5218660e-01
  1.8509801e-02
  2.8225234e-01
  2.4644981e-01
  9.9890602e-01
 -5.1645909e-02
  3.8980943e-01
  2.6961552e-02
  2.3850922e-01
  1.0361654e+00
 -4.8857802e-01
  5.6450482e-02
  7.5421013e-02
 -5.0389776e-03
  1.3008069e+00
  1.2344848e+00
  6.5616652e-02
  4.7947805e-02
  1.2380192e-02
  8.7254584e-01
  2.0562749e-01
 -1.0328989e-01
  5.0961580e-02
 -5.6367040e-01
 -3.6933956e-01
 -6.2238105e-02
 -6.2148530e-02
  8.0771390e-03
 -2.9488739e-02
  2.4282590e-01
  1.2876890e-02
 -1.0011265e-01
 -7.5225562e-02
  2.3978369e-02
 -3.2263830e-01
 -1.8825242e-01
 -4.5735839e-01
 -5.3264140e-03
  6.1773136e-03
 -4.4162185e-03
  5.6933701e-01
  8.4065282e-01
 -2.0086769e-02
 -1.2991142e-02
  6.7075387e-02
 -4.2786207e-02
  2.5119090e-02
  1.6612819e-01
 -4.6559144e-03
  4.6693485e-02
 -8.2700896e-01
 -5.2578676e-01
 -5.3114396e-01
  9.0521228e-01
  4.6090329e-01
  1.7454174e-03
 -1.9921528e-01
 -9.8960903e-03
 -4.9584746e-02
  1.3958369e-02
  9.3206489e-01
  3.4095109e-01
  1.0794848e+00
  2.8830771e-03
 -6.7923260e-01
 -8.8726848e-01
 -9.8118466e-01
  1.0797049e+00
 -1.6428884e+00
  2.5047615e-01
  4.3625888e-01
 -1.4693743e-01
  4.5433828e-01
 -2.0005209e+00
  2.8647119e-01
 -5.0821524e-02
 -2.2008394e-01
  6.1669769e-03
 -1.3418114e-01
 -1.2738688e-02
 -2.3406222e-03
 -1.1309485e-01
 -4.2407864e-04
  2.6127448e-02
 -1.7788883e-02
  1.0805228e-01
  1.8279942e-02
  4.9947355e-02
 -1.2250065e-02
  1.3229553e-01
 -5.4658398e-02
  3.8301766e-01
 -9.6475728e-02
  3.1141259e-04
  1.8599348e-01
 -5.7547487e-02
 -4.6775606e-02
 -1.7207903e-01
  2.8435808e-02
  3.7288483e-02
  8.2070595e-03
 -4.6314343e-04
  2.2159116e-02
  7.6707907e-02
  8.4499508e-02
 -4.4055812e-02
  2.2162899e-02
  3.7753116e-02
  8.2874721e-01
  9.3492679e-02
  1.4242835e-01
 -9.9392092e-01
 -3.2700069e-02
 -1.5726162e-01
  2.1586736e-01
 -6.6657919e-03
 -4.8395853e-02
  1.1235128e-01
 -1.3705550e-01
  2.3564493e-02
  5.6223296e-02
  7.0998319e-03
  2.0238924e-01
 -1.4088131e-02
 -2.5817480e-02
 -1.7216079e-02
  4.7408935e-01
 -7.1031161e-02
 -8.0866694e-02
 -1.1587130e-01
 -1.1241997e-02
  1.0861812e-01
 -4.9647006e-01
 -1.0621230e-01
  1.0057901e-01
 -1.4874470e-02
  3.7232809e-02
 -2.5501072e-02
  6.4164259e-02
  2.9291101e-02
  1.0934996e-01
 -2.0923626e-01
  3.0614677e-01
 -3.3683982e-01
  2.8217411e-01
  3.3463344e-02
  1.6337137e-03
  2.2073831e-01
  1.2078942e+00
  1.2409699e+00
 -8.2726171e-03
 -1.2982991e-01
 -9.7265893e-01
 -3.3789014e-03
  1.1119542e+00
 -7.8959450e-02
 -1.0034735e+00
  6.0105002e-01
  3.2682045e+00
  1.7383666e+00
  5.2559525e-01
 -3.5088956e-02
  1.9618155e-01
  4.0764946e-02
  4.4958073e-01
  5.4475367e-02
 -3.0042431e-01
  5.9034832e-02
 -9.1460377e-02
  1.3952615e+00
 -4.3483204e-01
  9.8503727e-01
 -4.2064583e-01
 -5.4910463e-01
 -1.0880831e+00
  5.3804971e-02
  1.2466236e+00
 -6.0379118e-01
 -3.5038766e-01
  9.2359948e-01
  4.1859490e-01
  3.3745304e-01
 -3.9991371e-02
 -8.1974280e-01
 -5.2794385e-01
  9.7462330e-03
  1.2692528e+00
 -1.6119398e+00
  3.5898033e-01
 -4.6662924e-01
  3.7172782e-01
 -4.6421376e-01
  2.8660131e-01
  8.1195697e-02
 -6.6762239e-01
  1.8247415e-01
  1.5547702e-01
 -8.7313145e-02
  5.4709539e-02
 -5.4170352e-01
 -1.2558521e-02
 -2.6036021e-01
 -1.0626495e-01
  1.3256123e+00
  1.1808532e-02
  6.3705095e-03
 -4.0993322e-02
  4.3835188e-03
  1.3688867e-02
 -1.9781863e-02
 -3.6381075e-01
 -8.4016789e-03
 -2.3891786e-01
 -5.0034089e-04
 -5.4712868e-01
 -8.8272952e-03
 -9.1195929e-01
  5.2630186e-02
 -2.5681615e-02
 -2.2805247e-01
 -1.6262289e-02
  3.4398443e-01
  2.0803707e-02
  3.3256616e-02
  3.7999007e-01
  1.0242285e-01
  7.4501415e-03
 -2.2190630e-02
  3.9619848e-02
 -1.2000678e-01
 -9.7964622e-02
 -5.4368913e-01
 -5.1868930e-02
 -7.9880476e-02
 -6.9395371e-02
  1.2261320e-01
  1.4783892e-01
 -1.7340022e-01
 -1.4978437e-01
  4.5674358e-05
  3.5857357e-02
 -7.0002429e-02
 -1.0605571e-01
 -1.2275317e-01
  3.8367721e-01
  4.3625202e-02
 -1.8822141e+00
  3.9505106e-03
  5.7545282e-02
 -2.3678277e-01
 -1.6053289e-02
  5.9524250e-01
  5.8336616e-02
  9.1713682e-02
 -3.9189422e-01
 -6.2612638e-02
 -3.3514363e-01
 -2.8121337e-02
 -1.1944079e-04
  1.0988459e-01
  1.2972701e+00
 -9.3001229e-01
  3.0326852e-01
 -2.2430558e+00
 -1.3662074e+00
 -1.2176203e+00
 -1.1195655e-01
 -1.2873462e-01
  4.3421033e-01
 -1.7620695e-01
 -3.4913096e-01
 -9.1179520e-01
  1.3858627e-01
  3.0524308e-02
  7.1882921e-01
  5.5116165e-01
  3.1014904e-01
 -6.7454314e-01
  1.0107269e+00
 -4.1721258e-01
 -1.3874695e+00
 -1.2283346e-01
 -8.1741059e-01
  5.8831805e-01
 -2.6050863e-01
  4.6169069e-01
  1.2793663e-01
 -9.2229202e-02
 -3.8749975e-01
 -7.5240701e-01
 -1.3612309e-01
 -7.1462817e-03
 -6.4851753e-02
 -7.6347068e-02
 -4.5580685e-01
 -4.6789460e-02
  8.5675791e-03
  5.2506998e-02
  6.8687135e-03
 -1.6340998e-01
  7.4669391e-02
 -8.3714269e-02
 -5.3843834e-02
 -4.7536887e-02
  1.0827038e-02
  3.7603747e-02
  1.4187376e-02
  2.8812680e-02
 -3.4966502e-02
  1.0355719e-02
  5.8661822e-02
  4.9033459e-02
 -2.5773011e-02
 -2.6377618e-02
 -1.3121857e-01
 -5.9227236e-02
  1.3292426e-01
  3.2333332e-01
  4.4377781e-02
  3.1906504e-02
 -1.1558006e-02
 -1.3263238e-04
  1.4303138e+00
  2.5133725e-02
  5.0179493e-02
  7.3160678e-03
  6.0014002e-02
 -1.1491051e-01
  5.5641994e-02
  2.2705365e-02
  3.0560991e-02
  8.2488926e-03
 -1.1005631e-01
 -7.8117959e-02
 -1.8281369e-01
  4.0546075e-01
  2.8540043e-02
 -6.5955289e-02
 -7.2345473e-02
  1.9112755e-02
 -2.2995496e-01
  3.1046862e-02
 -2.0489970e-01
  5.4392149e-03
  7.0098293e-01
 -1.8622825e-01
  1.1194924e-01
 -4.1675467e-02
 -2.3657741e-02
 -2.3617266e-02
  2.5862787e-02
 -6.7934334e-02
 -7.5795248e-02
 -1.1948587e-03
  2.2312501e-02
 -5.4442018e-02
  2.1859247e-02
  3.8254336e-02
  4.8924778e-02
 -2.0156734e-01
 -1.3098863e-01
 -2.1745045e-02
  1.9945032e-03
  1.8525800e-02
  4.8849113e-02
 -5.5573660e-01
  8.4554421e-04
 -8.0038071e-02
  2.3619600e-02
  1.9950682e-02
 -1.6165029e-02
 -2.5900031e-02
 -2.7832776e-01
 -4.7983922e-02
 -6.7956559e-02
 -5.1146604e-02
  1.2551922e-02
 -1.3258320e-01
 -6.7111172e-02
 -7.8536369e-02
  1.0839191e-02
 -9.2617683e-02
 -9.5375990e-03
 -4.7249466e-02
 -1.2799166e-01
  5.6527320e-02
  6.6091535e-03
  4.4748086e-02
 -4.3649026e-03
  8.8336885e-02
  6.1629463e-02
 -1.3957508e-01
  7.4155517e-03
 -2.7959615e-02
  3.0619441e-02
  2.6010158e-03
 -1.3324265e-01
  1.0735893e-02
  5.4719605e-02
  1.1631223e-01
 -1.1491478e-02
  4.6094686e-02
  3.9637250e-01
  4.3246500e-02
 -4.6627560e-01
 -7.0903860e-03
  3.3071224e-02
 -2.4091762e-02
  5.0783283e-03
  7.4535534e-02
  1.2041781e+00
 -4.5609679e-02
 -4.3996338e-02
 -4.8348650e-02
  4.5432154e-02
 -7.0198692e-02
  2.8765863e-02
 -1.2821312e-02
 -6.8246908e-03
  5.5080997e-03
  3.3074293e-02
 -6.4938702e-02
  9.4373353e-02
 -3.5148453e-02
  6.4042240e-02
 -6.0821012e-02
  2.0744611e-02
  5.8243997e-02
 -4.9133830e-02
  5.0744158e-03
 -4.4990149e-03
  2.1912801e-01
 -9.6712343e-02
  4.0640991e-02
 -4.0133357e-02
  3.4770213e-02
 -4.2025797e-02
  9.5451549e-03
 -6.1986141e-02
  4.6317514e-02
  2.7861746e-03
 -1.1125929e-01
  2.7847789e-02
 -7.8076586e-02
 -2.9915834e-02
  1.1126388e-02
 -1.2653500e-01
  3.9474379e-02
  3.0114170e-02
  3.6703181e-02
  8.1693161e-01
 -8.3620393e-01
  2.4957545e-02
 -1.8524386e-02
  1.3233015e-01
  2.9213220e-02
  1.7276001e-01
  3.1106381e-02
 -1.3646974e-01
 -1.2801454e-02
 -1.3637502e-01
 -7.0695311e-01
 -1.4460203e-02
 -2.9618365e-03
  9.1118395e-04
 -1.9221260e-03
  2.0748652e-03
  7.3593490e-02
  5.5381493e-03
  1.9688351e-01
  1.7576730e-02
  9.0806894e-03
  2.3030806e-02
 -6.8071187e-02
  1.1536600e-01
 -4.7432415e-02
 -4.9485561e-02
 -5.2532300e-02
  2.4436470e-03
 -9.0431966e-02
  4.7001939e-02
  2.3723748e-01
 -1.6074428e-01
 -1.2130057e-02
 -6.4742014e-02
  2.7774945e-02
 -2.6491848e-03
 -1.6547440e-02
 -6.4759869e-03
  3.7269186e-02
 -4.7458601e-03
 -1.5713767e-03
  2.6499102e-02
 -5.7844236e-03
 -4.6827935e-02
  1.1370493e-01
 -2.6890183e-02
 -8.7892180e-03
 -4.8915977e-03
  9.5868520e-02
  2.0291157e-02
 -6.2117758e-03
 -4.3162145e-03
 -2.3641339e-02
 -1.5264364e-01
 -3.9335985e-02
 -1.8230312e-01
  5.1973030e-02
  6.5485224e-02
 -6.6205725e-02
  9.8525129e-02
  3.6071006e-02
 -1.7399351e-01
  6.5639369e-02
  2.4973880e-02
  3.1478923e-02
 -9.0002000e-02
  3.9244513e-03
  9.3041979e-02
 -2.7915492e+00
  3.3176628e-01
  1.0529178e-03
  4.0969931e-02
 -4.5271153e-03
  1.0988560e-01
 -3.6630932e-02
 -4.0836342e-02
 -2.7526370e-03
  2.4647196e-03
  1.3331193e-02
 -2.6650138e-02
  1.6318087e-02
 -3.2928274e-03
  1.1756553e-01
  1.6379554e-02
  5.6805983e-03
  3.7243504e-02
  1.2585597e+00
 -2.3545561e-02
 -3.8891476e-02
  8.8258497e-03
 -6.3143708e-02
 -2.4894105e-02
  1.2666238e-02
 -7.0241757e-02
  9.2306152e-02
 -5.0696842e-02
  2.4686217e-02
 -5.5398598e-02
  1.7855311e-02
  1.2116440e-01
  4.6403326e-02
 -2.2172097e-03
  1.1381621e-01
  1.1754730e-01
 -7.5074397e-02
 -5.8853958e-02
 -1.3497446e-03
  3.9300327e-03
  5.6278443e-01
  4.8112401e-01
 -1.3943428e-01
 -4.7515509e-01
 -4.2635837e-01
 -3.2478094e-01
 -3.2106750e-02
  7.4119520e-01
  1.0275860e-01
 -1.2896419e+00
  2.8724918e-01
 -2.8777224e-01
 -1.8101078e+00
  2.3030486e+00
 -5.8348570e-02
  8.7847996e-01
 -3.5664675e-01
 -8.8016057e-01
 -1.1197618e+00
 -5.2722484e-01
 -1.7318919e-01
 -7.8000057e-01
 -6.6078174e-01
 -1.3730621e-01
  2.5631231e-01
  8.3965999e-01
 -1.0875726e-01
  6.3157779e-01
  1.9915868e-01
  9.2718467e-02
 -2.0287912e-01
  7.5926915e-02
 -5.2334644e-02
 -4.4578586e-02
 -2.7672680e-02
 -2.7159554e-01
  2.1463078e-01
  1.2357894e-02
  1.1949231e-01
 -4.2729262e-02
  9.9317115e-03
  2.5574042e-02
 -5.1541608e-02
  2.0788272e-01
  1.0209667e-02
 -3.8535699e-02
  6.5237442e-03
 -3.9309296e-01
 -5.3005818e-02
  2.1273220e-02
  3.6214102e-02
  1.7071521e-02
  1.5110977e-02
 -2.5482760e-03
 -1.8371169e-01
 -1.9956730e-01
  1.0217211e-01
  2.4141293e-02
 -4.2405855e-02
  9.0482764e-02
 -2.9734580e-02
  3.4685113e-02
  2.2720207e-02
  2.1353318e-01
  6.4208627e-02
 -5.1793642e-03
  1.1110923e-02
 -1.6616262e-02
  8.0989450e-02
 -3.1008698e-02
 -6.1152145e-02
 -1.6766207e-01
 -1.1268294e+00
  3.0420542e-02
  7.4373037e-02
  2.6816444e-02
  3.4047016e-03
  6.6733636e-02
 -4.8956264e-02
  7.6286390e-02
 -6.0341239e-01
 -4.0288516e-03
  4.1181999e-01
 -1.0911649e-02
  1.0944548e-01
 -3.0717084e-02
  2.1681095e-02
 -1.7591962e-01
 -1.8930772e-02
  2.1707355e-03
  2.3550482e-02
  3.8756553e-02
  4.0934045e-02
 -5.2368231e-02
  1.0191415e-01
 -1.7303763e-03
  6.0745448e-02
  7.0600289e-01
  2.8694728e-02
 -1.6761301e-02
  1.8255550e-01
 -7.8263864e-02
 -4.2803459e-02
  7.0267729e-02
  2.0610219e-02
 -1.1525504e-02
 -7.4959099e-02
 -4.4272617e-02
  1.8891945e-02
 -2.0049328e-02
  5.9412159e-02
  7.1743475e-03
  8.5516647e-03
  1.5651143e-01
 -1.2590748e-03
 -2.6164772e-02
 -6.7985564e-02
 -3.7761822e-02
  5.1051946e-03
  2.4371019e-02
 -1.7891896e-01
 -2.9648492e-02
 -8.1436653e-03
 -1.2197654e-02
  4.9039625e-02
 -5.2025565e-03
  1.1101876e-02
 -1.7478155e-01
 -4.0480696e-02
 -5.3832814e-02
  2.8438967e-02
  1.1822607e-03
  2.4511205e-02
 -2.5868135e-02
  1.6629581e-01
  5.1372841e-02
  5.3283423e-02
  1.2309068e-02
  1.1800839e-01
 -2.0998880e-02
 -7.7223070e-03
  6.3523404e-02
  2.0903643e-02
 -1.3523391e-02
  2.0131586e-01
  7.0885099e-02
  9.8014280e-02
  7.0123547e-03
  6.3883872e-03
  3.0855995e-02
  2.7173543e-02
 -3.7266880e-01
 -7.0282452e-02
  9.8726511e-01
 -4.4598740e-01
 -9.6375281e-03
  3.5693711e-03
  1.8656093e-01
  1.6763419e-01
 -3.2116647e-04
  7.9790466e-02
 -5.4096375e-02
  3.7240526e-01
  2.2117229e+00
  8.2719862e-01
  6.4655042e-01
 -6.5944177e-01
 -2.0941171e-01
  2.0408134e+00
  3.0830216e-02
  7.4703526e-01
 -3.4007958e-01
 -8.1318326e-02
  3.8976285e-01
  4.0319452e-01
 -5.1102672e-02
 -2.4659008e-01
  2.7092206e-01
  1.3045977e+00
 -2.7403809e-02
 -3.5485223e-01
 -1.1488806e-02
 -2.8929567e-01
 -8.7883556e-01
  8.4925376e-02
 -4.3183476e-01
 -9.7327515e-02
  1.2877162e-01
 -2.1697762e+00
 -3.2816395e-01
  7.9880083e-01
  1.4378961e+00
  1.5388688e-01
  1.0022877e+00
 -3.1444725e-02
  4.5669088e-01
 -8.8630535e-02
  2.2210393e-02
 -2.9384598e-01
  1.4999099e-01
 -1.9256859e-01
 -1.7151276e+00
 -4.1061187e+00
  1.1888005e+00
 -1.2781523e-02
  2.8083289e-01
 -6.8061566e-01
  7.8352886e-01
 -1.0204114e+00
  1.6863534e-02
  7.2801566e-01
 -1.5221803e-02
  3.2596726e-02
  1.2876322e-02
 -2.2717286e-02
  4.0304619e-01
  2.3946421e-02
 -3.8166184e-02
  6.6921666e-02
 -2.3092273e-01
  1.1272901e-01
 -6.7451119e-02
 -1.0965724e-02
  1.8113498e-02
 -1.1736871e-02
  9.2048414e-02
 -2.4731709e-02
 -6.0984291e-02
 -2.6994165e-02
 -1.2709819e-02
  3.0641118e-02
  3.1185135e-02
  3.2411650e-01
 -7.9045724e-03
 -8.1046797e-02
 -2.7178954e-03
  3.7262684e-01
  1.0466659e-02
 -4.9766465e-03
 -4.7105337e-03
 -3.7827887e-02
 -2.2276545e-02
  3.7285119e-02
  6.0613375e-02
 -2.3465836e-02
 -4.2467244e-02
  1.4882377e-02
 -8.8482548e-04
 -9.6820697e-02
  8.9661695e-02
  1.2499873e-01
 -4.0092539e-02
  2.0733520e-02
  7.6213360e-02
 -1.1258858e-01
 -9.6204579e-02
  6.1692607e-02
  3.1953335e-03
  2.3685519e-02
 -3.1428607e-03
 -5.0829914e-03
 -1.9176349e-02
  4.4850819e-02
  1.4260667e-02
  8.5757840e-01
 -7.2137184e-02
 -1.3598430e-01
 -9.5487805e-03
 -1.2753291e-01
  1.1680815e-01
 -6.2904201e-02
  9.1935627e-02
  2.1788219e-02
 -4.0781480e-01
 -1.0378737e-01
  5.1157147e-01
  2.3851609e-02
  1.5063541e-02
 -2.9432833e-01
  1.1241440e+00
  1.0892775e-02
 -2.5003839e-03
  2.0349950e-02
  4.0557329e-03
  8.1915110e-03
 -5.4477710e-01
  1.8218405e-03
  7.4574625e-01
 -6.6146320e-01
  8.9840102e-01
 -1.8169235e-02
 -2.9774714e-01
 -2.1232446e-01
 -7.4545014e-01
  7.2290190e-02
 -7.9493195e-02
 -1.8062257e-03
  2.3096628e-01
  2.6821459e-02
  3.2510132e-02
  1.8955858e-02
  5.0430275e-02
 -5.3844612e-02
  1.0833102e-01
 -1.1775382e-01
  1.8503470e-03
 -8.3301015e-02
 -1.3498222e-02
  8.5414285e-03
 -8.1921099e-03
  4.7036655e-02
 -1.5983963e-01
 -8.4356450e-02
  1.8387506e-02
 -4.9171403e-02
 -4.5331987e-03
 -1.8517923e-02
 -2.5420375e-02
  1.2307098e-03
 -4.7425307e-02
 -8.7793581e-02
 -2.0958904e-02
  8.7975673e-03
 -8.7507002e-02
 -8.5413843e-02
  6.8079354e-03
  4.8215720e-03
  8.1036482e-03
 -1.4760975e-02
  3.1648271e-02
 -7.4597881e-03
 -1.0609909e-01
  6.6140838e-02
 -2.6907885e-01
  1.3465448e-02
 -2.4136287e-01
  5.0629264e-01
  1.3648121e+00
 -9.6811306e-01
 -5.4293707e-02
  2.7074036e-01
  1.1791956e-01
  1.9357896e-01
  1.9000633e-01
  3.1191381e-02
 -8.0822831e-01
 -1.1364049e+00
  1.6718055e+00
  2.0259474e-01
  1.8037918e-01
 -3.1735033e-01
 -7.0994461e-01
 -2.2715947e-01
  6.1352050e-01
 -3.9811604e-02
  1.6118800e-04
 -4.3630728e-01
 -3.7989441e-02
 -7.2799347e-02
  6.4827837e-02
 -2.8691512e-01
  1.3873902e-02
 -4.8738089e-01
  8.0260217e-01
  1.4807405e-01
  8.6279899e-01
  7.4806466e-04
 -8.8056391e-01
 -9.4974351e-01
  3.1874320e-01
 -4.3884210e-02
  3.6363652e-01
  7.2887731e-01
  3.3209157e-01
 -5.9116703e-01
 -3.4173959e-01
 -9.3438816e-01
  2.1738654e-02
  1.0358524e+00
  4.6543854e-01
 -9.2100883e-01
 -7.7095710e-02
  1.9872231e+00
 -7.4563581e-01
 -7.6838613e-02
  5.9643799e-01
  6.0784632e-01
 -1.3952179e-01
 -1.7768794e-01
 -8.7676562e-02
 -3.1866139e-01
  9.6366160e-02
  5.3625796e-02
 -1.6345884e-01
 -2.9191382e-02
  6.9280341e-02
 -3.5037581e-02
 -3.8187087e-02
  3.4874823e-02
 -1.3540093e-02
 -9.2788013e-03
 -3.4829047e-02
  2.8046821e-03
 -1.7723281e-02
  2.0585155e-02
 -1.2588161e-02
 -3.3011325e-02
 -2.0734943e-01
 -1.4278113e-02
  8.3653189e-02
  9.6231118e-02
  3.0640730e-01
 -6.4909089e-01
  4.3720387e-02
  3.4003304e-03
 -4.1167084e-02
  7.0959456e-02
  9.0530550e-05
 -3.8397122e-02
 -7.0317425e-02
  9.1090528e-03
  8.9116827e-02
 -9.1350538e-01
  1.2688681e-02
  1.0575905e-01
  8.9038098e-03
 -1.4409433e-02
 -1.0700929e-02
 -1.7766321e-02
 -3.6691613e-02
 -4.4020690e-02
  1.0170433e-02
 -9.6738614e-02
  9.5553890e-02
  4.1444261e-02
 -4.4559655e-03
 -3.4454722e-02
 -5.0007340e-02
 -5.1702637e-02
  4.7356375e-02
 -1.1212919e-01
 -8.1907518e-02
 -8.9416588e-03
 -5.8394461e-03
  2.3527767e-03
  1.9568701e-01
  6.2224165e-02
  1.2691160e-01
  3.3375733e-02
  6.2474377e-02
  7.7410579e-02
  2.4580350e-02
 -6.5981173e-03
 -4.2761910e-01
 -5.1113141e-01
 -8.2810335e-02
  3.5930563e-02
  6.4724439e-01
 -2.2246551e-03
 -1.4473134e-01
  2.7231637e-02
 -5.9550279e-01
  4.0389251e-02
 -6.3287437e-01
 -4.3351206e-01
  3.8039976e-01
 -4.8997905e-02
  1.1014628e+00
 -1.5328791e+00
  1.2009261e-01
 -7.6306783e-02
 -5.0370818e-01
  8.8315797e-01
 -2.3627278e-01
  1.6827966e-01
 -1.6689619e+00
 -4.6099890e-02
 -1.9352620e-02
 -1.2033208e-01
 -3.0579153e-02
 -6.9230080e-02
 -3.9456633e-01
  6.1893598e-03
 -1.3231224e+00
 -5.8834028e-01
  1.2074343e-01
  4.3039862e-02
  3.5138667e-02
  2.6203386e-04
  3.4890237e-01
  4.5581877e-02
 -1.1507484e-01
  5.1719016e-01
  3.5421994e-01
 -1.2951416e-01
 -1.0787363e-01
 -6.9118285e-01
 -3.9345929e-01
  4.1377661e-01
 -5.3310210e-01
  3.0777612e-01
  1.1349384e+00
  6.5409742e-02
 -3.2926399e-01
 -6.0032792e-02
 -4.9152803e-01
  4.7707438e-02
  7.9568118e-02
  9.9909842e-02
 -4.3471325e-02
  3.0112464e-02
 -6.9343902e-02
  2.1843730e-01
 -1.6088037e-02
  5.1182204e-01
 -2.6112720e-01
 -9.3395062e-02
  7.2322711e-02
  9.1364011e-03
 -2.5010781e-02
  5.1768679e-02
 -6.0601677e-03
  6.9739006e-02
 -1.4090908e-01
  6.5218568e-02
  8.5748211e-02
  2.9597965e-01
 -4.4314280e-01
 -2.2140172e-01
  2.2135295e-01
  4.1731298e-03
 -6.5061152e-02
 -1.6788179e-02
  1.2952705e-01
 -1.4875787e-01
 -8.3510351e-01
 -1.1068889e-02
 -3.8489461e-02
 -2.0017169e-02
 -1.7382364e-01
 -1.1279471e-02
  4.5943639e-01
  1.8173670e-02
  2.1168040e-01
  5.0693735e-02
  2.7330801e-02
 -1.1018268e-01
 -2.0667598e-01
 -1.9626257e-01
  1.6880271e-01
  1.3435457e-02
  5.9037340e-01
  2.3014300e-02
  8.2589336e-02
 -2.7367737e-02
 -1.6356271e-02
 -5.1144075e-01
  7.1348719e-02
  4.6848111e-02
  6.9110513e-01
 -1.2663533e-01
  8.5253352e-01
  4.1586064e-02
  7.1578058e-03
  1.6455771e-02
 -9.3419068e-03
 -3.4656752e-02
 -4.4075787e-02
  2.3933893e-02
  9.3951143e-02
 -3.2571003e-01
 -7.6252997e-02
 -3.6977420e-03
  6.7793317e-03
 -1.9528393e-02
  3.0721533e-01
 -6.8076037e-02
  6.6227908e-03
  5.5502422e-02
 -1.9756263e-02
  9.7057730e-02
  7.1175653e-03
 -4.1548887e-01
  1.4912390e-02
 -5.4352690e-02
 -1.8785242e-02
  2.4724960e-02
  3.1319443e-02
  4.2227779e-02
  5.5160929e-02
 -6.1167353e-03
  4.6787947e-02
  1.1295829e-02
  4.1757803e-02
 -8.5684739e-02
  1.0175891e-01
 -1.1576215e-01
  3.9411294e-03
 -5.6952916e-02
 -1.0122474e-01
  1.4621913e-02
  5.7965424e-02
 -1.9323394e-01
 -2.0874253e-02
  2.7530658e-01
  5.4989517e-01
  1.0430603e-01
 -1.2725059e-02
 -6.4287274e-03
  2.6064724e-01
  5.5979606e-02
 -1.0555544e-01
 -1.2260197e-01
 -1.1527924e-01
 -3.8640428e-01
 -5.3152889e-01
  7.4029452e-01
  3.6862144e-01
  7.9292864e-01
  4.5285162e-01
 -7.4862343e-01
  1.5365472e-01
 -5.0079256e-01
 -1.7788994e-01
  2.1008785e-01
 -6.4351302e-01
 -1.5721038e-02
 -2.0087667e-01
 -5.4303992e-01
 -7.1334600e-02
  6.1338618e-02
 -4.3393619e-02
  1.1014489e-02
 -6.9780153e-01
 -2.8868930e-02
 -4.1257125e-01
  1.1382201e-01
  2.9916281e-02
  1.2013195e-02
 -8.7217689e-03
 -2.3569555e-04
  1.1084410e+00
  1.7059715e-01
  7.2651848e-02
 -3.4089617e-03
  4.8817109e-02
  1.0383990e-01
  1.1790685e-01
  1.2630215e-01
  9.9917622e-03
  3.6310193e-01
  1.0231239e-02
  4.2140520e-01
 -1.0627562e-01
 -3.1869121e-02
  8.7657467e-02
  1.7993927e-02
 -3.0845121e-04
  1.1501000e-02
  4.0605392e-02
 -4.9082406e-02
  4.2868825e-05
 -6.5069956e-01
  7.6961659e-02
 -3.0659491e-01
  2.6459655e-01
 -1.1812884e-01
  3.0898561e-03
  2.4119881e-01
  7.0326790e-02
  2.0177696e-02
 -1.0109759e-01
 -2.9249683e-01
  1.8878800e-01
  7.4805826e-02
 -4.1336516e-01
 -7.9764873e-03
 -6.2808432e-02
 -1.5395536e-01
  8.9586806e-01
  4.0455993e-02
 -1.4347173e+00
  1.5458928e-01
 -1.6371843e-01
  5.1347990e-02
  2.9727941e-02
  5.6902993e-02
  1.4147706e-02
  2.9999095e-01
 -6.9027707e-02
 -2.5981477e-02
  5.2924253e-02
  1.5010816e-01
  5.8332887e-02
  3.0259848e-01
  8.9610957e-02
 -1.2659549e+00
 -1.7948692e+00
 -4.1881451e-01
 -2.2585042e-02
 -1.1465768e-01
 -1.5420163e-01
  5.1957637e-02
  1.1075886e+00
  1.1631982e-01
  3.0972299e-01
  1.7965451e-02
  5.9522593e-01
  4.6406906e-02
  1.1680388e-01
  1.8260226e-01
 -7.8920633e-02
  2.5014317e-01
 -2.0817967e-01
  8.2280017e-02
  1.0607275e+00
 -8.6613551e-02
 -2.9971275e-02
  1.1158162e-01
 -1.8376304e-02
  6.1397415e-02
  6.2052310e-02
 -2.4924959e-01
  2.9476633e-02
  1.3899893e-02
 -6.1392370e-03
 -1.2876758e-02
 -3.9666384e-02
 -7.9090431e-02
  1.3715328e-01
  2.7984086e-02
 -7.1939386e-02
 -1.2057077e-01
  5.6894012e-03
  1.5239094e+00
 -8.5586356e-03
  6.2201463e-02
  1.4753996e-02
  1.2355489e-02
  1.8034322e-02
  6.4738862e-02
  1.0053280e-01
 -2.2907766e-02
  3.8059980e-02
  1.8893080e-02
  4.1478246e-02
  1.0451001e-02
  2.3811543e-02
  5.8441912e-03
  8.5290045e-02
 -8.3372891e-02
 -4.1356731e-02
 -4.3069102e-02
  7.7986352e-02
 -3.0677241e-01
  3.6608061e-01
  3.1367911e-03
 -1.0159948e-01
 -6.9170818e-02
  5.0093129e-02
 -1.7308840e-01
  3.5730019e-02
  4.9525630e-02
  5.8144674e-02
  2.5396906e-02
  2.4214234e+00
  1.1181820e-01
  1.5568665e-01
 -2.3622862e-01
  3.0458361e-01
 -1.4811317e-02
  7.5069481e-01
 -3.2760826e-01
 -1.4196928e-01
  5.7326492e-02
  1.4684857e-01
  2.0921502e-02
  1.7741177e-02
  3.0558143e-02
 -1.1163726e-01
 -1.3118830e-01
  1.0845995e-02
  4.9638290e-02
 -1.5690395e-01
 -1.0663571e+00
 -2.9991347e-01
 -6.9856353e-02
  5.8187640e-01
 -2.5837809e-01
  7.0446879e-02
  8.6332224e-02
 -9.6716386e-01
 -3.0727330e-01
  1.1589063e+00
  6.9631737e-01
  1.0429452e-01
  7.9769790e-01
  1.5916351e+00
  2.6122737e-01
 -6.3594580e-02
  3.2899952e-01
  7.0356035e-01
  5.5122446e-02
  1.9971199e-01
 -2.3320682e-02
  8.6650074e-01
 -2.0615923e-01
 -1.2708169e-02
  1.7805338e-02
  4.6201667e-01
  3.6501071e-01
  1.6387579e-01
  5.5535272e-02
  3.1670861e-02
 -1.0526108e-01
 -5.4004379e-03
 -7.0995517e-02
  2.0446548e-01
  3.4713931e-02
 -3.5132755e-02
  4.6830177e-02
 -1.8326852e-01
 -7.5824797e-01
 -6.3420314e-01
 -2.9707521e-03
  4.5714805e-01
 -1.0114721e-02
 -1.3299562e+00
 -8.0364324e-02
 -3.0259410e-01
  1.5566451e-02
  4.6143612e-01
  8.4788300e-02
 -1.2768471e+00
 -1.9088898e-02
  2.0870852e+00
  3.7461051e-01
  2.0158640e-03
 -1.3003568e-01
  1.6481259e-01
 -6.0952556e-01
  7.3669858e-02
  1.4477873e+00
  3.0291039e-01
 -1.3504279e-01
 -8.4811395e-01
 -7.9165155e-01
  2.9691315e-01
  3.8297361e-01
  9.4397049e-03
 -5.7416312e-02
 -1.2181539e-02
  1.0108795e-02
  1.0321763e+00
 -7.5630200e-01
 -2.7158936e-02
  2.1154507e-01
 -5.8300003e-02
 -9.1462377e-03
 -1.3622338e-01
 -7.0645702e-01
  1.2079757e-02
  3.1983235e-01
  3.1922419e-02
 -1.1360263e+00
 -8.3480313e-02
  3.6317576e-02
 -4.7033690e-02
 -5.5239365e-02
 -4.2227484e-02
  2.1331014e-02
 -1.7347021e-01
  1.2232290e-01
 -3.3197090e-01
 -1.0533570e-01
  5.4505700e-01
  1.2691987e-01
 -6.4309132e-03
  7.9537964e-01
 -6.2903941e-01
 -5.8721042e-01
 -4.9529262e-02
 -5.7865965e-01
  1.4547522e-01
  6.7121387e-02
 -2.4307588e-01
  2.9689696e-01
 -3.4988004e-01
 -6.9127756e-01
 -8.7656982e-02
 -4.2952025e-01
 -1.0912633e-01
 -1.0604395e+00
 -1.0922369e+00
 -1.6633449e+00
  7.0925288e-02
  1.5468512e-01
 -3.4564827e-02
  8.0149144e-01
  2.4018671e-02
  9.1018599e-01
 -3.7220392e-02
 -1.0970982e+00
 -1.1440814e-01
  8.8727297e-03
 -2.3658045e-01
 -6.8270797e-01
  1.9081499e-01
  1.5015274e-01
 -5.7168435e-02
  1.0276852e-01
  1.4559003e+00
 -3.5670453e-01
 -1.8405344e-01
 -1.2323356e-01
  4.2464095e-01
  3.3037502e-01
 -7.1745974e-01
 -1.4881046e-01
 -7.3262706e-02
  8.0057812e-01
  6.6953427e-01
  1.2768754e-01
  1.0865425e+00
  9.3153372e-02
  9.5862178e-03
 -6.5797776e-01
 -2.4549630e-02
  9.6557222e-02
  3.1564829e-01
  7.0845073e-01
 -8.1721163e-01
  7.4929237e-01
 -1.4646503e-02
 -4.5009768e-01
 -2.9032812e-02
  1.7176668e-01
 -1.9822838e-03
  2.8962097e-01
  1.0625937e+00
  1.0642086e+00
  1.4139696e-02
  1.3161881e-02
  3.4040451e-02
  4.3927154e-01
  2.4133188e-01
  2.1139716e-01
  5.4315971e-03
 -5.7352901e-01
  7.7315193e-01
  4.2700034e-01
  3.5538292e-01
 -3.7569225e-01
 -7.0466059e-01
  4.3787397e-02
  3.8830787e-01
  1.1650232e-02
  1.1140606e+00
 -3.7309393e-02
  6.4179599e-01
 -3.4373514e-02
  1.7284526e-02
  1.3258532e-01
 -2.5574762e-01
  1.5718581e-01
 -3.2309648e-01
 -8.0579735e-02
  6.9289662e-02
 -5.0648493e-01
  3.2600021e-01
  5.7943864e-04
  1.8293094e-02
  3.0060428e-01
  5.4417881e-03
  9.5151901e-01
 -2.2419496e-01
 -9.1123236e-03
  7.7014618e-02
  7.2871096e-02
  1.1356132e-01
  3.8284144e-01
  3.8360000e-02
  7.5014599e-02
 -4.8258775e-01
  2.2388729e-01
 -1.8971916e-01
  5.6776053e-01
  4.5840945e-03
  1.0860094e+00
  1.2358550e+00
  3.4327364e-01
 -4.7200310e-01
  2.1255224e+00
  4.5148978e-01
  1.3595803e-01
 -1.0364441e+00
  1.2942253e+00
  6.0969234e-01
  1.3351431e+00
 -3.1036097e-01
  3.7949556e-01
 -1.3121530e-02
 -4.9665391e-01
  1.0990195e+00
  9.1959739e-01
  1.6504170e-01
 -6.1339980e-01
  2.2833095e+00
  2.1932048e-01
  3.1061539e-01
 -5.6366199e-01
  1.1702472e-01
  1.4657993e+00
 -6.3373047e-01
  1.7732280e-01
  8.9883409e-02
 -2.6548606e-01
  9.1714382e-01
 -1.8428694e-02
 -2.7052191e-01
  6.7934859e-01
 -1.1304873e+00
 -1.9922633e+00
  1.8280262e+00
 -3.5158226e-01
  1.2891990e+00
  1.4456171e-01
 -1.1284696e-01
 -3.0149846e+00
 -1.9531217e+00
 -1.1039619e-01
  2.6835996e-01
 -1.5953808e-01
  2.6907276e-02
 -4.7204897e-02
  5.5899918e-01
 -6.3810569e-01
 -2.0452783e+00
 -9.9327785e-01
  3.9624089e-01
 -1.4731026e+00
 -4.1212484e-01
 -2.5355186e+00
  2.5813622e+00
  5.4560131e-01
  1.2565068e+00
 -1.7544311e+00
 -6.0645348e-01
  8.1312889e-01
 -9.2743360e-02
  1.4656417e+00
  6.0336452e-02
  5.3861952e-01
 -6.3859187e-02
  4.2811087e-01
  1.1959866e+00
  1.5143039e+00
  2.5229883e-01
  4.2251015e-01
 -8.6805798e-02
 -3.8460079e-01
 -2.7482519e+00
 -6.3771683e-01
  2.2138959e-01
 -1.1300938e-02
 -1.4824976e+00
  1.1911954e+00
 -1.3042288e+00
  8.3092701e-01
  9.0828645e-01
  3.2584354e-01
 -7.2938687e-01
  2.2111008e-02
 -1.2028193e+00
 -1.2540911e+00
 -7.0721440e-02
  4.9168190e-01
  7.6647317e-01
 -2.7875352e-01
 -2.2881916e+00
 -4.7694732e-02
 -7.1750396e-01
  1.8683726e+00
 -1.9756638e-02
 -1.9467785e+00
  1.3005121e-01
 -3.1893767e-02
 -1.0183672e-02
 -6.0543314e-02
 -5.4800951e-01
 -1.2296453e+00
 -1.9328643e-02
  6.0031503e-02
  2.4966997e-01
  1.0062414e+00
  6.4026755e-01
  1.7267979e+00
 -6.8339735e-02
 -1.6533783e-01
  1.3603897e+00
 -1.6433656e+00
  7.0183206e-01
 -7.5909734e-01
  1.6092405e+00
 -1.2807483e-03
  5.0204003e-01
 -5.7400368e-02
  2.1549946e-02
 -5.7284500e-02
  5.0906408e-01
  8.9912184e-02
 -5.1493090e-02
  5.0394055e-02
 -2.2878911e+00
 -3.3227280e-01
  4.1397694e-01
 -1.5548295e-01
  1.6117628e-01
  1.3264755e+00
 -1.4854442e+00
 -5.8082059e-02
 -7.9136603e-02
 -5.3184724e-01
  9.9605008e-04
 -1.5100403e+00
  1.9858915e+00
  2.2303364e-01
  1.2993385e-01
 -1.0487804e+00
  1.5335437e+00
 -6.9669509e-01
  2.8963059e-01
  1.2993982e-01
  1.1176172e+00
 -4.7352764e-01
  6.9188184e-01
  7.7938008e-01
  3.7049107e-02
  7.9634774e-01
 -1.2489680e+00
 -1.6157031e+00
 -1.3184428e+00
  1.6627607e-01
  5.3652443e-02
 -4.7245178e-01
  1.4366841e-01
  2.1025086e-02
 -2.5602871e-01
  9.4145291e-02
 -1.5907673e+00
  9.6936285e-02
  7.3583800e-01
 -6.9905853e-01
 -1.4860736e-01
  1.5725533e+00
  8.2279122e-01
  6.7086613e-01
 -2.4774892e+00
  4.9609771e-01
  1.1764443e+00
 -1.6747286e+00
  4.1364691e-01
  1.9470186e+00
 -1.2865756e+00
  5.5682260e-01
  1.5282323e+00
 -1.3284039e+00
 -4.6155423e-01
 -3.0028719e-01
 -1.7611493e+00
  8.5508484e-01
  1.7241851e+00
 -8.8606042e-01
 -1.4320729e+00
  1.0386653e+00
 -1.0463033e+00
 -5.7314152e-01
  1.4490893e+00
  8.6271089e-01
  9.4959909e-01
 -1.5116586e-01
  2.7427657e+00
  1.8490264e-01
 -3.8075964e-03
  3.6168388e-01
  1.0859812e+00
  9.5706329e-02
  1.2531957e-01
  1.1655781e+00
 -7.1189952e-01
 -4.4509026e-01
  3.4581152e-01
  6.2924999e-01
  1.1541075e+00
 -2.2506948e-01
  4.1599849e-01
 -1.8024949e+00
  6.1721331e-01
  9.6932352e-01
 -1.5471395e+00
 -6.0130543e-01
 -4.3678525e-01
  3.0621228e-01
 -1.1623596e+00
  1.6813201e+00
 -1.9679926e-01
 -8.6616361e-01
 -5.3568429e-01
  8.9563167e-01
  1.2509674e+00
 -4.5378289e-01
 -5.7935941e-01
 -2.7366881e-03
  1.5969514e+00
 -1.5389577e+00
  1.7407037e-01
 -4.4544798e-01
 -1.2843792e+00
 -1.6811201e-01
  1.7139323e+00
 -3.1900212e-01
  2.4722185e+00
 -1.4559221e+00
  2.6353097e-01
  2.6597905e+00
 -1.8757476e+00
 -5.2715534e-01
  5.1252544e-01
  1.2567364e+00
 -1.1566440e+00
 -2.8858963e-01
  1.3125455e+00
  1.4735013e+00
  1.8077274e-01
 -7.4496526e-01
  1.6498933e+00
 -1.3327019e+00
 -3.0946195e-01
  2.6004449e-01
  1.6847263e-01
  2.8403785e+00
 -2.0278363e+00
 -1.7874464e+00
  1.1832154e+00
  9.6113592e-01
 -2.7211598e-01
 -3.2783377e-01
  1.3907833e+00
 -1.0935080e+00
  3.2530057e-01
  1.3557497e+00
 -7.5184464e-01
 -1.6553640e+00
  7.4802101e-01
  4.3789575e-01
  3.9646181e-01
 -3.0556434e-01
  8.6447209e-01
  1.2993736e+00
  4.8700398e-01
 -2.8542981e-01
 -2.1597570e-01
 -7.9142374e-01
  1.9738401e+00
 -2.2232263e-01
 -3.3120446e+00
  2.7838738e+00
  9.8876607e-01
 -9.7224188e-01
 -2.8805462e-01
  1.1098973e-01
  8.3665097e-01
  7.4709887e-03
  7.4709887e-03
  7.4709887e-03
  7.4709887e-03
  7.4709887e-03
  1.2423695e-02
  1.2423695e-02
  1.2423695e-02
  1.2423695e-02
  1.2423695e-02
  9.7891595e-03
  9.7891595e-03
  9.7891595e-03
  9.7891595e-03
  9.7891595e-03
  9.8777339e-03
  9.8777339e-03
  9.8777339e-03
  9.8777339e-03
  9.8777339e-03
  9.3624070e-03
  9.3624070e-03
  9.3624070e-03
  9.3624070e-03
  9.3624070e-03
  3.4817674e-03
  3.4817674e-03
  3.4817674e-03
  3.4817674e-03
  3.4817674e-03
