nep4_zbl 1 C 
zbl 1.25 2.5
cutoff 20 16 92 21
n_max 4 4
basis_size 12 12
l_max 4 2 0
ANN 150 0
  1.5559216e-02
 -4.5630278e-04
  5.1021401e-02
 -3.1114275e-02
 -1.2408750e-02
  1.0826061e-03
 -7.6075620e-03
 -3.2400871e-03
  6.5688252e-02
  8.5338041e-02
  3.3098381e-02
 -2.7450505e-03
  1.4817107e-02
  4.8391446e-02
 -6.1230161e-03
 -5.7404116e-02
  9.2617478e-03
  7.6444302e-04
  2.5990255e-02
 -9.0698283e-03
  3.6113303e-02
  2.9889215e-02
 -4.0906817e-03
  4.3871395e-02
  4.1680891e-02
  4.4075698e-03
  2.8683129e-04
  1.4355415e-03
 -4.4610344e-02
 -5.0432403e-02
  1.7160337e-01
  2.8900241e-02
 -2.1908524e-02
  9.7634625e-01
 -1.9602667e-01
 -5.9474487e-02
 -7.6150335e-03
  3.5523716e-02
 -6.0842734e-02
  1.1654363e-01
  2.4294481e-01
  4.4373998e-01
  5.1369077e-01
  4.1756743e-01
  3.8293384e-02
  2.0548870e-01
 -4.7298396e-01
  5.7334358e-01
  5.4694414e-02
  2.0488076e-01
  6.8663919e-01
  1.4746328e-01
 -1.7363444e-01
  2.4958445e-01
  1.9870666e-01
 -6.0128342e-02
  6.4116523e-02
  3.2719746e-01
 -1.2499204e-01
 -8.1393290e-03
 -2.2693554e-02
  4.3202654e-02
  2.1593338e-02
 -1.4296542e-01
 -2.5228741e-02
  9.4563492e-02
  2.9134301e-03
  1.5364514e-01
 -2.0889647e-02
  4.5740516e-03
 -4.3251980e-02
  2.9738536e-03
  2.1927463e-01
  1.4442852e-02
 -5.7297671e-04
 -3.6752108e-02
 -3.7644435e-02
  1.0092909e-02
  1.5957916e-02
  2.5071565e-02
 -9.1568306e-02
  2.3547664e-02
  7.3288456e-02
  5.4200417e-03
  2.0722799e-02
 -1.5345465e-02
 -2.5264991e-02
 -8.1586361e-02
 -2.2308402e-02
  6.0092038e-03
 -7.8247607e-01
  1.0641964e-02
  4.8991041e-03
  4.1955940e-02
 -5.2236742e-04
  3.5885863e-02
 -9.7108953e-02
 -5.6336518e-02
  6.1902800e-03
 -4.5968700e-02
 -2.5403840e-02
 -1.6376300e-02
 -3.3895526e-02
 -8.1466421e-02
  7.0128925e-03
 -2.2830881e-01
 -1.3352355e-01
 -3.4407100e-03
  8.7666065e-02
  7.3920235e-02
  1.3877744e-02
  6.6080004e-01
 -4.3144967e-02
  5.3087126e-02
  5.2333024e-04
 -3.9035466e-02
  2.3367006e-02
 -5.6819525e-03
 -2.6027745e-01
 -3.4577057e-02
 -2.4865555e-02
 -1.8356565e-02
  4.8620142e-03
 -1.6120845e-03
  3.7650533e-02
  3.0543793e-02
 -2.4163472e-02
 -7.0601232e-02
  7.2448580e-03
  1.6941264e-02
 -1.4579895e-02
 -2.7767109e-02
  3.0967318e-03
  2.3428371e-02
 -5.1179249e-03
 -1.9652562e-02
 -3.7478006e-03
  2.1912334e-02
  6.2992312e-02
 -8.6626612e-02
 -5.2487450e-03
  3.4992620e-02
  3.8265299e-02
  3.5069149e-02
 -3.1162417e-02
 -9.2982098e-02
 -6.0132546e-03
  6.3310735e-02
  8.2984231e-03
  5.9070021e-02
  8.3425529e-03
  4.9534205e-02
  7.8266822e-02
 -1.5811030e-02
  1.3406673e-02
 -2.7803360e-02
  1.1638242e-01
 -1.6326396e-02
 -1.5360565e-02
  5.5792272e-02
  1.2234440e-01
 -2.3642244e-02
  5.4579634e-02
 -1.4940337e-02
  1.9169779e-02
  4.2101145e-02
  6.7380168e-02
  1.5436864e-02
 -3.1871278e-02
  1.0200864e-02
  9.8679036e-02
 -1.0924760e-01
  1.9546351e-03
 -2.1483604e-02
 -8.3426416e-02
  6.8859034e-03
 -1.1595857e-02
  2.1602290e-02
  1.0411494e-01
  1.5302959e-02
 -1.1444884e-01
  5.5744804e-02
 -6.7151047e-02
 -4.9600877e-02
 -1.0434288e-01
 -9.3636764e-03
 -5.4668714e-03
 -1.7543273e-02
  2.0783797e-03
 -1.2939179e-02
 -9.9378675e-02
 -3.4678571e-02
 -2.5021479e-02
  1.2210321e-04
 -2.9219287e-02
 -1.3302887e-02
  5.8855254e-02
 -3.3627630e-03
 -7.3620051e-02
 -6.3711929e-01
  7.8726873e-02
 -3.0747678e-02
  7.4506611e-02
 -4.2018063e-02
 -4.9971943e-03
  3.0669371e-02
  6.0268147e-03
  6.4935321e-03
 -3.4973904e-02
  1.9767536e-02
  6.5983478e-03
  3.0042041e-02
 -1.7755834e-02
 -1.0175854e-03
  6.8984315e-02
  3.7353724e-02
 -1.4867421e-02
  7.1586810e-02
 -7.1383333e-03
 -3.6190037e-02
  4.1987639e-02
  2.2903349e-02
 -1.1166048e-02
  6.8621915e-03
  8.0048621e-02
 -2.0542875e-02
  7.2422050e-02
  1.0632913e-02
 -6.4635821e-02
 -1.2310984e-02
 -2.9088456e-02
 -1.5085654e-03
 -4.5086116e-02
 -7.2078090e-03
 -1.0851589e-02
  2.2689080e-02
  1.4976214e-02
  3.7211139e-02
  1.8621713e-02
 -1.2152633e-02
 -6.9770753e-02
 -2.0286100e-02
 -1.2300892e-01
 -6.6490315e-02
 -6.9217741e-02
 -1.1844031e-01
 -3.0222919e-02
  4.6460699e-02
 -5.9528917e-02
  7.7408709e-02
 -1.8074040e-03
 -7.8066766e-02
 -5.8809865e-02
  6.7185901e-02
  5.6946003e-01
 -2.3225481e-02
  1.2264294e-01
 -1.8594365e-01
 -6.4412683e-02
  1.2360826e-02
  7.9197630e-02
 -6.7423531e-03
  1.6002418e-02
  4.7573444e-02
 -1.0079402e-02
  3.4152504e-02
 -3.8327128e-02
  7.1348928e-02
 -3.3237964e-02
  1.3713291e-02
  2.9904963e-03
  1.6503178e-02
  3.5225664e-04
  4.3875378e-02
 -1.2256466e-02
 -1.8752970e-01
 -6.5263845e-02
  1.3010022e-01
  2.4160013e-02
 -3.2796025e-02
  6.8050571e-02
 -2.7481657e-01
  1.0732419e-02
 -2.1484033e-03
  1.4828765e-02
  5.8771785e-02
 -1.0761623e-01
 -6.4989574e-02
 -3.4589306e-02
 -3.5674140e-02
 -1.0284505e+00
  6.6194460e-02
  5.3299074e-03
  2.0124927e-02
  3.4662583e-03
  2.8345605e-02
  3.1002157e-03
  1.8237194e-02
  8.4113427e-02
  3.4819569e-02
 -1.3089312e-02
 -3.4709346e-02
 -1.0692305e-02
 -1.1214430e-03
 -7.0965983e-02
 -1.0854788e-02
 -4.6418615e-02
  4.0806852e-02
 -3.5895240e-02
  2.4630055e-02
  1.5983581e-04
  7.3094554e-03
 -3.0351328e-02
  2.4366910e-03
 -4.6144839e-02
  1.5210391e-02
  1.8316501e-01
 -1.2977513e-02
 -7.3292434e-02
 -7.9217121e-02
  3.1541951e-02
  7.9314180e-02
 -4.5773275e-02
 -4.4027355e-02
 -2.3125006e-02
  9.9457085e-02
  3.8515527e-02
 -2.4688460e-03
 -7.7895738e-02
 -6.9479495e-03
 -9.2209227e-02
 -3.1379115e-02
  2.5773177e-02
 -4.2350388e-01
  1.1012468e-01
 -8.7647051e-02
 -3.9387822e-01
  7.2196973e-03
  7.7514410e-02
  1.5521294e-02
 -1.1317881e-02
 -1.3814187e-01
  1.0811067e-02
 -4.5962865e-04
 -5.6440970e-03
  4.5420685e-01
 -1.2449520e+00
 -8.4646493e-03
  1.2320528e-02
  8.1903730e-03
  1.1824837e-01
 -1.3870682e-01
 -5.4504327e-02
  6.1991224e-03
  2.9524894e-02
  5.7021058e-03
 -8.6944848e-03
  7.8050874e-02
  2.9113352e-02
  5.6117773e-02
  1.4220372e+00
 -1.0012158e+00
 -2.8258752e-02
 -6.4022934e-01
  7.6442502e-02
  2.8509075e-02
 -1.8911576e-02
 -1.8884273e-01
 -5.0599165e-02
 -1.5932591e-04
 -2.7946517e-02
  6.6197105e-02
  2.2090966e-01
  8.5853523e-01
  3.3049513e-02
 -1.3060789e-01
 -8.8376701e-01
  4.9674940e-01
 -1.2177851e-01
  3.6675578e-01
 -2.0982828e-02
 -7.4870174e-04
  3.2830045e-01
 -3.0708730e-02
  1.8842216e-01
 -6.5996248e-01
 -2.9824844e-01
 -1.1787374e-01
 -9.2846036e-02
 -1.8611556e-02
  2.7691353e-02
 -4.3852042e-02
  3.4423131e-03
 -2.5170440e-02
 -1.5105776e-01
  9.2274050e-04
  6.9360778e-02
  7.5490244e-02
 -1.3261141e-02
  9.3753291e-03
 -6.6544674e-02
 -1.0567575e-01
  4.5580201e-02
 -2.3427567e-02
  5.9717778e-02
 -4.4937979e-02
  2.8407015e-02
  4.1398633e-02
 -7.4428879e-02
  7.5759511e-03
  2.6498939e-04
 -2.4343763e-02
 -2.7945949e-02
  2.9254947e-03
  1.5941361e-03
 -6.1799590e-02
 -5.0122101e-02
  7.6463349e-02
  7.1714655e-02
 -6.4264671e-03
  7.3871663e-04
  6.1379373e-03
 -8.0625443e-03
  1.1933529e-01
 -1.7214643e-02
 -2.4608806e-02
 -3.4609791e-02
 -3.1112555e-02
 -4.8832998e-02
 -3.4689505e-02
  6.4371683e-02
  6.4263181e-03
  7.9118766e-02
 -1.5252066e-02
  2.5939795e-03
  2.7305560e-02
 -2.8870916e-02
 -2.4654930e-02
 -8.3049736e-04
  1.4932784e-02
  2.2341263e-02
  8.3603099e-02
 -2.1446567e-02
 -2.0877244e-02
  5.2743074e-02
 -2.1544408e-02
 -9.3294950e-03
 -3.4748726e-03
  2.0577421e-02
 -9.0844743e-03
  3.6118798e-02
 -3.4029778e-02
 -2.7821142e-02
 -7.9956055e-03
 -2.6199341e-02
 -4.5837231e-02
  3.7752796e-02
 -1.6498992e-02
 -2.8796395e-02
  1.5108753e-02
  1.5987098e-02
  4.7449209e-03
 -6.8756498e-02
  3.5883471e-02
  4.5737766e-02
 -1.3055756e-03
 -2.6823277e-02
  3.5845564e-04
 -8.6558145e-04
  1.1789009e-02
 -1.0726859e-01
  3.5617825e-02
  4.5061749e-01
  6.1443429e-03
  1.0900112e-01
 -4.9751911e-02
  1.6251912e-02
 -6.5213973e-03
 -8.3419591e-02
  1.2336512e-02
  9.8923340e-02
  7.0496976e-02
  4.0307894e-04
  6.4293787e-02
 -4.8081148e-02
  3.6910124e-02
  3.2425509e-04
 -1.0761977e-02
  1.4374943e-02
  4.9494035e-03
 -4.3886146e-03
 -1.7897153e-03
  2.0600591e-02
 -6.1980085e-03
 -3.3248127e-02
 -6.0951378e-02
 -4.6406516e-01
  1.9515950e-02
 -2.1299008e-02
 -5.6031924e-03
  3.2200462e-01
 -4.8377916e-02
  9.3847871e-01
  2.7269302e-02
 -7.3674321e-02
  1.0173537e-02
 -3.5173062e-02
  2.2931829e-01
  9.7844727e-02
  2.8211756e-02
  3.0774027e-02
 -3.2198597e-03
  7.6106906e-02
 -1.9845306e-03
 -4.3918807e-02
  1.9291613e-02
  2.3806889e-02
  4.4436865e-02
  5.8160513e-03
 -7.8051277e-02
  2.5232801e-02
 -2.7666030e-02
 -6.4875488e-03
  3.8752723e-02
  1.5480611e-02
 -1.3522668e-01
 -1.7402781e-02
 -5.7763621e-02
 -2.1991246e-04
  4.1892477e-03
 -1.8186590e-02
 -8.6400680e-02
  2.6184343e-02
 -1.2451230e-02
 -1.1383036e-01
  4.6043992e-02
 -2.3482060e-03
  1.3530345e-03
 -6.9279321e-02
  2.8537298e-02
  8.0364104e-03
 -2.1973557e-03
 -2.0905596e-03
  9.4769500e-02
 -2.0712208e-02
 -9.9015329e-04
  1.8954850e+00
 -6.3380688e-02
 -2.0862557e-02
  1.5803793e-02
 -2.1048276e-02
 -3.4346413e-02
 -1.4764966e-02
  1.1337943e-01
 -5.1025104e-02
  1.7622352e-01
  1.5621253e-02
 -6.0110431e-02
 -8.4964320e-02
  9.7292829e-01
  8.7110750e-02
 -4.1632842e-02
  1.2717016e-02
  1.5187922e-03
  1.6346970e+00
  3.1180786e-02
 -8.5563183e-02
  1.1470690e-02
 -2.0328501e-02
  5.0792739e-02
 -5.1544271e-02
  1.2589691e-02
 -5.3004008e-02
 -8.2341908e-03
 -1.1317765e-01
 -3.6964476e-02
 -3.4241418e-03
 -1.2186042e-01
  4.6517875e-02
  5.6964211e-02
 -5.7146993e-02
 -1.8527713e-02
  7.3851623e-02
 -6.8889737e-02
  7.6110527e-02
 -1.4379323e-01
 -1.2450107e-01
  3.8068347e-02
  1.2161384e-02
  8.1288412e-02
 -2.9287221e-02
 -3.9873805e-02
  7.9327935e-01
 -1.2422550e-01
  1.9056411e-02
 -8.0070868e-03
 -4.1628769e-01
 -2.4567043e-02
 -1.7017055e-02
 -8.4294721e-02
  2.6543308e-02
  7.2861999e-02
  6.6597462e-03
  1.4165300e-01
 -4.1450498e-01
 -2.9790152e-02
  1.4896115e-02
  3.1311724e-01
 -1.7488459e-02
 -2.0801352e-01
 -6.0497858e-02
  1.7055443e-01
 -2.6589418e-02
  1.5675083e-01
 -5.3292316e-01
 -2.8896409e-01
  2.1500914e-01
  4.3394336e-01
 -2.2808263e-02
  4.9779165e-01
  7.6500326e-01
  1.0031064e+00
 -1.0273554e+00
 -8.8995183e-03
 -1.2063218e+00
  1.9172475e-01
  6.6510361e-01
  8.3468503e-01
  8.4642489e-03
  8.5912738e-03
  1.5215668e-02
 -3.0433860e-02
  8.1162229e-03
 -6.8735261e-03
 -3.6201635e-03
  4.4945008e-03
 -1.2728660e-01
 -3.2532180e-03
 -2.6675658e-02
 -3.5795551e-02
 -3.7760332e-02
 -6.3765846e-02
 -1.6070753e-02
 -5.9002861e-03
 -4.1172605e-02
 -3.4984492e-02
 -4.4989310e-02
  6.8405822e-02
 -3.1105417e-03
 -4.1115627e-02
 -1.5766236e-01
 -2.3043100e-02
 -2.0106032e-01
  5.6384997e-03
  5.1596062e-03
 -2.8858690e-02
 -2.1295856e-01
  1.6303997e-02
  4.5972131e-02
  3.5776787e-02
 -1.8425676e-03
 -3.8676728e-02
  7.7130772e-02
 -1.4837444e-02
 -6.2780175e-03
  2.5979972e-02
 -2.7460340e-02
  2.7652271e-02
  5.6215063e-02
  1.1008492e-01
  2.1670997e-02
  5.3954240e-02
  2.6132995e-02
 -2.1547761e-02
 -1.4808198e-02
 -2.3044582e-02
  9.3448274e-03
 -5.4303326e-02
 -3.3834767e-02
 -3.3281200e-02
  9.6858438e-04
  3.2130032e-04
 -6.6687027e-04
  1.5033627e-03
  3.9887328e-02
  1.3711159e-01
  2.5966274e-02
 -7.0253848e-03
  2.5000624e-02
 -2.4286898e-02
 -2.9232452e-02
  1.0073889e-02
  8.0781095e-03
 -5.8280636e-02
 -1.0723598e-01
 -3.8659249e-02
 -5.0789353e-02
 -4.9060192e-03
 -3.2558158e-02
  2.8527264e-02
 -1.4232618e-01
  8.2401680e-03
  7.5684138e-02
  4.5839570e-02
 -1.7773874e-02
  1.6578540e-02
 -5.5135942e-01
 -1.9494696e-02
  1.3902941e-01
  7.1460284e-02
  4.4753412e-03
  2.0482291e-02
  6.7787534e-01
 -8.8134892e-02
  5.4526962e-02
  2.3728010e-01
 -6.1680553e-03
  9.2281021e-02
  2.2061082e-02
 -3.8820304e-02
  2.9189344e-02
 -3.3847846e-02
 -2.4674049e-02
 -7.7424444e-02
 -2.0502741e-03
 -6.0436312e-02
 -8.4271595e-02
 -5.4458819e-02
 -1.7358333e-02
  2.6793128e-02
 -2.2807343e-02
  7.1656704e-02
  1.2962236e-01
 -3.2179106e-02
 -1.3944016e-02
 -4.1764691e-02
  1.1117461e-01
 -1.1025010e-01
  1.3893965e-02
  6.3091435e-02
  3.4893084e-02
  1.6659379e-01
  1.0882312e-02
  2.1371568e-02
  3.7102815e-02
 -2.3124425e-02
 -5.3396136e-02
  4.6996072e-02
 -2.4042565e-03
  4.1445866e-02
  7.9609111e-02
 -3.4887453e-03
  4.4485903e-03
  1.1912283e-01
 -4.6774324e-02
  1.2451150e-02
 -1.9668743e-03
  8.0787838e-03
 -4.1525360e-02
  4.7145884e-02
 -1.4059670e-01
 -6.1216965e-02
 -1.1051949e-02
  5.7109003e-03
  1.0137492e-01
  1.9233365e-02
 -5.6706097e-02
  2.9190701e-02
  1.8445275e-03
  5.2918635e-02
 -2.9606289e-01
 -6.0540531e-02
 -6.3893527e-02
  5.6373230e-03
 -2.2618065e-02
  2.7970489e-02
  5.5018044e-01
  9.0944134e-03
  1.1833395e-02
 -8.6087137e-03
 -7.2783008e-02
  6.6855885e-02
  6.1357850e-03
  9.5228571e-03
 -2.8185377e-02
 -1.1713418e-02
 -9.0939198e-03
  5.8799088e-03
 -1.3032573e-02
  9.8957926e-02
  3.3379439e-02
 -3.5144705e-02
 -2.4628820e-02
 -3.3208721e-03
 -7.2445494e-01
  3.0481262e-02
  3.5337988e-02
  6.6358164e-02
  4.5727421e-02
  8.6489124e-03
  5.6476541e-02
  4.1714632e-03
  8.8802941e-02
 -8.9122672e-03
 -1.1911278e-01
 -5.5304322e-02
 -1.4569395e-02
 -2.0586640e-02
  4.0032513e-02
  3.1805056e-01
  1.5762404e-02
 -3.4742974e-02
  2.9060379e-02
  1.3875742e-02
 -9.7474763e-03
 -1.2604508e-01
 -2.4467455e-02
 -2.1900950e-02
  1.1305556e-01
 -9.3414605e-02
  1.8203149e-03
 -1.8935096e-02
  5.1983487e-02
 -4.8310691e-03
  4.3601047e-02
 -4.6087611e-02
  5.2998334e-02
  8.2491130e-02
  3.6369052e-02
 -3.1840190e-02
 -1.1358798e-01
  6.0743269e-02
 -5.7620026e-02
  8.7223858e-02
  2.3699196e-02
 -7.9169519e-02
  4.2089163e-03
 -6.0907431e-02
  4.0254429e-02
  3.1605512e-02
 -1.6370219e-01
 -1.7939298e-01
  8.3193235e-02
 -1.1440568e-01
  4.0998390e-01
 -1.0670903e+00
  2.1309152e+00
 -1.4631453e-02
 -6.0949330e-03
 -8.0710357e-01
 -2.9981807e-01
 -7.6607955e-01
 -4.6088526e-01
  2.8950050e-02
  2.5852367e-03
 -5.5895805e-01
  4.6350005e-01
 -1.2962730e+00
  1.5596713e-02
 -3.7631509e-03
  1.3264606e+00
 -7.8849393e-01
  1.5667340e+00
 -9.7188115e-01
 -2.4519144e-01
  1.3040371e-01
  4.4374838e-01
 -4.7379699e-01
  3.5583359e-01
  1.1890421e-02
 -1.9095317e-02
 -2.5803758e-02
 -3.2960586e-02
  5.1562148e-03
  5.9484411e-02
 -6.8644364e-03
 -1.5234463e-03
  8.7140109e-03
  1.0430736e-02
 -1.8464265e-02
  2.5553542e-01
  5.9738667e-03
  6.8784948e-03
  4.3399865e-03
 -3.8425431e-02
  1.2103418e-02
 -5.5869747e-02
 -1.1631713e-04
 -3.5066642e-02
  1.3873817e-02
 -2.1659460e-02
  1.2619409e-02
 -2.1022398e-02
  6.1383741e-03
  6.8629747e-03
  1.2877649e-03
  1.4848520e-02
 -2.1342519e-03
 -2.2016419e-03
 -2.0875305e-02
 -3.2550108e-02
 -1.5391693e-02
  1.2062422e-01
 -3.1475180e-01
  2.0540280e-02
  2.6941316e-02
  1.5615762e-02
 -2.2020668e-02
 -2.3673072e-02
  1.1862309e-01
  6.6035226e-02
  9.1895625e-02
 -6.2837154e-02
 -1.0685333e-02
 -3.3096373e-02
 -1.7089643e-01
 -2.7339503e-02
  4.2264417e-02
  7.9402132e-03
 -8.6022876e-02
 -5.5405539e-02
 -6.5528518e-03
  3.2253332e-02
 -3.9283812e-02
 -6.5922506e-02
 -1.1262949e-01
  7.3259026e-02
 -1.8630667e-01
  3.9663512e-01
 -8.0292998e-03
 -3.5601087e-02
 -2.1598725e-02
  2.2730310e-03
  2.8351603e-02
  4.5116369e-02
  1.4854812e-02
 -8.3634388e-03
 -6.4670881e-03
  5.9495524e-02
  4.6726920e-02
 -8.5990056e-03
  2.4501847e-02
 -2.6562272e-04
  7.6480776e-02
  5.8317658e-02
  6.6202566e-02
  1.5640087e-02
 -2.0772528e-02
 -4.6259873e-02
 -4.8171714e-02
 -1.8206054e-02
 -6.7984816e-03
 -5.0037410e-02
 -6.6305235e-02
 -1.1829868e-03
  1.1053546e-01
  5.1151372e-02
 -3.6862768e-02
  4.5873079e-02
  3.3337269e-02
  1.0342338e-02
 -5.6571051e-02
  2.6506595e-03
 -3.5870844e-03
  6.4449430e-02
  2.5625747e-02
 -1.6366059e-02
 -1.3999087e-01
  2.5898427e-02
  4.5546606e-02
 -1.8583503e-02
  1.5877942e-02
 -4.5886986e-02
 -2.2324767e-02
 -4.3420479e-02
 -9.2599932e-03
 -1.0026652e-02
  1.6394017e-02
  5.5027875e-04
  8.5451407e-03
  1.7418921e-02
 -6.4357845e-03
 -1.3132049e-02
 -4.5150597e-02
  7.8303181e-03
 -1.0904156e-02
 -2.2754630e-02
 -1.0158031e-01
  4.8617419e-02
 -2.8507587e-02
 -4.4755679e-02
  1.3447981e-02
  1.0347907e-02
  6.8519890e-02
  9.1218157e-03
  8.7164387e-02
 -2.8489215e-02
 -9.0583703e-03
  4.7587305e-02
  3.0646589e-02
 -3.8528018e-02
  6.0498831e-03
 -2.9423728e-03
 -1.3093437e-01
  2.2259634e-03
  2.3607392e-02
 -3.3124778e-02
 -1.7941365e-01
  2.5755398e-02
  7.2442271e-02
 -7.3562957e-02
  8.5843587e-03
  2.7235058e-01
 -4.8381314e-03
 -2.3160154e-02
 -2.0827444e-02
 -7.0517737e-04
 -9.1876753e-02
  5.5011739e-03
  1.0768315e-02
  9.9193260e-02
 -2.0118071e-02
 -5.7403583e-02
 -1.6046774e-02
 -2.6409565e-02
  2.2131514e-02
  5.8260292e-02
 -7.6320797e-02
  4.0054898e-04
 -3.9371431e-02
 -5.7149448e-02
  4.5407541e-02
 -8.7809421e-02
  2.7397219e-02
  1.0126622e-01
  1.8284682e-02
 -3.8638424e-02
  1.5119046e-01
  3.7407777e-03
 -2.2696776e-02
 -6.0589191e-02
  2.5886253e-02
  5.0664771e-02
  8.0110252e-02
  3.2035034e-02
  2.7624153e-02
 -3.6826871e-02
  2.0981545e-02
  2.4584062e-02
 -1.9115986e-02
 -1.9870888e-02
  1.1918127e-02
  7.1033932e-02
 -5.5134911e-02
 -4.2420789e-03
 -5.3970806e-02
 -2.1626476e-02
  6.7934364e-02
  1.5494461e-02
  1.6980566e-02
 -2.2908680e-02
 -5.6733824e-02
  3.9037331e-03
  3.3925918e-03
  2.8217221e-02
  7.5531080e-02
 -1.0436452e-02
 -6.0903374e-02
 -4.2152621e-02
  2.1547142e-02
 -1.9452777e-02
 -3.9228606e-03
 -3.7463933e-02
  1.1297423e-01
 -5.9781629e-03
 -9.2202136e-03
  1.0544041e-02
 -3.3625625e-02
 -1.0744674e-03
 -6.3341133e-02
  1.8554745e-02
  1.9703006e-02
 -9.7727366e-02
 -4.0929463e-02
 -1.3028544e-02
  3.2791204e-03
 -8.6858682e-02
  6.2206503e-02
  5.8506254e-02
  1.3544207e-02
 -4.9221165e-02
  2.5007213e-02
  2.4169413e-02
  1.9097716e-02
  7.3110797e-02
 -6.7960657e-02
  3.3330403e-02
 -7.0221029e-02
  5.1399231e-02
  2.7075109e-01
 -1.4275216e-03
  5.4672562e-02
  1.7946409e-02
  4.8682205e-02
 -1.8890641e-03
 -1.0139208e-02
  4.3949839e-02
 -2.5190288e-01
  3.3734377e-02
 -2.0079702e-02
  2.9535958e-01
  6.4517014e-02
 -6.5682244e-01
 -1.8083985e-01
 -5.1356155e-01
  5.0604600e-01
 -7.9104733e-01
 -8.2158327e-02
 -1.9525878e-01
  1.7530845e-01
  1.6900793e+00
  1.0445361e+00
 -6.0669035e-01
 -6.9906902e-01
 -6.7195392e-01
  1.2674948e+00
  4.5817876e-01
 -1.6512384e+00
 -3.5504636e-01
 -7.3250815e-02
  7.7568012e-01
  3.3311683e-01
 -2.5576895e-01
 -6.5748501e-01
  1.2177481e-01
 -2.6446855e-01
  1.7913711e+00
 -8.4142908e-03
  1.3035849e-01
 -7.0235683e-03
 -2.4572115e-01
  4.8789674e-01
  9.7129881e-02
  3.1410031e-02
  3.8920823e-02
  1.0491586e-02
 -4.7232428e-01
 -4.3176362e-01
  3.1066110e-02
 -5.6007944e-02
 -6.4672107e-01
 -1.2454541e+00
 -6.5927580e-02
 -1.1808013e+00
  2.5573581e-01
 -7.1611249e-01
  1.1594638e+00
  6.6416585e-01
  5.9734818e-02
 -1.5262157e+00
 -3.5604003e-01
 -4.5462701e-01
  4.2880010e-02
 -1.8543105e-01
  8.2561600e-01
  2.3699135e-02
 -1.1296366e+00
  1.2279035e-01
  1.4953590e-02
 -1.8949687e-02
  1.8047875e-03
 -4.1954603e-02
 -6.8149209e-02
  1.2204724e-02
  1.5582235e-02
 -3.7355248e-02
 -9.4496114e-03
 -1.0764861e-02
 -4.7944181e-02
 -8.3083436e-03
 -2.6821487e-02
  2.5355604e-01
 -1.2615402e-01
 -2.6739402e-02
  2.9669398e-02
  5.5898603e-02
 -1.6446760e-02
  2.6854900e-01
 -1.6475687e-02
 -8.4733337e-02
  2.7764289e-02
 -8.8487575e-03
 -1.4318793e-01
  5.4216459e-02
  2.1220716e-02
  7.6521732e-02
  1.1110044e-03
  3.9371666e-02
  1.7285964e-02
  1.7251356e-02
 -1.7788675e-01
 -6.0311943e-01
  5.7907885e-01
  5.7989638e-02
  1.1817340e+00
  3.8894477e-01
 -2.6255107e-01
 -4.6961403e-01
  8.6869878e-01
 -2.4748778e-01
  7.1213186e-01
 -2.2545721e-01
 -5.9885424e-01
  3.2069564e-01
  7.2315782e-01
  3.2039410e-01
  1.0440612e-02
 -3.9326370e-01
  6.4033562e-01
 -8.5373974e-01
 -1.7355187e-04
 -1.1770825e+00
  2.1521822e-01
  1.9934040e-01
  9.3263954e-02
 -1.7111520e+00
 -1.0048343e+00
  4.4032803e-01
 -7.1817026e-02
  3.9212599e-02
 -6.0962457e-03
  1.0449454e-01
 -1.9026957e-02
 -1.0723742e-02
  3.2360803e-02
  3.1699069e-02
  6.4747185e-02
 -1.0420320e+00
  1.7803174e-02
  6.5527663e-02
 -2.8669281e-02
 -7.8114547e-02
 -1.4659773e-02
  3.4916230e-02
 -7.4394189e-02
  2.3022335e-02
  1.5992326e-01
 -1.8304765e-02
 -1.4781388e-02
 -1.3271604e-01
  7.1153305e-02
  6.8481408e-02
  4.2293402e-03
 -2.4127124e-02
 -4.3135792e-02
 -3.4160484e-03
 -1.0890066e-01
 -1.5046321e-02
 -4.2670146e-01
 -2.4546565e-02
 -3.9167959e-02
  1.8034568e-01
  1.7804745e-01
  4.0106130e-01
  1.3132693e-02
 -1.6472563e-02
  2.2394456e-02
 -1.1913159e-01
  1.3479216e-02
 -4.3048862e-02
  3.1828213e-01
  4.3193465e-03
 -6.7683801e-02
  4.2672362e-02
 -3.2411307e-01
 -6.2037650e-02
  5.7058883e-01
 -1.2781398e+00
 -1.0851212e-02
 -2.5049256e-02
 -3.0777821e-02
  5.3344738e-01
  5.6402075e-01
  1.1848781e-01
 -2.0599036e-01
  6.2374317e-04
 -1.7643295e-01
 -7.5049257e-01
  2.8227409e-03
 -2.5027277e-02
 -6.8118863e-02
 -2.0046720e-02
 -3.6876123e-02
 -6.4111326e-04
 -7.5446822e-02
  3.5144974e-02
 -1.3178999e-03
 -2.0208407e-02
 -2.3492549e-02
  6.1204139e-02
 -3.3346731e-02
 -2.5505355e-02
  2.5739819e-03
 -3.1707291e-02
  9.7856820e-02
 -3.5606235e-02
 -1.3956563e-02
  5.8469992e-02
 -5.1261061e-03
  1.1307834e-02
 -8.2541266e-03
 -3.3562653e-02
 -6.5205738e-02
  8.8336743e-02
 -2.4681471e-02
 -2.1029038e-03
  3.1291962e-02
 -3.7349705e-02
  3.8959749e-02
  8.2195010e-03
 -3.4274422e-02
  2.5218302e-01
 -2.2955738e-02
 -1.6815934e-01
 -4.3330026e-01
 -1.8715139e-01
  4.5826528e-02
 -5.1565070e-02
 -7.8669056e-02
 -1.9438762e-02
  8.0917764e-01
  6.7335743e-01
 -1.7736746e-01
  3.8946578e-01
 -2.9202572e-01
 -8.1241958e-02
  1.9549887e-01
  2.6190367e-01
 -2.4947006e-01
  7.0959193e-01
  1.5364984e+00
  9.3669498e-01
 -2.0286200e+00
  6.3605711e-02
 -1.6705280e-02
 -2.6391885e-01
  1.1120040e+00
  1.4165711e-01
 -7.7033127e-03
  1.6753903e-02
  2.0003391e-02
 -5.8109746e-03
 -6.8190701e-02
  8.8669173e-03
  7.5096831e-02
 -1.5889658e-02
 -6.7271799e-02
 -8.5283751e-03
 -1.0867632e-02
  3.9081365e-02
  3.4427889e-02
 -8.1595834e-03
  2.0848241e-02
  5.4506443e-02
 -1.9080405e-01
  3.9694663e-02
 -1.8578447e-02
  1.4197968e-02
 -2.4259549e-03
  1.9874355e-02
  2.1091500e-02
 -1.6764261e-02
 -8.2248100e-04
  1.5004736e-01
 -9.1455514e-03
 -4.4647759e-01
  1.9794395e-02
  7.4449457e-02
 -3.1051420e-02
 -1.7682981e-02
  1.0164741e-02
 -2.3888326e-01
 -6.5395236e-03
 -6.4705260e-02
  1.4007693e-02
 -9.2581874e-03
 -7.7436313e-02
 -6.5952085e-02
 -3.2961365e-02
  6.7622541e-04
 -3.7137441e-02
 -3.7767064e-02
 -1.4048185e-02
  3.7866432e-02
 -1.1356197e-02
 -6.9506407e-02
 -8.8756305e-01
  9.0284419e-01
 -4.0371470e-02
 -4.6035950e-03
  5.4519203e-02
 -5.5437125e-02
  4.1904487e-02
  6.1737295e-02
 -1.6007302e-02
 -1.5047589e-01
 -2.2486517e-02
 -9.6396446e-02
 -2.1453414e-02
  3.1087977e-01
  3.6915792e-03
 -2.9299099e-02
 -9.7181117e-03
 -9.8402286e-04
 -3.8488525e-01
 -7.6954323e-03
  4.1304685e-02
  6.6370346e-02
  1.5078779e-01
  1.0720476e-01
  1.4985987e-02
 -3.0084008e-02
  2.8142242e-02
  2.0197956e-02
 -3.1008858e-03
  2.8664418e-02
 -1.5038223e-02
 -4.8457429e-02
  1.7739410e-02
  4.4751942e-02
  1.0569444e-01
 -4.8159312e-02
  1.4276803e-02
 -1.2525685e-02
 -3.8107488e-02
 -1.2591859e-02
  2.2142995e-02
  2.4486769e-02
  5.1190000e-02
  2.9948868e-02
 -4.8961032e-02
  4.6814892e-02
  2.5471821e-02
  2.4874862e-02
  4.7993287e-02
 -2.5103046e-03
 -1.7027937e-02
  1.4983878e-02
  2.9559720e-02
 -2.1489087e-02
 -2.1381302e-02
  4.8775622e-03
 -3.3292461e-02
 -3.0190267e-02
  2.1988582e-02
 -1.6454130e-02
  7.7419872e-03
 -2.3714537e-02
  2.4579231e-02
  3.4893200e-02
 -1.9330731e-02
  6.9872275e-02
 -4.0366802e-02
 -2.9851671e-02
 -1.4398262e-02
  1.1157534e-03
  1.9803248e-02
  1.1535685e-02
 -2.4986656e-02
  3.6344212e-02
 -7.1900003e-03
  6.7109638e-03
 -8.6671961e-03
 -8.1209384e-04
 -1.4271350e-02
  9.0371883e-03
 -3.5247870e-02
 -3.9050680e-02
 -9.7933039e-03
  3.1247519e-02
 -6.0935058e-02
 -1.5882630e-02
  3.0199597e-02
  1.4172755e-03
 -4.4720978e-02
  4.5241248e-02
 -2.7231617e-02
  8.9521326e-02
 -7.6037571e-02
 -2.2350615e-02
 -1.5420902e-02
 -2.1325057e-02
 -2.5615690e-03
 -4.4669686e-03
 -1.1472519e-02
 -8.3658531e-02
 -8.2608508e-03
 -1.1662879e-02
  1.1317531e-02
  1.1858627e-02
 -5.4200735e-02
 -1.0570782e-01
 -1.8983509e-04
 -4.9369976e-02
 -8.1423419e-03
 -1.1703027e-01
 -3.3495173e-01
  1.8604204e-02
  1.8288525e-02
 -6.4306445e-02
  6.9906309e-02
 -5.3217679e-02
 -1.7834676e-02
 -6.7807302e-02
  8.0417424e-02
 -5.0761485e-03
  3.2553472e-02
 -2.7263656e-02
 -1.6615223e-02
  1.8229049e-02
  1.0541099e-01
 -9.3024679e-02
  7.3356010e-02
 -9.2140086e-02
  4.4755060e-03
  2.3877893e-02
 -6.1588162e-03
  2.8795362e-02
 -3.7797637e-02
  2.5296053e-02
  1.5563280e-02
 -5.3537719e-02
 -3.6169276e-02
 -2.9041903e-02
 -7.0097104e-02
  5.1116792e-04
 -2.5112866e-03
 -1.4917492e-02
 -2.7653683e-02
  1.9121500e-02
  1.1309152e-02
 -3.2464810e-02
 -5.6655826e-03
  2.1242820e-01
  1.7670514e-02
  5.1778972e-02
  4.8528388e-02
  1.1012942e-02
  3.4692297e-03
 -6.6163450e-02
 -7.1334049e-02
 -9.1960013e-02
  3.0545620e-02
  2.7394714e-02
  1.1001349e-03
  1.0125176e-02
  1.1835262e-02
  3.8950514e-02
  7.8801177e-02
 -2.6531626e-02
  1.0871967e-02
  4.0695749e-02
  1.6704619e-02
 -5.8558218e-02
 -1.5922029e-02
  1.3906280e-02
  8.6138109e-03
 -9.9347886e-03
  3.0162508e-02
  6.7167193e-02
 -3.9061692e-02
  1.1742951e-02
 -9.4517477e-02
  1.2562555e-01
 -1.8189307e-02
  2.0157482e-02
  5.8424793e-02
 -9.1295183e-02
  1.4571688e-01
  1.7828807e-02
  2.7800757e-01
  3.8131755e-02
 -1.4261161e-02
  5.4422501e-02
 -2.8125012e-02
  5.9559464e-02
 -1.2165191e-02
  3.6985692e-02
  3.8151588e-02
  6.1572166e-03
 -1.0601738e-01
  1.0695821e-02
  4.1940459e-03
  1.0249887e-02
  1.9600846e-02
 -2.9481893e-02
 -7.5595833e-02
  2.8663434e-03
 -1.2481582e-03
 -2.6611472e-02
  5.2020527e-02
 -1.0889228e-01
  2.3833070e-04
  7.3013954e-02
 -2.5161792e-02
 -5.6955885e-02
 -1.9383948e-02
  1.6600050e-02
  8.9234440e-03
  3.1966671e-02
  1.7398143e-02
 -6.6571057e-02
 -2.8185632e-02
  4.4855845e-01
 -4.0241487e-02
  1.2105095e-02
 -3.3094832e-01
 -2.5367079e-02
 -5.6777775e-02
 -6.3519073e-03
  2.8751206e-01
  2.1139878e-01
 -9.0919845e-03
  2.7431098e-01
 -5.2760994e-01
  3.8404204e-02
 -4.2879805e-02
 -2.9017970e-01
  3.7321177e-01
  8.1222266e-02
 -6.0174752e-02
  1.1557879e+00
  6.7722702e-01
  1.1734535e+00
  2.6679263e-01
 -6.3822114e-01
  4.6336830e-01
 -2.3544324e-03
 -4.7385052e-01
  1.0796665e+00
 -1.3628167e+00
 -5.0484312e-01
 -1.5102724e+00
  8.4290266e-01
  1.3940430e+00
  3.0581621e-03
  1.5511205e+00
 -4.1053748e-01
 -3.6255202e-01
 -8.5933022e-02
  2.1593966e-02
  3.9278883e-03
 -3.6016089e-01
  2.9108698e-02
 -4.7174457e-01
  2.3831481e-02
  3.4951165e-01
  7.1239674e-01
 -6.0369801e-02
 -1.0954837e+00
 -7.0694411e-01
  7.0318246e-01
 -4.9953073e-01
  1.9210234e-01
 -4.0459239e-01
  1.4357960e-01
 -1.0810450e+00
 -5.3997439e-01
  1.5605401e-02
  9.3711340e-01
  5.3312955e-03
  1.5298630e+00
  1.1502293e+00
 -1.2191534e-02
 -3.8973227e-02
  4.7805566e-02
  3.5808492e-01
 -3.8638872e-01
  1.7007131e-02
  1.8424695e-02
  6.0185248e-01
  4.2869538e-01
 -4.4948119e-01
 -4.2848125e-01
 -1.1682114e-01
 -5.6466192e-01
  8.6326018e-02
 -6.6217649e-01
 -2.7323699e-01
  1.2158970e-02
  4.9119753e-01
 -2.5541607e-01
 -3.0985627e-01
 -4.5287934e-01
  6.3006729e-02
  1.2768579e+00
 -9.9629307e-01
  1.1010460e-01
  2.6587810e-02
  9.3539180e-03
  3.8903892e-01
  9.9513155e-01
 -5.0570172e-01
 -2.7138802e-01
  1.3731128e-01
 -1.8734593e-02
 -5.2130270e-01
 -4.1530079e-01
  1.4721614e-01
 -2.8537286e-02
 -1.5479821e-02
  5.6616206e-02
  3.2282066e-02
  5.2418364e-03
  9.8773157e-03
 -9.7576519e-03
 -4.2220436e-02
 -1.1462600e-01
  2.4468612e-03
  3.8338445e-02
 -4.7892664e-02
  2.8594755e-02
  7.2940788e-03
 -1.2070238e-02
 -2.9424004e-02
 -3.5764880e-02
 -1.9731443e-02
  7.5251132e-02
  2.4568750e-02
 -9.1858022e-02
  7.6159243e-03
  3.6881655e-02
 -7.9306126e-02
 -4.4415083e-02
  1.4331560e-02
  1.2390682e-02
 -5.6230903e-01
  2.6642967e-02
  4.2021178e-02
 -4.2386409e-02
 -1.3537523e-01
  3.5167098e-02
  3.3747368e-02
  1.4570859e-01
 -1.8476605e-02
  5.8771353e-02
 -4.5599721e-02
 -1.9122519e-02
 -3.3677757e-02
  2.4763657e-02
 -2.4963492e-03
 -1.6540721e-02
  5.5308187e-01
 -3.2405046e-01
 -8.5559726e-02
 -2.9082718e-01
 -4.1116193e-01
  2.7142346e-02
  8.6154584e-03
 -2.0623313e-02
 -8.6003942e-03
  4.9465008e-02
  3.9152913e-02
  1.3501941e-02
 -3.7484113e-02
 -1.2606536e-02
 -2.7252335e-02
 -5.9594970e-02
  1.6013931e-03
  2.3819657e-02
 -1.3069355e+00
  1.3830273e-01
  1.4116161e-01
  6.0259122e-01
  1.5925288e-01
  1.2285518e-01
  8.6286992e-01
  9.9681109e-01
  7.1564905e-04
 -5.4428291e-01
 -3.7058312e-01
 -2.0877215e-01
 -4.9649593e-01
 -9.9246994e-02
  6.5643318e-02
  3.5152334e-01
  9.4732624e-01
  9.5590115e-01
  7.7294642e-03
 -2.2222200e-01
  2.0341396e-01
 -9.6949500e-01
 -4.5136258e-01
 -1.0671153e+00
 -1.2533185e-01
  6.8465120e-01
  2.4424909e-01
 -1.6048680e-01
  6.4561558e-03
  1.6191158e-02
 -3.8909562e-02
  3.5490628e-02
 -4.7009267e-02
 -3.6238555e-02
 -6.9125667e-02
 -5.9809778e-02
  3.6890827e-02
 -3.4637425e-02
  3.3592682e-02
 -7.7792920e-02
  2.5126603e-01
 -5.1290214e-02
 -1.4066090e-01
 -1.6733391e-03
  1.9118071e-02
 -1.1974663e-02
  3.9771746e-04
  2.1127054e-02
  5.9844673e-02
 -7.4905179e-02
 -1.0811428e-01
 -7.4082293e-02
 -2.2236204e-02
 -7.9225339e-02
 -9.3570193e-03
 -1.3425388e-02
 -7.2808978e-03
  6.8149030e-02
  2.3685802e-02
  1.1300756e-02
 -9.2058375e-02
  9.3589894e-02
  1.4693871e-01
  5.1520813e-02
  1.1619942e-01
  3.7466876e-02
 -6.2659740e-02
  1.0995743e-01
 -2.2442313e-02
 -2.4516294e-02
  7.8857917e-01
 -1.1778899e-01
  7.4008808e-02
 -3.5959517e-03
  1.9317413e-02
 -1.7590480e-02
 -5.7683891e-01
 -1.6797364e-03
 -1.8038493e-02
  2.8890533e-02
  2.5260019e-01
 -3.9714307e-02
  1.0994327e-02
 -2.6841540e-02
  2.2516483e-02
  1.1900549e-02
  5.4429412e-02
 -2.1382509e-01
 -2.5820307e-02
 -2.7629813e-02
 -5.1776752e-02
  2.6070200e-02
  1.4278324e-02
  2.8979140e-03
  8.4262071e-03
  2.3675552e-02
 -1.5112498e-02
  2.3355570e-02
  1.8168656e-02
 -5.5000931e-02
  4.5915674e-02
  1.5837209e-02
  9.3015283e-02
  3.6071982e-02
 -4.8270535e-02
  3.4814261e-02
 -5.8881033e-02
  6.7362636e-03
  2.6029136e-02
  1.5401489e-01
 -1.0417322e-01
 -1.4673206e-01
  2.7159872e-02
 -1.5296696e-02
  2.7176479e-02
 -3.4575313e-02
  3.8689215e-02
 -7.7786610e-02
 -5.1178090e-02
 -5.9645765e-02
  5.5262013e-03
 -8.7807521e-02
  1.0320147e-02
 -4.6267711e-02
 -1.2405503e-01
  1.5266158e-02
 -3.4996577e-02
  3.3863804e-03
 -2.8513610e-02
  7.3480889e-02
 -2.0382635e-02
  7.2534695e-02
 -1.4568764e-02
  3.3038629e-03
 -2.5282025e-02
 -1.8936282e-02
 -4.0464945e-02
  1.1169935e-02
 -4.4035362e-03
 -1.2537867e-01
 -1.0944713e-02
  2.3021381e-01
  4.3946211e-04
  2.9830767e-02
  8.0634756e-03
 -2.3260798e-02
  4.4161831e-03
  8.5509494e-02
  4.0429998e-02
 -8.6921640e-03
 -5.5436646e-03
  4.8610877e-02
  9.9491291e-02
  5.1228974e-02
  6.6617407e-02
  3.7386559e-02
 -4.8207831e-02
  5.0510962e-02
  1.5345841e-03
 -3.8149990e-02
  1.0196554e-01
 -7.7379741e-02
  3.3698056e-02
 -9.3950145e-03
  1.9064706e-02
  7.7692084e-02
  8.9803033e-02
  3.0258875e-03
  3.4048505e-02
 -1.5319601e-01
  3.7709952e-03
  1.9001304e-03
  2.4934587e-01
  1.1335756e-02
 -6.0670283e-02
  4.0757637e-03
 -1.4377206e-02
 -4.2586204e-02
 -1.1957280e-02
 -2.5621483e-02
 -3.7092809e-02
  1.5108629e-02
 -4.5109909e-02
  1.5460080e-03
  2.4655059e-02
  1.6947934e-02
 -2.9454933e-02
  2.0418376e-02
 -5.0748638e-03
 -1.7489217e-02
  4.2377952e-03
  8.2510542e-03
  1.7270641e-02
  4.0710956e-02
 -2.0224016e-02
 -3.7219696e-02
  7.4538089e-02
 -3.3267099e-02
 -6.3972645e-02
  8.4430617e-01
  9.5350854e-02
 -8.9706890e-02
  4.4958465e-02
 -4.2404078e-02
 -2.0289877e-02
  3.1299911e-02
 -7.0287995e-02
  4.1743737e-02
 -5.7380967e-02
  4.1500940e-03
  1.9688404e-03
 -6.7111410e-02
 -7.5271517e-02
  6.4196899e-03
 -2.1909401e-02
  2.9246954e-02
 -2.1026300e-02
 -1.0161177e-03
  1.5510629e-02
 -7.9046860e-02
 -1.3748141e-01
 -1.4755979e-05
 -1.7155362e-02
 -1.5703984e-02
  2.2066314e-02
 -1.8913822e-02
 -1.5190595e-02
 -2.5725098e-02
 -1.7245514e-03
 -7.2026206e-03
  6.2833838e-02
  2.6471604e-02
  4.8060026e-02
 -9.2433561e-03
  8.2271602e-03
  1.4644911e-02
  8.6484868e-03
  6.9822297e-02
 -3.0557938e-02
 -3.3509317e-03
 -4.3009657e-02
 -4.2751115e-02
  5.4188780e-02
 -2.9950871e-03
 -4.5020599e-02
  3.3536352e-02
 -4.5986384e-02
  3.3719465e-02
  1.1644129e-01
  1.1633698e-02
 -1.2837385e-01
  2.3415111e-02
  2.1524679e-02
  4.0670455e-02
 -4.1923728e-02
  1.2557385e-02
 -3.4074906e-02
  1.4735018e-02
  4.2580392e-02
  5.9774566e-02
  5.6684844e-02
  5.4626055e-03
  4.1358370e-02
 -4.2021468e-02
 -1.8885599e-02
  3.5028316e-02
  2.1177125e-03
 -1.0495000e-01
  1.9119313e-02
  2.4817333e-02
  7.1695624e-03
 -4.8985526e-02
 -1.4732158e-02
  2.1881163e-02
 -3.0259346e-03
  1.4243130e-01
 -5.5257313e-02
 -7.8099719e-03
  7.8485692e-03
  5.0448500e-02
  6.3365124e-02
  1.9681798e-02
 -1.0435823e-02
  1.3069572e-02
  1.0573395e-02
 -4.9549183e-01
 -5.5976044e-03
  3.8657419e-02
  3.6194202e-02
 -1.1511517e-01
  1.2900872e-02
  9.1312289e-02
  3.7322383e-02
  1.0722510e-02
  1.0621060e-02
  1.2018814e-03
 -8.5006319e-02
 -4.8838165e-02
  3.8648635e-01
  2.2698577e-01
 -2.6508698e-02
 -1.2762335e-02
  5.4003906e-02
  3.9830422e-01
  1.8424803e-01
 -1.2864336e-02
  5.7529051e-02
  1.0578059e-01
 -2.4422245e-02
 -3.9151320e-01
  8.9762980e-01
 -5.0290551e-02
 -5.8825815e-01
  6.3699326e-03
 -3.6741178e-03
 -2.0107639e-01
 -1.3158005e-01
 -3.0181459e-01
 -4.1212779e-02
 -9.5176853e-02
  1.5429951e+00
 -7.7270150e-01
 -1.3295539e-01
 -2.9767603e-02
 -3.5337687e-01
 -7.9524115e-02
 -5.0811917e-02
  7.3270917e-01
 -8.8641465e-02
 -5.6348424e-03
 -3.0961636e-02
 -4.4181887e-03
 -1.3023472e-02
 -9.6055292e-02
 -7.8393007e-03
  1.4127878e-02
 -1.7053222e-02
 -6.9638021e-02
  3.7488709e-03
 -2.2461494e-02
 -2.4600241e-02
  3.5820778e-03
  9.6116133e-02
 -2.8534976e-01
 -5.8256254e-02
  4.3070838e-02
 -1.4223586e-02
  1.6963091e-02
 -1.2389027e-01
  7.4071377e-03
  8.3796069e-02
 -3.5402257e-02
  1.1514854e-01
 -1.3936180e-02
  5.8456644e-02
 -6.6066538e-03
  5.2941635e-02
  4.8223216e-02
 -1.6331084e-02
 -1.6435731e-02
 -1.5981469e-01
 -3.4251696e-01
  2.2703791e-01
 -6.8090156e-02
  3.6783966e-01
 -8.2957357e-02
  2.6160924e-02
 -1.4453228e-01
 -8.1665762e-02
 -2.7504393e-01
 -4.2397860e-02
  1.1807121e-01
 -4.4646189e-02
 -1.1109367e-01
 -4.1762072e-01
 -8.3088884e-03
  7.4198227e-03
  5.2517897e-01
 -4.5646708e-02
 -3.3578962e-02
 -2.7450719e-01
 -3.8905253e-04
 -4.7134894e-01
 -6.9017768e-02
 -1.9856946e-01
  1.7443636e-02
  6.8221642e-03
  1.2990548e-01
 -2.1583898e-02
  3.1695333e-03
 -9.7920168e-03
 -4.2904694e-02
 -2.9047776e-02
  2.6952086e-02
  3.8021021e-02
  1.7502133e-02
  5.1729875e-03
  2.0279283e-02
 -1.1891680e-02
  4.3550953e-02
  6.1985143e-02
  5.0863661e-03
 -2.5624398e-02
 -5.1585551e-02
  1.4358614e-02
  3.1843647e-02
 -1.2591138e-02
 -1.8014310e-02
 -6.9382571e-02
 -1.0765888e-04
 -6.4761609e-02
 -4.1870117e-02
 -1.3951748e-03
  2.1780496e-02
 -1.0903970e-02
  2.6656609e-02
  2.0479683e-02
  2.9885611e-03
  1.3569828e-02
 -2.2700174e-01
 -8.4118441e-02
  1.4676666e-02
 -3.9680943e-02
  4.2829987e-02
 -2.4124062e-02
 -3.0586097e-02
 -2.0865716e-02
  1.1633261e-02
  1.0475107e-02
  1.1386277e-02
 -2.1738293e-02
 -2.0324124e-01
  2.5402581e-02
 -4.6967682e-01
  2.7984807e-02
  2.0410471e-02
  2.2257533e-02
 -5.2826325e-03
 -4.4859130e-02
 -9.8111667e-03
 -2.4580974e-02
  4.0280469e-02
  7.5017009e-03
  7.6687574e-02
  3.6620125e-02
 -2.2018656e-02
 -3.8496178e-02
  9.5172916e-03
  6.0548302e-02
  4.9668569e-02
 -2.7025668e-02
  1.6246609e-01
  3.1276371e-02
 -9.5250212e-02
  6.5521234e-01
  2.3671184e-03
 -8.4404558e-02
  3.7833173e-02
  4.2825777e-02
 -1.2533250e-02
 -5.8155268e-02
  1.4480100e-03
 -1.1247382e-01
 -1.5041954e-02
  3.8950068e-03
 -7.5050652e-02
  3.5823669e-02
 -7.5612314e-02
  3.8036417e-02
  5.9266393e-03
 -2.3589561e-02
  3.6733698e-02
  1.4635290e-01
  2.3272453e-02
  4.8102383e-02
 -3.0563191e-02
 -3.1531926e-03
 -5.1141728e-02
  2.7943876e-02
 -2.3551254e-02
 -1.2497309e-02
  1.8275511e-03
  8.7781750e-02
  7.7508348e-01
  9.6981460e-03
  1.0117079e-01
 -4.0376154e-03
  2.3535584e-01
 -1.6078047e-01
 -2.9878927e-02
  2.0149853e-02
  5.8219686e-02
 -4.3120716e-02
  8.6044878e-02
 -6.0918084e-03
  1.4497203e-02
 -1.7701967e-02
 -3.7153110e-02
  4.4217929e-02
 -2.4970021e-02
  6.3708790e-02
 -1.0892766e-02
 -1.1269466e-02
 -1.2002171e-02
  9.9314593e-02
  1.6871238e-02
  3.3494252e-01
 -1.6382041e-04
 -4.4909944e-03
  2.8180820e-03
  4.8026901e-02
  4.9686301e-01
  4.1254228e-01
  9.0430677e-01
  6.6030765e-01
  1.4500903e-01
 -2.7209482e-01
 -7.7352899e-01
  8.3378721e-03
 -2.2860583e-02
 -6.4824417e-05
 -1.5351914e+00
 -7.0440847e-01
  1.0696410e+00
  2.9113838e-01
 -5.3846490e-01
  4.7667059e-01
  1.1309063e+00
  5.5975378e-01
 -2.9966144e-02
 -2.6071486e-01
 -1.8323606e+00
  7.6983660e-01
 -2.7824929e-01
  4.9655572e-01
 -6.4822771e-02
 -6.7829174e-01
 -2.9707992e-01
  1.0120762e-01
 -8.5265487e-02
  5.9890687e-02
  5.5127516e-02
 -4.4896796e-02
 -1.5836444e-02
  2.2866860e-02
 -1.1922286e-02
 -1.8492835e-03
  1.4084931e-02
 -4.6588019e-02
 -6.4144760e-01
 -1.0350484e-02
 -1.1793153e-02
  5.3892791e-02
 -1.9788656e-02
 -3.7521172e-01
  2.2736950e-02
 -1.0999639e-02
  3.3510897e-02
  1.3702425e-01
 -5.7578787e-02
 -7.0597507e-02
  1.3881686e-02
 -4.5115784e-02
 -5.7486758e-02
 -6.1973324e-03
  5.2595247e-02
  8.8449139e-03
 -1.1789965e-02
 -4.3222051e-02
  1.4805062e-02
  1.1183694e-01
  1.0469367e-01
  5.6145531e-03
 -2.1556366e-02
  1.3053187e-02
 -3.1755779e-02
 -9.2884026e-02
 -5.7101201e-02
  8.1591588e-03
 -2.7336946e-01
  9.8094326e-03
 -1.9642841e-02
  9.8083699e-03
 -6.7933649e-02
 -3.8077242e-03
  9.4130076e-02
  3.9305624e-02
 -1.6741589e-02
 -7.1135543e-02
 -1.9920243e-02
 -6.1638821e-02
  1.8543421e-03
 -8.0774993e-02
  2.8918590e-02
 -7.1947642e-02
 -1.9104745e-02
  7.3967515e-03
 -1.0846534e-01
 -2.6501605e-02
 -4.1031204e-02
 -2.7207536e-01
  2.5586668e-02
 -4.2472050e-02
  2.3139983e-02
  9.0964828e-03
  8.4761404e-02
 -5.0841704e-02
 -9.9197187e-02
 -1.0282477e-01
 -3.2308635e-01
  6.7888230e-01
  3.8167130e-02
  7.3688552e-03
  1.2769040e-02
 -2.5059569e-01
  4.8303786e-03
  2.9075047e-01
 -5.4567528e-01
  3.4963384e-02
  6.5089995e-01
 -2.1323016e-01
  1.0433152e-01
  3.3707449e-01
  1.8340366e-02
 -4.7267190e-01
  2.9472223e-02
 -1.2797916e-01
 -9.0946847e-01
  4.6036644e-03
 -4.0765937e-02
  1.8248463e-02
 -3.9848365e-02
  6.6191135e-03
 -6.1503306e-02
 -1.0151906e-01
  2.8644223e-03
  8.6502492e-02
 -1.1821283e-01
 -2.3027210e-02
 -1.9197218e-02
  1.0916305e-02
 -6.8752053e-03
  4.9630295e-02
 -5.4885019e-02
 -7.1763415e-03
  5.5195759e-03
  1.5426817e-02
 -4.4834502e-03
  4.7445126e-02
  1.0101010e-02
 -1.2462344e-03
  2.9951967e-02
 -1.5170712e-02
  2.9516453e-03
 -3.4664895e-02
  5.6329034e-02
 -3.0788451e-02
  3.7081309e-02
  9.2062810e-03
 -3.3875275e-02
  3.5122961e-02
  1.8483358e-02
  7.5156584e-02
  4.5602772e-02
 -1.2596156e-02
 -1.1093768e-02
 -4.2119682e-02
  4.3953553e-02
 -2.6589654e-02
 -6.0415898e-02
 -2.6379619e-03
 -6.8335282e-03
 -4.5639550e-04
 -3.8304254e-02
 -1.0282596e-02
  1.2084212e-02
 -2.0034170e-02
  1.5871280e-01
 -1.7102866e-02
 -1.2057301e-01
  3.4279454e-02
  1.3484791e-01
 -4.7213994e-02
 -2.0344885e-02
 -3.6563143e-02
 -4.6686456e-02
  9.0610236e-03
 -2.8705986e-02
  2.9724794e-03
 -3.6325257e-03
 -1.5895974e-02
 -2.0877376e-01
  2.5597264e-04
 -3.8513534e-02
  2.1618811e-02
  3.2247806e-01
 -2.6051763e-02
  2.7845895e-03
  3.3907857e-02
  2.6927993e-01
 -1.0010809e+00
 -1.3727680e-01
  6.5768480e-02
  2.2914028e-01
  4.7109880e-02
 -7.3990446e-01
  1.3845617e+00
  5.9549655e-03
  4.4049747e-02
  3.3618745e-01
 -5.1874119e-01
 -7.0019406e-01
 -4.6389788e-01
  4.3094609e-02
  2.6179576e-02
  2.8097889e-01
 -5.6947399e-02
  1.0151116e+00
 -2.9833853e-02
  3.2509055e-03
  1.9368796e-02
 -8.2841562e-03
  2.5415821e-02
 -4.2130160e-01
  3.2428540e-02
  2.4094585e-02
  1.6821759e-02
  6.5154154e-03
 -8.1372596e-03
  1.0878472e-01
  1.2812015e-02
 -1.2999334e-02
  4.2933080e-02
  3.5748094e-02
  7.3408368e-03
  1.6851019e-02
  7.3102251e-02
  1.1983577e-01
 -6.9377929e-02
  2.0814681e-02
 -2.0924946e-02
  3.4227945e-02
  2.1862702e-02
 -6.3381754e-02
 -8.7397344e-02
 -2.0796314e-02
 -1.0560197e-02
  1.3564212e-02
  3.1523684e-01
 -1.8633815e-02
  3.2984663e-02
  6.4283470e-03
 -1.1151980e-02
  1.1733819e-03
 -6.1060712e-02
  3.9358954e-03
 -2.7040144e-02
 -4.6213668e-02
 -3.0584687e-02
 -2.5764909e-02
  1.2116527e-02
 -1.9691788e-02
 -2.4780765e-02
 -2.2698478e-03
 -2.9850034e-02
 -2.6768274e-03
 -4.3410800e-02
  3.1195680e-02
  3.0917581e-02
  2.2940775e-02
 -3.4374923e-02
 -1.0498635e-02
  5.3930771e-02
 -1.1671024e-02
 -9.9474471e-03
  4.7431231e-02
 -9.2075087e-02
  6.5857485e-02
 -4.2946387e-02
  6.9216773e-02
  7.8484958e-01
 -8.1246130e-02
 -4.7328305e-01
 -1.2766249e-03
 -4.1511419e-01
  1.1165446e+00
 -1.4824727e-01
 -9.0699857e-01
 -8.9611046e-02
  2.2113796e-02
 -3.1450438e-01
  7.9252511e-01
  1.4743769e-01
  1.1798989e-01
 -6.3532162e-01
 -1.7285386e-01
  1.1403086e-01
 -5.6688374e-01
 -3.8106868e-01
  1.0685357e+00
  7.2949159e-01
 -7.9671162e-01
  3.3214396e-01
  2.4034049e-01
 -1.6933622e-02
 -8.7149936e-01
  5.8561283e-01
  1.7814872e-01
 -4.7764409e-02
 -3.9344881e-02
  6.0668308e-02
  1.6102767e-02
  7.4303005e-04
  3.4380548e-02
 -7.3326044e-03
 -7.2102927e-02
  9.9416427e-02
  1.8196788e-01
  1.7581102e-02
 -3.0521007e-02
  1.2735932e-01
  5.0283871e-03
  3.3593442e-02
  7.0455237e-03
  1.8797850e-02
  6.6358082e-02
 -7.6745272e-02
 -1.5773717e-02
 -4.8323207e-02
  1.9364228e-02
  2.7386528e-02
  4.5423184e-02
  4.0683687e-02
  1.0619557e-02
  1.5255158e-04
 -4.4841055e-02
  1.9230342e-02
 -1.7318711e-02
 -3.9011106e-02
  7.4349353e-03
  1.3202813e-01
 -9.9267587e-03
 -8.6972289e-02
 -3.2732684e-02
  1.1134710e-02
 -3.5370022e-01
  3.2567006e-02
 -8.5701890e-02
  6.2657624e-02
  2.3467876e-03
 -7.7231318e-02
  3.2171048e-02
  1.2787244e-02
  1.6526498e-02
 -5.7533826e-03
  2.5413254e-01
 -5.9384375e-04
 -1.5626043e-02
  7.0025339e-03
  9.3412161e-02
 -3.3686734e-03
 -2.2294642e-01
 -1.1841129e-02
 -1.4406756e-03
 -1.5470504e-03
 -6.1293695e-02
  8.6546585e-02
  8.5441500e-02
  4.0845823e-02
  2.7857389e-02
  2.2873410e-03
 -3.2955416e-02
  9.1245003e-02
  2.6850151e-03
  2.0769721e-02
  2.4491253e-01
 -5.7967142e-03
  4.2592786e-02
  5.1806597e-03
  3.0008020e-02
  3.5554379e-02
 -8.7112173e-02
  7.8660674e-02
  1.2996623e-01
 -1.6207822e-01
  1.8647416e-01
 -1.8148284e-02
 -7.0200080e-01
  7.0834816e-02
  1.5970640e-01
 -1.9499309e-02
  1.5142573e-01
 -2.1700501e-02
 -3.0974085e-03
 -7.5019538e-02
 -1.9101417e-02
 -9.0404697e-02
  7.0016064e-02
 -8.7556340e-02
 -4.3150675e-02
 -7.6751418e-02
  2.2403195e-03
 -4.7931154e-03
  3.8845301e-02
  6.3066773e-02
  2.6888160e-02
 -1.3555422e-01
  9.9368960e-02
 -3.1773229e-03
 -2.1052737e-02
  2.8572386e-02
 -6.1790738e-04
 -2.6410948e-02
 -4.0906232e-02
 -8.0990661e-03
  2.2384317e-03
  2.2357073e-02
  3.7909062e-03
 -9.3842112e-03
  1.2436234e-02
  1.7852334e-02
 -2.8599724e-02
 -3.7438519e-02
 -7.1488223e-03
  3.6899172e-02
  1.9683903e-02
 -4.9747001e-02
 -8.9258522e-02
 -4.1018021e-03
 -6.1289374e-02
  1.8027975e-03
  9.8595917e-02
 -7.6618269e-02
 -6.1484906e-03
  1.2964553e-02
 -9.7092548e-03
 -5.2592564e-02
  1.5335572e-01
 -2.9410565e-02
 -1.4829630e-02
 -1.0623476e-02
  2.9729176e-02
  7.1245730e-03
 -3.7448250e-02
  1.8109318e-02
 -7.4106306e-02
  5.2828407e-03
  1.4477692e-03
 -2.0640286e-02
 -2.5810696e-02
  3.5253223e-02
  1.3990725e-02
 -6.7769401e-03
 -2.6006612e-03
  3.9619710e-02
 -1.9924771e-02
 -1.9798305e-02
 -1.1278788e-01
 -5.5256631e-02
 -4.0045425e-02
  4.5475322e-03
  9.5164202e-02
  1.0199628e-02
  3.9789438e-02
  3.2495353e-02
 -2.9905062e-02
 -8.5831322e-03
  9.5609110e-03
 -5.4378383e-02
  1.0191963e-02
  1.8219149e-02
  3.9754644e-02
  1.0891196e-02
 -2.3965850e-02
  2.4297487e-02
 -4.7912900e-03
  3.5214975e-02
 -2.0962865e-03
  1.8615032e-02
 -5.5704237e-04
 -2.4509875e-02
 -8.4478378e-02
 -6.3899443e-02
  2.1754568e-02
 -2.2859335e-02
  4.4261902e-03
  5.4793009e-03
 -7.5558387e-02
 -7.9930788e-03
  1.3427754e-01
  3.7280243e-02
  7.8933194e-02
  1.3183354e-02
  2.1158534e-03
 -5.0374079e-02
 -4.7727093e-02
  1.2835152e-01
  3.4463070e-02
  5.7520539e-02
 -1.0825649e-01
  2.5153987e-02
  2.9746678e-03
 -5.8075406e-02
 -1.8719900e-03
 -1.0048205e-01
 -3.8592793e-02
 -7.3998021e-03
 -2.8394988e-02
 -4.9065951e-02
 -2.7386118e-02
 -2.0835325e-02
  8.3644306e-03
  9.9076852e-02
  6.0373105e-02
 -1.0003145e-02
  2.0757543e-02
 -1.0640863e-01
 -2.7654970e-02
  2.8416326e-02
 -2.5680205e-02
  9.2374973e-02
 -1.8154789e-02
  8.9552946e-04
 -2.6042972e-02
  3.9395772e-02
  3.2025717e-02
 -1.4798959e-02
  2.9226199e-02
 -2.3480592e-02
  3.3141408e-02
  1.3019732e-01
 -1.5414795e-02
  1.7282387e-02
  5.3392142e-02
 -3.8433876e-02
  1.7984461e-02
  2.5365692e-02
 -5.2664157e-02
  3.3816800e-02
  2.1006586e-02
 -2.7956586e-02
 -9.8536434e-03
 -2.5152016e-02
 -1.0754121e-02
 -2.7651826e-01
  6.4053945e-04
 -6.1766449e-02
 -9.5723569e-02
  2.4765449e-02
 -8.3757289e-02
  6.6198975e-02
 -5.1724914e-02
 -2.6899058e-02
 -6.3305465e-03
 -4.1500952e-02
  4.4064317e-03
 -1.7276367e-02
 -4.5959461e-02
  6.9545805e-02
 -6.6975191e-02
  7.9373168e-03
  2.7961737e-02
 -2.7281090e-03
  3.4286093e-02
 -2.3463469e-02
  4.3602441e-02
  2.2051482e-02
  1.2593239e-02
 -9.9714901e-03
 -2.3576466e-02
 -3.5287373e-02
  7.0689642e-03
  1.1440374e-02
 -4.9616550e-03
  4.8012869e-03
 -6.9671981e-02
 -5.0018817e-02
 -4.5902687e-03
 -6.4642704e-03
 -5.8824569e-02
 -4.1120134e-02
  2.5997803e-02
  2.3497641e-02
  2.0399026e-03
 -5.9933355e-03
  2.3504777e-02
 -5.5698492e-02
 -7.6110572e-02
  5.8330264e-02
 -1.2527508e-01
 -2.3023743e-02
 -4.4293951e-02
 -1.4223596e-03
 -3.8204748e-02
  6.2492834e-03
  5.3640086e-02
  4.7610909e-02
 -4.2351436e-02
 -5.3149536e-03
  1.7670935e-02
 -1.3536055e-03
  1.5610986e-02
 -1.7067809e-02
 -3.2335106e-02
  4.0236887e-02
  1.6623842e-02
  1.0447412e-02
  1.0703136e-02
 -9.2206541e-03
  1.3964777e-02
 -4.0659886e-02
  9.0361223e-02
  9.0157520e-03
  6.1296215e-03
 -1.6921512e-03
 -1.2697633e-02
  2.2517543e-02
  1.1108479e-02
 -5.8817636e-02
 -2.8165948e-02
  4.4975456e-04
  1.3018796e-02
  1.2399001e-02
  1.8531475e-02
  7.8971341e-02
 -1.3577809e-02
 -1.4163876e-01
 -5.0088257e-02
 -1.3581112e-02
 -1.3519706e-03
 -1.0543955e-02
  4.1776843e-02
 -7.6164245e-03
 -1.2058348e-02
  1.6608613e-02
  2.1578935e-03
 -1.7617194e-01
  4.4863835e-02
 -4.1082159e-02
 -5.2931953e-02
 -7.6888449e-02
 -1.0165667e-02
  6.3565001e-02
  4.6477478e-02
 -2.1408681e-02
 -3.5800412e-02
 -1.4066238e-02
 -3.1603634e-02
  4.7901124e-04
 -5.3517364e-02
 -7.7583872e-02
  1.2093898e-03
  4.5193411e-02
  6.8323729e-03
 -2.6377055e-03
 -9.1508962e-03
 -7.7873513e-02
 -8.1069611e-02
 -6.2241737e-02
 -2.0124516e-02
  3.9302524e-02
  1.6473589e-02
  6.3870609e-02
 -1.1454280e-02
 -1.9166162e-02
 -7.1027197e-02
  2.8171109e-02
 -5.0647318e-02
 -2.7694279e-02
 -2.1416968e-02
  2.3152321e-03
 -3.4472463e-03
  2.8714247e-03
 -1.0995824e-02
  1.9081092e-02
 -2.5682671e-02
  3.5444561e-02
  1.9312000e-02
  6.9408916e-02
  3.2776957e-03
 -5.9392691e-02
  4.5870420e-02
 -3.7135918e-02
 -4.5423997e-03
 -6.8079591e-02
  2.4195105e-02
  1.8606775e-02
 -1.0359460e-02
 -5.0575055e-02
  3.8616385e-02
  3.5375036e-02
  1.4369600e-02
  2.1222046e-02
  3.5606488e-03
 -2.8565800e-02
 -2.6722043e-03
  1.8446786e-02
  3.3660408e-02
 -5.2044962e-02
 -1.9027639e-02
  1.0900493e-02
 -5.2481705e-01
  1.9672644e-01
  1.9172332e-01
  2.3525457e-01
  3.2615820e-01
  6.5326780e-02
 -7.7801412e-01
 -4.0643858e-03
 -5.6027389e-01
 -2.1322802e-01
 -8.3256775e-01
 -1.2054026e+00
  4.7386730e-01
  6.9133870e-02
  1.2586769e-01
 -7.6458186e-01
 -3.6771455e-01
  4.5551455e-01
 -3.8160065e-01
  2.4282162e-01
  1.8503753e-03
  1.2592710e+00
  1.0822950e-01
 -3.1192582e-02
 -5.6757557e-01
  7.1917221e-02
  1.7731829e-01
 -5.2966472e-02
 -2.0827273e-02
 -5.8597904e-01
 -9.5129654e-02
  7.5846803e-03
  6.1946762e-01
  1.0611163e-02
  1.1445788e-01
 -1.9543825e-02
  7.5177378e-03
 -2.9831555e-02
 -1.6722156e-04
  2.4124090e-02
 -1.1467271e-02
 -8.7170437e-02
  4.4617437e-02
 -7.7476804e-03
 -7.3172987e-02
  5.2573397e-03
  3.7329014e-02
 -7.3176296e-03
 -1.6507361e-02
  9.2338715e-03
 -7.4317250e-03
  2.1101352e-02
 -1.8547254e-03
  1.8092578e-02
 -3.1309281e-02
 -4.5732811e-02
  1.2955284e-03
 -3.6147341e-02
 -6.0552076e-02
  3.9727625e-02
  8.0006970e-03
  4.7552038e-02
  8.0279097e-02
  2.4733970e-02
  8.6052576e-03
  3.5020575e-02
 -1.5022722e-01
  2.4274273e-02
 -7.5859077e-02
 -1.5830845e-01
  1.2169222e-02
 -3.5984915e-02
 -9.9470001e-03
  1.8241208e-02
  4.9352024e-02
  1.4614934e-02
  4.4048481e-02
  9.4561614e-02
 -3.0233499e-02
  1.0971880e-02
 -3.8500629e-02
  8.2549646e-02
  1.0167478e-01
  1.6036372e-01
 -3.0166563e-03
  5.5448245e-02
 -8.2420968e-02
 -6.2792073e-03
 -1.9253816e-02
  3.2866099e-03
  9.5819974e-01
 -1.0437991e-01
 -3.4362070e-02
  2.6236333e-02
  1.0986630e-02
  9.6548004e-03
  3.7031442e-02
 -1.2446377e-02
  5.5254716e-03
  5.0508813e-03
 -5.8473952e-02
 -4.1258600e-02
  3.8780305e-03
  1.5623339e-02
 -1.9537017e-02
 -3.1639855e-02
  5.9056305e-04
 -5.6678344e-02
  2.8670938e-03
  6.1559242e-01
 -9.7278925e-03
 -6.6528708e-02
 -1.6750465e-01
  5.0327592e-02
 -1.7406804e-02
 -4.3139830e-02
 -6.9637358e-02
  8.4289804e-04
 -4.0115111e-02
 -7.6430935e-01
 -7.0308483e-01
  4.1047961e-01
  3.0109313e-01
 -6.3579367e-03
  3.8710186e-01
 -6.1171925e-01
 -1.4587806e+00
 -1.7819643e-01
 -6.0541975e-01
  4.4386274e-01
  2.0256116e+00
 -2.7351862e-01
  1.1948013e-01
 -7.0780486e-01
 -3.5194987e-01
  1.7583779e+00
  6.7812127e-01
  5.3127281e-02
  7.8839272e-02
 -6.3438803e-01
 -1.5844806e+00
 -3.2986888e-01
 -4.2432541e-01
 -1.1097643e+00
 -1.0487834e-01
  1.2663524e+00
 -9.7457878e-03
 -2.7623523e-02
  5.9439898e-02
 -5.9950113e-02
  2.5398782e-03
 -4.3967936e-02
 -2.0957980e-02
 -7.3153335e-03
 -2.3782676e-02
 -9.0954542e-02
 -9.6067339e-03
 -1.0284182e-02
 -5.6505486e-02
  3.2083321e-02
  2.8565113e-02
  3.6649887e-02
 -5.3680107e-02
  1.1332589e-03
 -6.4864652e-03
  5.4844275e-02
  2.4262298e-02
  7.1189880e-02
  2.1081565e-02
  7.9517059e-02
  8.9527667e-03
  2.1540433e-02
  6.0417078e-02
  3.2496408e-02
  2.2997424e-02
 -3.9716434e-02
  3.6211949e-02
 -3.0862626e-02
 -4.2319190e-02
 -4.9521080e-03
  1.0185836e-02
  1.1868121e-02
  1.4532191e-02
 -7.2876019e-03
 -2.9060472e-02
  1.5615150e-02
 -2.8400791e-03
  8.3993506e-03
 -7.1204789e-03
 -2.4406351e-02
 -6.5503076e-02
  3.7751896e-03
  2.2480423e-03
 -3.7146038e-03
 -4.7994606e-02
  1.0987249e-02
 -6.7518495e-02
  5.6403787e-03
  5.1209111e-02
  1.4335492e-02
 -8.9636914e-02
  1.6502563e-02
  2.8142892e-02
  1.0246858e-01
  5.0443356e-05
 -1.6460344e-02
 -5.3126071e-02
  2.9965518e-02
  4.9846577e-03
 -2.2063667e-01
  1.3160044e-02
  8.8355821e-03
  5.6211382e-02
  1.3544941e-01
 -6.2786289e-02
 -1.1592983e-01
  3.3925834e-01
  9.7573809e-03
 -4.4944894e-01
  6.1396766e-01
  1.1014304e-01
  8.2037288e-01
 -1.4911041e-01
 -3.4477958e-01
 -3.1585541e-01
 -5.9396014e-02
  1.5125673e-01
  2.7002865e-01
 -2.3001233e-02
  3.6992580e-01
 -3.5973492e-01
 -7.5056112e-01
 -3.2640934e-02
 -4.6400431e-01
 -8.0880237e-01
  9.3891565e-03
  1.4482776e+00
  2.7356325e-03
 -7.3745988e-02
  1.5036634e-02
  3.5950926e-01
 -4.9891451e-01
 -2.4946643e-02
 -1.4351185e-02
  2.3343187e-02
  3.3532211e-01
 -4.3232609e-02
  5.3203128e-02
  3.4924716e-02
 -9.1330394e-02
  5.2642179e-01
  2.7425453e-01
  7.2735241e-03
 -2.4101686e-02
 -3.0785999e-01
  1.7957675e-01
 -7.3843941e-02
 -6.0696161e-01
  8.6822256e-02
 -2.7344579e-01
  5.3371572e-01
  3.2762519e-01
 -9.0508819e-02
 -3.2652244e-03
  5.0688736e-02
  6.8227530e-02
 -1.4534873e+00
  2.8256759e-02
  4.0241949e-02
 -5.2671307e-03
 -2.9958073e-02
 -7.2189798e-03
  1.0875657e-01
  5.9520314e-03
 -6.8876021e-02
  3.7822307e-03
 -3.7017036e-02
 -2.4002535e-02
 -4.9866357e-01
 -1.0577741e-02
  6.8145017e-03
 -6.8072252e-02
 -2.3245797e-01
 -4.9111936e-02
 -1.4183650e-02
 -1.7932570e-02
 -6.2627922e-04
  2.3954712e-02
  5.1714264e-02
 -7.4818440e-02
 -3.5394136e-02
 -1.8052021e-01
  1.4478639e-02
  8.2547721e-03
 -3.2836713e-02
 -6.2140632e-02
 -2.0073155e-02
  4.3884348e-02
 -3.2961458e-02
  1.3048401e-02
 -2.9402731e-03
  7.6968814e-03
 -6.1849121e-02
  1.9825183e-02
 -2.8808273e-02
  9.8920194e-03
 -1.3508932e-01
 -2.6402382e-02
 -5.9073246e-01
 -1.0244211e-02
 -2.3849802e-02
  2.9100189e-02
  1.1170844e-01
 -3.0795589e-02
  2.8713651e-02
 -1.5975272e-02
  5.3000245e-02
 -5.3470533e-02
  1.9272216e-01
  1.6424965e-02
  2.1314137e-02
 -2.1206409e-02
  9.8887645e-03
 -2.9924700e-02
 -1.0926329e-02
 -6.5850899e-02
 -9.5429577e-02
 -4.9686269e-03
  1.7837446e-02
  1.0761277e-02
 -1.1282526e-01
  4.8879601e-02
  6.1992914e-03
  3.9717674e-02
 -1.5256135e-02
 -1.7327571e-02
 -1.7622869e-02
 -7.2428579e-03
  5.0977584e-02
  6.1449859e-02
  2.3801371e-02
 -1.4997951e-02
 -4.0322724e-03
 -1.8462617e-02
  1.0260057e-02
  5.6423405e-03
 -3.2860957e-02
 -5.2832302e-02
 -6.2831581e-02
 -6.5959841e-02
  2.4338216e-02
  1.1698089e-02
  4.5930799e-02
 -1.8718963e-02
 -7.9624929e-02
  4.1583348e-02
  5.4746728e-02
  7.3261377e-03
  2.6571596e-02
  5.6752317e-02
 -1.9132694e-02
  2.9208191e-02
  1.4081424e-01
 -1.2369133e-02
 -4.0814071e-03
 -4.2566877e-02
  7.2006613e-02
 -2.1372553e-02
 -5.0955857e-03
 -2.2272309e-02
  3.3544272e-02
 -4.5634672e-02
  1.4246784e-02
  3.7238270e-02
  2.3288079e-02
 -3.7967980e-02
 -2.5150377e-02
 -3.0307500e-03
  3.2491095e-02
  3.8301218e-02
 -2.5181520e-01
  7.5980732e-03
 -2.9915802e-02
 -1.9054882e-02
 -8.7659732e-03
 -6.5950580e-02
 -3.0327398e-02
  1.0811104e-02
 -2.1152362e-02
 -1.5954971e-02
 -1.3758974e-02
  3.0494958e-02
  1.8608939e-02
 -1.8801263e-03
  1.0608150e-02
  3.0731767e-02
 -2.1175662e-02
 -7.2129577e-02
  1.4617370e-01
 -1.1715777e-01
  7.8344874e-02
  5.4423153e-02
 -7.1153887e-02
 -1.0394909e-01
  3.4851875e-02
 -1.4521707e-03
  1.8011056e-02
  6.5822795e-02
 -2.5598589e-02
 -1.5441594e-02
 -6.3937373e-02
  3.0415398e-03
 -1.5230066e-02
  3.2426018e-02
  2.5923578e-02
 -4.5149557e-02
 -3.1243656e-02
 -2.7584333e-02
 -4.3946397e-02
 -7.4410238e-03
 -1.1192194e-01
 -1.7766098e-02
 -2.7906502e-02
 -3.6672732e-01
  1.3043609e-02
 -1.8211893e-03
 -5.9768479e-02
  1.3499903e-03
  1.3142623e-02
 -1.1507175e-02
  1.2630962e-02
  6.2214035e-01
  1.3813941e-01
 -3.1787448e-02
  5.6938589e-02
 -4.2509866e-01
 -1.9016698e-01
  2.5116513e-03
  3.7398018e-02
 -1.9964093e-02
  2.6793754e-02
 -2.7610509e-02
  3.6262985e-02
  1.3581610e-02
  9.4098747e-03
 -3.7467159e-02
 -6.6154629e-02
  3.2255378e-02
 -2.8910626e-02
 -5.8633450e-02
  2.1705298e-02
  1.3969425e-02
 -1.1482179e-02
 -1.1180628e-02
  1.9670043e-02
 -2.7517060e-02
  4.8210949e-02
  6.5674563e-03
  4.3100575e-03
  3.1967934e-02
 -1.3964139e-01
 -2.6940195e-02
 -8.7104617e-03
  3.1479571e-02
  3.8207348e-02
 -6.3692890e-02
  1.2432153e-02
  5.9907860e-03
  9.4896425e-03
 -1.3390706e-02
  6.6142939e-02
 -4.4668447e-02
 -6.3443236e-02
 -4.7392761e-03
  4.5498889e-02
 -8.0587424e-02
  2.0876879e-02
  1.7398601e-02
 -1.5956476e-01
 -5.7070833e-02
  6.0524121e-03
 -5.3739164e-02
  3.3223361e-02
 -9.6900193e-03
  2.3166981e-02
 -8.0837524e-03
 -2.6926056e-02
 -5.2331787e-02
 -1.6669219e-02
 -6.1880048e-02
 -3.0810807e-03
 -3.3063859e-02
 -3.5876255e-02
 -4.5370221e-02
  2.7717766e-04
  3.3329833e-02
  6.3131452e-03
 -1.4922929e-02
  5.3049840e-02
 -9.8871933e-03
 -2.6345689e-02
 -5.5927052e-03
  5.3124942e-02
  1.8267002e-02
 -1.7062724e-02
  1.6196061e-02
  1.0839814e-01
 -4.1739196e-03
 -3.9676987e-02
  1.1570239e-02
 -3.8990937e-02
 -4.2940541e-03
 -7.0611596e-02
  2.1383320e-01
  9.1762342e-02
 -1.1192231e-02
 -8.3334036e-03
  4.9486104e-02
  2.5290910e-03
  2.7369853e-02
  1.7385537e-02
 -1.3542262e-02
 -7.7932380e-02
  1.1663910e-01
 -1.8118944e-02
  9.9839956e-02
  3.7465401e-02
 -9.8119967e-02
 -3.3151815e-03
  9.9525964e-03
 -9.0334721e-02
 -1.4832708e-01
 -1.4284017e-02
 -3.1031180e-02
 -1.1492365e-01
 -4.5974407e-02
  1.1041432e-01
 -3.2444172e-02
  1.2675861e-02
 -9.8710470e-02
  1.0146634e-01
 -1.5831580e-02
  1.6118947e-01
 -5.6971931e-03
  1.6568426e-02
  4.7939755e-03
 -1.3315753e-03
  3.0303478e-02
 -5.8694046e-02
  5.6525812e-02
 -2.1362479e-03
 -3.0641049e-02
  2.6443107e-02
  1.2429391e-01
  4.2258970e-02
  1.0861395e-01
  9.5101260e-03
 -7.0606455e-02
 -2.8242018e-02
  1.8969426e-02
 -2.0567697e-02
 -2.0433590e-02
 -2.9677810e-02
 -2.2963122e-02
  2.3603201e-01
 -1.2454155e-01
 -6.5835202e-03
 -3.0139410e-03
  1.2874187e-02
 -6.9390506e-01
  1.0279422e+00
  1.8790649e-02
  3.6715657e-01
  3.1174362e-02
 -1.5479100e-02
  9.0389550e-02
 -9.7663738e-03
  6.4906627e-02
 -5.5692933e-02
  3.4261081e-01
 -1.8483715e-02
  5.5784177e-02
 -1.2988611e-01
 -3.5885300e-02
 -5.0430268e-02
  1.6314022e-01
  3.3781329e-01
 -7.4782497e-03
 -4.3362293e-01
 -2.2260292e-01
 -3.6681384e-02
  1.4292400e-01
 -3.0965824e-03
 -2.6212260e-02
  1.9826390e-02
  1.6157870e-01
  3.7966612e-01
  1.4941829e-02
 -7.0682918e-03
  1.2605898e-01
  1.7466677e-03
  4.1021612e-02
 -7.4720928e-03
 -3.6166373e-01
 -4.9543888e-03
 -6.9916189e-02
 -6.5827100e-03
  1.4985327e-02
  1.5908845e-02
  1.2121904e-02
 -6.2331418e-03
 -3.8185343e-02
  6.3847855e-02
 -5.4216053e-02
 -2.0520551e-02
  3.8727287e-02
  3.1086881e-02
  1.0370783e-02
  5.5349480e-02
 -2.0036273e-01
  4.1228734e-02
  2.4822289e-03
  3.5776764e-02
 -2.7633209e-02
 -1.9642854e-02
  1.1619887e-02
 -1.2500006e-02
 -6.9336505e-03
  1.4058476e-02
  8.6102992e-02
 -7.6325111e-02
  4.7441456e-02
 -2.0469539e-02
 -1.3099306e-02
  1.5918240e-02
  2.8568521e-02
  2.2651685e-02
 -7.3626044e-04
 -5.5843398e-02
  6.2388159e-02
 -3.2183588e-03
  4.8417297e-01
  6.3025872e-03
 -3.2724228e-02
  1.5341639e-02
  3.7349083e-02
 -3.5263922e-02
  1.6021233e-02
  4.2860042e-02
  6.0449157e-02
  2.6064608e-02
 -4.1694172e-02
  2.2336096e-02
 -1.1289387e-01
  1.2214185e-01
  1.3555726e-01
  1.3196155e-01
  6.2350165e-02
 -5.2103166e-02
 -2.6660541e-02
 -3.3636396e-03
  1.6585669e-03
 -6.6511109e-03
 -2.8363600e-02
  3.0324047e-02
  1.7262507e-02
  4.8213221e-02
 -1.6681732e-01
 -3.3547776e-03
  5.5166405e-02
  8.8897832e-02
 -3.4321100e-02
  7.9040788e-02
 -6.9444417e-03
  2.5753845e-03
  5.4953016e-02
  7.6904194e-03
 -6.3822148e-03
  1.6359959e-02
  9.6529233e-01
  2.3267619e-01
  8.0876416e-03
  2.0649822e-02
  2.7657289e-03
 -1.1865190e-02
 -1.6184086e-02
  1.6504847e-02
  1.0870584e-02
  6.2965557e-02
 -2.4522781e-02
 -1.3586241e-02
 -7.6167315e-02
  1.2304344e-02
 -7.6225549e-02
  1.5571872e-02
  3.7975196e-02
  3.2542166e-03
  3.1683408e-03
  1.1195254e-02
 -5.6113571e-02
  1.4159365e-02
 -1.5490714e-02
 -7.9180792e-02
  2.6310708e-02
 -7.1466472e-03
  7.9832770e-02
 -5.2158330e-02
  1.0562267e-02
 -4.2236406e-02
  3.7348762e-03
  2.2877902e-02
  1.2257509e-01
  1.3064180e-01
  6.0844455e-02
 -5.4262090e-02
 -4.1965018e-03
 -1.1864651e-02
 -6.3882828e-02
  1.6002938e-02
  4.8586696e-02
  2.5164548e-02
  4.9535692e-02
 -2.5450515e-02
  5.8072735e-02
 -8.6789774e-03
 -1.4453098e-02
  7.8096879e-01
 -4.0996391e-03
 -1.1385223e-01
 -6.3754539e-03
  1.4690065e-04
 -8.0421738e-02
 -7.4687576e-01
  2.3473306e-03
 -9.7781345e-03
 -1.1461292e-02
  2.1577828e-02
  1.3634098e-01
  5.9935651e-03
 -1.5428783e-02
 -9.8524354e-03
 -2.5159953e-02
  2.4626471e-02
 -7.1161129e-02
  4.5187292e-03
 -2.4136970e-02
 -1.0851053e-01
  4.5788813e-02
 -5.3456207e-03
 -2.4666938e-01
  1.0363724e-01
  7.4509360e-02
 -4.3137345e-02
 -1.5817629e-01
  3.8493533e-02
 -6.0970145e-03
  2.6711263e-02
 -2.3740272e-01
 -1.0489948e-02
  1.2062815e-02
 -1.0882232e-02
 -1.5875854e-02
 -2.5819698e-03
  3.3713914e-02
  4.7689751e-03
  2.9981574e-02
  1.1549140e-01
 -4.3957564e-03
 -6.4016276e-05
 -5.7951182e-01
  6.9548778e-02
 -5.6932555e-03
 -5.5531971e-02
 -1.4663378e-02
  3.5469253e-02
  3.1893021e-01
  3.9137998e-03
  1.9783713e-02
  3.8247567e-03
 -2.4161083e-01
  1.4734325e-02
  1.8507275e-01
  7.2631858e-02
 -3.5920915e-01
  6.6538745e-01
 -2.8014695e-02
  4.4193217e-01
  9.0418644e-02
  2.5268215e-01
  1.0465493e-01
 -5.8027633e-02
 -4.0973845e-01
  1.9406623e-01
  2.7346244e-01
 -1.7427304e-01
  1.8802133e+00
  5.2014552e-02
 -8.9555413e-02
 -8.3025862e-03
 -4.3017021e-01
 -3.4674102e-01
 -1.4686451e+00
  5.3879708e-02
 -1.2594973e-02
 -1.3257788e-01
  3.8776791e-01
  1.1888293e-01
 -5.3532231e-03
  2.7423868e-02
  6.7036180e-04
  1.1322018e-02
 -2.0233450e-02
 -3.9752349e-02
  2.6432764e-02
  5.6592142e-03
 -2.1207487e-02
  1.6760841e-02
  7.9630069e-02
  1.9317531e-03
  1.6412547e-02
  3.3424519e-02
 -3.5301135e-03
  2.0119635e-02
  7.0821871e-03
  3.7655838e-02
  2.5074463e-03
  3.3341211e-03
 -9.1452807e-02
 -5.1757726e-03
  4.1849293e-02
  1.6338591e-02
  2.1327496e-02
  1.3486129e-02
 -2.1967569e-02
  5.8226638e-02
 -1.6279913e-02
  3.1847343e-02
  2.9432686e-02
 -5.4359995e-03
  7.7124983e-02
 -1.4123140e-03
  2.9206008e-02
  1.4992748e-02
 -3.3733543e-02
 -1.8599302e-02
 -8.7945182e-03
  1.4823914e-02
  1.1270980e-01
  8.6282089e-02
  6.7532510e-03
  4.2482471e-04
 -1.1029338e-02
  8.2953796e-03
  1.3754318e-02
  2.6340496e-03
 -9.2526181e-03
 -1.5275669e-02
 -1.4371345e-02
 -3.0571073e-02
 -4.9269311e-02
  1.3595121e-01
  5.0884556e-02
  9.0347873e-03
  2.4652524e-02
 -3.2866731e-02
 -4.6294443e-02
  1.7005533e-02
  3.0750442e-02
  9.7615700e-03
  7.6322906e-02
 -2.2017187e-02
  3.0405540e-02
  8.9042194e-02
 -1.9487947e-02
 -5.6152090e-02
  7.2639845e-02
  1.2328728e-01
  5.2780103e-02
  6.3611411e-02
 -4.7815952e-02
 -3.4523785e-02
  5.0902776e-03
 -3.8047861e-02
 -8.1176618e-03
 -2.2065828e-02
  4.4314604e-02
 -1.6428576e-01
 -4.2413443e-02
 -3.5333041e-02
  9.7514004e-02
 -1.7781120e-02
 -1.0178018e-02
 -4.8875764e-02
  3.3090197e-02
 -1.0266984e-02
 -5.2092675e-02
  3.3032615e-02
  7.6470919e-02
  4.6708103e-02
 -5.7801794e-02
 -4.1572217e-02
 -1.4815981e-02
  1.0241865e-01
 -1.5091142e-02
  9.6161693e-02
 -1.5652537e-02
  2.6771316e-01
 -8.5524090e-02
  4.4670352e-03
  6.7957789e-02
 -5.8909737e-02
 -3.4949794e-02
  1.1998804e-02
 -3.7466913e-02
 -3.3036878e-03
 -2.2445027e-02
 -3.1118509e-01
  5.5500761e-02
 -2.6335651e-01
 -5.1687419e-04
 -5.1876761e-02
  9.6739882e-01
  5.1097609e-03
 -1.3683537e-01
  3.4002535e-02
 -3.9429627e-02
 -2.8369682e-02
 -9.1323024e-03
 -6.0930415e-03
  6.5649929e-03
 -1.1486155e-02
 -2.0047281e-02
 -4.1893989e-02
  2.0443670e-02
 -1.8894480e-03
  5.8225584e-03
 -8.8910766e-02
  4.6581954e-02
  5.5186059e-02
  7.0727791e-04
  3.0294236e-02
  1.0400610e-01
 -2.2835372e-02
  3.8895361e-02
 -8.6313993e-02
 -8.6091748e-03
  1.2458777e-01
  2.5798354e-02
  1.4716022e-02
 -1.5520046e-02
 -1.2334080e-03
 -5.7029142e-03
 -3.2927830e-02
  2.4804380e-02
 -6.9823689e-03
  1.8844675e-01
 -1.3787644e-01
 -1.2109125e-02
  5.4293096e-02
 -9.5645506e-03
  3.9101392e-02
  8.0648955e-04
 -1.2101585e-01
 -1.3144212e-02
 -1.6508069e-02
 -6.4793848e-02
  7.2287872e-02
 -5.0558239e-02
 -2.5334807e-02
 -1.5613368e-02
 -5.0053064e-02
 -2.6859140e-02
  2.9097000e-02
  8.4704608e-03
 -3.0073946e-02
  1.2792098e-02
  1.4174979e-03
 -2.3050437e-02
 -8.4901983e-03
 -5.4614052e-02
  1.2715509e-02
 -3.4119260e-02
  7.5585674e-03
  1.6747145e-01
 -7.3635682e-02
  4.3295426e-03
 -4.2594679e-02
  4.9064182e-02
  4.2270413e-03
 -3.3970688e-02
  2.4812216e-02
 -5.5619746e-02
  1.0280054e-01
 -4.9144143e-01
  2.3132933e-02
  6.7147715e-03
 -1.4817966e+00
  5.8473425e-04
 -3.2520279e-02
  4.3265812e-02
  4.9932670e-02
 -1.3184155e-02
 -2.8503152e-02
  2.1827696e-02
 -1.0026842e-01
 -1.6986439e-02
 -6.3317724e-02
 -1.8304989e-03
  4.8074547e-02
 -3.7262306e-02
 -3.8853873e-02
 -6.0651618e-01
  1.5466334e-01
  3.8012017e-02
 -1.3243174e-03
 -2.9081801e-02
 -1.7717039e-02
  8.9845158e-02
  2.3880128e-03
 -2.7869563e-03
 -3.1136438e-01
 -3.2325119e-02
 -3.6923349e-02
 -6.6208914e-02
 -8.4798366e-01
 -1.6619749e-01
 -1.1752392e-01
 -1.6337474e-01
 -3.8884260e-02
 -1.8834181e-01
 -3.7944153e-01
  4.2188191e-01
  1.0275305e-02
 -2.8720301e-01
 -6.0088259e-01
 -1.7071185e+00
 -5.5872190e-01
 -4.8781293e-03
  2.2611338e-01
  4.6693683e-01
 -1.8414904e+00
  1.7353203e+00
  2.4241311e-02
 -9.1926664e-02
  7.3838139e-01
  2.2931784e-02
 -4.6063745e-01
 -2.7229641e-02
  4.0908825e-02
 -9.8740412e-03
 -7.4792303e-02
  6.7965433e-02
 -4.6308994e-02
 -3.3121046e-02
 -3.6767989e-02
  3.2789201e-02
  2.3611689e-02
  3.9682366e-02
  8.9966301e-03
 -4.6298340e-01
  1.0155089e-03
  4.9143277e-02
 -3.6193002e-02
 -7.2531407e-03
 -3.1003442e-03
  1.3454491e-02
 -8.2520306e-02
 -3.8110008e-03
 -1.9392019e-02
  6.1978921e-02
  5.4608390e-02
  3.8401548e-02
  3.8656854e-04
  4.1222986e-02
 -2.3160471e-02
 -2.4888542e-01
  5.4252995e-03
  5.5472259e-03
 -1.2594633e-02
 -1.3077166e-02
 -8.7994020e-03
  4.8798773e-02
 -3.0824570e-02
 -5.0111387e-02
 -2.4982793e-02
  1.1571404e-02
  7.6406817e-03
 -3.3764087e-02
  3.5839494e-02
  5.7044994e-02
 -1.4752084e-01
 -2.4029711e-02
  3.7078686e-02
 -1.6448360e-02
 -1.3960096e-02
 -3.6482360e-02
  2.3650739e-03
  3.1504773e-02
 -2.4916688e-02
  4.0258644e-03
 -8.7410465e-02
  1.3404991e-01
 -6.7824408e-02
 -2.5219489e-02
  7.4465767e-02
 -1.7642365e-03
 -1.0028990e-01
  5.3595066e-02
 -7.5218170e-03
 -2.3322590e-02
  3.3507034e-02
  3.0086713e-02
  7.1061231e-02
  2.9445764e-02
  6.7325979e-02
 -9.5028043e-02
  1.0111838e-01
  4.0639836e-02
 -6.6765193e-03
  9.4352596e-02
 -2.2536336e-02
  3.8661923e-02
 -1.6562048e-02
 -6.3831925e-02
 -2.2209994e-02
  1.2425564e-01
 -4.5802318e-02
  7.0379088e-03
 -5.8746248e-02
 -2.0362591e-02
 -3.3786125e-02
  8.9875209e-01
 -4.3467269e-03
 -1.0098889e-02
 -7.5911512e-03
 -1.7632676e-02
 -1.3876876e-02
 -8.0366209e-03
  3.4905616e-02
  2.1815974e-01
  6.4551823e-02
 -7.5475678e-02
  4.5249192e-03
 -2.2999993e-02
 -1.0553008e-01
  2.9261091e-01
 -1.3253015e+00
  1.6425982e-02
  3.5032555e-01
 -8.0625504e-01
  2.8288373e-01
  4.5407310e-01
  1.6077608e-02
 -3.0976875e-02
  1.2571740e-01
 -1.2026131e+00
  1.2073212e+00
 -1.2178644e-02
  5.0717604e-01
  2.2429727e-02
  3.3244669e-01
  5.6145668e-01
  4.9101543e-02
  2.5262433e-01
  3.0045705e-02
 -3.7831414e-02
  6.3744098e-01
  3.3274565e-02
  1.1097803e-01
  2.0740665e-01
  1.1422929e+00
 -2.0309444e-01
 -1.1101954e+00
 -9.9751198e-01
  7.5286664e-03
 -8.6168939e-01
 -9.5206022e-01
 -5.7098955e-01
  4.7494113e-01
  3.2162380e-01
  3.6243945e-01
 -5.8438599e-01
 -6.1686248e-01
 -5.2093965e-01
 -2.2618720e-01
 -6.6414440e-01
 -2.9412425e-01
 -3.4741583e-01
  1.1027844e+00
  3.0168813e-01
  1.8698394e+00
  1.1658531e+00
  7.0441270e-01
 -7.8096636e-02
 -3.4348201e-02
 -5.1844633e-01
 -4.6044167e-02
 -5.3259237e-03
  1.0503358e-01
 -1.2403750e-01
 -3.0169192e-01
  2.8030041e-01
  2.2900957e-01
 -1.1393374e+00
 -1.5681000e+00
  7.7451609e-02
  3.1900051e-01
 -5.9907621e-01
 -2.9769254e-01
  5.1656610e-01
  1.5920720e+00
 -2.9164201e-01
  3.7657402e-02
 -7.4205536e-01
 -2.4541155e-01
 -2.3093028e-01
  1.4511740e+00
  2.4629240e-01
  1.5721434e+00
  5.9789121e-01
  6.8114865e-01
 -1.1570452e+00
 -8.2906693e-02
 -7.7609941e-02
  1.7693743e+00
  1.1441609e-01
  4.0943012e-01
  8.9042984e-02
  4.0546395e-02
  7.5311296e-02
  4.2517115e-03
 -1.5615022e-02
  1.4205050e-03
 -4.4301903e-01
  3.8742930e-02
  1.9061772e-02
 -4.2783970e-01
 -7.3492102e-02
  6.2907107e-02
 -6.0880207e-02
  7.1921694e-01
 -1.9891176e-01
  7.4507439e-01
 -4.7959742e-01
 -6.5220225e-01
 -1.5791197e-01
 -1.8792863e-01
 -1.6001476e-01
  4.0923294e-01
  1.1196950e-02
  3.0056572e-01
  1.7740899e-01
  5.9219450e-01
 -1.7417286e-02
  1.1542288e-03
  1.0760576e-01
 -7.9233491e-01
 -9.7409517e-02
  1.3661581e-02
 -1.9992675e-01
 -2.9301870e-01
  8.3108716e-02
 -1.6582456e-01
  6.6271573e-02
  3.2433309e-02
 -1.1406163e-01
 -3.9649630e-01
 -9.4834361e-03
 -6.1359745e-02
  2.1757264e-02
  5.5819053e-02
  6.2689513e-01
  5.4951590e-02
 -1.8413592e-02
 -1.6789826e+00
 -5.2528989e-01
  1.1500662e-01
  2.7544275e-02
  2.1677259e-01
  4.3618776e-02
  2.3558746e-01
  4.3562046e-01
 -6.2758112e-01
 -1.1054473e-02
  2.6738974e-01
 -5.5444460e-02
 -2.3548757e-01
 -1.9327279e-02
  3.1046091e-02
 -9.6327379e-02
  7.5080536e-02
 -4.9421504e-02
  5.6341171e-02
 -2.0747572e-02
 -4.8192155e-02
 -1.9319361e-02
 -1.4641262e-02
  4.5951739e-02
  2.2167366e-02
 -1.6758947e-04
 -4.6559390e-02
 -1.4573214e-02
  6.1293848e-02
  1.0090207e-02
 -1.3502440e-03
  3.8442221e-02
 -9.0223186e-02
  1.6342511e-02
  1.5201935e-02
 -4.9233917e-02
  2.8066033e-02
 -5.1469160e-03
 -3.9505471e-02
  7.0927683e-03
 -4.4527870e-02
  1.5463167e-02
  8.4576748e-02
 -1.5677661e-01
  3.5276558e-02
  3.3503760e-02
  1.9383801e-03
  2.5183313e-02
 -1.0181090e-02
 -3.9131232e-02
  7.3300667e-02
 -1.6641138e-03
 -5.0534591e-02
  4.3842137e-02
 -2.1250295e-02
 -6.9860634e-03
 -2.7942488e-02
 -6.2044278e-02
  5.0854706e-03
  3.9047467e-05
 -3.7849594e-02
  2.5227927e-03
  6.6787519e-02
 -2.5556495e-02
  5.4182284e-02
 -1.4376465e-02
  1.3792087e-01
  1.2153957e-02
 -2.4200080e-02
  8.7427115e-03
 -1.7814938e-02
  9.7240973e-03
 -1.2097464e-02
  7.9409061e-03
  6.8824396e-02
 -4.0930966e-01
  1.7320994e+00
 -1.5413871e-01
 -3.6575276e-02
 -1.3590682e+00
 -6.2404114e-01
 -5.8875028e-02
 -7.8137241e-02
  4.1716071e-03
 -2.7567381e-01
  8.0651796e-01
  1.6663727e-01
 -3.2745361e-02
  1.1595045e-02
 -4.0081177e-02
 -8.7892401e-01
  1.6335846e-01
  8.3409667e-01
 -4.0057018e-01
  3.2224250e-01
  1.2069834e+00
  1.3289617e-01
 -2.6003602e-01
 -8.5935378e-03
  2.1937963e-01
  2.7680907e-01
  9.2640772e-02
  4.8640397e-01
  1.8514958e-01
 -3.9874247e-01
  3.1744415e-01
 -8.3936714e-02
 -1.1162904e-01
 -7.2757013e-02
 -6.8612434e-02
  6.3653462e-02
  4.4850752e-02
  1.7825146e-01
 -4.3078335e-03
  4.5180697e-02
 -4.4991919e-01
  5.9473520e-04
  2.1867964e-01
  4.0014508e-01
 -6.0316551e-02
 -4.6673021e-01
 -1.1627118e-02
  5.2702147e-01
  7.6561943e-03
  4.7372925e-01
 -2.4868485e-02
 -3.3953512e-01
  1.9894105e-01
  1.3661963e-01
  5.2050412e-01
  8.0605812e-02
  8.2043055e-03
  6.9034624e-01
  5.3195124e-03
  2.1795182e-02
 -1.1870275e-01
  4.7298712e-03
 -3.7815593e-02
 -9.4533423e-03
  5.7344317e-02
  1.2946040e-02
  2.1125618e-02
  9.6493550e-03
  5.3502815e-03
  7.1045175e-02
 -2.8344749e-02
  2.4978926e-02
  4.3265052e-02
  1.4044606e-02
  9.4472682e-03
 -3.9023556e-02
  1.7362742e-02
  1.1803571e-01
  4.0061705e-02
 -4.3931443e-02
 -3.7477374e-02
 -4.6819784e-02
 -1.1140321e-01
 -3.1337649e-02
  8.1069693e-03
 -2.4345901e-02
  6.5787211e-02
 -1.7351879e-02
  4.1634319e-03
  4.0946759e-02
  9.8906448e-03
 -1.6390808e-02
  2.4014527e-02
  3.8671553e-02
 -2.1388348e-02
  3.2501996e-02
 -2.4286607e-02
 -6.3303462e-03
  4.4692028e-02
  1.1618305e-02
  6.4370096e-02
  1.4586736e-02
  2.4804540e-03
  1.3090632e-02
 -4.6921317e-02
  4.7994234e-02
 -2.0765899e-02
  1.7274560e-01
 -2.1930085e-02
  1.9239120e-02
 -1.3503566e-02
 -5.9346729e-03
 -9.4638887e-04
 -1.0552859e-03
 -3.6895923e-02
 -3.8825233e-02
  6.9368351e-03
 -6.8054451e-03
  1.9379173e-03
  4.3461107e-02
 -6.4039238e-02
  9.4288588e-03
 -3.6195834e-04
  1.8653796e-03
  1.0974525e-02
 -1.7177509e-02
 -3.9484482e-02
 -4.5991547e-02
  3.2942297e-03
  5.9542187e-02
 -2.5189597e-02
 -1.1626464e-02
  3.3419590e-02
  1.6704389e-01
  1.7281400e-01
  1.8485464e-02
  8.0555270e-04
  1.3020363e-01
 -1.6934852e-01
 -4.0395197e-02
  3.7840579e-04
 -4.3240484e-02
  2.2013847e-02
 -4.0475726e-02
 -3.0543622e-02
  4.4687912e-02
 -2.2041257e-02
  3.1844378e-02
  3.4647144e-02
  1.5521449e-03
 -3.8548464e-01
  1.0579872e-02
  6.6293101e-03
  8.5729581e-01
  3.2738361e-03
 -3.7101753e-02
  9.1588134e-01
 -7.7153105e-01
 -4.7167748e-01
  3.9656186e-01
 -6.3128728e-01
 -8.1753775e-02
  1.1013175e+00
 -3.3179286e-01
  5.8534306e-02
  3.1512785e-01
  1.8700945e-01
 -7.4791908e-01
  4.0872232e-04
 -1.3472724e-02
 -7.5373316e-01
 -6.1834818e-03
 -6.6592783e-02
 -5.3857362e-01
 -6.1892059e-02
  1.7196344e-01
  9.1249064e-02
  4.4138795e-01
 -7.3462133e-03
 -3.7835240e-02
  2.0316754e-02
  9.8243589e-04
 -8.0695748e-02
  2.8335531e-03
 -7.5471854e-01
  7.5340497e-01
 -2.4281282e-02
 -6.8784535e-02
  7.1303584e-03
  4.0705241e-03
 -1.3206229e-02
  2.1762270e-02
  1.9466342e-01
 -1.0510783e-03
 -9.0970965e-03
 -6.3960124e-03
 -4.1718525e-03
 -1.2112210e-02
  8.0583524e-03
 -5.9956627e-04
 -1.0049334e+00
 -3.3094767e-02
 -9.2062518e-02
 -3.5555083e-02
  2.6327685e-01
  2.1096370e-03
 -8.8061038e-03
  1.9372605e-02
  4.3189847e-01
 -8.8970095e-02
  3.0819628e-01
  4.5674730e-02
 -2.4962105e-02
 -1.2598712e-02
  5.4989882e-02
  2.1868180e-02
 -1.3093652e-01
  1.1403658e+00
  1.1154344e+00
  2.7686711e-03
  1.0639664e-01
  5.4088461e-01
 -4.9973982e-03
  1.7328607e-02
 -5.0566840e-01
 -3.6804296e-02
 -2.7747664e-01
 -2.5680931e-03
 -9.8697478e-03
 -9.5711965e-03
 -1.5574759e-01
  1.1124621e-02
  4.7727507e-02
 -1.2608562e-02
 -4.0705931e-01
 -6.8291444e-01
 -2.5108498e-01
  3.1512126e-03
 -9.7450197e-02
  7.6940799e-01
 -5.9961756e-03
  2.5525168e-02
 -2.2887571e-02
 -1.4461921e-01
 -3.7196837e-02
 -1.0879118e-02
 -7.5491995e-02
  5.6472156e-02
  1.6427014e-02
 -4.7145703e-01
  1.1009131e-02
  2.0640877e-01
 -1.3433040e-02
 -3.1365419e-03
 -1.5657593e-02
  3.9621103e-03
  9.0448409e-02
  4.2571232e-02
  4.4432554e-02
  2.7660391e-01
 -1.3127659e-01
  1.6678005e-02
  6.3986853e-02
 -5.0781574e-02
 -2.1954284e-03
  5.1118195e-01
 -3.6236197e-01
  5.5207018e-02
 -2.1590671e-02
  5.0232954e-02
 -9.9188322e-01
 -2.5936344e-01
 -1.3087639e-01
 -1.2906037e-03
  1.0591093e-02
  1.1702750e-03
 -4.7730166e-02
  4.8142718e-03
  6.9308810e-02
 -8.2674181e-01
 -9.8227682e-03
  7.8673882e-04
  2.8866503e-02
  1.8439652e-01
  2.8112808e-02
 -1.3893219e-02
  1.1598106e-02
  1.6497601e+00
 -2.0669898e-02
 -1.1630978e-02
 -3.3813894e-02
  2.0684443e-04
  2.3756526e-02
  8.9898445e-03
 -4.7237146e-01
  6.4182922e-02
 -6.3537136e-02
  6.2224197e-01
  1.3017289e-01
  7.1637526e-02
 -1.8792404e-02
 -9.8571464e-02
  4.0987507e-02
  2.6095766e-03
  2.5327337e-01
  1.4292306e-02
  1.7042780e-02
 -4.6596874e-02
  9.7428169e-03
  9.6494826e-03
  5.2795876e-02
 -1.0483330e-01
 -8.1866719e-03
 -1.4749722e+00
  6.8327934e-02
 -1.4938137e-02
  1.2738573e-02
 -6.1897564e-01
  6.6819566e-01
 -1.0935918e+00
  1.0662147e+00
 -7.3577845e-01
 -1.8308492e-02
  9.6067330e-03
 -4.4954073e-01
  2.5951165e-01
  4.4658914e-02
 -4.7764361e-02
 -2.1362225e-02
 -9.5289620e-03
  2.4448368e-01
  1.2570800e+00
  1.5234628e-02
 -4.2714807e-01
 -2.5113396e-02
  6.8881325e-02
  3.6073208e-02
  7.2599971e-03
  4.4987530e-01
 -4.4075828e-02
 -1.2597786e-02
  9.2817742e-01
  2.0932331e+00
 -1.6289426e-02
 -4.1731823e-02
 -5.6724496e-02
  3.3614174e-01
  5.3921156e-03
  4.1064677e-01
 -2.4235940e-02
  1.8947830e+00
 -2.4663369e-01
 -1.1288084e-02
  5.3640794e-02
  4.4715050e-01
 -1.6193399e-02
 -1.0654164e-02
 -1.3882558e-01
 -1.9369329e+00
 -9.4957687e-03
 -4.6300370e-01
  1.8636642e-02
 -5.9961867e-02
  8.0707896e-04
  3.4254566e-02
 -1.4535637e-02
  2.0840463e-01
  2.8518240e+00
 -2.5022497e+00
  4.9875841e-02
 -2.8287349e+00
 -3.8266499e-02
 -1.1387599e+00
 -4.1858396e-03
  1.9085599e+00
  2.7006198e-02
  1.2942817e-02
  1.1658998e-01
  2.5787015e-02
  4.4566565e-03
 -1.3834700e-02
  1.1775102e-01
  5.4833792e-02
 -1.9194569e-01
  2.1321142e+00
  1.6547643e+00
  1.5562867e+00
 -1.7240350e-01
 -7.8341258e-01
 -2.1218548e+00
  6.9365337e-02
 -5.8506101e-01
  1.4092719e-02
  5.9876390e-02
 -5.1012468e-01
  1.3486747e-01
  1.4850688e-01
 -1.9714801e-02
 -3.0420649e-01
 -1.0515423e+00
  2.2038233e-01
 -1.1561325e+00
  5.9562591e-03
 -4.2899331e-01
 -2.5678944e-02
 -4.2542640e-02
 -2.2989163e+00
 -1.4442281e-01
 -4.4702943e-02
 -1.1598831e+00
  4.1627008e-02
  3.0009402e-02
  8.9561415e-01
  1.4765424e-01
  2.9914661e-03
  2.3729627e+00
  1.8460935e-01
  3.9593604e-01
  1.9581695e-01
 -2.9398414e-01
  9.8112561e-03
 -4.1089520e-02
 -6.2093548e-02
 -9.7081829e-03
 -2.7694767e-02
  1.8081039e-02
 -8.1747636e-02
  6.9670208e-02
  2.0353827e-03
 -1.6137960e+00
 -1.0362350e-01
 -6.2174229e-03
 -9.1287144e-02
 -2.4431195e+00
  5.5846304e-02
  6.3614300e-03
 -1.5195062e+00
  1.4224230e+00
 -3.3971989e-01
  1.5186872e-01
 -3.0093477e-03
  2.6967136e-02
 -1.0676980e-01
  1.0989451e-01
 -3.4143114e-01
 -9.7165052e-03
 -1.1117788e-01
 -1.1031806e-01
 -1.1067911e+00
  3.9294422e-02
  1.5076815e-02
 -1.3014726e-01
  2.9735118e-02
 -1.5344038e-02
 -6.6657656e-01
 -1.3670424e+00
 -5.2958269e-02
 -4.6337973e-02
  3.9437339e-01
 -3.1769028e-01
 -3.8354173e-02
  7.7891522e-03
  1.4676507e-01
  1.1568638e+00
  3.6886059e-02
  2.5418727e-02
 -5.5739682e-02
  1.5667043e+00
  3.1912577e+00
  3.0847764e+00
  1.7463737e+00
 -9.5573312e-01
 -6.3553751e-02
 -1.5222555e-01
  2.2851267e+00
  1.1120734e+00
  1.1445810e-02
 -3.8599023e-03
 -3.2022659e-02
 -2.2059748e+00
  4.1383737e-01
  7.3557746e-01
  7.2800100e-02
  5.2835274e-01
 -6.5902144e-01
 -5.9446603e-01
 -5.7892583e-02
  1.1874849e-01
  2.6963356e+00
  2.9655430e-01
 -8.6700666e-01
 -4.5984858e-01
  3.0553471e-02
 -1.5127993e-01
 -2.5011601e-02
 -5.5426642e-02
 -3.7392271e-01
  1.0863598e-01
 -8.0755615e-01
 -4.6154868e-02
  1.7178534e+00
 -8.5832793e-01
 -1.3304867e+00
  2.9918024e-01
  7.1564340e-03
 -1.5731876e+00
 -8.5176641e-01
 -8.0282080e-01
 -1.0612721e-01
 -2.6707035e-01
 -3.4077689e-01
  2.0492540e-01
 -1.3035977e+00
 -5.0863785e-01
 -8.3852947e-01
 -5.6732684e-01
  3.4073129e-02
  7.2859246e-01
  8.1471634e-01
  3.3878094e-01
 -4.5521277e-01
 -2.1814714e-01
 -4.5140567e-01
 -7.8980440e-01
  1.7521216e-01
 -2.0137854e-01
 -7.5448966e-01
 -1.4935519e+00
 -1.9143380e-01
 -1.4912933e-01
  7.3741280e-02
 -5.2289051e-01
 -3.3983544e-01
  7.5278229e-01
 -9.2798120e-01
 -1.0419292e-01
  4.1113749e-01
  2.1512987e-01
 -1.8115020e-01
 -9.2089534e-01
 -2.6733992e-01
 -9.5149636e-01
 -5.2568364e-01
  1.5851966e+00
  1.0658655e+00
  1.2328097e+00
 -9.8353356e-01
 -1.2374701e+00
 -1.3905175e-01
 -1.2311206e+00
 -5.1968014e-01
 -4.1718018e-01
 -5.9830351e+00
 -3.1818613e-01
 -1.2551689e+00
  1.0488911e+00
 -2.5623820e+00
  3.6225680e-01
  5.4370270e+00
 -6.8665224e-01
 -3.9567220e+00
  2.5272381e+00
 -5.3019357e-01
 -3.9867764e+00
  4.1473699e+00
  3.6845252e-01
 -2.7483897e+00
 -1.3071890e-01
  1.3270693e+00
 -2.4651298e-01
 -3.1053488e+00
 -3.8181928e-01
 -1.9315161e+00
 -9.9421197e-01
 -4.7549598e-02
 -1.0358593e+00
 -2.3438346e+00
 -3.1235391e-01
 -1.5035667e+00
 -1.6323663e+00
 -8.8814586e-01
 -1.5733761e+00
 -1.0524141e+00
 -7.5371468e-01
 -2.2950101e+00
  7.9946196e-01
 -1.0843626e+00
  4.8775917e-01
 -7.4548441e-01
 -1.0637441e+00
 -8.3573025e-01
  1.5358368e+00
 -2.7977664e+00
 -9.6202588e-01
  2.8439636e+00
 -3.0133536e+00
  9.8131794e-01
 -7.5988817e-01
 -5.8631527e-01
 -5.7011408e-01
  1.1452783e+00
 -7.5731289e-01
 -8.3546299e-01
 -2.2202379e-01
  2.1227429e+00
  1.9067397e+00
 -2.4480309e+00
  2.6888020e+00
  5.0682287e+00
 -1.5851997e+00
 -3.2849755e+00
  6.9100624e-03
  6.9100624e-03
  6.9100624e-03
  6.9100624e-03
  6.9100624e-03
  1.5637692e-02
  1.5637692e-02
  1.5637692e-02
  1.5637692e-02
  1.5637692e-02
  8.1809573e-03
  8.1809573e-03
  8.1809573e-03
  8.1809573e-03
  8.1809573e-03
  8.9031169e-03
  8.9031169e-03
  8.9031169e-03
  8.9031169e-03
  8.9031169e-03
  9.3191564e-03
  9.3191564e-03
  9.3191564e-03
  9.3191564e-03
  9.3191564e-03
  2.6061893e-03
  2.6061893e-03
  2.6061893e-03
  2.6061893e-03
  2.6061893e-03
